SVM-light Version V6.02
0 # kernel type
3 # kernel parameter -d 
1 # kernel parameter -g 
1 # kernel parameter -s 
1 # kernel parameter -r 
empty# kernel parameter -u 
4 # highest feature index 
16298 # number of training documents 
8128 # number of support vectors plus 1 
-0.42166619 # threshold b, each following line is a SV (starting with alpha*y)
0.00067040977596895484722644420472193 1:0.20011576 2:0.71428573 3:3 4:20 #
0.00067040977596895484722644420472193 1:-2.2031384 2:0.63636363 3:9 4:21 #
-0.00067040977596895484722644420472193 1:4.3903441 2:0.90909094 3:1 4:24 #
0.00067040977596895484722644420472193 1:-0.90589124 2:0.59183675 3:49 4:0 #
0.00067040977596895484722644420472193 1:2.1880922 2:0.69999999 3:10 4:0 #
-0.00067040977596895484722644420472193 1:-1.3575585 2:0.63157892 3:11 4:17 #
-0.00067040977596895484722644420472193 1:-1.5548322 2:0.59920633 3:11 4:19 #
-0.00067040977596895484722644420472193 1:0.25725564 2:0.69999999 3:10 4:0 #
-0.00067040977596895484722644420472193 1:-2.5563343 2:0.53513515 3:4 4:18 #
-0.00067040977596895484722644420472193 1:0.92449415 2:0.76795578 3:5 4:136 #
-0.00067040977596895484722644420472193 1:-1.0084167 2:0.54237288 3:1 4:7 #
0.00067040977596895484722644420472193 1:-2.4058473 2:0.47916666 3:48 4:0 #
0.00067040977596895484722644420472193 1:-0.70817256 2:0.79069769 3:7 4:87 #
0.00067040977596895484722644420472193 1:2.3264894 2:0.62162161 3:15 4:46 #
0.00067040977596895484722644420472193 1:-1.1863136 2:0.8888889 3:2 4:40 #
-0.00067040977596895484722644420472193 1:-3.3711708 2:0.82352942 3:1 4:131 #
0.00067040977596895484722644420472193 1:-3.5976048 2:0.82608694 3:9 4:97 #
0.00067040977596895484722644420472193 1:1.4059253 2:0.45652175 3:46 4:0 #
0.00067040977596895484722644420472193 1:-1.5305953 2:0.60000002 3:10 4:0 #
0.00067040977596895484722644420472193 1:0.98444295 2:0.76190478 3:8 4:31 #
-0.00067040977596895484722644420472193 1:2.4310818 2:0.50993377 3:1 4:11 #
-0.00067040977596895484722644420472193 1:1.1679971 2:0.56695157 3:1 4:11 #
0.00067040977596895484722644420472193 1:0.36762592 2:0.5 3:46 4:0 #
-0.00067040977596895484722644420472193 1:-0.29914781 2:0.68292683 3:2 4:7 #
0.00067040977596895484722644420472193 1:0.36762592 2:0.5 3:46 4:0 #
-0.00067040977596895484722644420472193 1:-1.8949653 2:0.54081631 3:1 4:11 #
-0.00067040977596895484722644420472193 1:-1.9605699 2:0.72727275 3:11 4:0 #
0.00067040977596895484722644420472193 1:0.51725197 2:0.5777778 3:45 4:0 #
0.00067040977596895484722644420472193 1:1.1273886 2:0.60000002 3:6 4:15 #
-0.00067040977596895484722644420472193 1:3.9821386 2:0.53465348 3:1 4:14 #
-0.00067040977596895484722644420472193 1:0.35923344 2:0.59714288 3:42 4:132 #
0.00067040977596895484722644420472193 1:-4.6227665 2:0.60869563 3:23 4:0 #
-0.00067040977596895484722644420472193 1:1.1164548 2:0.69999999 3:10 4:0 #
-0.00067040977596895484722644420472193 1:1.1596528 2:0.78125 3:1 4:11 #
0.00067040977596895484722644420472193 1:-1.3229162 2:0.42857143 3:40 4:20 #
-0.00067040977596895484722644420472193 1:-2.1218696 2:0.64184397 3:26 4:130 #
0.00067040977596895484722644420472193 1:1.8403702 2:0.82608694 3:11 4:32 #
-0.00067040977596895484722644420472193 1:-3.0396295 2:0.81967211 3:1 4:114 #
0.00067040977596895484722644420472193 1:1.3783466 2:0.59090906 3:44 4:0 #
0.00067040977596895484722644420472193 1:0.6138531 2:0.71875 3:7 4:38 #
0.00067040977596895484722644420472193 1:-0.15760463 2:0.80000001 3:8 4:92 #
-0.00067040977596895484722644420472193 1:3.7565174 2:0.54585153 3:1 4:13 #
0.00067040977596895484722644420472193 1:0.89343566 2:0.77272725 3:6 4:32 #
0.00067040977596895484722644420472193 1:-2.6790595 2:0.86486489 3:4 4:83 #
-0.00067040977596895484722644420472193 1:-1.061323 2:0.72727275 3:11 4:0 #
-0.00067040977596895484722644420472193 1:-1.9350365 2:0.53218883 3:8 4:22 #
0.00067040977596895484722644420472193 1:-1.0286684 2:0.52380955 3:42 4:0 #
-0.00067040977596895484722644420472193 1:2.2893355 2:0.52380955 3:21 4:0 #
0.00067040977596895484722644420472193 1:-0.70800763 2:0.69565219 3:22 4:63 #
-0.00067040977596895484722644420472193 1:-1.2417883 2:0.75454545 3:2 4:118 #
0.00067040977596895484722644420472193 1:2.8108394 2:0.375 3:40 4:0 #
0.00067040977596895484722644420472193 1:-0.93274432 2:0.88095236 3:7 4:89 #
0.00067040977596895484722644420472193 1:-0.23413132 2:0.65625 3:10 4:45 #
-0.00067040977596895484722644420472193 1:0.96117926 2:0.51117319 3:1 4:11 #
-0.00067040977596895484722644420472193 1:-1.7835017 2:0.53177965 3:16 4:123 #
0.00067040977596895484722644420472193 1:-0.0055322764 2:0.72222221 3:5 4:27 #
-0.00067040977596895484722644420472193 1:-0.68221694 2:0.53846157 3:13 4:0 #
0.00067040977596895484722644420472193 1:0.22714019 2:0.79166669 3:6 4:43 #
-0.00067040977596895484722644420472193 1:-1.0746027 2:0.58823532 3:17 4:0 #
0.00067040977596895484722644420472193 1:-0.91970742 2:0.80000001 3:3 4:34 #
-0.00067040977596895484722644420472193 1:-0.090529241 2:0.7609756 3:2 4:105 #
-0.00067040977596895484722644420472193 1:1.9952652 2:0.59090906 3:22 4:0 #
0.00067040977596895484722644420472193 1:0.13320316 2:0.63157892 3:5 4:24 #
-0.00067040977596895484722644420472193 1:2.7509224 2:0.6680851 3:1 4:89 #
0.00067040977596895484722644420472193 1:-2.1580834 2:0.72916669 3:26 4:51 #
-0.00067040977596895484722644420472193 1:0.77837604 2:0.45833334 3:1 4:11 #
0.00067040977596895484722644420472193 1:0.48947406 2:0.61904764 3:3 4:33 #
-0.00067040977596895484722644420472193 1:1.0210873 2:0.89361703 3:1 4:98 #
0.00067040977596895484722644420472193 1:-1.4652694 2:0.71111113 3:25 4:49 #
-0.00067040977596895484722644420472193 1:0.28109306 2:0.53846157 3:26 4:17 #
0.00067040977596895484722644420472193 1:1.0431105 2:0.69230771 3:9 4:39 #
-0.00067040977596895484722644420472193 1:-1.7061238 2:0.64242423 3:18 4:114 #
-0.00067040977596895484722644420472193 1:0.1684704 2:0.47619048 3:21 4:0 #
-0.00067040977596895484722644420472193 1:-1.6831727 2:0.6857143 3:2 4:63 #
-0.00067040977596895484722644420472193 1:2.6283715 2:0.7638889 3:17 4:103 #
0.00067040977596895484722644420472193 1:-4.6332889 2:0.75999999 3:5 4:51 #
-0.00067040977596895484722644420472193 1:-2.9041214 2:0.53180659 3:4 4:14 #
-0.00067040977596895484722644420472193 1:-0.70026022 2:0.64885497 3:1 4:100 #
-0.00067040977596895484722644420472193 1:-2.9752638 2:0.56465518 3:2 4:10 #
-0.00067040977596895484722644420472193 1:-1.2204753 2:0.52760738 3:14 4:19 #
0.00067040977596895484722644420472193 1:-2.7954688 2:0.79166669 3:2 4:45 #
0.00067040977596895484722644420472193 1:-3.0550349 2:0.82608694 3:3 4:45 #
-0.00067040977596895484722644420472193 1:2.3939278 2:0.58352941 3:1 4:88 #
0.00067040977596895484722644420472193 1:1.4807482 2:0.64444447 3:26 4:49 #
0.00067040977596895484722644420472193 1:1.4329388 2:0.70588237 3:7 4:27 #
0.00067040977596895484722644420472193 1:-1.2717175 2:0.60975611 3:19 4:46 #
0.00067040977596895484722644420472193 1:-2.2396569 2:0.73809522 3:12 4:73 #
-0.00067040977596895484722644420472193 1:-0.85560596 2:0.53846157 3:21 4:21 #
0.00067040977596895484722644420472193 1:0.031132713 2:0.71428573 3:1 4:21 #
0.00067040977596895484722644420472193 1:-2.0308778 2:0.94736844 3:1 4:45 #
0.00067040977596895484722644420472193 1:-0.17342229 2:0.68421054 3:4 4:32 #
0.00067040977596895484722644420472193 1:0.23978747 2:0.63043481 3:3 4:24 #
-0.00067040977596895484722644420472193 1:-1.9429415 2:0.61417323 3:2 4:96 #
0.00067040977596895484722644420472193 1:1.8717141 2:0.69999999 3:20 4:47 #
-0.00067040977596895484722644420472193 1:0.89976406 2:0.54166669 3:24 4:0 #
-0.00067040977596895484722644420472193 1:-1.1209569 2:0.49543378 3:4 4:97 #
0.00067040977596895484722644420472193 1:0.6308189 2:0.7241379 3:7 4:42 #
0.00067040977596895484722644420472193 1:-2.2041004 2:0.65714288 3:16 4:46 #
-0.00067040977596895484722644420472193 1:0.25050136 2:0.54588234 3:2 4:95 #
0.00067040977596895484722644420472193 1:-0.4123131 2:0.80952382 3:1 4:38 #
0.00067040977596895484722644420472193 1:-1.6408632 2:0.6511628 3:18 4:47 #
-0.00067040977596895484722644420472193 1:-2.8567469 2:0.59695816 3:1 4:89 #
-0.00067040977596895484722644420472193 1:-1.8511628 2:0.49147728 3:4 4:96 #
-0.00067040977596895484722644420472193 1:2.75317 2:0.79166669 3:3 4:84 #
0.00067040977596895484722644420472193 1:0.047887985 2:0.58333331 3:24 4:53 #
-0.00067040977596895484722644420472193 1:-0.7870059 2:0.74657536 3:21 4:22 #
0.00067040977596895484722644420472193 1:-0.94931579 2:0.73170733 3:20 4:50 #
-0.00067040977596895484722644420472193 1:-3.7629616 2:0.59340662 3:2 4:21 #
-0.00067040977596895484722644420472193 1:1.8928119 2:0.33333334 3:27 4:0 #
-0.00067040977596895484722644420472193 1:-1.062445 2:0.47244096 3:3 4:10 #
-0.00067040977596895484722644420472193 1:1.9152609 2:0.50116009 3:9 4:95 #
0.00067040977596895484722644420472193 1:-0.59928495 2:0.77777779 3:1 4:45 #
0.00067040977596895484722644420472193 1:2.429069 2:0.77083331 3:22 4:49 #
-0.00067040977596895484722644420472193 1:-1.0956787 2:0.56839621 3:25 4:102 #
0.00067040977596895484722644420472193 1:-0.003708103 2:0.66666669 3:4 4:31 #
0.00067040977596895484722644420472193 1:-0.6374293 2:0.91666669 3:1 4:27 #
0.00067040977596895484722644420472193 1:-1.116668 2:0.73333335 3:13 4:45 #
-0.00067040977596895484722644420472193 1:-0.25805095 2:0.50515461 3:1 4:11 #
0.00067040977596895484722644420472193 1:-2.2334242 2:0.74193549 3:9 4:45 #
-0.00067040977596895484722644420472193 1:-0.31292486 2:0.55056179 3:1 4:11 #
-0.00067040977596895484722644420472193 1:2.4451058 2:0.5139665 3:1 4:12 #
-0.00067040977596895484722644420472193 1:2.3158677 2:0.57798165 3:1 4:12 #
-0.00067040977596895484722644420472193 1:1.2850871 2:0.5625 3:32 4:0 #
0.00067040977596895484722644420472193 1:0.5033493 2:0.58536583 3:18 4:48 #
0.00067040977596895484722644420472193 1:0.63918465 2:0.75999999 3:8 4:34 #
0.00067040977596895484722644420472193 1:-0.72140175 2:0.46153846 3:5 4:7 #
0.00067040977596895484722644420472193 1:0.75326341 2:0.69767439 3:12 4:75 #
0.00067040977596895484722644420472193 1:-0.99966031 2:0.86363637 3:2 4:40 #
-0.00067040977596895484722644420472193 1:-3.2340226 2:0.78378379 3:2 4:85 #
0.00067040977596895484722644420472193 1:1.0127239 2:0.63157892 3:4 4:26 #
-0.00067040977596895484722644420472193 1:3.6532235 2:0.54482758 3:1 4:14 #
-0.00067040977596895484722644420472193 1:-1.612311 2:0.55038762 3:7 4:16 #
0.00067040977596895484722644420472193 1:-4.4903331 2:0.8214286 3:2 4:55 #
0.00067040977596895484722644420472193 1:-0.99280155 2:0.67741936 3:13 4:45 #
-0.00067040977596895484722644420472193 1:4.7218418 2:0.51937985 3:49 4:29 #
0.00067040977596895484722644420472193 1:-4.1566706 2:0.84848487 3:3 4:70 #
0.00067040977596895484722644420472193 1:2.1322281 2:0.75609756 3:19 4:48 #
-0.00067040977596895484722644420472193 1:-1.2852811 2:0.54014599 3:18 4:20 #
0.00067040977596895484722644420472193 1:0.68980318 2:0.74358976 3:19 4:50 #
-0.00067040977596895484722644420472193 1:-0.61796272 2:0.54945058 3:18 4:92 #
0.00067040977596895484722644420472193 1:-3.0137584 2:0.5 3:38 4:0 #
0.00067040977596895484722644420472193 1:-1.3551757 2:0.83333331 3:1 4:37 #
-0.00067040977596895484722644420472193 1:-1.6320601 2:0.8888889 3:1 4:82 #
-0.00067040977596895484722644420472193 1:-0.55660683 2:0.57999998 3:13 4:15 #
0.00067040977596895484722644420472193 1:-3.8715756 2:0.42857143 3:21 4:0 #
-0.00067040977596895484722644420472193 1:1.7538786 2:0.60869563 3:1 4:12 #
-0.00067040977596895484722644420472193 1:1.9532377 2:0.40684411 3:1 4:12 #
-0.00067040977596895484722644420472193 1:4.112133 2:0.8214286 3:1 4:49 #
0.00067040977596895484722644420472193 1:-5.2265444 2:0.55555558 3:18 4:26 #
-0.00067040977596895484722644420472193 1:1.1399368 2:0.5106383 3:1 4:25 #
0.00067040977596895484722644420472193 1:-0.43317407 2:0.70588237 3:2 4:24 #
-0.00067040977596895484722644420472193 1:-3.7659738 2:0.56680161 3:1 4:13 #
0.00067040977596895484722644420472193 1:1.0615405 2:0.54054052 3:37 4:0 #
-0.00067040977596895484722644420472193 1:-0.58447486 2:0.4411135 3:1 4:12 #
-0.00067040977596895484722644420472193 1:-1.7411569 2:0.53043479 3:16 4:20 #
0.00067040977596895484722644420472193 1:-1.3023666 2:0.40425533 3:40 4:18 #
0.00067040977596895484722644420472193 1:-0.2435874 2:0.73333335 3:5 4:20 #
0.00067040977596895484722644420472193 1:-0.73155242 2:0.54166669 3:38 4:26 #
0.00067040977596895484722644420472193 1:1.5332085 2:0.78947371 3:9 4:20 #
-0.00067040977596895484722644420472193 1:2.8009095 2:0.58918917 3:1 4:14 #
-0.00067040977596895484722644420472193 1:0.49891946 2:0.61002785 3:1 4:78 #
-0.00067040977596895484722644420472193 1:0.032791331 2:0.50308645 3:1 4:12 #
-0.00067040977596895484722644420472193 1:1.1254764 2:0.70161289 3:1 4:47 #
-0.00067040977596895484722644420472193 1:0.38548133 2:0.77142859 3:17 4:91 #
0.00067040977596895484722644420472193 1:-2.6165841 2:0.69999999 3:1 4:11 #
-0.00067040977596895484722644420472193 1:-2.5557075 2:0.61818182 3:12 4:19 #
-0.00067040977596895484722644420472193 1:0.10811435 2:0.6280992 3:1 4:46 #
-0.00067040977596895484722644420472193 1:-3.3931904 2:0.78571427 3:4 4:46 #
-0.00067040977596895484722644420472193 1:2.5621798 2:0.71276593 3:1 4:46 #
0.00067040977596895484722644420472193 1:0.85301536 2:0.75 3:9 4:38 #
-0.00067040977596895484722644420472193 1:0.40085948 2:0.46948355 3:1 4:12 #
0.00067040977596895484722644420472193 1:-1.7976004 2:0.62790698 3:20 4:61 #
-0.00067040977596895484722644420472193 1:-2.1579828 2:0.80952382 3:2 4:79 #
0.00067040977596895484722644420472193 1:1.2598388 2:0.70588237 3:7 4:21 #
-0.00067040977596895484722644420472193 1:-0.72667962 2:0.74647886 3:1 4:13 #
0.00067040977596895484722644420472193 1:-0.37591177 2:0.4375 3:37 4:33 #
0.00067040977596895484722644420472193 1:1.5504317 2:0.69565219 3:10 4:27 #
0.00067040977596895484722644420472193 1:-0.17489359 2:0.58139533 3:37 4:16 #
-0.00067040977596895484722644420472193 1:-0.84326327 2:0.49717513 3:12 4:18 #
-0.00067040977596895484722644420472193 1:-0.38103113 2:0.58333331 3:2 4:11 #
-0.00067040977596895484722644420472193 1:3.8783884 2:0.6875 3:1 4:18 #
0.00067040977596895484722644420472193 1:-2.8414962 2:0.5 3:37 4:23 #
-0.00067040977596895484722644420472193 1:0.49891946 2:0.59352517 3:1 4:73 #
-0.00067040977596895484722644420472193 1:-3.2047026 2:0.50505048 3:5 4:19 #
0.00067040977596895484722644420472193 1:-1.080846 2:0.77777779 3:8 4:75 #
-0.00067040977596895484722644420472193 1:-1.6870518 2:0.63909775 3:4 4:79 #
-0.00067040977596895484722644420472193 1:1.4714346 2:0.58690745 3:1 4:73 #
0.00067040977596895484722644420472193 1:-0.7205227 2:0.55102038 3:37 4:19 #
-0.00067040977596895484722644420472193 1:0.67602581 2:0.65546221 3:1 4:13 #
0.00067040977596895484722644420472193 1:-2.0171807 2:0.60416669 3:36 4:32 #
0.00067040977596895484722644420472193 1:-0.14567243 2:0.84615386 3:6 4:77 #
-0.00067040977596895484722644420472193 1:-2.2739594 2:0.65420562 3:21 4:88 #
0.00067040977596895484722644420472193 1:1.6492863 2:0.5777778 3:36 4:17 #
-0.00067040977596895484722644420472193 1:-2.9434409 2:0.55870444 3:3 4:25 #
-0.00067040977596895484722644420472193 1:3.3517871 2:1 3:1 4:24 #
-0.00067040977596895484722644420472193 1:1.4451569 2:0.57575756 3:33 4:0 #
0.00067040977596895484722644420472193 1:-0.93797106 2:0.81632656 3:6 4:77 #
-0.00067040977596895484722644420472193 1:1.3535297 2:0.5 3:11 4:85 #
0.00067040977596895484722644420472193 1:-1.8784417 2:0.5106383 3:32 4:40 #
0.00067040977596895484722644420472193 1:-0.85372329 2:0.92307693 3:2 4:77 #
0.00067040977596895484722644420472193 1:1.3735772 2:0.53333336 3:37 4:20 #
0.00067040977596895484722644420472193 1:-1.0055748 2:1 3:1 4:42 #
-0.00067040977596895484722644420472193 1:2.9071627 2:0.65600002 3:1 4:22 #
0.00067040977596895484722644420472193 1:-1.5429977 2:0.61702126 3:22 4:56 #
-0.00067040977596895484722644420472193 1:-1.4326594 2:0.68055558 3:24 4:85 #
0.00067040977596895484722644420472193 1:-0.52645075 2:0.5 3:34 4:19 #
-0.00067040977596895484722644420472193 1:-2.3702114 2:0.89999998 3:1 4:22 #
-0.00067040977596895484722644420472193 1:2.9287863 2:0.53160918 3:1 4:22 #
0.00067040977596895484722644420472193 1:-0.72415912 2:0.91666669 3:5 4:77 #
-0.00067040977596895484722644420472193 1:0.463525 2:0.75641024 3:1 4:72 #
0.00067040977596895484722644420472193 1:-1.4294983 2:0.5106383 3:36 4:24 #
-0.00067040977596895484722644420472193 1:3.3334591 2:0.67808217 3:3 4:22 #
0.00067040977596895484722644420472193 1:-0.025297174 2:0.75 3:2 4:35 #
0.00067040977596895484722644420472193 1:-0.17670906 2:0.85714287 3:2 4:38 #
-0.00067040977596895484722644420472193 1:1.0076131 2:0.71140939 3:11 4:82 #
-0.00067040977596895484722644420472193 1:-0.13877873 2:0.64530891 3:8 4:82 #
-0.00067040977596895484722644420472193 1:1.5284868 2:0.56161135 3:1 4:22 #
-0.00067040977596895484722644420472193 1:-0.083927169 2:0.51709402 3:24 4:16 #
0.00067040977596895484722644420472193 1:-2.3412564 2:0.36585367 3:33 4:19 #
0.00067040977596895484722644420472193 1:-1.0007927 2:0.66666669 3:2 4:11 #
-0.00067040977596895484722644420472193 1:0.18165891 2:0.81818181 3:1 4:22 #
-0.00067040977596895484722644420472193 1:-1.8800721 2:0.51707315 3:14 4:16 #
-0.00067040977596895484722644420472193 1:0.81004429 2:0.54434252 3:12 4:82 #
0.00067040977596895484722644420472193 1:0.70500553 2:0.83333331 3:4 4:21 #
-0.00067040977596895484722644420472193 1:1.5804927 2:0.54337901 3:1 4:22 #
0.00067040977596895484722644420472193 1:-0.2108397 2:0.54347825 3:35 4:20 #
-0.00067040977596895484722644420472193 1:0.35514814 2:0.52215189 3:26 4:25 #
0.00067040977596895484722644420472193 1:1.3422343 2:0.66666669 3:8 4:35 #
-0.00067040977596895484722644420472193 1:-0.8986395 2:0.83333331 3:1 4:22 #
0.00067040977596895484722644420472193 1:-1.1524127 2:0.76744187 3:2 4:75 #
-0.00067040977596895484722644420472193 1:2.3494802 2:1 3:1 4:25 #
-0.00067040977596895484722644420472193 1:-1.5420738 2:1 3:1 4:27 #
0.00067040977596895484722644420472193 1:-0.039892707 2:0.55319148 3:35 4:33 #
0.00067040977596895484722644420472193 1:-1.3324741 2:0.64285713 3:1 4:11 #
-0.00067040977596895484722644420472193 1:0.023890808 2:0.57368422 3:26 4:78 #
-0.00067040977596895484722644420472193 1:-1.8334408 2:0.54929578 3:4 4:79 #
0.00067040977596895484722644420472193 1:-0.79240757 2:0.47727272 3:35 4:24 #
-0.00067040977596895484722644420472193 1:-4.1663251 2:0.76190478 3:1 4:22 #
0.00067040977596895484722644420472193 1:0.77097791 2:0.8125 3:10 4:70 #
-0.00067040977596895484722644420472193 1:-1.6822785 2:0.67213112 3:18 4:81 #
0.00067040977596895484722644420472193 1:-3.3143187 2:0.73170733 3:12 4:66 #
-0.00067040977596895484722644420472193 1:3.5213618 2:0.8125 3:1 4:24 #
-0.00067040977596895484722644420472193 1:0.97663093 2:0.59813082 3:31 4:19 #
0.00067040977596895484722644420472193 1:-3.7127273 2:0.72222221 3:1 4:13 #
-0.00067040977596895484722644420472193 1:-4.2357364 2:0.56382978 3:1 4:22 #
0.00067040977596895484722644420472193 1:-0.10657961 2:0.875 3:1 4:34 #
0.00067040977596895484722644420472193 1:-0.05530015 2:0.82608694 3:1 4:42 #
0.00067040977596895484722644420472193 1:0.57791656 2:0.8125 3:4 4:25 #
-0.00067040977596895484722644420472193 1:1.4196718 2:0.55529952 3:1 4:22 #
0.00067040977596895484722644420472193 1:-2.1775615 2:0.84848487 3:5 4:73 #
0.00067040977596895484722644420472193 1:-0.073344804 2:0.80769229 3:4 4:41 #
-0.00067040977596895484722644420472193 1:1.3692826 2:0.5657143 3:1 4:22 #
0.00067040977596895484722644420472193 1:0.55010563 2:0.7647059 3:3 4:29 #
-0.00067040977596895484722644420472193 1:1.2601674 2:0.63265306 3:2 4:74 #
0.00067040977596895484722644420472193 1:-0.91515398 2:0.86956519 3:1 4:44 #
-0.00067040977596895484722644420472193 1:-1.6904219 2:0.59677422 3:1 4:22 #
0.00067040977596895484722644420472193 1:0.078120068 2:0.63414633 3:18 4:61 #
-0.00067040977596895484722644420472193 1:-0.40617406 2:0.63636363 3:2 4:74 #
-0.00067040977596895484722644420472193 1:-3.4462268 2:0.62962961 3:6 4:25 #
0.00067040977596895484722644420472193 1:0.14315017 2:0.72222221 3:1 4:12 #
-0.00067040977596895484722644420472193 1:1.4051191 2:0.55462188 3:2 4:22 #
-0.00067040977596895484722644420472193 1:0.54538536 2:0.64488637 3:2 4:73 #
0.00067040977596895484722644420472193 1:1.0999237 2:0.58823532 3:3 4:12 #
-0.00067040977596895484722644420472193 1:0.27721781 2:0.59109312 3:2 4:22 #
-0.00067040977596895484722644420472193 1:3.3703275 2:0.6712963 3:10 4:25 #
-0.00067040977596895484722644420472193 1:-2.6913538 2:0.61157024 3:3 4:73 #
0.00067040977596895484722644420472193 1:0.91210598 2:0.72222221 3:6 4:25 #
-0.00067040977596895484722644420472193 1:1.22281 2:0.52525252 3:1 4:22 #
0.00067040977596895484722644420472193 1:-1.504346 2:0.79487181 3:5 4:72 #
-0.00067040977596895484722644420472193 1:-1.2330763 2:0.63896847 3:2 4:72 #
0.00067040977596895484722644420472193 1:-2.4385185 2:0.5106383 3:33 4:35 #
0.00067040977596895484722644420472193 1:-1.0636691 2:0.94444442 3:2 4:41 #
0.00067040977596895484722644420472193 1:0.45878202 2:0.68421054 3:6 4:28 #
0.00067040977596895484722644420472193 1:0.031194396 2:0.75 3:4 4:33 #
-0.00067040977596895484722644420472193 1:1.0050014 2:0.73228347 3:4 4:72 #
0.00067040977596895484722644420472193 1:1.3922888 2:0.72222221 3:8 4:23 #
0.00067040977596895484722644420472193 1:-0.7351976 2:0.6875 3:1 4:37 #
-0.00067040977596895484722644420472193 1:1.088174 2:0.57419354 3:1 4:22 #
0.00067040977596895484722644420472193 1:0.32552868 2:0.73913044 3:11 4:68 #
0.00067040977596895484722644420472193 1:-1.2840487 2:0.59523809 3:33 4:19 #
-0.00067040977596895484722644420472193 1:-0.77607977 2:0.84210527 3:1 4:71 #
-0.00067040977596895484722644420472193 1:0.85301536 2:0.58396947 3:1 4:22 #
-0.00067040977596895484722644420472193 1:1.5004647 2:0.86486489 3:1 4:65 #
0.00067040977596895484722644420472193 1:-4.1648116 2:0.61904764 3:30 4:23 #
-0.00067040977596895484722644420472193 1:-0.44000095 2:0.55428571 3:22 4:19 #
-0.00067040977596895484722644420472193 1:-3.3801522 2:0.54113925 3:1 4:22 #
0.00067040977596895484722644420472193 1:1.34356 2:0.59090906 3:8 4:22 #
0.00026660371921228485621660486692974 1:1.1312964 2:0.6785714 3:7 4:42 #
-0.00067040977596895484722644420472193 1:-2.361244 2:0.60092807 3:2 4:37 #
-0.00067040977596895484722644420472193 1:-0.78220761 2:0.53220338 3:3 4:71 #
0.00067040977596895484722644420472193 1:-3.4837937 2:0.69230771 3:1 4:13 #
0.00067040977596895484722644420472193 1:-0.79406923 2:0.75999999 3:2 4:42 #
-0.00067040977596895484722644420472193 1:1.3642921 2:0.60139859 3:7 4:68 #
-0.00067040977596895484722644420472193 1:0.79413295 2:0.52289158 3:33 4:35 #
0.00067040977596895484722644420472193 1:-1.7886317 2:0.60526317 3:1 4:15 #
-0.00067040977596895484722644420472193 1:-2.9840767 2:0.50680274 3:1 4:22 #
-0.00067040977596895484722644420472193 1:-2.8195379 2:0.6169154 3:10 4:30 #
-0.00067040977596895484722644420472193 1:1.0583926 2:0.51851851 3:1 4:22 #
0.00067040977596895484722644420472193 1:-0.96808136 2:0.78048778 3:5 4:72 #
-0.00067040977596895484722644420472193 1:-0.033598181 2:0.86956519 3:1 4:43 #
0.00067040977596895484722644420472193 1:0.61885631 2:0.80000001 3:7 4:31 #
-0.00067040977596895484722644420472193 1:0.11225391 2:0.8125 3:1 4:43 #
0.00067040977596895484722644420472193 1:-2.7824621 2:0.69047618 3:2 4:13 #
-0.00067040977596895484722644420472193 1:0.063134685 2:0.59954232 3:1 4:22 #
0.00067040977596895484722644420472193 1:-2.9504528 2:0.69047618 3:21 4:55 #
-0.00067040977596895484722644420472193 1:-1.5650337 2:0.657754 3:1 4:43 #
0.00067040977596895484722644420472193 1:0.48091707 2:0.8125 3:5 4:26 #
0.00067040977596895484722644420472193 1:-0.42841226 2:0.77777779 3:2 4:38 #
-0.00067040977596895484722644420472193 1:0.91444814 2:0.53636366 3:1 4:22 #
0.00067040977596895484722644420472193 1:-2.0586629 2:0.77499998 3:5 4:71 #
-0.00067040977596895484722644420472193 1:-0.49154249 2:0.57268721 3:1 4:43 #
0.00067040977596895484722644420472193 1:0.37467602 2:0.80000001 3:4 4:25 #
-0.00067040977596895484722644420472193 1:1.4196718 2:0.94444442 3:1 4:42 #
0.00067040977596895484722644420472193 1:-1.7061238 2:0.51282054 3:2 4:13 #
-0.00067040977596895484722644420472193 1:-0.819924 2:0.59192824 3:2 4:22 #
0.00067040977596895484722644420472193 1:0.35134691 2:0.6875 3:7 4:26 #
-0.00067040977596895484722644420472193 1:3.252934 2:0.53448278 3:1 4:41 #
0.00067040977596895484722644420472193 1:-1.9442586 2:0.72000003 3:2 4:13 #
-0.00067040977596895484722644420472193 1:1.4098146 2:0.75 3:1 4:23 #
-0.00067040977596895484722644420472193 1:2.9072294 2:0.64912283 3:6 4:24 #
0.00067040977596895484722644420472193 1:-2.6159387 2:0.6875 3:5 4:70 #
-0.00067040977596895484722644420472193 1:-1.7395767 2:0.5090909 3:1 4:43 #
-0.00067040977596895484722644420472193 1:-4.1663251 2:0.66433567 3:1 4:42 #
0.00067040977596895484722644420472193 1:1.4355969 2:0.66666669 3:6 4:17 #
0.00067040977596895484722644420472193 1:1.706159 2:0.72222221 3:10 4:21 #
-0.00067040977596895484722644420472193 1:0.64088374 2:0.49806949 3:2 4:22 #
-0.00067040977596895484722644420472193 1:-0.013495282 2:0.80000001 3:1 4:42 #
0.00067040977596895484722644420472193 1:-1.7108641 2:0.64999998 3:2 4:13 #
-0.00067040977596895484722644420472193 1:2.1892319 2:0.51973683 3:1 4:41 #
0.00067040977596895484722644420472193 1:-3.5373328 2:0.86956519 3:1 4:16 #
0.00067040977596895484722644420472193 1:-0.93047518 2:0.89473683 3:1 4:43 #
-0.00067040977596895484722644420472193 1:0.3875525 2:0.48598132 3:2 4:22 #
-0.00067040977596895484722644420472193 1:-0.55136472 2:0.77777779 3:1 4:42 #
-0.00067040977596895484722644420472193 1:-0.61249352 2:0.74712646 3:2 4:42 #
0.00067040977596895484722644420472193 1:-0.79027134 2:0.65384614 3:2 4:13 #
0.00067040977596895484722644420472193 1:-0.28939271 2:0.65384614 3:1 4:13 #
0.00067040977596895484722644420472193 1:-0.82908124 2:0.875 3:1 4:36 #
-0.00067040977596895484722644420472193 1:0.34160674 2:0.42957747 3:1 4:22 #
-0.00067040977596895484722644420472193 1:1.8610311 2:0.67058825 3:1 4:41 #
0.00067040977596895484722644420472193 1:-0.32595393 2:0.66666669 3:1 4:13 #
0.00067040977596895484722644420472193 1:-3.3810022 2:0.76923078 3:5 4:69 #
-0.00067040977596895484722644420472193 1:-2.7048187 2:0.55813956 3:2 4:42 #
0.00067040977596895484722644420472193 1:-0.17723499 2:0.67441863 3:1 4:13 #
-0.00067040977596895484722644420472193 1:0.75182205 2:0.89473683 3:2 4:41 #
0.00067040977596895484722644420472193 1:-0.31060854 2:0.69999999 3:1 4:13 #
-0.00067040977596895484722644420472193 1:0.077086627 2:0.53526974 3:2 4:22 #
0.00067040977596895484722644420472193 1:0.076991618 2:0.72222221 3:1 4:23 #
-0.00067040977596895484722644420472193 1:-1.5655091 2:0.54258674 3:1 4:42 #
0.00067040977596895484722644420472193 1:-0.73940885 2:0.85714287 3:1 4:13 #
-0.00067040977596895484722644420472193 1:2.0591037 2:0.8888889 3:1 4:40 #
0.00067040977596895484722644420472193 1:-1.9258941 2:0.65217394 3:1 4:15 #
-0.00067040977596895484722644420472193 1:-0.32564023 2:0.56640625 3:1 4:22 #
0.00067040977596895484722644420472193 1:-1.3515182 2:0.875 3:1 4:34 #
-0.00067040977596895484722644420472193 1:-1.5989439 2:0.53448278 3:2 4:42 #
0.00067040977596895484722644420472193 1:-0.20992966 2:0.73913044 3:1 4:13 #
-0.00067040977596895484722644420472193 1:3.9274943 2:0.63999999 3:1 4:28 #
0.00067040977596895484722644420472193 1:-4.7917781 2:0.53191489 3:28 4:36 #
-0.00067040977596895484722644420472193 1:0.063134685 2:0.6238938 3:24 4:15 #
0.00067040977596895484722644420472193 1:0.092208549 2:0.89999998 3:1 4:22 #
-0.00067040977596895484722644420472193 1:1.8076608 2:0.56284153 3:12 4:27 #
0.00067040977596895484722644420472193 1:-1.1286672 2:0.60526317 3:1 4:16 #
-0.00067040977596895484722644420472193 1:0.17948826 2:0.51282054 3:2 4:22 #
-0.00067040977596895484722644420472193 1:-0.54514074 2:0.53048778 3:12 4:26 #
0.00067040977596895484722644420472193 1:-1.664098 2:0.62162161 3:23 4:34 #
0.00067040977596895484722644420472193 1:0.39433622 2:0.70833331 3:5 4:31 #
-0.00067040977596895484722644420472193 1:-0.8625142 2:0.53170735 3:21 4:15 #
-0.00067040977596895484722644420472193 1:2.7202303 2:0.55859375 3:8 4:24 #
-0.00067040977596895484722644420472193 1:3.0682952 2:0.55514705 3:10 4:25 #
-0.00067040977596895484722644420472193 1:-2.5268633 2:0.48754448 3:12 4:26 #
-0.00067040977596895484722644420472193 1:0.37366319 2:0.60158312 3:1 4:41 #
-0.00067040977596895484722644420472193 1:-4.1233459 2:0.71794873 3:3 4:27 #
0.00067040977596895484722644420472193 1:0.090636425 2:0.69230771 3:3 4:38 #
-0.00067040977596895484722644420472193 1:-0.58460981 2:0.47708896 3:1 4:22 #
0.00067040977596895484722644420472193 1:-2.2891343 2:0.76744187 3:12 4:66 #
0.00067040977596895484722644420472193 1:-1.362756 2:0.78947371 3:1 4:33 #
0.00067040977596895484722644420472193 1:-1.1113105 2:0.40000001 3:10 4:0 #
-0.00067040977596895484722644420472193 1:0.058854643 2:0.46075085 3:18 4:15 #
-0.00067040977596895484722644420472193 1:1.7387525 2:0.51282054 3:1 4:41 #
0.00067040977596895484722644420472193 1:-0.74327487 2:0.47222221 3:36 4:0 #
-0.00067040977596895484722644420472193 1:-2.3798425 2:0.51020408 3:8 4:27 #
0.00067040977596895484722644420472193 1:0.33148217 2:0.38235295 3:34 4:0 #
-0.00067040977596895484722644420472193 1:-1.2338285 2:0.57402599 3:1 4:22 #
0.00067040977596895484722644420472193 1:0.17523344 2:0.71794873 3:5 4:29 #
0.00067040977596895484722644420472193 1:-0.94028711 2:0.76595747 3:11 4:67 #
0.00067040977596895484722644420472193 1:-0.053351 2:0.5151515 3:33 4:0 #
-0.00067040977596895484722644420472193 1:-1.4400977 2:0.57868022 3:1 4:22 #
0.00067040977596895484722644420472193 1:1.7773972 2:0.53333336 3:16 4:31 #
-0.00067040977596895484722644420472193 1:-1.9019623 2:0.89999998 3:1 4:23 #
0.00067040977596895484722644420472193 1:-0.35310957 2:0.61702126 3:35 4:27 #
0.00067040977596895484722644420472193 1:0.91210598 2:0.70833331 3:5 4:18 #
0.00067040977596895484722644420472193 1:-1.5673469 2:0.61538464 3:1 4:15 #
0.00067040977596895484722644420472193 1:-1.148479 2:0.61363637 3:33 4:28 #
-0.00067040977596895484722644420472193 1:-3.7360194 2:0.58402205 3:1 4:23 #
0.00067040977596895484722644420472193 1:0.1694237 2:0.58333331 3:35 4:24 #
0.00067040977596895484722644420472193 1:-3.7127273 2:0.65217394 3:1 4:24 #
-0.00067040977596895484722644420472193 1:0.82316339 2:0.73913044 3:1 4:23 #
-0.00067040977596895484722644420472193 1:2.1405122 2:0.62400001 3:1 4:40 #
0.00067040977596895484722644420472193 1:-2.7514176 2:0.48387095 3:31 4:0 #
0.00067040977596895484722644420472193 1:0.89781642 2:0.68181819 3:8 4:24 #
-0.00067040977596895484722644420472193 1:0.78354347 2:0.51181102 3:21 4:19 #
-0.00067040977596895484722644420472193 1:0.71059024 2:0.48165137 3:21 4:17 #
0.00067040977596895484722644420472193 1:-0.2530165 2:0.54285717 3:25 4:31 #
0.00067040977596895484722644420472193 1:-1.7424082 2:0.60000002 3:1 4:31 #
-0.00067040977596895484722644420472193 1:0.38514984 2:0.59598213 3:1 4:41 #
0.00067040977596895484722644420472193 1:0.58000708 2:0.5151515 3:33 4:0 #
0.00067040977596895484722644420472193 1:-0.9239974 2:0.6111111 3:4 4:15 #
-0.00067040977596895484722644420472193 1:-2.548965 2:0.53909463 3:4 4:19 #
0.00067040977596895484722644420472193 1:-0.96216887 2:0.52631581 3:21 4:31 #
-0.00067040977596895484722644420472193 1:-1.4877082 2:0.5865922 3:1 4:41 #
0.00067040977596895484722644420472193 1:1.2477189 2:0.4375 3:32 4:0 #
0.00067040977596895484722644420472193 1:3.435046 2:0.40000001 3:15 4:0 #
-0.00067040977596895484722644420472193 1:-4.1348572 2:1 3:1 4:38 #
-0.00067040977596895484722644420472193 1:-4.2357364 2:0.74576271 3:1 4:39 #
0.00067040977596895484722644420472193 1:2.6028368 2:0.46875 3:32 4:0 #
-0.00067040977596895484722644420472193 1:-1.6043665 2:0.5367412 3:7 4:17 #
0.00067040977596895484722644420472193 1:-2.369452 2:0.61363637 3:22 4:31 #
-0.00067040977596895484722644420472193 1:1.5387744 2:0.6076923 3:1 4:23 #
0.00067040977596895484722644420472193 1:-3.9627132 2:0.69999999 3:5 4:31 #
-0.00067040977596895484722644420472193 1:2.6343048 2:0.92307693 3:1 4:27 #
-0.00067040977596895484722644420472193 1:-0.49400443 2:1 3:1 4:38 #
-0.00067040977596895484722644420472193 1:0.68597043 2:0.5147059 3:21 4:21 #
0.00067040977596895484722644420472193 1:0.51771414 2:0.61538464 3:24 4:31 #
-0.00067040977596895484722644420472193 1:0.014230338 2:0.53432834 3:1 4:41 #
0.00067040977596895484722644420472193 1:-1.4429291 2:0.54838711 3:31 4:0 #
0.00067040977596895484722644420472193 1:-3.9222383 2:0.55555558 3:18 4:0 #
-0.00067040977596895484722644420472193 1:3.9863141 2:0.54661018 3:1 4:37 #
0.00067040977596895484722644420472193 1:-2.8179414 2:0.58620691 3:12 4:31 #
-0.00067040977596895484722644420472193 1:-0.25640178 2:0.55000001 3:13 4:17 #
-0.00067040977596895484722644420472193 1:-1.0227391 2:0.52452832 3:1 4:22 #
-0.00067040977596895484722644420472193 1:0.25309831 2:0.73584908 3:1 4:40 #
0.00067040977596895484722644420472193 1:1.189651 2:0.29032257 3:31 4:0 #
0.00067040977596895484722644420472193 1:-0.37623546 2:0.5 3:30 4:0 #
0.00067040977596895484722644420472193 1:-2.4730537 2:0.56097561 3:27 4:30 #
0.00067040977596895484722644420472193 1:-1.2054693 2:0.52083331 3:31 4:29 #
0.00067040977596895484722644420472193 1:-0.24028297 2:0.84210527 3:1 4:35 #
-0.00067040977596895484722644420472193 1:1.6587735 2:0.46739131 3:34 4:9 #
0.00067040977596895484722644420472193 1:0.82316697 2:0.61363637 3:31 4:29 #
0.00067040977596895484722644420472193 1:-1.0262927 2:0.59183675 3:34 4:25 #
0.00067040977596895484722644420472193 1:-2.851819 2:0.60465115 3:33 4:26 #
-0.00067040977596895484722644420472193 1:-0.38246605 2:0.83333331 3:1 4:24 #
0.00067040977596895484722644420472193 1:0.64329046 2:0.64999998 3:6 4:26 #
0.00067040977596895484722644420472193 1:1.6074153 2:0.51219511 3:34 4:17 #
-0.00067040977596895484722644420472193 1:-1.1035861 2:0.51960784 3:1 4:22 #
0.00067040977596895484722644420472193 1:-0.92651558 2:0.5714286 3:32 4:26 #
0.00067040977596895484722644420472193 1:-1.4877082 2:0.47499999 3:25 4:30 #
0.00067040977596895484722644420472193 1:-1.8929721 2:0.69999999 3:2 4:31 #
-0.00067040977596895484722644420472193 1:-1.6755234 2:0.52185792 3:1 4:22 #
0.00067040977596895484722644420472193 1:-0.93726945 2:0.77777779 3:1 4:31 #
-0.00067040977596895484722644420472193 1:1.0585222 2:0.67647058 3:1 4:23 #
0.00067040977596895484722644420472193 1:1.4138963 2:0.5777778 3:31 4:26 #
0.00067040977596895484722644420472193 1:-3.2981083 2:0.86666667 3:1 4:30 #
0.00067040977596895484722644420472193 1:-1.1657089 2:0.54761904 3:34 4:21 #
0.00067040977596895484722644420472193 1:-0.10782351 2:0.67741936 3:1 4:31 #
-0.00067040977596895484722644420472193 1:0.045631185 2:0.78571427 3:1 4:23 #
0.00067040977596895484722644420472193 1:-0.58544564 2:0.5714286 3:28 4:29 #
0.00067040977596895484722644420472193 1:0.28263977 2:0.73913044 3:4 4:35 #
0.00067040977596895484722644420472193 1:-0.36981288 2:0.43589744 3:34 4:13 #
-0.00067040977596895484722644420472193 1:-2.0299814 2:0.52671754 3:1 4:22 #
0.00067040977596895484722644420472193 1:-1.0452104 2:0.66666669 3:26 4:30 #
-0.00067040977596895484722644420472193 1:1.0348952 2:0.83606559 3:1 4:24 #
0.00067040977596895484722644420472193 1:-1.1951865 2:0.48888889 3:34 4:20 #
-0.00067040977596895484722644420472193 1:-0.084275275 2:0.68965518 3:1 4:23 #
0.00067040977596895484722644420472193 1:0.45922947 2:0.625 3:30 4:26 #
-0.00067040977596895484722644420472193 1:1.751084 2:0.6769231 3:1 4:24 #
0.00067040977596895484722644420472193 1:-0.93933403 2:0.52380955 3:33 4:19 #
0.00067040977596895484722644420472193 1:0.88459343 2:0.46511629 3:27 4:28 #
-0.00067040977596895484722644420472193 1:-2.1963377 2:0.52662724 3:5 4:18 #
0.00067040977596895484722644420472193 1:0.60343045 2:0.60000002 3:21 4:31 #
-0.00067040977596895484722644420472193 1:-0.70201081 2:0.55752212 3:1 4:41 #
-0.00067040977596895484722644420472193 1:1.3144108 2:0.53435117 3:1 4:23 #
-0.00067040977596895484722644420472193 1:-2.191287 2:0.50602412 3:7 4:21 #
-0.00067040977596895484722644420472193 1:1.2831446 2:0.90909094 3:1 4:26 #
-0.00067040977596895484722644420472193 1:0.80106992 2:0.54176611 3:30 4:11 #
0.00067040977596895484722644420472193 1:-0.25805095 2:0.85714287 3:1 4:29 #
-0.00067040977596895484722644420472193 1:-2.3442433 2:0.51351351 3:1 4:22 #
-0.00067040977596895484722644420472193 1:-2.0191569 2:0.49115044 3:1 4:22 #
0.00067040977596895484722644420472193 1:0.31201789 2:0.75 3:4 4:45 #
-0.00067040977596895484722644420472193 1:0.45102772 2:0.9375 3:1 4:38 #
-0.00067040977596895484722644420472193 1:-1.0443178 2:0.54936707 3:13 4:21 #
-0.00067040977596895484722644420472193 1:-0.8081401 2:0.60714287 3:21 4:28 #
-0.00067040977596895484722644420472193 1:3.3439412 2:0.57077628 3:30 4:12 #
-0.00067040977596895484722644420472193 1:-0.26534715 2:0.5791139 3:17 4:24 #
-0.00067040977596895484722644420472193 1:-0.79953986 2:0.46226415 3:12 4:15 #
0.00067040977596895484722644420472193 1:1.912786 2:0.68181819 3:11 4:23 #
-0.00067040977596895484722644420472193 1:1.3144108 2:0.53435117 3:1 4:23 #
-0.00067040977596895484722644420472193 1:1.6662484 2:0.55613577 3:30 4:12 #
-0.00067040977596895484722644420472193 1:3.9642534 2:0.60273975 3:36 4:13 #
0.00067040977596895484722644420472193 1:1.4916047 2:0.61290324 3:31 4:0 #
-0.00067040977596895484722644420472193 1:0.64303625 2:0.64516127 3:1 4:13 #
0.00067040977596895484722644420472193 1:-0.15913197 2:0.82499999 3:5 4:71 #
0.00067040977596895484722644420472193 1:-3.5336087 2:0.63157892 3:19 4:0 #
0.00067040977596895484722644420472193 1:-2.6578989 2:0.55319148 3:31 4:36 #
0.00067040977596895484722644420472193 1:-1.0682167 2:0.66666669 3:1 4:14 #
0.00067040977596895484722644420472193 1:2.1428111 2:0.48387095 3:31 4:0 #
0.00067040977596895484722644420472193 1:0.36579394 2:0.75 3:4 4:28 #
0.00067040977596895484722644420472193 1:-0.72630006 2:0.93333334 3:1 4:38 #
0.00067040977596895484722644420472193 1:-3.3103144 2:0.55000001 3:20 4:0 #
0.00067040977596895484722644420472193 1:-4.6276894 2:0.53846157 3:4 4:18 #
0.00067040977596895484722644420472193 1:-1.3594142 2:0.46511629 3:34 4:14 #
0.00067040977596895484722644420472193 1:-1.3847607 2:0.42307693 3:26 4:0 #
0.00067040977596895484722644420472193 1:-0.55073321 2:0.68085104 3:21 4:55 #
0.00067040977596895484722644420472193 1:-1.1167308 2:0.60465115 3:32 4:33 #
-0.00067040977596895484722644420472193 1:-0.21099348 2:0.93103451 3:1 4:69 #
0.00067040977596895484722644420472193 1:-0.23048621 2:0.78571427 3:12 4:66 #
-0.00067040977596895484722644420472193 1:1.1659858 2:0.53678477 3:1 4:13 #
0.00067040977596895484722644420472193 1:-0.32357016 2:0.60000002 3:10 4:0 #
-0.00067040977596895484722644420472193 1:0.67641366 2:0.63 3:22 4:88 #
0.00067040977596895484722644420472193 1:-0.42671409 2:0.51724136 3:29 4:0 #
-0.00067040977596895484722644420472193 1:0.51673573 2:0.5 3:19 4:21 #
-0.00067040977596895484722644420472193 1:1.1336074 2:0.66666669 3:1 4:67 #
-0.00067040977596895484722644420472193 1:0.43562025 2:0.50488597 3:18 4:21 #
0.00067040977596895484722644420472193 1:-1.8812681 2:0.85714287 3:4 4:68 #
-0.00067040977596895484722644420472193 1:-0.65642184 2:0.671875 3:5 4:77 #
0.00067040977596895484722644420472193 1:0.30730927 2:0.75 3:3 4:32 #
0.00067040977596895484722644420472193 1:-2.0221474 2:0.54545456 3:11 4:0 #
-0.00067040977596895484722644420472193 1:-0.7635358 2:0.62048191 3:1 4:71 #
-0.00067040977596895484722644420472193 1:3.1027453 2:0.80000001 3:1 4:17 #
-0.00067040977596895484722644420472193 1:2.4487045 2:0.52895755 3:1 4:14 #
0.00067040977596895484722644420472193 1:-3.3768713 2:0.72727275 3:7 4:61 #
-0.00067040977596895484722644420472193 1:2.5432577 2:0.62424242 3:29 4:84 #
0.00067040977596895484722644420472193 1:-4.0051985 2:0.38709676 3:25 4:15 #
-0.00067040977596895484722644420472193 1:3.2158744 2:0.89999998 3:1 4:20 #
0.00067040977596895484722644420472193 1:1.6312339 2:0.69999999 3:10 4:0 #
-0.00067040977596895484722644420472193 1:-3.2731204 2:0.88571429 3:4 4:76 #
0.00067040977596895484722644420472193 1:2.8909502 2:0.66666669 3:30 4:0 #
-0.00067040977596895484722644420472193 1:-0.58632344 2:0.54450262 3:2 4:11 #
-0.00067040977596895484722644420472193 1:2.5046451 2:0.59933776 3:22 4:22 #
0.00067040977596895484722644420472193 1:0.64748371 2:0.7647059 3:5 4:30 #
0.00067040977596895484722644420472193 1:0.69798517 2:0.44444445 3:33 4:14 #
-0.00067040977596895484722644420472193 1:-2.6844907 2:0.55043858 3:1 4:19 #
-0.00067040977596895484722644420472193 1:0.48925275 2:0.63917524 3:1 4:13 #
0.00067040977596895484722644420472193 1:-1.2771891 2:0.56818181 3:29 4:40 #
0.00067040977596895484722644420472193 1:0.13496226 2:0.60000002 3:10 4:0 #
-0.00067040977596895484722644420472193 1:-1.1115541 2:0.56842107 3:2 4:11 #
0.00067040977596895484722644420472193 1:-0.090529241 2:0.71428573 3:29 4:40 #
-0.00067040977596895484722644420472193 1:0.48925275 2:0.60759491 3:29 4:88 #
-0.00067040977596895484722644420472193 1:-0.43202823 2:0.68000001 3:12 4:81 #
-0.00067040977596895484722644420472193 1:0.18490754 2:0.50526315 3:14 4:16 #
-0.00067040977596895484722644420472193 1:-1.5740328 2:0.50458717 3:3 4:75 #
-0.00067040977596895484722644420472193 1:3.1365829 2:0.93333334 3:1 4:28 #
0.00067040977596895484722644420472193 1:-1.7616519 2:0.42553192 3:31 4:19 #
-0.00067040977596895484722644420472193 1:0.074077196 2:0.60264903 3:1 4:69 #
0.00067040977596895484722644420472193 1:0.47081164 2:0.77777779 3:6 4:26 #
0.00067040977596895484722644420472193 1:1.8082149 2:0.52380955 3:31 4:22 #
0.00067040977596895484722644420472193 1:0.27325311 2:0.66666669 3:5 4:29 #
-0.00067040977596895484722644420472193 1:-0.86172503 2:0.48356807 3:17 4:24 #
-0.00067040977596895484722644420472193 1:3.3075597 2:0.73015875 3:7 4:14 #
-0.00067040977596895484722644420472193 1:-1.2177817 2:0.48754448 3:17 4:16 #
-0.00067040977596895484722644420472193 1:-3.0818987 2:0.62025315 3:2 4:11 #
-0.00067040977596895484722644420472193 1:-1.9420819 2:0.50112867 3:9 4:17 #
-0.00067040977596895484722644420472193 1:0.48925275 2:0.58057398 3:29 4:88 #
0.00067040977596895484722644420472193 1:-1.7023227 2:0.5714286 3:28 4:0 #
-0.00067040977596895484722644420472193 1:-0.56054592 2:0.46745563 3:8 4:9 #
-0.00067040977596895484722644420472193 1:0.33358493 2:0.54430377 3:28 4:17 #
-0.00067040977596895484722644420472193 1:3.5959966 2:0.58204335 3:1 4:48 #
0.00067040977596895484722644420472193 1:-2.4350562 2:0.41860464 3:31 4:16 #
-0.00067040977596895484722644420472193 1:-2.3133113 2:0.49107143 3:2 4:11 #
0.00067040977596895484722644420472193 1:0.79588521 2:0.78947371 3:8 4:26 #
0.00067040977596895484722644420472193 1:-2.0171807 2:0.75 3:11 4:65 #
-0.00067040977596895484722644420472193 1:-3.4995253 2:0.57499999 3:1 4:13 #
0.00067040977596895484722644420472193 1:-0.33358335 2:0.7631579 3:17 4:60 #
-0.00067040977596895484722644420472193 1:0.33748037 2:0.62857145 3:2 4:12 #
-0.00067040977596895484722644420472193 1:-1.2288356 2:0.64110428 3:27 4:85 #
0.00067040977596895484722644420472193 1:0.49293014 2:0.51724136 3:29 4:0 #
0.00067040977596895484722644420472193 1:-2.0811162 2:0.59183675 3:27 4:42 #
0.00067040977596895484722644420472193 1:-0.84619957 2:0.53571427 3:28 4:0 #
-0.00067040977596895484722644420472193 1:-0.63362008 2:0.53781515 3:12 4:80 #
-0.00067040977596895484722644420472193 1:-0.43503726 2:0.54838711 3:24 4:17 #
-0.00067040977596895484722644420472193 1:0.5840261 2:0.5535714 3:1 4:13 #
-0.00067040977596895484722644420472193 1:-1.0325967 2:0.63076925 3:1 4:13 #
0.00067040977596895484722644420472193 1:-0.090529241 2:0.71428573 3:29 4:40 #
-0.00067040977596895484722644420472193 1:-2.0158103 2:0.55882353 3:3 4:11 #
-0.00067040977596895484722644420472193 1:-0.032029893 2:0.52406418 3:1 4:13 #
-0.00067040977596895484722644420472193 1:0.51031774 2:0.59722221 3:33 4:84 #
0.00067040977596895484722644420472193 1:0.17655173 2:0.53571427 3:28 4:0 #
0.00067040977596895484722644420472193 1:0.24483192 2:0.80000001 3:2 4:32 #
0.00067040977596895484722644420472193 1:0.51024401 2:0.79411763 3:11 4:65 #
-0.00067040977596895484722644420472193 1:3.4039683 2:0.72727275 3:1 4:19 #
0.00067040977596895484722644420472193 1:-1.6623973 2:0.53333336 3:31 4:20 #
0.00067040977596895484722644420472193 1:0.18793167 2:0.38461539 3:13 4:0 #
0.00067040977596895484722644420472193 1:-0.17723499 2:0.61904764 3:1 4:14 #
-0.00067040977596895484722644420472193 1:1.2169204 2:0.80000001 3:1 4:17 #
-0.00067040977596895484722644420472193 1:0.30391535 2:0.92000002 3:1 4:55 #
0.00067040977596895484722644420472193 1:-2.5053647 2:0.51282054 3:30 4:17 #
0.00067040977596895484722644420472193 1:-0.52898455 2:0.77272725 3:3 4:38 #
-0.00067040977596895484722644420472193 1:0.59427363 2:0.43294117 3:26 4:20 #
-0.00067040977596895484722644420472193 1:-0.75569469 2:0.57399106 3:2 4:12 #
0.00067040977596895484722644420472193 1:-1.8391974 2:0.76190478 3:3 4:36 #
0.00067040977596895484722644420472193 1:-0.090529241 2:0.71428573 3:29 4:40 #
0.00067040977596895484722644420472193 1:-0.34863952 2:0.55555558 3:27 4:0 #
0.00067040977596895484722644420472193 1:0.15871418 2:0.71739131 3:17 4:59 #
-0.00067040977596895484722644420472193 1:1.5551879 2:0.5286783 3:1 4:14 #
0.00067040977596895484722644420472193 1:-0.61183697 2:0.73913044 3:10 4:65 #
0.00067040977596895484722644420472193 1:-0.25509509 2:0.55555558 3:27 4:0 #
-0.00067040977596895484722644420472193 1:1.8967955 2:0.54787236 3:2 4:13 #
-0.00067040977596895484722644420472193 1:2.9072294 2:0.48054919 3:5 4:12 #
0.00067040977596895484722644420472193 1:-0.39612851 2:0.79411763 3:3 4:68 #
0.00067040977596895484722644420472193 1:0.42391321 2:0.75 3:2 4:21 #
0.00067040977596895484722644420472193 1:3.7806354 2:0.5925926 3:27 4:0 #
-0.00067040977596895484722644420472193 1:0.84442961 2:0.53233832 3:23 4:7 #
0.00067040977596895484722644420472193 1:-1.1355859 2:0.89999998 3:2 4:67 #
-0.00067040977596895484722644420472193 1:-4.4847293 2:0.8918919 3:6 4:77 #
-0.00067040977596895484722644420472193 1:3.9821386 2:0.55102038 3:1 4:44 #
0.00067040977596895484722644420472193 1:-2.2106903 2:0.87878788 3:1 4:66 #
-0.00067040977596895484722644420472193 1:3.1365829 2:0.64041096 3:1 4:16 #
-0.00067040977596895484722644420472193 1:-0.67732596 2:0.56334841 3:19 4:80 #
0.00067040977596895484722644420472193 1:-2.5236192 2:0.75 3:3 4:64 #
0.00067040977596895484722644420472193 1:-1.1108726 2:0.52777779 3:30 4:15 #
0.00067040977596895484722644420472193 1:-1.9078144 2:0.54166669 3:24 4:0 #
-0.00067040977596895484722644420472193 1:-1.7044193 2:0.5304054 3:5 4:11 #
0.00067040977596895484722644420472193 1:-1.5574253 2:0.59090906 3:27 4:41 #
0.00067040977596895484722644420472193 1:-1.0193762 2:0.80555558 3:7 4:66 #
0.00067040977596895484722644420472193 1:0.39070144 2:0.65384614 3:26 4:0 #
-0.00067040977596895484722644420472193 1:1.7395449 2:0.71428573 3:1 4:15 #
-0.00067040977596895484722644420472193 1:2.154325 2:0.8888889 3:1 4:51 #
0.00067040977596895484722644420472193 1:-1.3951181 2:0.45945945 3:29 4:16 #
-0.00067040977596895484722644420472193 1:-0.56173533 2:0.55012852 3:1 4:13 #
-0.00067040977596895484722644420472193 1:0.7276988 2:0.56944442 3:26 4:18 #
-0.00067040977596895484722644420472193 1:-4.5103827 2:0.89999998 3:1 4:48 #
0.00067040977596895484722644420472193 1:0.54795575 2:0.56097561 3:31 4:20 #
-0.00067040977596895484722644420472193 1:-2.9357531 2:0.49462366 3:4 4:29 #
0.00067040977596895484722644420472193 1:-2.1030557 2:0.46666667 3:15 4:0 #
-0.00067040977596895484722644420472193 1:-0.9075529 2:0.4684096 3:10 4:9 #
0.00067040977596895484722644420472193 1:-1.1082512 2:0.56097561 3:30 4:25 #
0.00067040977596895484722644420472193 1:0.67839551 2:0.69999999 3:1 4:13 #
-0.00067040977596895484722644420472193 1:-2.4999783 2:0.64885497 3:5 4:75 #
0.00067040977596895484722644420472193 1:3.650641 2:0.62962961 3:27 4:0 #
0.00067040977596895484722644420472193 1:-1.4412764 2:0.43243244 3:27 4:25 #
-0.00067040977596895484722644420472193 1:-1.815375 2:0.46341464 3:16 4:22 #
-0.00067040977596895484722644420472193 1:-2.128036 2:0.53648067 3:6 4:26 #
0.00067040977596895484722644420472193 1:0.28428391 2:0.54347825 3:30 4:20 #
0.00067040977596895484722644420472193 1:-2.935214 2:0.80000001 3:1 4:26 #
-0.00067040977596895484722644420472193 1:-2.6578007 2:0.52334154 3:8 4:19 #
-0.00067040977596895484722644420472193 1:-1.3890519 2:0.5714286 3:15 4:15 #
-0.00067040977596895484722644420472193 1:-0.75764185 2:0.53684211 3:1 4:13 #
-0.00067040977596895484722644420472193 1:3.4354365 2:0.54545456 3:1 4:17 #
0.00067040977596895484722644420472193 1:-1.5873666 2:1 3:1 4:40 #
-0.00067040977596895484722644420472193 1:0.88412827 2:0.80952382 3:13 4:74 #
-0.00067040977596895484722644420472193 1:-0.23753664 2:0.68036532 3:17 4:9 #
0.00067040977596895484722644420472193 1:-2.8654718 2:0.58823532 3:17 4:0 #
-0.00067040977596895484722644420472193 1:1.8761213 2:0.5988372 3:8 4:11 #
0.00067040977596895484722644420472193 1:0.17156953 2:0.78947371 3:1 4:32 #
-0.00067040977596895484722644420472193 1:-0.42671409 2:0.49180329 3:1 4:13 #
-0.00067040977596895484722644420472193 1:0.63446528 2:0.48205128 3:11 4:10 #
0.00067040977596895484722644420472193 1:-2.9831448 2:0.75675678 3:9 4:61 #
0.00067040977596895484722644420472193 1:-2.0130703 2:0.63636363 3:11 4:0 #
0.00067040977596895484722644420472193 1:0.86124378 2:0.78048778 3:13 4:63 #
0.00067040977596895484722644420472193 1:-0.93449849 2:0.44 3:25 4:0 #
0.00067040977596895484722644420472193 1:0.25725564 2:0.69999999 3:10 4:0 #
-0.00067040977596895484722644420472193 1:-2.7191772 2:0.58426964 3:10 4:15 #
0.00067040977596895484722644420472193 1:-2.6384888 2:0.76086956 3:12 4:62 #
0.00067040977596895484722644420472193 1:1.8124422 2:0.5 3:26 4:0 #
0.00067040977596895484722644420472193 1:0.87060916 2:0.73170733 3:10 4:65 #
0.00067040977596895484722644420472193 1:-0.23530795 2:0.62222224 3:30 4:32 #
0.00067040977596895484722644420472193 1:-0.69036484 2:0.63265306 3:26 4:43 #
0.00067040977596895484722644420472193 1:0.68126762 2:0.7368421 3:1 4:13 #
-0.00067040977596895484722644420472193 1:-0.079359077 2:0.47402596 3:17 4:13 #
0.00067040977596895484722644420472193 1:-0.48548681 2:0.89473683 3:1 4:40 #
-0.00067040977596895484722644420472193 1:-2.0191569 2:0.6122449 3:1 4:13 #
0.00067040977596895484722644420472193 1:0.89343566 2:0.8125 3:7 4:26 #
-0.00067040977596895484722644420472193 1:-0.55660683 2:0.45833334 3:1 4:13 #
-0.00067040977596895484722644420472193 1:-1.1924082 2:0.51732671 3:15 4:13 #
0.00067040977596895484722644420472193 1:-0.43910289 2:0.44 3:25 4:0 #
-0.00067040977596895484722644420472193 1:-1.327628 2:0.58536583 3:1 4:69 #
-0.00067040977596895484722644420472193 1:-0.72893381 2:0.52631581 3:6 4:11 #
-0.00067040977596895484722644420472193 1:1.1091329 2:0.54740059 3:5 4:12 #
0.00067040977596895484722644420472193 1:-0.94957083 2:0.86842108 3:9 4:64 #
0.00067040977596895484722644420472193 1:-1.9699141 2:0.625 3:24 4:0 #
-0.00067040977596895484722644420472193 1:0.39790443 2:0.6708861 3:11 4:74 #
0.00067040977596895484722644420472193 1:-0.90157658 2:0.62222224 3:19 4:54 #
-0.00067040977596895484722644420472193 1:-1.5005099 2:0.625 3:13 4:14 #
-0.00067040977596895484722644420472193 1:0.77619338 2:0.60294116 3:2 4:13 #
-0.00067040977596895484722644420472193 1:1.4916047 2:0.53488374 3:1 4:14 #
-0.00067040977596895484722644420472193 1:-2.0811162 2:0.54736841 3:9 4:76 #
-0.00067040977596895484722644420472193 1:1.4513215 2:0.53020132 3:1 4:65 #
0.00067040977596895484722644420472193 1:-2.138478 2:0.52380955 3:21 4:0 #
0.00067040977596895484722644420472193 1:1.3212645 2:0.82051283 3:13 4:62 #
-0.00067040977596895484722644420472193 1:-1.8000959 2:0.40659341 3:10 4:15 #
-0.00067040977596895484722644420472193 1:-1.7315217 2:0.44444445 3:11 4:10 #
0.00067040977596895484722644420472193 1:1.2204602 2:0.57692307 3:26 4:0 #
0.00067040977596895484722644420472193 1:-0.20194408 2:0.69565219 3:2 4:15 #
-0.00067040977596895484722644420472193 1:0.89399588 2:0.60917032 3:1 4:14 #
-0.00067040977596895484722644420472193 1:2.5039952 2:0.67741936 3:1 4:16 #
0.00067040977596895484722644420472193 1:-2.8108721 2:0.87096775 3:3 4:63 #
-0.00067040977596895484722644420472193 1:3.4250195 2:0.51651651 3:1 4:17 #
0.00067040977596895484722644420472193 1:-4.4746017 2:0.5 3:25 4:33 #
-0.00067040977596895484722644420472193 1:2.3264894 2:0.8888889 3:1 4:35 #
-0.00067040977596895484722644420472193 1:2.3895509 2:0.83333331 3:1 4:20 #
0.00067040977596895484722644420472193 1:-1.8384969 2:0.52272725 3:26 4:39 #
0.00067040977596895484722644420472193 1:1.5980213 2:0.69999999 3:10 4:0 #
-0.00067040977596895484722644420472193 1:-0.5334419 2:0.79591835 3:7 4:73 #
0.00067040977596895484722644420472193 1:1.3579965 2:0.57692307 3:26 4:0 #
0.00067040977596895484722644420472193 1:0.20011576 2:0.70833331 3:8 4:31 #
-0.00067040977596895484722644420472193 1:-0.95820141 2:0.49758455 3:6 4:11 #
-0.00067040977596895484722644420472193 1:2.1836112 2:0.55186725 3:1 4:15 #
-0.00067040977596895484722644420472193 1:1.3869605 2:0.57251906 3:1 4:15 #
0.00067040977596895484722644420472193 1:-0.80690616 2:0.45833334 3:24 4:0 #
-0.00067040977596895484722644420472193 1:-0.43610716 2:0.48993289 3:24 4:22 #
-0.00067040977596895484722644420472193 1:-0.85438555 2:0.44827586 3:6 4:11 #
-0.00067040977596895484722644420472193 1:-0.9208048 2:0.5105263 3:1 4:13 #
0.00067040977596895484722644420472193 1:-0.45990738 2:0.68292683 3:17 4:57 #
-0.00067040977596895484722644420472193 1:2.9287863 2:0.61632651 3:13 4:12 #
0.00067040977596895484722644420472193 1:-0.79742444 2:0.625 3:24 4:0 #
0.00067040977596895484722644420472193 1:-0.70121896 2:0.86363637 3:1 4:46 #
0.00067040977596895484722644420472193 1:0.20011576 2:0.70454544 3:12 4:62 #
0.00067040977596895484722644420472193 1:-0.9563458 2:0.64285713 3:29 4:33 #
0.00067040977596895484722644420472193 1:2.7623925 2:0.61538464 3:26 4:0 #
0.00067040977596895484722644420472193 1:2.0591037 2:0.80434781 3:19 4:56 #
0.00067040977596895484722644420472193 1:-1.318777 2:0.34999999 3:20 4:0 #
0.00067040977596895484722644420472193 1:3.9485815 2:0.57692307 3:26 4:0 #
0.00067040977596895484722644420472193 1:0.19057028 2:0.60000002 3:27 4:41 #
-0.00067040977596895484722644420472193 1:-0.11674429 2:0.70588237 3:1 4:14 #
-0.00067040977596895484722644420472193 1:-3.2041183 2:0.60759491 3:2 4:17 #
-0.00067040977596895484722644420472193 1:-0.25640178 2:0.546875 3:22 4:30 #
-0.00067040977596895484722644420472193 1:-2.5268633 2:0.63505745 3:5 4:72 #
0.00067040977596895484722644420472193 1:0.79316396 2:0.66666669 3:7 4:29 #
0.00067040977596895484722644420472193 1:0.11708909 2:1 3:1 4:29 #
0.00067040977596895484722644420472193 1:-0.31158873 2:0.47826087 3:23 4:0 #
-0.00067040977596895484722644420472193 1:-3.0049295 2:0.65420562 3:9 4:19 #
0.00067040977596895484722644420472193 1:0.11148011 2:0.79166669 3:5 4:41 #
0.00067040977596895484722644420472193 1:0.80165452 2:0.60000002 3:25 4:0 #
-0.00067040977596895484722644420472193 1:-1.3503268 2:0.50597608 3:1 4:13 #
0.00067040977596895484722644420472193 1:0.14897163 2:0.7368421 3:6 4:65 #
0.00067040977596895484722644420472193 1:-0.89435154 2:0.60869563 3:23 4:0 #
-0.00067040977596895484722644420472193 1:0.24574977 2:0.60119045 3:2 4:67 #
0.00067040977596895484722644420472193 1:-0.42569971 2:0.76666665 3:1 4:36 #
-0.00067040977596895484722644420472193 1:-1.6025398 2:0.56422019 3:1 4:13 #
0.00067040977596895484722644420472193 1:-2.0308778 2:0.7647059 3:13 4:60 #
-0.00067040977596895484722644420472193 1:2.1892319 2:0.52357322 3:1 4:60 #
-0.00067040977596895484722644420472193 1:1.1573837 2:0.45851529 3:10 4:11 #
0.00067040977596895484722644420472193 1:-0.84416085 2:0.83783782 3:2 4:66 #
0.00067040977596895484722644420472193 1:-0.032728195 2:0.625 3:24 4:0 #
-0.00067040977596895484722644420472193 1:-0.95072508 2:0.56424582 3:7 4:71 #
-0.00067040977596895484722644420472193 1:-1.8925651 2:0.57303369 3:1 4:13 #
-0.00067040977596895484722644420472193 1:-4.2357364 2:0.51851851 3:1 4:17 #
-0.00067040977596895484722644420472193 1:-0.55499303 2:0.58306187 3:1 4:67 #
0.00067040977596895484722644420472193 1:-2.1565762 2:0.5714286 3:14 4:0 #
-0.00067040977596895484722644420472193 1:2.1876168 2:0.50602412 3:1 4:15 #
-0.00067040977596895484722644420472193 1:-1.1436327 2:0.64179105 3:15 4:23 #
-0.00067040977596895484722644420472193 1:-1.8807154 2:0.53400505 3:1 4:13 #
0.00067040977596895484722644420472193 1:-0.61900014 2:0.67391306 3:18 4:55 #
-0.00067040977596895484722644420472193 1:2.8973181 2:0.62068963 3:1 4:19 #
0.00067040977596895484722644420472193 1:0.024717143 2:0.65853661 3:28 4:35 #
-0.00067040977596895484722644420472193 1:1.8834234 2:0.64655173 3:2 4:14 #
0.00067040977596895484722644420472193 1:-1.3737873 2:0.70731705 3:12 4:60 #
-0.00067040977596895484722644420472193 1:0.47002754 2:0.61842108 3:26 4:27 #
0.00067040977596895484722644420472193 1:0.61169255 2:0.69999999 3:10 4:0 #
-0.00067040977596895484722644420472193 1:-2.1984706 2:0.59322035 3:1 4:13 #
-0.00067040977596895484722644420472193 1:-2.7171361 2:0.6511628 3:3 4:12 #
0.00067040977596895484722644420472193 1:-1.2863847 2:0.78125 3:7 4:63 #
0.00067040977596895484722644420472193 1:-2.1332474 2:0.60000002 3:20 4:0 #
0.00067040977596895484722644420472193 1:-0.90211314 2:0.88235295 3:3 4:41 #
-0.00067040977596895484722644420472193 1:-0.0037988767 2:0.58038145 3:1 4:66 #
0.00067040977596895484722644420472193 1:0.41897058 2:0.54166669 3:24 4:0 #
0.00067040977596895484722644420472193 1:-0.79754049 2:0.93333334 3:1 4:35 #
0.00067040977596895484722644420472193 1:0.79268909 2:0.72727275 3:8 4:32 #
-0.00067040977596895484722644420472193 1:3.650641 2:0.60606062 3:1 4:32 #
0.00067040977596895484722644420472193 1:-2.0454481 2:0.60000002 3:26 4:38 #
0.00067040977596895484722644420472193 1:-0.51181251 2:0.80000001 3:2 4:40 #
0.00067040977596895484722644420472193 1:-1.6025534 2:0.61363637 3:24 4:45 #
-0.00067040977596895484722644420472193 1:-1.6500851 2:0.58208954 3:6 4:16 #
0.00067040977596895484722644420472193 1:-1.2595417 2:0.72727275 3:11 4:0 #
-0.00067040977596895484722644420472193 1:0.54186451 2:0.53600001 3:1 4:14 #
0.00067040977596895484722644420472193 1:-0.43910289 2:0.68292683 3:28 4:32 #
0.00067040977596895484722644420472193 1:-0.59092551 2:0.63636363 3:11 4:0 #
0.00067040977596895484722644420472193 1:-0.48257336 2:0.67500001 3:25 4:44 #
0.00067040977596895484722644420472193 1:0.95074487 2:0.75 3:9 4:29 #
0.00067040977596895484722644420472193 1:0.2182326 2:0.39130434 3:23 4:0 #
-0.00067040977596895484722644420472193 1:-2.8324828 2:0.60305345 3:6 4:11 #
0.00067040977596895484722644420472193 1:0.46390513 2:0.80000001 3:6 4:40 #
-0.00067040977596895484722644420472193 1:2.6785781 2:0.59633029 3:1 4:18 #
0.00067040977596895484722644420472193 1:-1.5746124 2:0.59090906 3:22 4:0 #
-0.00067040977596895484722644420472193 1:3.1050544 2:0.62468517 3:1 4:21 #
0.00067040977596895484722644420472193 1:-1.7156563 2:0.59523809 3:25 4:41 #
-0.00067040977596895484722644420472193 1:-0.74469 2:0.65873015 3:1 4:14 #
-0.00067040977596895484722644420472193 1:-0.80564141 2:0.58893281 3:1 4:64 #
-0.00067040977596895484722644420472193 1:3.1485348 2:0.68478262 3:1 4:31 #
0.00067040977596895484722644420472193 1:-1.2973195 2:0.58536583 3:25 4:35 #
-0.00067040977596895484722644420472193 1:0.49591827 2:0.48249999 3:17 4:16 #
-0.00067040977596895484722644420472193 1:-0.2480029 2:0.66459626 3:14 4:74 #
0.00067040977596895484722644420472193 1:2.3921869 2:0.63999999 3:25 4:0 #
-0.00067040977596895484722644420472193 1:-1.4933699 2:0.63291138 3:20 4:37 #
0.00067040977596895484722644420472193 1:2.029108 2:0.72000003 3:25 4:0 #
0.00067040977596895484722644420472193 1:-0.75069171 2:0.71794873 3:12 4:60 #
0.00067040977596895484722644420472193 1:-2.2223065 2:0.63157892 3:24 4:39 #
0.00067040977596895484722644420472193 1:-1.2072963 2:0.67391306 3:17 4:56 #
0.00067040977596895484722644420472193 1:2.1767259 2:0.60000002 3:27 4:33 #
0.00067040977596895484722644420472193 1:-2.5563343 2:0.77777779 3:8 4:62 #
0.00067040977596895484722644420472193 1:-0.5036757 2:0.5 3:12 4:0 #
0.00067040977596895484722644420472193 1:-0.33069369 2:0.375 3:16 4:0 #
0.00067040977596895484722644420472193 1:4.0493655 2:0.63999999 3:25 4:0 #
-0.00067040977596895484722644420472193 1:-1.1794564 2:0.81818181 3:1 4:17 #
0.00067040977596895484722644420472193 1:-0.687549 2:0.73333335 3:1 4:19 #
-0.00067040977596895484722644420472193 1:-2.7173405 2:0.5714286 3:1 4:13 #
-0.00067040977596895484722644420472193 1:-0.5337193 2:0.50765306 3:16 4:10 #
-0.00067040977596895484722644420472193 1:1.0299028 2:0.41317365 3:11 4:71 #
-0.00067040977596895484722644420472193 1:-1.2146927 2:0.51322752 3:7 4:11 #
0.00067040977596895484722644420472193 1:-0.40475422 2:0.73809522 3:2 4:65 #
-0.00067040977596895484722644420472193 1:0.028615143 2:0.58966565 3:33 4:76 #
-0.00067040977596895484722644420472193 1:0.38921326 2:0.52024925 3:1 4:14 #
0.00067040977596895484722644420472193 1:-1.0308859 2:0.68181819 3:24 4:43 #
-0.00067040977596895484722644420472193 1:-3.4262476 2:0.78378379 3:2 4:65 #
-0.00067040977596895484722644420472193 1:-1.2482128 2:0.59668511 3:14 4:33 #
0.00067040977596895484722644420472193 1:0.40224716 2:0.72727275 3:8 4:37 #
-0.00067040977596895484722644420472193 1:0.3343457 2:0.51867223 3:1 4:14 #
-0.00067040977596895484722644420472193 1:-0.9208048 2:0.55925924 3:1 4:14 #
0.00067040977596895484722644420472193 1:-0.97639346 2:0.82051283 3:1 4:65 #
-0.00067040977596895484722644420472193 1:3.1050544 2:0.57651246 3:1 4:21 #
0.00067040977596895484722644420472193 1:-1.655512 2:0.65853661 3:23 4:43 #
0.00067040977596895484722644420472193 1:-1.5731009 2:0.5 3:20 4:0 #
-0.00067040977596895484722644420472193 1:-1.6080321 2:0.51271188 3:4 4:12 #
0.00067040977596895484722644420472193 1:-0.510598 2:0.73170733 3:5 4:64 #
0.00067040977596895484722644420472193 1:0.30730927 2:0.73913044 3:3 4:36 #
0.00067040977596895484722644420472193 1:-0.042678941 2:0.60869563 3:23 4:0 #
-0.00067040977596895484722644420472193 1:-2.1550694 2:0.48387095 3:1 4:13 #
0.00067040977596895484722644420472193 1:1.0481083 2:0.70588237 3:5 4:24 #
-0.00067040977596895484722644420472193 1:-1.2648349 2:0.62598425 3:2 4:64 #
0.00067040977596895484722644420472193 1:0.91600406 2:0.70833331 3:24 4:0 #
-0.00067040977596895484722644420472193 1:-2.4297156 2:0.53442621 3:1 4:13 #
-0.00067040977596895484722644420472193 1:1.6667129 2:0.50657892 3:2 4:14 #
0.00067040977596895484722644420472193 1:-1.3952646 2:0.64285713 3:13 4:59 #
0.00067040977596895484722644420472193 1:-0.39813828 2:0.5 3:22 4:0 #
-0.00067040977596895484722644420472193 1:2.0527151 2:0.625 3:2 4:15 #
-0.00067040977596895484722644420472193 1:1.2599137 2:0.7647059 3:3 4:61 #
0.00067040977596895484722644420472193 1:-1.0189947 2:0.67391306 3:16 4:56 #
-0.00067040977596895484722644420472193 1:2.0313029 2:0.79487181 3:2 4:58 #
-0.00067040977596895484722644420472193 1:0.70804119 2:0.6397059 3:16 4:70 #
0.00067040977596895484722644420472193 1:2.1405122 2:0.74418604 3:18 4:55 #
0.00067040977596895484722644420472193 1:-0.099284507 2:0.5 3:22 4:0 #
0.00067040977596895484722644420472193 1:-2.4527853 2:0.69047618 3:21 4:44 #
0.00067040977596895484722644420472193 1:0.96125329 2:0.47826087 3:23 4:0 #
-0.00067040977596895484722644420472193 1:2.3779337 2:0.59340662 3:1 4:17 #
0.00067040977596895484722644420472193 1:-0.29392081 2:0.58139533 3:25 4:36 #
0.00067040977596895484722644420472193 1:0.21496096 2:0.80000001 3:10 4:0 #
-0.00067040977596895484722644420472193 1:1.1109987 2:0.59116024 3:1 4:15 #
-0.00067040977596895484722644420472193 1:2.0843482 2:0.65789473 3:1 4:17 #
-0.00067040977596895484722644420472193 1:-0.26712912 2:0.53046596 3:1 4:14 #
0.00067040977596895484722644420472193 1:-1.8325609 2:0.64705884 3:18 4:51 #
0.00067040977596895484722644420472193 1:4.234004 2:0.625 3:24 4:0 #
-0.00067040977596895484722644420472193 1:-1.030149 2:0.58312023 3:2 4:13 #
0.00067040977596895484722644420472193 1:-0.56065428 2:0.78947371 3:9 4:61 #
0.00067040977596895484722644420472193 1:-2.0918281 2:0.52941179 3:17 4:0 #
0.00067040977596895484722644420472193 1:-1.3213667 2:0.44444445 3:18 4:0 #
-0.00067040977596895484722644420472193 1:-0.58041525 2:0.4481982 3:16 4:14 #
-0.00067040977596895484722644420472193 1:-3.3564641 2:0.55905509 3:1 4:13 #
0.00067040977596895484722644420472193 1:1.0900303 2:0.65853661 3:25 4:39 #
-0.00067040977596895484722644420472193 1:2.9371901 2:0.48148149 3:1 4:36 #
-0.00067040977596895484722644420472193 1:2.9819641 2:0.71739131 3:1 4:35 #
0.00067040977596895484722644420472193 1:-1.9654906 2:0.77777779 3:1 4:30 #
-0.00067040977596895484722644420472193 1:-2.9109254 2:0.50485438 3:1 4:13 #
0.00067040977596895484722644420472193 1:0.38921326 2:0.65217394 3:23 4:0 #
-0.00067040977596895484722644420472193 1:1.5476929 2:0.74545455 3:1 4:18 #
0.00067040977596895484722644420472193 1:1.2118435 2:0.625 3:26 4:34 #
0.00067040977596895484722644420472193 1:-1.4342643 2:0.83333331 3:1 4:17 #
-0.00067040977596895484722644420472193 1:1.1640308 2:0.85000002 3:1 4:35 #
-0.00067040977596895484722644420472193 1:-1.0474795 2:0.41025642 3:6 4:16 #
0.00067040977596895484722644420472193 1:-1.0322284 2:0.41176471 3:17 4:0 #
-0.00067040977596895484722644420472193 1:0.2831454 2:0.68518519 3:18 4:11 #
-0.00067040977596895484722644420472193 1:3.125278 2:0.64179105 3:3 4:36 #
0.00067040977596895484722644420472193 1:0.74989885 2:0.33333334 3:21 4:0 #
0.00067040977596895484722644420472193 1:1.4064523 2:0.5106383 3:25 4:37 #
-0.00067040977596895484722644420472193 1:-1.0993056 2:0.63 3:1 4:14 #
0.00067040977596895484722644420472193 1:0.24215578 2:0.45454547 3:22 4:0 #
-0.00067040977596895484722644420472193 1:-3.4837937 2:0.51578945 3:1 4:13 #
0.00067040977596895484722644420472193 1:-0.14708622 2:0.75675678 3:17 4:53 #
-0.00067040977596895484722644420472193 1:1.7871295 2:0.58918917 3:3 4:36 #
0.00067040977596895484722644420472193 1:-1.8230786 2:0.57894737 3:19 4:0 #
0.00067040977596895484722644420472193 1:-0.16777505 2:0.83333331 3:1 4:22 #
-0.00067040977596895484722644420472193 1:1.3048743 2:0.9285714 3:1 4:33 #
0.00067040977596895484722644420472193 1:1.5332085 2:0.69047618 3:26 4:34 #
-0.00067040977596895484722644420472193 1:2.0812008 2:0.84848487 3:1 4:31 #
-0.00067040977596895484722644420472193 1:-3.8858249 2:0.55414015 3:3 4:34 #
0.00067040977596895484722644420472193 1:-0.56969935 2:0.85294116 3:1 4:65 #
-0.00067040977596895484722644420472193 1:-0.34863952 2:0.9285714 3:1 4:35 #
0.00067040977596895484722644420472193 1:0.29572508 2:0.5 3:22 4:0 #
0.00067040977596895484722644420472193 1:-1.0458431 2:0.70731705 3:13 4:57 #
-0.00067040977596895484722644420472193 1:0.49891946 2:0.69999999 3:1 4:35 #
0.00067040977596895484722644420472193 1:1.0586475 2:0.60869563 3:23 4:0 #
0.00067040977596895484722644420472193 1:0.0017561826 2:0.83333331 3:8 4:36 #
0.00067040977596895484722644420472193 1:-0.47707894 2:0.66666669 3:25 4:35 #
-0.00067040977596895484722644420472193 1:3.4354365 2:0.5714286 3:1 4:33 #
-0.00067040977596895484722644420472193 1:2.5111284 2:0.625 3:1 4:33 #
0.00067040977596895484722644420472193 1:1.1143847 2:0.65217394 3:23 4:0 #
0.00067040977596895484722644420472193 1:1.6623564 2:0.56521738 3:23 4:0 #
-0.00067040977596895484722644420472193 1:-0.49064183 2:0.5433526 3:1 4:14 #
-0.00067040977596895484722644420472193 1:-1.326263 2:0.47002399 3:4 4:12 #
0.00067040977596895484722644420472193 1:0.22385886 2:0.60000002 3:4 4:33 #
-0.00067040977596895484722644420472193 1:0.56625926 2:0.64583331 3:1 4:35 #
0.00067040977596895484722644420472193 1:0.10391618 2:0.54545456 3:22 4:0 #
0.00067040977596895484722644420472193 1:-1.9149451 2:0.92307693 3:1 4:62 #
-0.00067040977596895484722644420472193 1:1.5080824 2:0.65683645 3:1 4:34 #
0.00067040977596895484722644420472193 1:1.5266417 2:0.65217394 3:23 4:0 #
-0.00067040977596895484722644420472193 1:-0.31674245 2:0.53562653 3:23 4:15 #
-0.00067040977596895484722644420472193 1:3.1728876 2:0.62773722 3:39 4:12 #
-0.00067040977596895484722644420472193 1:0.71554697 2:0.54658383 3:1 4:35 #
-0.00067040977596895484722644420472193 1:1.2843655 2:0.61864406 3:2 4:35 #
0.00067040977596895484722644420472193 1:0.59427363 2:0.76190478 3:5 4:36 #
0.00067040977596895484722644420472193 1:-0.74352926 2:0.70731705 3:22 4:45 #
0.00067040977596895484722644420472193 1:-1.7897032 2:0.7368421 3:4 4:63 #
0.00067040977596895484722644420472193 1:-0.41135493 2:0.65789473 3:25 4:34 #
0.00067040977596895484722644420472193 1:1.7971662 2:0.65217394 3:23 4:0 #
0.00067040977596895484722644420472193 1:0.82977575 2:0.45454547 3:22 4:0 #
0.00067040977596895484722644420472193 1:-0.7933622 2:0.42105263 3:19 4:0 #
0.00067040977596895484722644420472193 1:0.53232646 2:0.58139533 3:23 4:40 #
0.00067040977596895484722644420472193 1:1.2845625 2:0.45454547 3:22 4:0 #
-0.00067040977596895484722644420472193 1:0.65300262 2:0.64655173 3:1 4:15 #
-0.00067040977596895484722644420472193 1:-2.3184268 2:0.61233479 3:1 4:62 #
-0.00067040977596895484722644420472193 1:-1.1945451 2:0.49367088 3:13 4:25 #
-0.00067040977596895484722644420472193 1:-2.0942655 2:0.78571427 3:5 4:67 #
0.00067040977596895484722644420472193 1:-0.77208829 2:0.78947371 3:1 4:25 #
-0.00067040977596895484722644420472193 1:2.2115767 2:0.60975611 3:1 4:17 #
-0.00067040977596895484722644420472193 1:2.2661591 2:0.59130436 3:6 4:13 #
0.00067040977596895484722644420472193 1:0.11746864 2:0.76190478 3:1 4:28 #
-0.00067040977596895484722644420472193 1:-0.44605154 2:0.49470899 3:2 4:13 #
-0.00067040977596895484722644420472193 1:2.3481376 2:0.59593022 3:1 4:56 #
-0.00067040977596895484722644420472193 1:-0.34591401 2:0.55837566 3:1 4:21 #
-0.00067040977596895484722644420472193 1:-0.7933622 2:0.5487805 3:2 4:13 #
-0.00067040977596895484722644420472193 1:-1.7655238 2:0.57746476 3:5 4:12 #
0.00067040977596895484722644420472193 1:0.64623034 2:0.65217394 3:8 4:33 #
0.00067040977596895484722644420472193 1:0.51771414 2:0.52941179 3:29 4:13 #
0.00067040977596895484722644420472193 1:0.44793049 2:0.62068963 3:4 4:36 #
-0.00067040977596895484722644420472193 1:1.0915211 2:0.55084747 3:1 4:15 #
0.00067040977596895484722644420472193 1:-1.7655238 2:0.65853661 3:21 4:44 #
0.00067040977596895484722644420472193 1:0.97282517 2:0.65217394 3:5 4:9 #
-0.00067040977596895484722644420472193 1:-0.88346356 2:0.51167727 3:1 4:14 #
-0.00067040977596895484722644420472193 1:0.89887744 2:0.61818182 3:19 4:11 #
-0.00067040977596895484722644420472193 1:1.8120972 2:0.58914727 3:1 4:17 #
-0.00067040977596895484722644420472193 1:3.1898642 2:0.71249998 3:18 4:13 #
0.00067040977596895484722644420472193 1:-1.4761032 2:0.79411763 3:3 4:62 #
0.00067040977596895484722644420472193 1:0.38628179 2:0.7647059 3:3 4:26 #
-0.00067040977596895484722644420472193 1:-0.27750945 2:0.90909094 3:1 4:27 #
0.00067040977596895484722644420472193 1:3.2158744 2:0.51111114 3:27 4:13 #
0.00067040977596895484722644420472193 1:0.27517459 2:0.82352942 3:3 4:31 #
-0.00067040977596895484722644420472193 1:3.3703275 2:0.58801496 3:1 4:25 #
0.00067040977596895484722644420472193 1:0.054951742 2:0.48837209 3:30 4:24 #
0.00067040977596895484722644420472193 1:-3.4349313 2:0.66666669 3:1 4:18 #
-0.00067040977596895484722644420472193 1:1.1679971 2:0.78571427 3:1 4:25 #
0.00067040977596895484722644420472193 1:1.0016857 2:0.5 3:29 4:17 #
-0.00067040977596895484722644420472193 1:-0.051793538 2:0.84615386 3:1 4:26 #
0.00067040977596895484722644420472193 1:0.7419247 2:0.61538464 3:29 4:21 #
-0.00067040977596895484722644420472193 1:2.1071203 2:0.56832969 3:1 4:26 #
0.00067040977596895484722644420472193 1:-1.3435706 2:0.47058824 3:28 4:20 #
-0.00067040977596895484722644420472193 1:1.9651624 2:0.57913667 3:1 4:26 #
-0.00067040977596895484722644420472193 1:-1.4198059 2:0.58646619 3:2 4:13 #
-0.00067040977596895484722644420472193 1:-1.5530411 2:0.44028103 3:14 4:17 #
-0.00067040977596895484722644420472193 1:-3.5570774 2:0.62 3:1 4:27 #
0.00067040977596895484722644420472193 1:1.8025638 2:0.85000002 3:10 4:25 #
-0.00067040977596895484722644420472193 1:1.9655666 2:0.64367819 3:2 4:26 #
-0.00067040977596895484722644420472193 1:1.5804927 2:0.48693585 3:1 4:26 #
-0.00067040977596895484722644420472193 1:2.0143893 2:0.67385447 3:4 4:26 #
0.00067040977596895484722644420472193 1:-1.5761955 2:0.95454544 3:1 4:51 #
0.00067040977596895484722644420472193 1:0.35518947 2:0.78947371 3:6 4:31 #
0.00067040977596895484722644420472193 1:0.80106992 2:0.73333335 3:3 4:20 #
0.00067040977596895484722644420472193 1:-3.7811079 2:0.52777779 3:6 4:13 #
0.00067040977596895484722644420472193 1:0.96141911 2:0.80000001 3:10 4:0 #
-0.00067040977596895484722644420472193 1:-1.7880054 2:0.56028366 3:15 4:71 #
0.00067040977596895484722644420472193 1:2.1555126 2:0.65217394 3:23 4:0 #
-0.00067040977596895484722644420472193 1:-1.5673469 2:0.6111111 3:1 4:60 #
0.00067040977596895484722644420472193 1:-0.11440886 2:0.8888889 3:1 4:37 #
0.00067040977596895484722644420472193 1:-0.99531233 2:0.4375 3:16 4:0 #
0.00067040977596895484722644420472193 1:-4.2288518 2:0.68000001 3:8 4:41 #
0.00067040977596895484722644420472193 1:-0.30564046 2:0.71428573 3:4 4:28 #
-0.00067040977596895484722644420472193 1:2.8009095 2:0.62310028 3:35 4:62 #
-0.00067040977596895484722644420472193 1:-1.1983577 2:0.59712231 3:21 4:34 #
0.00067040977596895484722644420472193 1:-0.79359043 2:1 3:1 4:58 #
0.00067040977596895484722644420472193 1:2.3762393 2:0.36363637 3:22 4:0 #
-0.00067040977596895484722644420472193 1:1.1686105 2:0.47384617 3:25 4:35 #
0.00067040977596895484722644420472193 1:-0.22491066 2:0.9375 3:1 4:34 #
0.00067040977596895484722644420472193 1:2.8036079 2:0.42857143 3:14 4:0 #
0.00067040977596895484722644420472193 1:1.5547585 2:0.375 3:16 4:0 #
-0.00067040977596895484722644420472193 1:-2.3777261 2:0.63963962 3:1 4:60 #
-0.00067040977596895484722644420472193 1:-1.837069 2:0.82758623 3:1 4:57 #
0.00067040977596895484722644420472193 1:1.248227 2:0.52499998 3:29 4:26 #
-0.00067040977596895484722644420472193 1:-2.6044097 2:0.55437666 3:10 4:18 #
-0.00067040977596895484722644420472193 1:0.49798951 2:0.5714286 3:1 4:35 #
-0.00067040977596895484722644420472193 1:-1.7038256 2:0.5451389 3:6 4:67 #
-0.00067040977596895484722644420472193 1:-0.084275275 2:0.59405941 3:1 4:35 #
0.00067040977596895484722644420472193 1:0.67022562 2:0.6785714 3:6 4:37 #
-0.00067040977596895484722644420472193 1:2.4221838 2:0.55072463 3:1 4:37 #
0.00067040977596895484722644420472193 1:-2.1510975 2:0.77777779 3:2 4:57 #
0.00067040977596895484722644420472193 1:-3.2882109 2:0.83333331 3:2 4:54 #
-0.00067040977596895484722644420472193 1:2.2601049 2:0.76086956 3:1 4:45 #
-0.00067040977596895484722644420472193 1:2.0497329 2:0.8125 3:1 4:53 #
0.00067040977596895484722644420472193 1:-1.8573934 2:0.55555558 3:28 4:20 #
-0.00067040977596895484722644420472193 1:0.54063463 2:0.61864406 3:1 4:36 #
-0.00067040977596895484722644420472193 1:-0.9185316 2:0.53563219 3:1 4:35 #
0.00067040977596895484722644420472193 1:0.34105694 2:0.85714287 3:2 4:27 #
-0.00067040977596895484722644420472193 1:-0.43578029 2:0.80000001 3:1 4:57 #
-0.00067040977596895484722644420472193 1:1.7877043 2:0.88461536 3:2 4:51 #
0.00067040977596895484722644420472193 1:0.18961607 2:0.51282054 3:28 4:27 #
0.00067040977596895484722644420472193 1:1.0398502 2:0.5 3:22 4:0 #
0.00067040977596895484722644420472193 1:-0.26539475 2:0.84210527 3:2 4:38 #
-0.00067040977596895484722644420472193 1:-1.5899612 2:0.875 3:2 4:35 #
0.00067040977596895484722644420472193 1:-2.417798 2:0.60526317 3:21 4:40 #
-0.00067040977596895484722644420472193 1:-3.1537199 2:0.84210527 3:1 4:38 #
-0.00067040977596895484722644420472193 1:-4.0224676 2:0.75806451 3:2 4:35 #
-0.00067040977596895484722644420472193 1:-1.7621967 2:0.5261324 3:13 4:70 #
-0.00067040977596895484722644420472193 1:0.3875525 2:0.54666668 3:2 4:35 #
0.00067040977596895484722644420472193 1:-0.25963369 2:0.52380955 3:21 4:0 #
-0.00067040977596895484722644420472193 1:0.24215578 2:0.54525387 3:2 4:35 #
0.00067040977596895484722644420472193 1:-1.8429375 2:0.64102566 3:20 4:41 #
-0.00067040977596895484722644420472193 1:-0.18166807 2:0.76190478 3:1 4:39 #
0.00067040977596895484722644420472193 1:-2.6935642 2:0.58620691 3:1 4:19 #
-0.00067040977596895484722644420472193 1:-1.1924082 2:0.64285713 3:1 4:36 #
0.00067040977596895484722644420472193 1:-0.5638423 2:0.61702126 3:27 4:32 #
-0.00067040977596895484722644420472193 1:-3.5524292 2:0.53086418 3:4 4:25 #
-0.00067040977596895484722644420472193 1:-1.9125706 2:0.44791666 3:12 4:15 #
-0.00067040977596895484722644420472193 1:0.83004862 2:0.81818181 3:1 4:50 #
0.00067040977596895484722644420472193 1:-1.2520592 2:0.55813956 3:26 4:32 #
-0.00067040977596895484722644420472193 1:-1.8316914 2:0.48543689 3:13 4:20 #
0.00067040977596895484722644420472193 1:1.0824574 2:0.55000001 3:23 4:37 #
-0.00067040977596895484722644420472193 1:-2.4948728 2:0.58227849 3:1 4:35 #
-0.00067040977596895484722644420472193 1:-2.350076 2:0.49714285 3:12 4:16 #
-0.00067040977596895484722644420472193 1:-1.3835973 2:0.49448124 3:1 4:35 #
0.00067040977596895484722644420472193 1:-0.72029305 2:0.75 3:1 4:23 #
0.00067040977596895484722644420472193 1:0.17948826 2:0.75999999 3:2 4:40 #
-0.00067040977596895484722644420472193 1:1.12334 2:0.63333333 3:8 4:35 #
-0.00067040977596895484722644420472193 1:-1.3280724 2:0.6102941 3:3 4:64 #
-0.00067040977596895484722644420472193 1:0.25120401 2:0.52049178 3:5 4:35 #
-0.00067040977596895484722644420472193 1:-0.79742444 2:0.49868074 3:20 4:18 #
0.00067040977596895484722644420472193 1:-2.9028745 2:0.54054052 3:24 4:33 #
-0.00067040977596895484722644420472193 1:-3.459568 2:0.62085307 3:2 4:35 #
-0.00067040977596895484722644420472193 1:0.46445024 2:0.53539824 3:1 4:36 #
-0.00067040977596895484722644420472193 1:2.8541908 2:0.5235849 3:1 4:45 #
0.00067040977596895484722644420472193 1:-1.2430166 2:0.5 3:28 4:23 #
-0.00067040977596895484722644420472193 1:0.82397968 2:0.54146343 3:1 4:37 #
0.00067040977596895484722644420472193 1:-1.674938 2:0.57894737 3:27 4:28 #
-0.00067040977596895484722644420472193 1:-2.1964183 2:0.52631581 3:2 4:35 #
0.00067040977596895484722644420472193 1:-0.24028297 2:0.76190478 3:1 4:33 #
0.00067040977596895484722644420472193 1:-2.0086813 2:0.60526317 3:22 4:38 #
-0.00067040977596895484722644420472193 1:-3.5109811 2:0.63934427 3:1 4:36 #
0.00067040977596895484722644420472193 1:-0.98991662 2:0.8125 3:1 4:56 #
-0.00067040977596895484722644420472193 1:-0.0037988767 2:0.61016947 3:1 4:38 #
-0.00067040977596895484722644420472193 1:1.3831648 2:0.53482586 3:2 4:37 #
-0.00067040977596895484722644420472193 1:-0.85071516 2:0.62086517 3:1 4:37 #
0.00067040977596895484722644420472193 1:-1.0990978 2:0.55263156 3:27 4:27 #
-0.00067040977596895484722644420472193 1:-1.5431669 2:0.55489612 3:1 4:36 #
0.00067040977596895484722644420472193 1:-1.753633 2:0.64999998 3:20 4:40 #
-0.00067040977596895484722644420472193 1:-1.5420738 2:0.53715497 3:1 4:36 #
0.00067040977596895484722644420472193 1:-0.66305286 2:0.6511628 3:26 4:32 #
-0.00067040977596895484722644420472193 1:0.27337578 2:0.5151515 3:2 4:36 #
0.00067040977596895484722644420472193 1:-2.4108248 2:0.54054052 3:21 4:38 #
0.00067040977596895484722644420472193 1:0.71040487 2:0.58974361 3:28 4:25 #
-0.00067040977596895484722644420472193 1:-0.1090157 2:0.5413534 3:2 4:36 #
0.00067040977596895484722644420472193 1:-0.17723499 2:0.81818181 3:1 4:40 #
-0.00067040977596895484722644420472193 1:-2.0804424 2:0.55091381 3:1 4:36 #
0.00067040977596895484722644420472193 1:-1.5218431 2:0.6857143 3:19 4:41 #
0.00067040977596895484722644420472193 1:-3.2950959 2:0.90909094 3:2 4:55 #
-0.00067040977596895484722644420472193 1:-3.5524292 2:0.55000001 3:10 4:69 #
0.00067040977596895484722644420472193 1:1.546633 2:0.42857143 3:21 4:0 #
-0.00067040977596895484722644420472193 1:0.27781573 2:0.69444442 3:16 4:36 #
0.00067040977596895484722644420472193 1:-3.1364994 2:0.51282054 3:26 4:21 #
0.00067040977596895484722644420472193 1:-0.87653434 2:0.80000001 3:1 4:42 #
-0.00067040977596895484722644420472193 1:-3.0147762 2:0.47147146 3:8 4:15 #
0.00067040977596895484722644420472193 1:-0.69268119 2:0.5714286 3:21 4:0 #
0.00067040977596895484722644420472193 1:0.48947406 2:0.47619048 3:21 4:0 #
0.00067040977596895484722644420472193 1:0.60405356 2:0.7647059 3:4 4:24 #
0.00067040977596895484722644420472193 1:-0.016613547 2:0.53191489 3:24 4:35 #
0.00067040977596895484722644420472193 1:-2.0416703 2:0.5 3:14 4:39 #
-0.00067040977596895484722644420472193 1:0.11225391 2:0.5353319 3:22 4:27 #
-0.00067040977596895484722644420472193 1:1.099238 2:0.58536583 3:29 4:18 #
-0.00067040977596895484722644420472193 1:1.3167728 2:0.51333332 3:2 4:14 #
-0.00067040977596895484722644420472193 1:3.009573 2:0.58590311 3:1 4:21 #
0.00067040977596895484722644420472193 1:-1.0749406 2:0.82608694 3:5 4:38 #
-0.00067040977596895484722644420472193 1:0.24431784 2:0.53500003 3:1 4:58 #
0.00067040977596895484722644420472193 1:-1.7150952 2:0.88235295 3:1 4:36 #
0.00067040977596895484722644420472193 1:-4.6896896 2:0.64705884 3:10 4:19 #
-0.00067040977596895484722644420472193 1:0.81774157 2:0.53846157 3:1 4:15 #
-0.00067040977596895484722644420472193 1:-3.0583642 2:0.58279568 3:4 4:30 #
0.00067040977596895484722644420472193 1:-1.8231633 2:0.82758623 3:1 4:55 #
-0.00067040977596895484722644420472193 1:1.9735408 2:0.69999999 3:1 4:52 #
-0.00067040977596895484722644420472193 1:2.8009095 2:0.65319866 3:29 4:13 #
-0.00067040977596895484722644420472193 1:-3.6279743 2:0.56382978 3:3 4:64 #
0.00067040977596895484722644420472193 1:-0.14708622 2:0.7368421 3:4 4:36 #
-0.00067040977596895484722644420472193 1:-2.2732072 2:0.454321 3:11 4:16 #
-0.00067040977596895484722644420472193 1:-0.5638423 2:0.48821548 3:2 4:13 #
-0.00067040977596895484722644420472193 1:-1.7442548 2:0.52222222 3:5 4:18 #
-0.00067040977596895484722644420472193 1:-0.93933403 2:0.54411763 3:10 4:11 #
-0.00067040977596895484722644420472193 1:-3.2803578 2:0.48787063 3:4 4:17 #
-0.00067040977596895484722644420472193 1:0.0099169044 2:0.53305787 3:25 4:25 #
0.00067040977596895484722644420472193 1:-2.1011405 2:0.64285713 3:14 4:0 #
0.00067040977596895484722644420472193 1:0.20523834 2:0.81818181 3:2 4:24 #
-0.00067040977596895484722644420472193 1:-1.1370934 2:0.54109591 3:1 4:14 #
-0.00067040977596895484722644420472193 1:0.61272514 2:0.6559633 3:2 4:14 #
0.00067040977596895484722644420472193 1:-1.3558534 2:0.60465115 3:22 4:37 #
-0.00067040977596895484722644420472193 1:2.1793303 2:0.70769233 3:1 4:20 #
-0.00067040977596895484722644420472193 1:0.82922393 2:0.58235294 3:7 4:12 #
-0.00067040977596895484722644420472193 1:-1.1559947 2:0.58280253 3:21 4:72 #
0.00067040977596895484722644420472193 1:-0.97662032 2:0.61904764 3:21 4:0 #
-0.00067040977596895484722644420472193 1:0.051273439 2:0.46909091 3:11 4:11 #
-0.00067040977596895484722644420472193 1:-3.5743797 2:0.57258064 3:1 4:27 #
0.00067040977596895484722644420472193 1:-2.1156476 2:0.58823532 3:17 4:0 #
0.00067040977596895484722644420472193 1:-0.4525305 2:0.88235295 3:3 4:36 #
0.00067040977596895484722644420472193 1:0.52119577 2:0.63636363 3:22 4:0 #
-0.00067040977596895484722644420472193 1:2.3650622 2:0.50812066 3:11 4:12 #
-0.00067040977596895484722644420472193 1:0.13830259 2:0.61264825 3:3 4:62 #
0.00067040977596895484722644420472193 1:-2.5399122 2:0.5945946 3:25 4:28 #
-0.00067040977596895484722644420472193 1:-0.73274332 2:0.63636363 3:11 4:20 #
0.00067040977596895484722644420472193 1:1.6006749 2:0.55000001 3:7 4:20 #
0.00067040977596895484722644420472193 1:3.6874001 2:0.60869563 3:23 4:0 #
-0.00067040977596895484722644420472193 1:-1.1573039 2:0.56989247 3:5 4:12 #
-0.00067040977596895484722644420472193 1:-0.49400443 2:0.58823532 3:21 4:23 #
-0.00067040977596895484722644420472193 1:0.082869157 2:0.59487182 3:3 4:13 #
-0.00067040977596895484722644420472193 1:1.0283028 2:0.57913667 3:39 4:68 #
-0.00067040977596895484722644420472193 1:-1.4057919 2:0.5869565 3:14 4:19 #
-0.00067040977596895484722644420472193 1:2.7038524 2:0.59090906 3:36 4:62 #
-0.00067040977596895484722644420472193 1:-0.44301245 2:0.68181819 3:1 4:21 #
-0.00067040977596895484722644420472193 1:4.0861244 2:0.7096774 3:11 4:34 #
-0.00067040977596895484722644420472193 1:-0.71599084 2:0.61893767 3:13 4:11 #
0.00067040977596895484722644420472193 1:-0.47418138 2:0.72222221 3:1 4:28 #
-0.00067040977596895484722644420472193 1:-0.87361658 2:0.51501155 3:6 4:65 #
-0.00067040977596895484722644420472193 1:-0.3328304 2:0.51999998 3:12 4:11 #
0.00067040977596895484722644420472193 1:-0.523525 2:0.86956519 3:1 4:41 #
0.00067040977596895484722644420472193 1:0.07278768 2:0.89473683 3:3 4:42 #
0.00067040977596895484722644420472193 1:-2.6636498 2:0.48571429 3:25 4:20 #
0.00067040977596895484722644420472193 1:-1.4800612 2:0.75 3:1 4:54 #
-0.00067040977596895484722644420472193 1:-0.48847082 2:0.81818181 3:1 4:56 #
0.00067040977596895484722644420472193 1:0.76407045 2:0.42424244 3:27 4:16 #
-0.00067040977596895484722644420472193 1:0.44825047 2:0.47619048 3:26 4:26 #
-0.00067040977596895484722644420472193 1:-2.7260373 2:0.64516127 3:2 4:13 #
-0.00067040977596895484722644420472193 1:3.009573 2:0.6015625 3:3 4:17 #
0.00067040977596895484722644420472193 1:-4.0818515 2:0.60606062 3:21 4:29 #
0.00067040977596895484722644420472193 1:1.4345548 2:0.75 3:9 4:26 #
-0.00067040977596895484722644420472193 1:-0.48699218 2:0.53047407 3:5 4:64 #
-0.00067040977596895484722644420472193 1:1.6217399 2:0.72727275 3:1 4:19 #
0.00067040977596895484722644420472193 1:-0.7933622 2:0.68421054 3:27 4:27 #
-0.00067040977596895484722644420472193 1:-2.8882151 2:0.61233479 3:1 4:60 #
-0.00067040977596895484722644420472193 1:-1.7203031 2:0.48157248 3:1 4:60 #
0.00067040977596895484722644420472193 1:3.563205 2:0.54545456 3:22 4:0 #
0.00067040977596895484722644420472193 1:-0.6067372 2:0.86666667 3:1 4:26 #
-0.00067040977596895484722644420472193 1:1.5897474 2:0.55769229 3:1 4:17 #
-0.00067040977596895484722644420472193 1:-0.086819761 2:0.56497175 3:28 4:31 #
-0.00067040977596895484722644420472193 1:3.9316697 2:0.66666669 3:12 4:23 #
0.00067040977596895484722644420472193 1:-4.767662 2:0.6785714 3:9 4:36 #
0.00067040977596895484722644420472193 1:-0.17670906 2:0.81481481 3:2 4:42 #
0.00067040977596895484722644420472193 1:0.22274241 2:0.85714287 3:2 4:30 #
-0.00067040977596895484722644420472193 1:0.12088073 2:0.48927039 3:27 4:25 #
-0.00067040977596895484722644420472193 1:1.1766393 2:0.80000001 3:2 4:18 #
-0.00067040977596895484722644420472193 1:0.76778948 2:1 3:1 4:31 #
-0.00067040977596895484722644420472193 1:1.2433115 2:0.69117647 3:1 4:18 #
0.00067040977596895484722644420472193 1:-0.29914781 2:0.64864862 3:25 4:33 #
-0.00067040977596895484722644420472193 1:-1.7944891 2:0.52989131 3:10 4:11 #
0.00067040977596895484722644420472193 1:-1.0587387 2:0.89999998 3:1 4:55 #
-0.00067040977596895484722644420472193 1:0.657291 2:0.54166669 3:6 4:63 #
-0.00067040977596895484722644420472193 1:-4.3733239 2:0.54156172 3:3 4:39 #
-0.00067040977596895484722644420472193 1:-3.4156911 2:0.5575 3:4 4:16 #
-0.00067040977596895484722644420472193 1:1.0842507 2:0.56382978 3:2 4:14 #
0.00067040977596895484722644420472193 1:-1.9772032 2:0.69230771 3:20 4:39 #
0.00067040977596895484722644420472193 1:-1.9772032 2:0.69230771 3:20 4:39 #
-0.00067040977596895484722644420472193 1:2.0084496 2:0.65517241 3:1 4:20 #
0.00067040977596895484722644420472193 1:-2.039681 2:0.54285717 3:24 4:29 #
-0.00067040977596895484722644420472193 1:0.56649482 2:0.57345974 3:1 4:15 #
-0.00067040977596895484722644420472193 1:0.61485511 2:0.59944749 3:2 4:14 #
0.00067040977596895484722644420472193 1:0.35923344 2:0.8125 3:5 4:32 #
0.00067040977596895484722644420472193 1:0.64088374 2:0.63157892 3:25 4:28 #
-0.00067040977596895484722644420472193 1:-0.44730535 2:0.5289256 3:3 4:13 #
0.00067040977596895484722644420472193 1:1.3249174 2:0.71428573 3:7 4:27 #
-0.00067040977596895484722644420472193 1:-1.9050918 2:0.80000001 3:11 4:65 #
-0.00067040977596895484722644420472193 1:1.4630919 2:0.5090909 3:8 4:63 #
0.00067040977596895484722644420472193 1:-1.283053 2:0.58333331 3:23 4:25 #
-0.00067040977596895484722644420472193 1:1.7290362 2:0.51304346 3:3 4:14 #
-0.00067040977596895484722644420472193 1:1.7290362 2:0.56329113 3:1 4:17 #
0.00067040977596895484722644420472193 1:-0.83101451 2:0.55555558 3:24 4:33 #
0.00067040977596895484722644420472193 1:0.1172834 2:0.68421054 3:4 4:26 #
0.00067040977596895484722644420472193 1:-2.1231487 2:0.5714286 3:22 4:25 #
-0.00067040977596895484722644420472193 1:0.86513418 2:0.48554912 3:2 4:59 #
0.00067040977596895484722644420472193 1:0.8331449 2:0.81818181 3:9 4:32 #
-0.00067040977596895484722644420472193 1:-1.4582245 2:0.57653064 3:1 4:59 #
-0.00067040977596895484722644420472193 1:-0.027697772 2:0.63141996 3:1 4:15 #
-0.00067040977596895484722644420472193 1:0.35487682 2:0.78378379 3:8 4:61 #
0.00067040977596895484722644420472193 1:-3.4952939 2:0.56666666 3:15 4:23 #
-0.00067040977596895484722644420472193 1:-3.5045829 2:0.5582822 3:2 4:13 #
0.00067040977596895484722644420472193 1:0.44037086 2:0.63157892 3:6 4:18 #
-0.00067040977596895484722644420472193 1:-1.8114361 2:0.55102038 3:1 4:14 #
0.00067040977596895484722644420472193 1:0.65122885 2:0.51428574 3:24 4:33 #
0.00067040977596895484722644420472193 1:0.45172423 2:0.73333335 3:2 4:23 #
0.00067040977596895484722644420472193 1:-0.2530165 2:0.66666669 3:18 4:41 #
0.00067040977596895484722644420472193 1:-0.53437418 2:0.69565219 3:4 4:23 #
0.00067040977596895484722644420472193 1:2.1405122 2:0.58620691 3:11 4:29 #
0.00067040977596895484722644420472193 1:-0.91583419 2:0.56666666 3:20 4:25 #
0.00067040977596895484722644420472193 1:-0.67634708 2:0.875 3:1 4:55 #
-0.00067040977596895484722644420472193 1:-1.7986834 2:0.42857143 3:2 4:13 #
0.00067040977596895484722644420472193 1:-0.55499303 2:0.62790698 3:24 4:33 #
0.00067040977596895484722644420472193 1:-1.4686558 2:0.57499999 3:23 4:28 #
-0.00067040977596895484722644420472193 1:1.0929867 2:0.57731956 3:1 4:54 #
0.00067040977596895484722644420472193 1:0.24452481 2:0.56756759 3:25 4:29 #
-0.00067040977596895484722644420472193 1:0.68509531 2:0.63157892 3:1 4:16 #
-0.00067040977596895484722644420472193 1:-2.1495407 2:0.4716312 3:13 4:17 #
0.00067040977596895484722644420472193 1:0.37828174 2:0.5714286 3:25 4:29 #
-0.00067040977596895484722644420472193 1:-3.3919678 2:0.55555558 3:1 4:14 #
0.00067040977596895484722644420472193 1:0.92490369 2:0.75 3:19 4:40 #
-0.00067040977596895484722644420472193 1:1.3773308 2:0.58421052 3:7 4:62 #
-0.00067040977596895484722644420472193 1:0.92547053 2:0.44320711 3:1 4:15 #
0.00067040977596895484722644420472193 1:-1.4400977 2:0.5714286 3:23 4:28 #
0.00067040977596895484722644420472193 1:-4.2333665 2:0.60000002 3:6 4:26 #
0.00067040977596895484722644420472193 1:-1.5609564 2:0.80555558 3:1 4:53 #
-0.00067040977596895484722644420472193 1:1.8924991 2:0.82352942 3:1 4:28 #
-0.00067040977596895484722644420472193 1:1.0586475 2:0.89999998 3:2 4:25 #
0.00067040977596895484722644420472193 1:-4.2333665 2:0.60000002 3:16 4:27 #
0.00067040977596895484722644420472193 1:-0.13197196 2:0.8125 3:4 4:30 #
-0.00067040977596895484722644420472193 1:-3.1313288 2:0.74285716 3:1 4:58 #
-0.00067040977596895484722644420472193 1:-3.2162869 2:0.74358976 3:1 4:19 #
0.00067040977596895484722644420472193 1:-0.16207619 2:0.61363637 3:24 4:32 #
0.00067040977596895484722644420472193 1:-3.0552709 2:0.64516127 3:1 4:21 #
-0.00067040977596895484722644420472193 1:-3.9745059 2:0.54040402 3:3 4:62 #
0.00067040977596895484722644420472193 1:1.5611223 2:0.63636363 3:21 4:25 #
0.00067040977596895484722644420472193 1:-0.38770133 2:0.86206895 3:1 4:55 #
-0.00067040977596895484722644420472193 1:1.9379598 2:0.51111114 3:1 4:17 #
-0.00067040977596895484722644420472193 1:0.029611614 2:0.63404256 3:1 4:56 #
-0.00067040977596895484722644420472193 1:-2.3271997 2:0.60784316 3:11 4:11 #
0.00067040977596895484722644420472193 1:-0.35526755 2:0.5 3:22 4:35 #
-0.00067040977596895484722644420472193 1:-2.3059812 2:0.61971831 3:2 4:60 #
0.00067040977596895484722644420472193 1:-0.74392003 2:0.51851851 3:18 4:24 #
-0.00067040977596895484722644420472193 1:-0.89191586 2:0.78571427 3:4 4:60 #
0.00067040977596895484722644420472193 1:-0.70189553 2:0.8125 3:1 4:29 #
-0.00067040977596895484722644420472193 1:-0.75764185 2:0.66666669 3:1 4:15 #
-0.00067040977596895484722644420472193 1:1.6745567 2:0.50936329 3:22 4:11 #
0.00067040977596895484722644420472193 1:1.4630919 2:0.60000002 3:20 4:25 #
2.3442385065036153632129882484758e-06 1:-0.3498331 2:0.88 3:1 4:55 #
0.00067040977596895484722644420472193 1:-1.1924082 2:0.84615386 3:1 4:54 #
-0.00067040977596895484722644420472193 1:-1.9203862 2:0.5 3:11 4:14 #
0.00067040977596895484722644420472193 1:-3.2415507 2:0.58823532 3:9 4:22 #
0.00067040977596895484722644420472193 1:-0.59684259 2:0.6388889 3:24 4:30 #
0.00067040977596895484722644420472193 1:-3.1589847 2:0.60869563 3:2 4:21 #
-0.00067040977596895484722644420472193 1:-2.0011551 2:0.44318181 3:2 4:13 #
-0.00067040977596895484722644420472193 1:0.5033493 2:0.55833334 3:27 4:19 #
0.00067040977596895484722644420472193 1:0.12249439 2:0.7647059 3:5 4:30 #
0.00067040977596895484722644420472193 1:0.87651455 2:0.62222224 3:20 4:38 #
-0.00067040977596895484722644420472193 1:0.38196158 2:0.52238804 3:1 4:15 #
0.00067040977596895484722644420472193 1:-1.4739627 2:0.6875 3:19 4:38 #
-0.00067040977596895484722644420472193 1:-2.4639013 2:0.51948053 3:11 4:16 #
-0.00067040977596895484722644420472193 1:-0.86590743 2:0.6201117 3:2 4:59 #
0.00067040977596895484722644420472193 1:-0.26387537 2:0.65714288 3:23 4:27 #
0.00067040977596895484722644420472193 1:1.066094 2:0.72727275 3:6 4:34 #
-0.00067040977596895484722644420472193 1:0.82847458 2:0.42288557 3:4 4:13 #
-0.00067040977596895484722644420472193 1:0.47894251 2:0.57203388 3:7 4:12 #
-0.00067040977596895484722644420472193 1:-0.073344804 2:0.55855858 3:4 4:13 #
0.00067040977596895484722644420472193 1:0.04750723 2:0.82352942 3:1 4:36 #
-0.00067040977596895484722644420472193 1:0.16773632 2:0.6875 3:12 4:64 #
0.00067040977596895484722644420472193 1:-2.1493802 2:0.65217394 3:13 4:23 #
0.00067040977596895484722644420472193 1:-0.11188418 2:0.89999998 3:1 4:43 #
0.00067040977596895484722644420472193 1:-0.069113865 2:0.58620691 3:19 4:25 #
0.00067040977596895484722644420472193 1:-1.0284865 2:0.6388889 3:21 4:27 #
-0.00067040977596895484722644420472193 1:1.9871616 2:0.78571427 3:3 4:47 #
0.00067040977596895484722644420472193 1:0.71265435 2:0.75862068 3:8 4:36 #
0.00067040977596895484722644420472193 1:-2.8783627 2:0.58974361 3:19 4:33 #
-0.00067040977596895484722644420472193 1:-0.48411068 2:0.88 3:1 4:44 #
0.00067040977596895484722644420472193 1:-2.8713953 2:0.53658539 3:1 4:22 #
0.00067040977596895484722644420472193 1:-0.14567243 2:0.5 3:23 4:32 #
-0.00067040977596895484722644420472193 1:-2.8464532 2:0.46835443 3:2 4:13 #
0.00067040977596895484722644420472193 1:-2.7506936 2:0.63157892 3:3 4:21 #
-0.00067040977596895484722644420472193 1:2.3232894 2:0.49199083 3:1 4:52 #
0.00067040977596895484722644420472193 1:-1.9998389 2:0.5 3:18 4:26 #
-0.00067040977596895484722644420472193 1:0.73323071 2:0.92307693 3:1 4:30 #
-0.00067040977596895484722644420472193 1:-0.57990783 2:0.76923078 3:1 4:54 #
0.00067040977596895484722644420472193 1:-0.76545447 2:0.5945946 3:22 4:32 #
0.00067040977596895484722644420472193 1:-0.016557088 2:0.71428573 3:3 4:26 #
-0.00067040977596895484722644420472193 1:-4.2188716 2:0.5 3:1 4:17 #
0.00067040977596895484722644420472193 1:0.23378758 2:0.61904764 3:22 4:33 #
-0.00067040977596895484722644420472193 1:-1.7578623 2:0.56666666 3:3 4:13 #
0.00067040977596895484722644420472193 1:-1.3503268 2:0.66666669 3:21 4:29 #
-0.00067040977596895484722644420472193 1:0.41762468 2:0.65040648 3:1 4:16 #
0.00067040977596895484722644420472193 1:-1.612577 2:0.63157892 3:21 4:35 #
0.00067040977596895484722644420472193 1:0.052060157 2:0.55882353 3:1 4:21 #
-0.00067040977596895484722644420472193 1:-2.2198033 2:0.51086956 3:7 4:63 #
-0.00067040977596895484722644420472193 1:3.3265741 2:0.5575 3:12 4:13 #
0.00067040977596895484722644420472193 1:-1.4242607 2:0.60000002 3:13 4:23 #
-0.00067040977596895484722644420472193 1:-0.92567194 2:0.72307694 3:9 4:62 #
0.00067040977596895484722644420472193 1:-2.7577515 2:0.4642857 3:15 4:25 #
-0.00067040977596895484722644420472193 1:-0.89435154 2:0.51724136 3:17 4:17 #
0.00067040977596895484722644420472193 1:0.97780269 2:0.57499999 3:17 4:41 #
-0.00067040977596895484722644420472193 1:0.029231697 2:0.63513511 3:31 4:65 #
0.00067040977596895484722644420472193 1:-2.6808379 2:0.75 3:1 4:21 #
-0.00067040977596895484722644420472193 1:-1.9119769 2:0.61538464 3:6 4:61 #
0.00067040977596895484722644420472193 1:-3.5373328 2:0.7368421 3:9 4:22 #
-0.00067040977596895484722644420472193 1:0.51866442 2:0.46774194 3:1 4:15 #
0.00067040977596895484722644420472193 1:-1.6686292 2:0.7352941 3:17 4:40 #
-0.00067040977596895484722644420472193 1:-1.0765049 2:0.53697747 3:5 4:60 #
0.00067040977596895484722644420472193 1:-2.303566 2:0.69230771 3:17 4:25 #
-0.00067040977596895484722644420472193 1:-0.42419687 2:0.57746476 3:2 4:14 #
-0.00067040977596895484722644420472193 1:-2.5386355 2:0.60784316 3:6 4:21 #
0.00067040977596895484722644420472193 1:0.55010563 2:0.76190478 3:3 4:33 #
-0.00067040977596895484722644420472193 1:-0.50818563 2:0.58390802 3:1 4:57 #
0.00067040977596895484722644420472193 1:1.683097 2:0.72727275 3:9 4:24 #
-0.00067040977596895484722644420472193 1:2.9618738 2:0.62548262 3:9 4:14 #
-0.00067040977596895484722644420472193 1:-2.0595367 2:0.76923078 3:16 4:65 #
0.00067040977596895484722644420472193 1:-2.8660197 2:0.66666669 3:9 4:22 #
-0.00067040977596895484722644420472193 1:-1.6304053 2:0.6785714 3:1 4:15 #
0.00067040977596895484722644420472193 1:1.5837631 2:0.52499998 3:21 4:36 #
-0.00067040977596895484722644420472193 1:-1.7477802 2:0.57751936 3:1 4:57 #
0.00067040977596895484722644420472193 1:1.3479143 2:0.67741936 3:21 4:26 #
-0.00067040977596895484722644420472193 1:-0.10668091 2:0.54522616 3:4 4:13 #
0.00067040977596895484722644420472193 1:0.90592635 2:0.77272725 3:5 4:32 #
-0.00067040977596895484722644420472193 1:-0.79240757 2:0.61923075 3:26 4:66 #
0.00067040977596895484722644420472193 1:-0.93902093 2:0.68000001 3:13 4:23 #
-0.00067040977596895484722644420472193 1:-0.73940885 2:0.64480877 3:1 4:15 #
-0.00067040977596895484722644420472193 1:-0.3851662 2:0.54000002 3:16 4:11 #
0.00067040977596895484722644420472193 1:0.45294222 2:0.66666669 3:6 4:29 #
-0.00067040977596895484722644420472193 1:0.24104863 2:0.51851851 3:14 4:62 #
0.00067040977596895484722644420472193 1:-0.88346356 2:0.75 3:13 4:23 #
0.00067040977596895484722644420472193 1:-2.4297156 2:0.6857143 3:18 4:38 #
-0.00067040977596895484722644420472193 1:-1.0192412 2:0.72727275 3:1 4:16 #
-0.00067040977596895484722644420472193 1:-0.24840999 2:0.66863906 3:1 4:55 #
0.00067040977596895484722644420472193 1:-2.4984231 2:0.59375 3:18 4:27 #
-0.00067040977596895484722644420472193 1:-0.46020889 2:0.54285717 3:17 4:17 #
-0.00067040977596895484722644420472193 1:-1.1924082 2:0.64039409 3:1 4:15 #
0.00067040977596895484722644420472193 1:0.97419429 2:0.7368421 3:7 4:29 #
-0.00067040977596895484722644420472193 1:-0.089622274 2:0.70588237 3:23 4:64 #
-0.00067040977596895484722644420472193 1:-1.8782078 2:0.5595668 3:3 4:13 #
-0.0005504767559816062466940267405846 1:-3.9745059 2:0.63492066 3:3 4:13 #
0.00067040977596895484722644420472193 1:-1.0884297 2:0.66666669 3:21 4:29 #
-0.00067040977596895484722644420472193 1:1.1297721 2:0.50134051 3:1 4:54 #
0.00067040977596895484722644420472193 1:0.27327481 2:0.7647059 3:4 4:25 #
-0.00067040977596895484722644420472193 1:-2.314213 2:0.72222221 3:8 4:60 #
0.00067040977596895484722644420472193 1:-2.3405621 2:0.65217394 3:14 4:24 #
-0.00067040977596895484722644420472193 1:0.83705974 2:0.5057143 3:8 4:12 #
0.00067040977596895484722644420472193 1:0.38021734 2:0.69999999 3:1 4:27 #
-0.00067040977596895484722644420472193 1:-2.0804424 2:0.64393938 3:8 4:60 #
0.00067040977596895484722644420472193 1:-1.6700976 2:0.63333333 3:19 4:26 #
-0.00067040977596895484722644420472193 1:-1.0547432 2:0.47045454 3:6 4:12 #
-0.00067040977596895484722644420472193 1:0.82922393 2:0.5321101 3:5 4:13 #
-0.00067040977596895484722644420472193 1:-3.8487985 2:0.546875 3:3 4:16 #
0.00067040977596895484722644420472193 1:0.68980318 2:0.75 3:3 4:23 #
-0.00067040977596895484722644420472193 1:1.3764042 2:0.62022471 3:24 4:60 #
