SVM-light Version V6.02
0 # kernel type
3 # kernel parameter -d 
1 # kernel parameter -g 
1 # kernel parameter -s 
1 # kernel parameter -r 
empty# kernel parameter -u 
4 # highest feature index 
16298 # number of training documents 
8165 # number of support vectors plus 1 
-0.53459673 # threshold b, each following line is a SV (starting with alpha*y)
-0.00063411806898195938880791189262709 1:-2.2874789 2:0.51902175 3:3 4:19 #
0.00063411806898195938880791189262709 1:1.381747 2:0.6875 3:8 4:43 #
-0.00063411806898195938880791189262709 1:-1.2915654 2:0.60799998 3:2 4:116 #
0.00063411806898195938880791189262709 1:-1.5594777 2:0.60000002 3:10 4:0 #
-0.00063411806898195938880791189262709 1:-1.1654052 2:0.59722221 3:18 4:40 #
-0.00063411806898195938880791189262709 1:-1.6359608 2:0.58119661 3:8 4:41 #
-0.00063411806898195938880791189262709 1:2.0696006 2:0.60747665 3:1 4:12 #
-0.00063411806898195938880791189262709 1:-0.012896592 2:0.56204379 3:14 4:26 #
0.00063411806898195938880791189262709 1:0.032460555 2:0.55102038 3:49 4:0 #
-0.00063411806898195938880791189262709 1:1.4529861 2:0.80000001 3:10 4:0 #
-0.00063411806898195938880791189262709 1:0.92437589 2:0.4523077 3:1 4:11 #
0.00063411806898195938880791189262709 1:-3.416872 2:0.78260869 3:18 4:72 #
-0.00063411806898195938880791189262709 1:-1.7045881 2:0.60000002 3:10 4:0 #
0.00063411806898195938880791189262709 1:-4.7021284 2:0.59090906 3:22 4:0 #
0.00063411806898195938880791189262709 1:-2.4466889 2:0.67391306 3:19 4:59 #
0.00063411806898195938880791189262709 1:-1.4560502 2:0.40000001 3:10 4:0 #
-0.00063411806898195938880791189262709 1:-0.59482247 2:0.58333331 3:12 4:0 #
0.00063411806898195938880791189262709 1:0.92437589 2:0.69565219 3:17 4:60 #
0.00063411806898195938880791189262709 1:0.97100824 2:0.63157892 3:5 4:26 #
0.00063411806898195938880791189262709 1:-4.1849232 2:0.58823532 3:17 4:0 #
-0.00063411806898195938880791189262709 1:2.2077177 2:0.60000002 3:20 4:0 #
0.00063411806898195938880791189262709 1:0.45696235 2:0.68292683 3:17 4:59 #
0.00063411806898195938880791189262709 1:2.3494046 2:0.72340423 3:22 4:57 #
-0.00063411806898195938880791189262709 1:1.4536412 2:0.60000002 3:25 4:0 #
0.00063411806898195938880791189262709 1:-1.1772984 2:0.62222224 3:18 4:57 #
-0.00063411806898195938880791189262709 1:-0.48962525 2:0.56521738 3:23 4:0 #
0.00063411806898195938880791189262709 1:-0.47053662 2:0.73913044 3:16 4:55 #
-0.00063411806898195938880791189262709 1:0.35252687 2:0.56 3:25 4:0 #
0.00063411806898195938880791189262709 1:-1.3362998 2:0.74358976 3:18 4:53 #
-0.00063411806898195938880791189262709 1:-1.5865074 2:0.617737 3:13 4:25 #
0.00063411806898195938880791189262709 1:-1.1491352 2:0.68888891 3:23 4:51 #
0.00063411806898195938880791189262709 1:1.1722145 2:0.5 3:10 4:0 #
0.00063411806898195938880791189262709 1:-2.6761785 2:0.65217394 3:14 4:51 #
0.00063411806898195938880791189262709 1:0.4533948 2:0.5 3:46 4:0 #
-0.00063411806898195938880791189262709 1:-3.7984831 2:0.54545456 3:1 4:11 #
0.00063411806898195938880791189262709 1:1.7510275 2:0.71794873 3:20 4:52 #
0.00063411806898195938880791189262709 1:-2.056572 2:0.5 3:38 4:0 #
-0.00063411806898195938880791189262709 1:0.74876511 2:0.55263156 3:1 4:11 #
0.00063411806898195938880791189262709 1:-1.6343527 2:0.69387758 3:20 4:52 #
0.00063411806898195938880791189262709 1:-4.9778538 2:0.74285716 3:13 4:48 #
-0.00063411806898195938880791189262709 1:0.030597026 2:0.67647058 3:1 4:11 #
-0.00063411806898195938880791189262709 1:4.1229491 2:0.69918698 3:1 4:32 #
0.00063411806898195938880791189262709 1:0.11412164 2:0.66666669 3:7 4:31 #
0.00063411806898195938880791189262709 1:-0.91016769 2:0.52272725 3:22 4:51 #
-0.00063411806898195938880791189262709 1:-1.114186 2:0.5089286 3:17 4:33 #
0.00063411806898195938880791189262709 1:-0.51969147 2:0.88235295 3:2 4:38 #
0.00063411806898195938880791189262709 1:0.56495517 2:0.6875 3:24 4:51 #
0.00063411806898195938880791189262709 1:0.4533948 2:0.5 3:46 4:0 #
-0.00063411806898195938880791189262709 1:3.3411407 2:0.58823532 3:1 4:31 #
-0.00063411806898195938880791189262709 1:-2.417779 2:0.56826568 3:7 4:23 #
0.00063411806898195938880791189262709 1:1.4769462 2:0.80000001 3:10 4:0 #
-0.00063411806898195938880791189262709 1:-0.22822167 2:0.55737704 3:1 4:30 #
0.00063411806898195938880791189262709 1:-0.063989282 2:0.48888889 3:45 4:0 #
-0.00063411806898195938880791189262709 1:-0.50500435 2:0.67039108 3:21 4:31 #
0.00063411806898195938880791189262709 1:-3.0378869 2:0.71428573 3:14 4:50 #
-0.00063411806898195938880791189262709 1:3.0358431 2:0.78947371 3:6 4:29 #
0.00063411806898195938880791189262709 1:-0.17094325 2:0.7647059 3:4 4:27 #
-0.00063411806898195938880791189262709 1:-2.3968587 2:0.60000002 3:15 4:42 #
0.00063411806898195938880791189262709 1:1.2873602 2:0.56097561 3:41 4:0 #
0.00063411806898195938880791189262709 1:0.34387055 2:0.80000001 3:3 4:27 #
0.00063411806898195938880791189262709 1:0.35088274 2:0.61538464 3:16 4:51 #
0.00063411806898195938880791189262709 1:0.43847927 2:0.69999999 3:10 4:0 #
0.00063411806898195938880791189262709 1:0.63418001 2:0.80000001 3:10 4:0 #
-0.00063411806898195938880791189262709 1:3.2854948 2:0.53582555 3:20 4:19 #
0.00063411806898195938880791189262709 1:-0.40864575 2:0.53658539 3:41 4:0 #
0.00063411806898195938880791189262709 1:0.45757809 2:0.71428573 3:8 4:30 #
0.00063411806898195938880791189262709 1:-0.23614652 2:0.85714287 3:1 4:29 #
0.00063411806898195938880791189262709 1:-4.6275473 2:0.79166669 3:11 4:33 #
0.00063411806898195938880791189262709 1:-4.5678596 2:0.5 3:11 4:32 #
-0.00063411806898195938880791189262709 1:0.33340159 2:0.5 3:18 4:19 #
0.00063411806898195938880791189262709 1:0.27163097 2:0.44999999 3:40 4:0 #
-0.00063411806898195938880791189262709 1:0.32247326 2:0.51923078 3:19 4:19 #
0.00063411806898195938880791189262709 1:0.034346417 2:0.75 3:3 4:28 #
-0.00063411806898195938880791189262709 1:1.6205847 2:0.52452832 3:18 4:19 #
0.00063411806898195938880791189262709 1:2.1824467 2:0.43243244 3:37 4:0 #
-0.00063411806898195938880791189262709 1:-2.1926661 2:0.60919541 3:9 4:19 #
0.00063411806898195938880791189262709 1:-0.34852663 2:0.65957445 3:30 4:44 #
-0.00063411806898195938880791189262709 1:3.5125828 2:0.60550457 3:32 4:12 #
-0.00063411806898195938880791189262709 1:3.7304752 2:0.63414633 3:25 4:17 #
0.00063411806898195938880791189262709 1:0.2962167 2:0.69999999 3:10 4:0 #
0.00063411806898195938880791189262709 1:-0.72080553 2:0.60000002 3:10 4:0 #
-0.00063411806898195938880791189262709 1:-1.7135053 2:0.52140075 3:11 4:10 #
0.00063411806898195938880791189262709 1:-2.6762557 2:0.48979592 3:40 4:24 #
-0.00063411806898195938880791189262709 1:-0.76232308 2:0.43377483 3:21 4:17 #
-0.00063411806898195938880791189262709 1:-1.7497884 2:0.73846155 3:11 4:19 #
-0.00063411806898195938880791189262709 1:-1.1441776 2:0.52752292 3:18 4:23 #
-0.00063411806898195938880791189262709 1:2.575937 2:0.55257273 3:18 4:19 #
-0.00063411806898195938880791189262709 1:1.1493353 2:0.60606062 3:33 4:0 #
-0.00063411806898195938880791189262709 1:0.79721355 2:0.42631578 3:29 4:13 #
0.00063411806898195938880791189262709 1:2.2373621 2:0.72727275 3:11 4:0 #
0.00063411806898195938880791189262709 1:2.1983478 2:0.81818181 3:11 4:0 #
0.00063411806898195938880791189262709 1:-0.94576806 2:0.4375 3:40 4:19 #
-0.00063411806898195938880791189262709 1:-2.7443981 2:0.46651271 3:9 4:16 #
0.00063411806898195938880791189262709 1:-2.0700271 2:0.60000002 3:13 4:40 #
-0.00063411806898195938880791189262709 1:3.3460348 2:0.47033897 3:20 4:19 #
-0.00063411806898195938880791189262709 1:-1.4161344 2:0.55442178 3:17 4:18 #
-0.00063411806898195938880791189262709 1:-1.9645503 2:0.53409094 3:11 4:23 #
0.00063411806898195938880791189262709 1:1.0879179 2:0.54054052 3:37 4:0 #
-0.00063411806898195938880791189262709 1:-1.4118596 2:0.44044322 3:16 4:14 #
-0.00063411806898195938880791189262709 1:2.2777658 2:0.53879309 3:29 4:12 #
0.00063411806898195938880791189262709 1:-4.0515156 2:0.54347825 3:10 4:14 #
0.00063411806898195938880791189262709 1:0.41669524 2:0.84210527 3:5 4:35 #
-0.00063411806898195938880791189262709 1:-0.29592925 2:0.5945946 3:23 4:25 #
0.00063411806898195938880791189262709 1:-1.2722994 2:0.625 3:17 4:51 #
0.00063411806898195938880791189262709 1:-0.078173779 2:0.43243244 3:37 4:0 #
-0.00063411806898195938880791189262709 1:2.599793 2:0.58757061 3:23 4:18 #
0.00063411806898195938880791189262709 1:1.4628348 2:0.66666669 3:8 4:26 #
0.00063411806898195938880791189262709 1:1.222122 2:0.52777779 3:36 4:0 #
0.00063411806898195938880791189262709 1:2.7468832 2:0.64285713 3:15 4:29 #
0.00063411806898195938880791189262709 1:-2.4576716 2:0.56097561 3:10 4:11 #
0.00063411806898195938880791189262709 1:1.4810928 2:0.54347825 3:38 4:20 #
0.00063411806898195938880791189262709 1:-2.1787238 2:0.78378379 3:17 4:51 #
-0.00063411806898195938880791189262709 1:-1.016796 2:0.54243541 3:15 4:19 #
0.00063411806898195938880791189262709 1:1.9935592 2:0.65217394 3:12 4:22 #
0.00026720950881073044207852928977331 1:1.0392359 2:0.69230771 3:4 4:20 #
0.00063411806898195938880791189262709 1:4.0632882 2:0.56521738 3:23 4:0 #
-0.00063411806898195938880791189262709 1:2.6003864 2:0.41532257 3:26 4:15 #
0.00063411806898195938880791189262709 1:-3.8137987 2:0.6111111 3:10 4:21 #
0.00063411806898195938880791189262709 1:-0.64371681 2:0.51351351 3:37 4:0 #
-0.00063411806898195938880791189262709 1:1.383431 2:0.47716895 3:13 4:10 #
0.00063411806898195938880791189262709 1:-2.7368231 2:0.64285713 3:24 4:47 #
0.00063411806898195938880791189262709 1:-2.2996533 2:0.54545456 3:11 4:0 #
-0.00063411806898195938880791189262709 1:2.5253379 2:0.42238268 3:20 4:18 #
0.00063411806898195938880791189262709 1:-2.4576716 2:0.56097561 3:10 4:11 #
-0.00063411806898195938880791189262709 1:2.1113305 2:0.56862748 3:22 4:18 #
-0.00063411806898195938880791189262709 1:-1.161815 2:0.53586495 3:17 4:18 #
-0.00063411806898195938880791189262709 1:0.13497317 2:0.5925926 3:23 4:15 #
-0.00063411806898195938880791189262709 1:0.29761449 2:0.4244186 3:29 4:24 #
0.00063411806898195938880791189262709 1:1.0014949 2:0.63636363 3:11 4:0 #
-0.00063411806898195938880791189262709 1:1.0183778 2:0.63120568 3:13 4:10 #
-0.00063411806898195938880791189262709 1:-1.749121 2:0.60135138 3:13 4:13 #
0.00063411806898195938880791189262709 1:-1.2542288 2:0.39130434 3:39 4:21 #
0.00063411806898195938880791189262709 1:-0.72221786 2:0.36363637 3:11 4:0 #
-0.00063411806898195938880791189262709 1:-1.4047543 2:0.49635038 3:15 4:23 #
0.00063411806898195938880791189262709 1:0.17522244 2:0.40000001 3:35 4:0 #
0.00063411806898195938880791189262709 1:0.68120706 2:0.75 3:3 4:27 #
-0.00063411806898195938880791189262709 1:1.2247561 2:0.51658767 3:28 4:13 #
0.00063411806898195938880791189262709 1:-3.4663138 2:0.66666669 3:10 4:13 #
0.00063411806898195938880791189262709 1:3.5425675 2:0.51999998 3:25 4:0 #
0.00063411806898195938880791189262709 1:-1.5449656 2:0.66666669 3:20 4:49 #
0.00063411806898195938880791189262709 1:1.4697814 2:0.51162791 3:37 4:15 #
0.00063411806898195938880791189262709 1:0.3879225 2:0.5 3:34 4:0 #
0.00063411806898195938880791189262709 1:1.0322317 2:0.72727275 3:11 4:0 #
-0.00063411806898195938880791189262709 1:0.98289788 2:0.44078946 3:21 4:18 #
-0.00063411806898195938880791189262709 1:-1.1195841 2:0.53571427 3:17 4:18 #
-0.00063411806898195938880791189262709 1:-1.520028 2:0.70212764 3:18 4:18 #
0.00063411806898195938880791189262709 1:1.5026261 2:0.5 3:32 4:0 #
-0.00063411806898195938880791189262709 1:-2.4990897 2:0.56275302 3:8 4:22 #
-0.00063411806898195938880791189262709 1:0.49016955 2:0.56179774 3:28 4:13 #
-0.00063411806898195938880791189262709 1:-1.6946959 2:0.47761193 3:13 4:12 #
0.00063411806898195938880791189262709 1:-0.55709946 2:0.72727275 3:15 4:47 #
-0.00063411806898195938880791189262709 1:0.68478405 2:0.58139533 3:20 4:18 #
-0.00063411806898195938880791189262709 1:0.34009477 2:0.63999999 3:17 4:18 #
-0.00063411806898195938880791189262709 1:0.47096795 2:0.55275232 3:17 4:18 #
0.00063411806898195938880791189262709 1:-0.71204805 2:0.38235295 3:34 4:0 #
0.00063411806898195938880791189262709 1:-3.8381968 2:0.5 3:26 4:0 #
-0.00063411806898195938880791189262709 1:0.19247907 2:0.5138889 3:27 4:11 #
-0.00063411806898195938880791189262709 1:-1.0650249 2:0.55230123 3:19 4:23 #
0.00063411806898195938880791189262709 1:0.9841938 2:0.72727275 3:11 4:0 #
-0.00063411806898195938880791189262709 1:-2.8393281 2:0.72000003 3:13 4:31 #
-0.00063411806898195938880791189262709 1:-1.7955145 2:0.50997782 3:9 4:17 #
0.00063411806898195938880791189262709 1:0.47327164 2:0.64285713 3:2 4:35 #
0.00063411806898195938880791189262709 1:0.52332813 2:0.54545456 3:11 4:0 #
0.00063411806898195938880791189262709 1:0.48833442 2:0.72727275 3:11 4:0 #
0.00063411806898195938880791189262709 1:-2.2393081 2:0.38297874 3:38 4:20 #
-0.00063411806898195938880791189262709 1:1.1400599 2:0.47176081 3:13 4:13 #
0.00063411806898195938880791189262709 1:-0.61770791 2:0.70454544 3:17 4:49 #
0.00063411806898195938880791189262709 1:1.2488347 2:0.59375 3:32 4:0 #
0.00063411806898195938880791189262709 1:-1.0678874 2:0.64999998 3:21 4:48 #
-0.00063411806898195938880791189262709 1:-0.90615779 2:0.56164384 3:22 4:26 #
-0.00063411806898195938880791189262709 1:-2.1703675 2:0.54153848 3:15 4:22 #
-0.00063411806898195938880791189262709 1:1.5002301 2:0.5535714 3:13 4:11 #
0.00063411806898195938880791189262709 1:-3.2782664 2:0.61702126 3:32 4:38 #
-0.00063411806898195938880791189262709 1:3.4373505 2:0.52499998 3:24 4:17 #
0.00063411806898195938880791189262709 1:0.41331908 2:0.72727275 3:11 4:0 #
-0.00063411806898195938880791189262709 1:-1.2440802 2:0.64556962 3:19 4:18 #
-0.00063411806898195938880791189262709 1:0.65969217 2:0.53007519 3:30 4:15 #
-0.00063411806898195938880791189262709 1:1.3343542 2:0.54212457 3:16 4:9 #
0.00063411806898195938880791189262709 1:-2.7443981 2:0.52272725 3:36 4:20 #
0.00063411806898195938880791189262709 1:-2.2996533 2:0.54545456 3:11 4:0 #
0.00063411806898195938880791189262709 1:-3.0543594 2:0.5945946 3:17 4:48 #
-0.00063411806898195938880791189262709 1:-1.3106563 2:0.51597053 3:18 4:18 #
0.00063411806898195938880791189262709 1:1.7254977 2:0.75 3:9 4:21 #
-0.00063411806898195938880791189262709 1:1.535071 2:0.52525252 3:19 4:18 #
-0.00063411806898195938880791189262709 1:-0.62192774 2:0.51440328 3:20 4:18 #
0.00063411806898195938880791189262709 1:2.9050877 2:0.35714287 3:14 4:0 #
-0.00063411806898195938880791189262709 1:-2.1212142 2:0.4968017 3:10 4:18 #
-0.00063411806898195938880791189262709 1:1.6779454 2:0.54918033 3:14 4:13 #
0.00063411806898195938880791189262709 1:-3.4663138 2:0.64705884 3:10 4:19 #
-0.00063411806898195938880791189262709 1:-1.2756985 2:0.5479452 3:16 4:26 #
0.00063411806898195938880791189262709 1:0.71726543 2:0.68292683 3:19 4:46 #
-0.00063411806898195938880791189262709 1:-0.97404975 2:0.58433735 3:17 4:18 #
-0.00063411806898195938880791189262709 1:2.654892 2:0.59815949 3:25 4:16 #
-0.00063411806898195938880791189262709 1:0.97097492 2:0.50873363 3:27 4:12 #
0.00063411806898195938880791189262709 1:0.59799665 2:0.47058824 3:11 4:11 #
-0.00063411806898195938880791189262709 1:-2.3343861 2:0.5443787 3:13 4:13 #
-0.00063411806898195938880791189262709 1:1.5916524 2:0.52631581 3:26 4:14 #
-0.00063411806898195938880791189262709 1:1.5191132 2:0.40476191 3:26 4:15 #
0.00063411806898195938880791189262709 1:-2.0135438 2:0.54545456 3:11 4:0 #
0.00063411806898195938880791189262709 1:1.6055996 2:0.54347825 3:36 4:17 #
0.00063411806898195938880791189262709 1:-1.829089 2:0.69047618 3:21 4:47 #
0.00063411806898195938880791189262709 1:-0.37165833 2:0.63636363 3:11 4:0 #
0.00063411806898195938880791189262709 1:0.77776158 2:0.5625 3:32 4:0 #
0.00063411806898195938880791189262709 1:-0.88066375 2:0.7647059 3:17 4:48 #
0.00063411806898195938880791189262709 1:1.2467588 2:0.51612902 3:31 4:0 #
0.00063411806898195938880791189262709 1:0.25820535 2:0.75 3:3 4:36 #
-0.00063411806898195938880791189262709 1:-1.9252107 2:0.60000002 3:7 4:100 #
-0.00063411806898195938880791189262709 1:-1.1066296 2:0.63636363 3:18 4:36 #
-0.00063411806898195938880791189262709 1:-4.8202276 2:0.68449199 3:1 4:141 #
0.00063411806898195938880791189262709 1:1.0956726 2:0.45161289 3:31 4:0 #
-0.00063411806898195938880791189262709 1:-1.5216507 2:0.55963302 3:1 4:11 #
0.00063411806898195938880791189262709 1:-1.5725428 2:0.5714286 3:31 4:41 #
-0.00063411806898195938880791189262709 1:-1.1269213 2:0.49438202 3:1 4:11 #
-0.00063411806898195938880791189262709 1:-0.97569519 2:0.5714286 3:19 4:24 #
-0.00063411806898195938880791189262709 1:0.25593233 2:0.52173913 3:1 4:11 #
-0.00063411806898195938880791189262709 1:-2.9571571 2:0.5433526 3:4 4:9 #
-0.00063411806898195938880791189262709 1:0.37567237 2:0.89473683 3:1 4:216 #
-0.00063411806898195938880791189262709 1:-0.84244508 2:0.40579709 3:10 4:22 #
-0.00063411806898195938880791189262709 1:4.1851335 2:0.85714287 3:1 4:25 #
-0.00063411806898195938880791189262709 1:-3.872309 2:0.59190029 3:4 4:23 #
0.00063411806898195938880791189262709 1:0.52332813 2:0.88235295 3:4 4:35 #
-0.00063411806898195938880791189262709 1:1.2941396 2:0.5 3:4 4:10 #
0.00063411806898195938880791189262709 1:0.51897568 2:0.77777779 3:7 4:28 #
-0.00063411806898195938880791189262709 1:4.155149 2:0.66666669 3:1 4:46 #
0.00063411806898195938880791189262709 1:0.91211355 2:0.69230771 3:13 4:58 #
-0.00063411806898195938880791189262709 1:3.7304752 2:0.53846157 3:1 4:14 #
-0.00063411806898195938880791189262709 1:-3.1349671 2:0.46650717 3:3 4:22 #
0.00063411806898195938880791189262709 1:0.17619073 2:0.66666669 3:6 4:31 #
0.00063411806898195938880791189262709 1:-0.18137872 2:0.81818181 3:3 4:43 #
0.00063411806898195938880791189262709 1:-1.7075288 2:0.89795917 3:3 4:108 #
0.00063411806898195938880791189262709 1:-2.488981 2:0.79069769 3:1 4:78 #
0.00063411806898195938880791189262709 1:-1.0715367 2:0.90476191 3:2 4:103 #
0.00063411806898195938880791189262709 1:-1.560807 2:0.5106383 3:36 4:25 #
0.00063411806898195938880791189262709 1:-0.88798708 2:0.80000001 3:2 4:38 #
0.00063411806898195938880791189262709 1:0.99272615 2:0.64705884 3:7 4:21 #
-0.00063411806898195938880791189262709 1:2.5124321 2:0.89999998 3:1 4:18 #
0.00063411806898195938880791189262709 1:0.18376301 2:0.7368421 3:5 4:30 #
0.00063411806898195938880791189262709 1:1.2867439 2:0.52499998 3:35 4:13 #
-0.00063411806898195938880791189262709 1:-5.2072906 2:0.82608694 3:1 4:56 #
0.00063411806898195938880791189262709 1:1.7254977 2:0.5 3:35 4:17 #
-0.00063411806898195938880791189262709 1:0.065868728 2:0.79365081 3:12 4:100 #
0.00063411806898195938880791189262709 1:-2.3985004 2:0.94871795 3:1 4:101 #
-0.00063411806898195938880791189262709 1:0.20731206 2:0.52806121 3:1 4:11 #
0.00063411806898195938880791189262709 1:-1.2744848 2:0.51020408 3:35 4:21 #
0.00063411806898195938880791189262709 1:-4.3683405 2:0.67441863 3:31 4:27 #
0.00063411806898195938880791189262709 1:-0.06123396 2:0.82352942 3:5 4:32 #
0.00063411806898195938880791189262709 1:0.86435461 2:0.76595747 3:15 4:84 #
-0.00063411806898195938880791189262709 1:-2.4814875 2:0.57458562 3:17 4:93 #
-0.00063411806898195938880791189262709 1:-1.7895719 2:1 3:1 4:27 #
0.00063411806898195938880791189262709 1:1.9987873 2:0.34146342 3:29 4:16 #
-0.00063411806898195938880791189262709 1:2.0169759 2:0.52863437 3:1 4:13 #
0.00063411806898195938880791189262709 1:-0.48304176 2:0.66666669 3:35 4:32 #
0.00063411806898195938880791189262709 1:-0.72279108 2:0.8611111 3:3 4:79 #
-0.00063411806898195938880791189262709 1:3.5019956 2:0.8214286 3:1 4:49 #
-0.00063411806898195938880791189262709 1:-1.3233908 2:0.45531914 3:13 4:19 #
-0.00063411806898195938880791189262709 1:0.10431382 2:0.48249999 3:1 4:11 #
-0.00063411806898195938880791189262709 1:1.769439 2:0.71249998 3:1 4:132 #
-0.00063411806898195938880791189262709 1:-0.65484929 2:0.57499999 3:20 4:16 #
0.00063411806898195938880791189262709 1:-2.6625881 2:0.36585367 3:32 4:18 #
0.00063411806898195938880791189262709 1:0.035251115 2:0.68888891 3:1 4:17 #
0.00063411806898195938880791189262709 1:0.45696235 2:0.71428573 3:1 4:16 #
0.00063411806898195938880791189262709 1:-0.4260706 2:0.83333331 3:5 4:37 #
-0.00063411806898195938880791189262709 1:2.9619429 2:0.70995671 3:1 4:86 #
0.00063411806898195938880791189262709 1:-1.3600178 2:0.47916666 3:34 4:30 #
-0.00063411806898195938880791189262709 1:-2.8123081 2:0.51748252 3:9 4:27 #
-0.00063411806898195938880791189262709 1:-4.1532807 2:0.49107143 3:2 4:16 #
0.00063411806898195938880791189262709 1:-1.4091818 2:0.73913044 3:2 4:80 #
0.00063411806898195938880791189262709 1:-2.9807305 2:0.55319148 3:31 4:37 #
0.00063411806898195938880791189262709 1:-2.3957899 2:0.46808511 3:33 4:32 #
0.00063411806898195938880791189262709 1:-0.026367778 2:0.89473683 3:1 4:38 #
-0.00063411806898195938880791189262709 1:-1.2206608 2:0.60000002 3:15 4:22 #
-0.00063411806898195938880791189262709 1:0.17064808 2:0.53304905 3:24 4:89 #
-0.00063411806898195938880791189262709 1:1.5069637 2:0.66981131 3:2 4:83 #
-0.00063411806898195938880791189262709 1:1.5394678 2:0.59388644 3:1 4:86 #
-0.00063411806898195938880791189262709 1:-0.738738 2:0.88235295 3:2 4:84 #
0.00063411806898195938880791189262709 1:1.784026 2:0.67741936 3:11 4:37 #
-0.00063411806898195938880791189262709 1:-1.8789907 2:0.52124643 3:4 4:84 #
-0.00063411806898195938880791189262709 1:-0.62786579 2:0.63265306 3:25 4:41 #
0.00063411806898195938880791189262709 1:-0.47738943 2:1 3:1 4:44 #
-0.00063411806898195938880791189262709 1:2.7538967 2:0.46779662 3:1 4:92 #
0.00063411806898195938880791189262709 1:-2.7112622 2:0.80952382 3:8 4:81 #
-0.00063411806898195938880791189262709 1:-2.1457648 2:0.78181821 3:2 4:90 #
-0.00063411806898195938880791189262709 1:-3.5724168 2:0.63285023 3:6 4:86 #
-0.00063411806898195938880791189262709 1:1.2962672 2:0.69026548 3:1 4:95 #
-0.00063411806898195938880791189262709 1:1.3171083 2:0.38842976 3:31 4:15 #
-0.00063411806898195938880791189262709 1:-1.252979 2:0.59562844 3:11 4:82 #
0.00063411806898195938880791189262709 1:0.20197864 2:0.84782606 3:6 4:83 #
0.00063411806898195938880791189262709 1:1.0154608 2:0.46666667 3:34 4:19 #
-0.00063411806898195938880791189262709 1:1.2041548 2:0.66310161 3:11 4:83 #
0.00063411806898195938880791189262709 1:0.94900948 2:0.76190478 3:6 4:32 #
-0.00063411806898195938880791189262709 1:-0.53610253 2:0.64615387 3:2 4:95 #
0.00063411806898195938880791189262709 1:-0.1113054 2:0.5 3:32 4:33 #
-0.00063411806898195938880791189262709 1:-0.11543219 2:0.76288658 3:7 4:89 #
-0.00063411806898195938880791189262709 1:-1.7497884 2:0.50749999 3:9 4:85 #
0.00063411806898195938880791189262709 1:-0.15318994 2:0.81578946 3:6 4:82 #
-0.00063411806898195938880791189262709 1:-0.71450454 2:0.59466666 3:4 4:95 #
-0.00063411806898195938880791189262709 1:-0.18038665 2:0.64705884 3:22 4:24 #
-0.00063411806898195938880791189262709 1:1.4116077 2:0.52681386 3:13 4:84 #
0.00063411806898195938880791189262709 1:-1.0422605 2:0.91666669 3:2 4:86 #
-0.00063411806898195938880791189262709 1:-2.0700271 2:0.69090909 3:13 4:83 #
-0.00063411806898195938880791189262709 1:2.4673483 2:0.62666667 3:35 4:81 #
-0.00063411806898195938880791189262709 1:-2.8954673 2:0.48888889 3:7 4:24 #
-0.00063411806898195938880791189262709 1:-4.2681761 2:0.64983165 3:1 4:104 #
-0.00063411806898195938880791189262709 1:0.57756823 2:0.59927797 3:2 4:115 #
0.00063411806898195938880791189262709 1:-3.5247462 2:0.53191489 3:31 4:27 #
0.00063411806898195938880791189262709 1:0.20235413 2:0.76923078 3:3 4:22 #
-0.00063411806898195938880791189262709 1:-1.0397044 2:0.7651822 3:3 4:141 #
0.00063411806898195938880791189262709 1:-0.77975476 2:0.52631581 3:33 4:13 #
-0.00063411806898195938880791189262709 1:-2.0295866 2:0.54982817 3:12 4:84 #
0.00063411806898195938880791189262709 1:0.034346417 2:0.85000002 3:3 4:38 #
0.00063411806898195938880791189262709 1:0.11499563 2:0.8888889 3:1 4:37 #
-0.00063411806898195938880791189262709 1:0.80774611 2:0.52459013 3:20 4:84 #
-0.00063411806898195938880791189262709 1:-1.3928924 2:0.49253732 3:20 4:29 #
-0.00063411806898195938880791189262709 1:-2.2512074 2:0.60310423 3:19 4:86 #
0.00063411806898195938880791189262709 1:-1.5502077 2:0.80487806 3:6 4:81 #
-0.00063411806898195938880791189262709 1:-1.1478529 2:0.57792211 3:21 4:85 #
-0.00063411806898195938880791189262709 1:1.0479041 2:0.56074768 3:5 4:95 #
0.00063411806898195938880791189262709 1:0.076066852 2:0.7647059 3:1 4:27 #
-0.00063411806898195938880791189262709 1:1.7527919 2:0.58049887 3:10 4:90 #
0.00063411806898195938880791189262709 1:-0.89181417 2:0.76086956 3:7 4:79 #
0.00063411806898195938880791189262709 1:-1.7650326 2:0.96774191 3:1 4:84 #
-0.00063411806898195938880791189262709 1:-0.33775002 2:0.50917429 3:4 4:99 #
-0.00063411806898195938880791189262709 1:1.5996702 2:0.4849624 3:9 4:94 #
-0.00063411806898195938880791189262709 1:-0.99787086 2:0.50757575 3:21 4:20 #
0.00063411806898195938880791189262709 1:2.1160049 2:0.47368422 3:9 4:17 #
0.00063411806898195938880791189262709 1:-0.32062 2:0.76086956 3:13 4:69 #
0.00063411806898195938880791189262709 1:-0.95906162 2:0.78723407 3:9 4:75 #
-0.00063411806898195938880791189262709 1:0.90631711 2:0.4629156 3:8 4:96 #
-0.00063411806898195938880791189262709 1:-1.1833998 2:0.56818181 3:17 4:21 #
-0.00063411806898195938880791189262709 1:-1.3029 2:0.54371583 3:9 4:113 #
0.00063411806898195938880791189262709 1:0.20917267 2:0.73076922 3:1 4:29 #
0.00063411806898195938880791189262709 1:-3.0747316 2:0.80000001 3:5 4:77 #
0.00063411806898195938880791189262709 1:-0.52789545 2:0.6875 3:2 4:25 #
-0.00063411806898195938880791189262709 1:0.12351543 2:0.52173913 3:27 4:17 #
0.00063411806898195938880791189262709 1:-0.40033159 2:0.75999999 3:2 4:38 #
-0.00063411806898195938880791189262709 1:1.645972 2:0.88235295 3:7 4:103 #
0.00063411806898195938880791189262709 1:0.081373006 2:0.78571427 3:5 4:45 #
0.00063411806898195938880791189262709 1:0.25199443 2:0.81395346 3:8 4:75 #
-0.00063411806898195938880791189262709 1:1.0086405 2:0.58730161 3:5 4:10 #
-0.00063411806898195938880791189262709 1:4.3550105 2:0.50840336 3:1 4:26 #
-0.00063411806898195938880791189262709 1:-2.5156372 2:0.54046994 3:5 4:34 #
0.00063411806898195938880791189262709 1:-4.5594587 2:0.72727275 3:9 4:66 #
-0.00063411806898195938880791189262709 1:3.840318 2:0.68965518 3:1 4:16 #
0.00063411806898195938880791189262709 1:-2.2458503 2:0.58333331 3:24 4:0 #
-0.00063411806898195938880791189262709 1:-3.997808 2:0.50274724 3:5 4:118 #
0.00063411806898195938880791189262709 1:-0.30056703 2:0.86486489 3:9 4:74 #
-0.00063411806898195938880791189262709 1:4.1851335 2:0.58870965 3:1 4:18 #
0.00063411806898195938880791189262709 1:-3.8910794 2:0.70588237 3:1 4:13 #
0.00063411806898195938880791189262709 1:-0.87013441 2:0.53333336 3:30 4:0 #
-0.00063411806898195938880791189262709 1:-0.50901377 2:0.50955415 3:1 4:11 #
-0.00063411806898195938880791189262709 1:3.5425675 2:0.52912623 3:1 4:16 #
0.00063411806898195938880791189262709 1:-0.27165011 2:0.77551019 3:12 4:70 #
0.00063411806898195938880791189262709 1:1.7508051 2:0.65217394 3:9 4:22 #
-0.00063411806898195938880791189262709 1:2.3868918 2:0.70119524 3:20 4:100 #
-0.00063411806898195938880791189262709 1:-1.1021155 2:0.54081631 3:3 4:10 #
-0.00063411806898195938880791189262709 1:3.840318 2:0.75328946 3:1 4:23 #
0.00063411806898195938880791189262709 1:-2.4541354 2:0.60000002 3:32 4:19 #
0.00063411806898195938880791189262709 1:2.3917468 2:0.48275861 3:29 4:0 #
0.00063411806898195938880791189262709 1:0.027157573 2:0.47727272 3:33 4:15 #
-0.00063411806898195938880791189262709 1:-3.2239344 2:0.51243782 3:2 4:11 #
0.00063411806898195938880791189262709 1:0.4956747 2:0.32142857 3:28 4:0 #
-0.00063411806898195938880791189262709 1:-0.35730863 2:0.75 3:24 4:103 #
-0.00063411806898195938880791189262709 1:-1.7166371 2:0.71794873 3:12 4:34 #
-0.00063411806898195938880791189262709 1:1.5612456 2:0.80000001 3:1 4:15 #
-0.00063411806898195938880791189262709 1:-1.2665677 2:0.51815981 3:16 4:13 #
-0.00063411806898195938880791189262709 1:-1.0451795 2:0.6111111 3:1 4:12 #
0.00063411806898195938880791189262709 1:-2.1744883 2:0.5 3:25 4:42 #
-0.00063411806898195938880791189262709 1:0.90808189 2:0.60377359 3:1 4:82 #
-0.00063411806898195938880791189262709 1:-1.3104708 2:0.43322477 3:1 4:12 #
0.00063411806898195938880791189262709 1:-0.20051339 2:0.68421054 3:5 4:33 #
-0.00063411806898195938880791189262709 1:2.5500576 2:1 3:1 4:27 #
-0.00063411806898195938880791189262709 1:-4.2681761 2:0.43459916 3:1 4:24 #
0.00063411806898195938880791189262709 1:-1.5866349 2:0.65217394 3:23 4:46 #
-0.00063411806898195938880791189262709 1:1.2072257 2:0.65517241 3:1 4:13 #
0.00063411806898195938880791189262709 1:-4.0429673 2:0.5 3:28 4:21 #
-0.00063411806898195938880791189262709 1:-3.3860631 2:0.49880669 3:8 4:24 #
0.00063411806898195938880791189262709 1:-1.1370248 2:0.81395346 3:10 4:69 #
-0.00063411806898195938880791189262709 1:-3.4664385 2:0.54500002 3:6 4:22 #
0.00063411806898195938880791189262709 1:-1.2173318 2:0.62222224 3:22 4:46 #
-0.00063411806898195938880791189262709 1:3.2674735 2:0.84615386 3:1 4:23 #
0.00063411806898195938880791189262709 1:-3.0623744 2:0.61363637 3:22 4:45 #
-0.00063411806898195938880791189262709 1:-2.9018006 2:0.41228071 3:9 4:30 #
0.00063411806898195938880791189262709 1:1.2703174 2:0.35294119 3:17 4:0 #
-0.00063411806898195938880791189262709 1:1.121816 2:0.48747152 3:27 4:19 #
0.00063411806898195938880791189262709 1:-0.22946355 2:0.75 3:1 4:27 #
-0.00063411806898195938880791189262709 1:0.34009477 2:0.55555558 3:25 4:99 #
0.00063411806898195938880791189262709 1:-2.2377715 2:0.8125 3:5 4:69 #
0.00063411806898195938880791189262709 1:0.22527979 2:0.83333331 3:1 4:22 #
0.00063411806898195938880791189262709 1:-2.7564216 2:0.60465115 3:20 4:47 #
-0.00063411806898195938880791189262709 1:-1.5556995 2:0.51361865 3:16 4:15 #
0.00063411806898195938880791189262709 1:0.68478405 2:0.72727275 3:7 4:28 #
0.00063411806898195938880791189262709 1:0.8899948 2:0.80000001 3:5 4:31 #
0.00063411806898195938880791189262709 1:0.80774611 2:0.75 3:5 4:22 #
0.00063411806898195938880791189262709 1:-2.3188739 2:0.71794873 3:13 4:57 #
0.00063411806898195938880791189262709 1:-3.7075298 2:0.64285713 3:1 4:15 #
0.00063411806898195938880791189262709 1:-4.9778538 2:0.60000002 3:4 4:22 #
0.00063411806898195938880791189262709 1:0.66024262 2:0.64285713 3:14 4:0 #
0.00063411806898195938880791189262709 1:0.65178573 2:0.5714286 3:28 4:0 #
-0.00063411806898195938880791189262709 1:-2.4224343 2:0.6875 3:1 4:13 #
0.00063411806898195938880791189262709 1:1.5137148 2:0.69999999 3:8 4:28 #
-0.00063411806898195938880791189262709 1:1.9380975 2:0.52063495 3:1 4:13 #
-0.00044275213611379019354452601930916 1:0.51877189 2:0.56687897 3:31 4:21 #
-0.00063411806898195938880791189262709 1:0.90741962 2:0.6134454 3:1 4:13 #
0.00063411806898195938880791189262709 1:-1.6682223 2:0.47999999 3:25 4:0 #
0.00063411806898195938880791189262709 1:-0.97767961 2:0.90625 3:4 4:74 #
0.00063411806898195938880791189262709 1:-1.2744848 2:0.45652175 3:32 4:14 #
-0.00063411806898195938880791189262709 1:0.85173875 2:0.57679182 3:1 4:13 #
0.00063411806898195938880791189262709 1:-2.0187931 2:0.75 3:11 4:64 #
-0.00063411806898195938880791189262709 1:3.0301266 2:0.47214854 3:1 4:82 #
0.00063411806898195938880791189262709 1:-0.98437452 2:0.75 3:2 4:25 #
-0.00063411806898195938880791189262709 1:-2.3027923 2:0.54787236 3:2 4:11 #
0.00063411806898195938880791189262709 1:0.5702095 2:0.69565219 3:1 4:16 #
-0.00063411806898195938880791189262709 1:2.5063744 2:0.52954543 3:1 4:14 #
0.00063411806898195938880791189262709 1:-1.1233671 2:0.38095239 3:21 4:0 #
-0.00063411806898195938880791189262709 1:-0.14002348 2:0.45502645 3:2 4:11 #
0.00063411806898195938880791189262709 1:-0.79618168 2:0.87179488 3:2 4:76 #
-0.00063411806898195938880791189262709 1:0.14434339 2:0.65714288 3:1 4:13 #
-0.00063411806898195938880791189262709 1:-1.0640209 2:0.48583877 3:21 4:40 #
0.00063411806898195938880791189262709 1:0.96686262 2:0.8108108 3:11 4:64 #
0.00063411806898195938880791189262709 1:-1.6852685 2:0.58333331 3:12 4:0 #
-0.00063411806898195938880791189262709 1:-1.2692956 2:0.51490515 3:17 4:14 #
-0.000620313021828120740412682021514 1:-1.3029 2:0.58093125 3:43 4:299 #
0.00063411806898195938880791189262709 1:-1.5553467 2:0.47368422 3:32 4:15 #
0.00063411806898195938880791189262709 1:-0.61915284 2:0.53658539 3:33 4:19 #
-0.00063411806898195938880791189262709 1:-0.081083648 2:0.60544217 3:1 4:13 #
-0.00063411806898195938880791189262709 1:-0.25915897 2:0.5 3:3 4:11 #
-0.00063411806898195938880791189262709 1:2.7876322 2:0.57352942 3:1 4:77 #
0.00063411806898195938880791189262709 1:0.83009893 2:0.73333335 3:5 4:24 #
-0.00063411806898195938880791189262709 1:0.51306045 2:0.51960784 3:1 4:13 #
0.00063411806898195938880791189262709 1:-0.93447393 2:0.82499999 3:6 4:70 #
0.00063411806898195938880791189262709 1:-1.265288 2:0.61538464 3:26 4:0 #
-0.00063411806898195938880791189262709 1:1.8712851 2:0.94117647 3:1 4:70 #
0.00063411806898195938880791189262709 1:-0.50589174 2:0.75609756 3:11 4:63 #
0.00063411806898195938880791189262709 1:0.47349283 2:0.7647059 3:2 4:27 #
0.00063411806898195938880791189262709 1:2.7834845 2:0.39130434 3:23 4:0 #
-0.00063411806898195938880791189262709 1:-2.2459147 2:0.9375 3:1 4:39 #
0.00063411806898195938880791189262709 1:-0.34204927 2:0.46341464 3:32 4:18 #
-0.00063411806898195938880791189262709 1:-3.2773359 2:0.88235295 3:1 4:39 #
0.00063411806898195938880791189262709 1:1.3018867 2:0.74193549 3:11 4:39 #
0.00063411806898195938880791189262709 1:-3.1666303 2:0.66666669 3:15 4:0 #
-0.00063411806898195938880791189262709 1:2.9077535 2:0.73913044 3:1 4:40 #
-0.00063411806898195938880791189262709 1:1.4451317 2:0.51923078 3:1 4:39 #
0.00063411806898195938880791189262709 1:-1.1019328 2:0.59523809 3:33 4:19 #
-0.00063411806898195938880791189262709 1:1.1581869 2:0.94117647 3:1 4:42 #
0.00063411806898195938880791189262709 1:1.247064 2:0.59090906 3:8 4:29 #
0.00063411806898195938880791189262709 1:1.2142434 2:0.5 3:26 4:0 #
-0.00063411806898195938880791189262709 1:-3.3903904 2:0.58928573 3:1 4:13 #
-0.00063411806898195938880791189262709 1:0.68697649 2:0.62857145 3:1 4:80 #
0.00063411806898195938880791189262709 1:0.0017698555 2:0.80000001 3:8 4:67 #
0.00063411806898195938880791189262709 1:-1.4995936 2:0.44680852 3:30 4:17 #
0.00063411806898195938880791189262709 1:0.40421718 2:0.5625 3:31 4:19 #
-0.00063411806898195938880791189262709 1:2.1686203 2:0.5825243 3:1 4:14 #
-0.00063411806898195938880791189262709 1:-4.6748815 2:0.81818181 3:1 4:20 #
0.00063411806898195938880791189262709 1:0.30469316 2:0.37142858 3:26 4:15 #
-0.00063411806898195938880791189262709 1:-2.0813396 2:0.5219512 3:15 4:15 #
-0.00063411806898195938880791189262709 1:2.4554651 2:0.77272725 3:1 4:71 #
-0.00063411806898195938880791189262709 1:-0.27667022 2:0.61538464 3:1 4:13 #
0.00063411806898195938880791189262709 1:0.50038767 2:0.68085104 3:2 4:21 #
-0.00063411806898195938880791189262709 1:0.27475595 2:0.53846157 3:1 4:13 #
-0.00063411806898195938880791189262709 1:-0.42955688 2:0.49438202 3:16 4:28 #
-0.00063411806898195938880791189262709 1:1.2072257 2:0.79310346 3:1 4:16 #
-0.00063411806898195938880791189262709 1:-4.4756575 2:0.46913579 3:1 4:17 #
0.00063411806898195938880791189262709 1:0.11499563 2:0.84210527 3:1 4:35 #
0.00063411806898195938880791189262709 1:-0.093736351 2:0.84210527 3:1 4:33 #
0.00063411806898195938880791189262709 1:-1.5447208 2:0.7027027 3:11 4:61 #
0.00063411806898195938880791189262709 1:-1.1972607 2:0.91176468 3:2 4:74 #
-0.00063411806898195938880791189262709 1:-0.90719646 2:0.59558821 3:1 4:13 #
0.00063411806898195938880791189262709 1:0.22900249 2:0.8888889 3:2 4:40 #
-0.00063411806898195938880791189262709 1:-1.6314192 2:0.61000001 3:3 4:80 #
-0.00063411806898195938880791189262709 1:0.14434339 2:0.52834469 3:1 4:13 #
-0.00063411806898195938880791189262709 1:0.94453675 2:0.64356434 3:1 4:77 #
-0.00063411806898195938880791189262709 1:-3.9812772 2:0.56140351 3:1 4:13 #
0.00063411806898195938880791189262709 1:0.52316886 2:0.88571429 3:7 4:68 #
0.00063411806898195938880791189262709 1:-1.32178 2:0.47999999 3:25 4:0 #
-0.00063411806898195938880791189262709 1:2.0728061 2:0.51322752 3:1 4:14 #
0.00063411806898195938880791189262709 1:-0.68347973 2:0.73333335 3:11 4:61 #
0.00063411806898195938880791189262709 1:-1.3951969 2:0.36842105 3:19 4:0 #
-0.00063411806898195938880791189262709 1:0.81300646 2:0.627451 3:15 4:81 #
0.00063411806898195938880791189262709 1:-0.58757657 2:0.72727275 3:7 4:67 #
-0.00063411806898195938880791189262709 1:-1.2389641 2:0.56682026 3:1 4:13 #
0.00063411806898195938880791189262709 1:-1.2345657 2:0.72093022 3:12 4:59 #
0.00063411806898195938880791189262709 1:1.8107427 2:0.69999999 3:10 4:0 #
-0.00063411806898195938880791189262709 1:1.0195373 2:0.6025641 3:17 4:81 #
0.00063411806898195938880791189262709 1:0.56792408 2:0.5 3:12 4:0 #
-0.00063411806898195938880791189262709 1:-1.3623016 2:0.54587156 3:10 4:20 #
-0.00063411806898195938880791189262709 1:1.5057619 2:0.90909094 3:1 4:68 #
-0.00063411806898195938880791189262709 1:-2.0208216 2:0.71212119 3:1 4:15 #
0.00063411806898195938880791189262709 1:-0.59216958 2:0.56410259 3:30 4:18 #
0.00063411806898195938880791189262709 1:-0.87806702 2:0.81578946 3:11 4:61 #
-0.00063411806898195938880791189262709 1:-1.5897596 2:0.57407409 3:3 4:11 #
-0.00063411806898195938880791189262709 1:-1.2892512 2:0.55172414 3:1 4:13 #
0.00063411806898195938880791189262709 1:0.095599003 2:0.9285714 3:2 4:35 #
0.00063411806898195938880791189262709 1:-0.36467251 2:0.61538464 3:26 4:0 #
-0.00063411806898195938880791189262709 1:-0.17915405 2:0.4893617 3:1 4:76 #
0.00063411806898195938880791189262709 1:-1.8718915 2:0.5714286 3:29 4:16 #
-0.00063411806898195938880791189262709 1:-4.0341544 2:0.53571427 3:1 4:13 #
0.00063411806898195938880791189262709 1:-1.4708021 2:0.60000002 3:25 4:0 #
-0.00063411806898195938880791189262709 1:1.6254977 2:0.51254481 3:1 4:14 #
-0.00063411806898195938880791189262709 1:-0.96045184 2:0.83783782 3:4 4:79 #
0.00063411806898195938880791189262709 1:1.224494 2:0.53846157 3:26 4:0 #
-0.00063411806898195938880791189262709 1:0.92627162 2:0.59770113 3:1 4:14 #
-0.00063411806898195938880791189262709 1:3.5593262 2:0.69444442 3:1 4:24 #
0.00063411806898195938880791189262709 1:-0.39262426 2:0.83783782 3:1 4:72 #
-0.00063411806898195938880791189262709 1:2.6082244 2:0.67605633 3:4 4:14 #
0.00063411806898195938880791189262709 1:-2.1653016 2:0.85714287 3:4 4:70 #
-0.00063411806898195938880791189262709 1:-1.1141616 2:0.63157892 3:15 4:81 #
0.00063411806898195938880791189262709 1:3.147501 2:0.3888889 3:18 4:0 #
0.00063411806898195938880791189262709 1:1.1223664 2:0.51020408 3:29 4:14 #
-0.00063411806898195938880791189262709 1:-0.279551 2:0.54545456 3:5 4:10 #
-0.00063411806898195938880791189262709 1:-0.38734114 2:0.68493152 3:3 4:12 #
-0.00063411806898195938880791189262709 1:-1.9541421 2:0.48642534 3:15 4:17 #
-0.00063411806898195938880791189262709 1:0.4533948 2:0.58765429 3:5 4:78 #
-0.00063411806898195938880791189262709 1:0.76966602 2:0.61538464 3:1 4:14 #
0.00063411806898195938880791189262709 1:-0.22504221 2:0.76923078 3:11 4:59 #
-0.00063411806898195938880791189262709 1:-3.3768923 2:0.51612902 3:5 4:79 #
0.00063411806898195938880791189262709 1:0.42684257 2:0.47999999 3:25 4:0 #
-0.00063411806898195938880791189262709 1:2.88534 2:0.50993377 3:1 4:15 #
0.00063411806898195938880791189262709 1:-2.0916512 2:0.68292683 3:10 4:60 #
0.00063411806898195938880791189262709 1:-3.7516294 2:0.72093022 3:11 4:56 #
-0.00063411806898195938880791189262709 1:-2.0221329 2:0.52472526 3:13 4:20 #
-0.00063411806898195938880791189262709 1:-3.9812772 2:0.53535354 3:1 4:13 #
0.00063411806898195938880791189262709 1:0.93627357 2:0.70588237 3:4 4:22 #
0.00063411806898195938880791189262709 1:-2.147135 2:0.44444445 3:18 4:0 #
-0.00063411806898195938880791189262709 1:-1.7315055 2:0.60663509 3:14 4:80 #
0.00063411806898195938880791189262709 1:-2.51596 2:0.5 3:20 4:0 #
-0.00063411806898195938880791189262709 1:2.0169759 2:0.89999998 3:1 4:63 #
0.00063411806898195938880791189262709 1:-1.7292281 2:0.43181819 3:28 4:16 #
0.00063411806898195938880791189262709 1:1.0702213 2:0.65217394 3:8 4:24 #
-0.00063411806898195938880791189262709 1:-2.7564216 2:0.53061223 3:1 4:13 #
0.00063411806898195938880791189262709 1:1.5358076 2:0.84210527 3:9 4:27 #
0.00063411806898195938880791189262709 1:-2.2693682 2:0.79487181 3:7 4:66 #
-0.00063411806898195938880791189262709 1:2.4985385 2:0.52380955 3:1 4:15 #
0.00063411806898195938880791189262709 1:2.0362413 2:0.55555558 3:28 4:17 #
0.00063411806898195938880791189262709 1:-2.8438747 2:1 3:1 4:68 #
-0.00063411806898195938880791189262709 1:-0.093144216 2:0.43041238 3:1 4:13 #
0.00063411806898195938880791189262709 1:0.3428334 2:0.84375 3:5 4:69 #
-0.00063411806898195938880791189262709 1:2.3043859 2:0.92307693 3:1 4:29 #
0.00063411806898195938880791189262709 1:1.7994361 2:0.5151515 3:28 4:13 #
0.00063411806898195938880791189262709 1:-0.13906685 2:0.83333331 3:8 4:27 #
0.00063411806898195938880791189262709 1:-0.34085086 2:0.68181819 3:5 4:34 #
0.00063411806898195938880791189262709 1:1.784026 2:0.53846157 3:26 4:0 #
-0.00063411806898195938880791189262709 1:-1.4712851 2:0.54741377 3:1 4:13 #
0.00063411806898195938880791189262709 1:-0.038533535 2:0.75999999 3:2 4:39 #
-0.00063411806898195938880791189262709 1:0.97050816 2:0.54754096 3:1 4:14 #
-0.00063411806898195938880791189262709 1:2.8823557 2:0.54444444 3:1 4:16 #
0.00063411806898195938880791189262709 1:1.6265185 2:0.53846157 3:26 4:0 #
0.00063411806898195938880791189262709 1:1.3345871 2:0.57692307 3:26 4:0 #
0.00063411806898195938880791189262709 1:-0.40263462 2:0.65853661 3:10 4:59 #
0.00063411806898195938880791189262709 1:-0.94396627 2:0.47826087 3:23 4:0 #
-0.00063411806898195938880791189262709 1:-0.85749686 2:0.51351351 3:16 4:30 #
0.00063411806898195938880791189262709 1:-0.96708375 2:0.58333331 3:24 4:0 #
-0.00063411806898195938880791189262709 1:-1.9304187 2:0.60057473 3:10 4:29 #
0.00063411806898195938880791189262709 1:0.15482168 2:0.8125 3:3 4:24 #
0.00063411806898195938880791189262709 1:-0.15824293 2:0.60000002 3:25 4:0 #
-0.00063411806898195938880791189262709 1:2.4152894 2:0.44474393 3:1 4:15 #
-0.00063411806898195938880791189262709 1:-1.2902042 2:0.6371308 3:23 4:52 #
-0.00063411806898195938880791189262709 1:3.9355958 2:0.58823532 3:1 4:18 #
0.00063411806898195938880791189262709 1:-2.9838398 2:0.67500001 3:9 4:57 #
0.00063411806898195938880791189262709 1:0.45834988 2:0.45833334 3:24 4:0 #
-0.00063411806898195938880791189262709 1:-0.85863423 2:0.47974414 3:1 4:13 #
-0.00063411806898195938880791189262709 1:0.4905521 2:0.55589122 3:1 4:72 #
-0.00063411806898195938880791189262709 1:-0.089171469 2:0.38222224 3:2 4:12 #
-0.00063411806898195938880791189262709 1:3.2854948 2:0.67543858 3:1 4:68 #
0.00063411806898195938880791189262709 1:2.6082244 2:0.57692307 3:26 4:0 #
-0.00063411806898195938880791189262709 1:-2.0752785 2:0.53205127 3:1 4:13 #
-0.00063411806898195938880791189262709 1:1.8656398 2:0.80000001 3:1 4:18 #
0.00063411806898195938880791189262709 1:0.38458991 2:0.5714286 3:27 4:17 #
0.00063411806898195938880791189262709 1:-0.33775002 2:0.80000001 3:5 4:68 #
-0.00063411806898195938880791189262709 1:2.7032011 2:0.58126724 3:2 4:14 #
-0.00063411806898195938880791189262709 1:2.7423897 2:0.54594594 3:1 4:16 #
0.00063411806898195938880791189262709 1:-1.2996505 2:0.5625 3:26 4:15 #
0.00063411806898195938880791189262709 1:2.7423897 2:0.65384614 3:26 4:0 #
0.00063411806898195938880791189262709 1:-0.66347986 2:0.72500002 3:7 4:63 #
-0.00063411806898195938880791189262709 1:-1.5041989 2:0.4627907 3:1 4:13 #
0.00063411806898195938880791189262709 1:1.1725954 2:0.7037037 3:10 4:35 #
-0.00063411806898195938880791189262709 1:0.2264816 2:0.53150684 3:22 4:20 #
-0.00063411806898195938880791189262709 1:3.9473259 2:0.7241379 3:7 4:21 #
-0.00063411806898195938880791189262709 1:0.69745648 2:0.6163522 3:5 4:11 #
0.00063411806898195938880791189262709 1:-1.9130613 2:0.85714287 3:2 4:70 #
0.00063411806898195938880791189262709 1:2.1251853 2:0.47999999 3:25 4:0 #
-0.00063411806898195938880791189262709 1:-2.09554 2:0.52258062 3:8 4:22 #
-0.00063411806898195938880791189262709 1:0.34387055 2:0.56232685 3:25 4:21 #
0.00063411806898195938880791189262709 1:-1.6836431 2:0.72727275 3:11 4:0 #
-0.00063411806898195938880791189262709 1:-0.499504 2:0.42827004 3:15 4:22 #
-0.00063411806898195938880791189262709 1:-0.88066375 2:0.60000002 3:13 4:16 #
0.00063411806898195938880791189262709 1:0.8724317 2:0.5 3:26 4:16 #
0.00063411806898195938880791189262709 1:-1.2271363 2:0.9285714 3:1 4:34 #
0.00063411806898195938880791189262709 1:1.4836563 2:0.58064514 3:26 4:13 #
0.00063411806898195938880791189262709 1:-1.2084391 2:0.5625 3:26 4:15 #
-0.00063411806898195938880791189262709 1:-2.8713889 2:0.54450262 3:4 4:19 #
-0.00063411806898195938880791189262709 1:-2.6826694 2:0.5138889 3:4 4:17 #
-0.00063411806898195938880791189262709 1:2.4491875 2:0.55710953 3:1 4:16 #
-0.00063411806898195938880791189262709 1:-2.9352481 2:0.53979236 3:4 4:19 #
-0.00063411806898195938880791189262709 1:3.0479202 2:0.53061223 3:7 4:13 #
-0.00063411806898195938880791189262709 1:3.4677176 2:0.66891891 3:1 4:64 #
-0.00063411806898195938880791189262709 1:0.93689632 2:0.62424242 3:1 4:46 #
-0.00063411806898195938880791189262709 1:-1.5127264 2:0.5182724 3:1 4:71 #
-0.00063411806898195938880791189262709 1:-0.94380736 2:0.59340662 3:17 4:17 #
-0.00063411806898195938880791189262709 1:-4.0429673 2:0.78048778 3:1 4:46 #
-0.00063411806898195938880791189262709 1:2.1396239 2:0.89999998 3:1 4:47 #
-0.00063411806898195938880791189262709 1:-0.42749935 2:0.76712328 3:2 4:46 #
0.00063411806898195938880791189262709 1:0.058318168 2:0.56521738 3:25 4:43 #
-0.00063411806898195938880791189262709 1:-0.82033366 2:0.56315792 3:21 4:45 #
0.00063411806898195938880791189262709 1:2.1160049 2:0.58139533 3:30 4:35 #
0.00063411806898195938880791189262709 1:-0.46289742 2:0.60000002 3:32 4:29 #
0.00063411806898195938880791189262709 1:-1.2676136 2:0.54347825 3:33 4:30 #
-0.00063411806898195938880791189262709 1:0.12267803 2:0.51999998 3:17 4:21 #
0.00063411806898195938880791189262709 1:1.5279826 2:0.56 3:25 4:0 #
-0.00063411806898195938880791189262709 1:-2.2553904 2:0.62113404 3:14 4:145 #
0.00063411806898195938880791189262709 1:-0.42925641 2:0.43181819 3:33 4:25 #
0.00063411806898195938880791189262709 1:0.40641955 2:0.80952382 3:9 4:29 #
-0.00063411806898195938880791189262709 1:-2.4080896 2:0.80459768 3:15 4:144 #
0.00063411806898195938880791189262709 1:-1.4118596 2:0.58139533 3:32 4:31 #
0.00063411806898195938880791189262709 1:-2.2526 2:0.44186047 3:31 4:27 #
-0.00063411806898195938880791189262709 1:-0.17381291 2:0.59210527 3:25 4:22 #
-0.00063411806898195938880791189262709 1:-0.24223374 2:0.56160456 3:17 4:27 #
0.00063411806898195938880791189262709 1:-1.2485745 2:0.55555558 3:32 4:22 #
-0.00063411806898195938880791189262709 1:-0.61987698 2:0.5 3:14 4:21 #
-0.00063411806898195938880791189262709 1:2.7423897 2:0.71428573 3:1 4:18 #
-0.00063411806898195938880791189262709 1:3.1242044 2:0.50617284 3:21 4:11 #
-0.00063411806898195938880791189262709 1:1.0333279 2:0.48066297 3:1 4:14 #
-0.00063411806898195938880791189262709 1:1.2489831 2:0.5695793 3:18 4:10 #
-0.00063411806898195938880791189262709 1:-1.4744776 2:0.57462686 3:11 4:20 #
0.00063411806898195938880791189262709 1:-2.5367434 2:0.59523809 3:31 4:28 #
0.00063411806898195938880791189262709 1:-0.20510642 2:0.40909091 3:31 4:27 #
-0.00063411806898195938880791189262709 1:-3.2057896 2:0.8888889 3:1 4:41 #
0.00063411806898195938880791189262709 1:-0.1915264 2:0.5714286 3:31 4:25 #
-0.00063411806898195938880791189262709 1:1.7098548 2:0.75999999 3:1 4:40 #
0.00063411806898195938880791189262709 1:-1.6402247 2:0.5714286 3:31 4:24 #
0.00063411806898195938880791189262709 1:0.035251115 2:0.80952382 3:8 4:34 #
0.00063411806898195938880791189262709 1:-0.86128962 2:0.9285714 3:1 4:35 #
-0.00063411806898195938880791189262709 1:2.2961874 2:0.89999998 3:1 4:22 #
0.00063411806898195938880791189262709 1:-4.2253604 2:0.61702126 3:28 4:37 #
0.00063411806898195938880791189262709 1:0.10199402 2:0.66666669 3:4 4:30 #
-0.00063411806898195938880791189262709 1:-2.008435 2:0.54444444 3:16 4:23 #
-0.00063411806898195938880791189262709 1:-2.7368231 2:0.45251396 3:1 4:13 #
0.00063411806898195938880791189262709 1:-0.24350582 2:0.73170733 3:4 4:69 #
-0.00063411806898195938880791189262709 1:0.15165007 2:0.57831323 3:10 4:14 #
-0.00063411806898195938880791189262709 1:0.094151489 2:0.74074072 3:30 4:130 #
0.00063411806898195938880791189262709 1:-2.3386092 2:0.57499999 3:30 4:20 #
-0.00063411806898195938880791189262709 1:2.716291 2:0.85000002 3:1 4:35 #
0.00063411806898195938880791189262709 1:-1.983108 2:0.51351351 3:30 4:21 #
-0.00063411806898195938880791189262709 1:-1.7692641 2:0.52354568 3:10 4:20 #
0.00063411806898195938880791189262709 1:0.85826176 2:0.70588237 3:9 4:25 #
0.00063411806898195938880791189262709 1:0.80774611 2:0.75 3:5 4:32 #
0.00063411806898195938880791189262709 1:0.034346417 2:0.58333331 3:30 4:36 #
0.00063411806898195938880791189262709 1:0.014895149 2:0.81818181 3:4 4:40 #
-0.00063411806898195938880791189262709 1:-0.99045283 2:0.52380955 3:19 4:15 #
-0.00063411806898195938880791189262709 1:-0.30964479 2:0.627451 3:1 4:14 #
0.00063411806898195938880791189262709 1:0.0017926949 2:0.85714287 3:2 4:29 #
-0.00063411806898195938880791189262709 1:2.2102101 2:0.77380955 3:1 4:57 #
-0.00063411806898195938880791189262709 1:3.0550447 2:0.56521738 3:11 4:12 #
0.00063411806898195938880791189262709 1:-0.68581712 2:0.88235295 3:2 4:71 #
-0.00063411806898195938880791189262709 1:-2.586338 2:0.57593125 3:17 4:120 #
-0.00063411806898195938880791189262709 1:-4.0189147 2:0.84615386 3:1 4:28 #
-0.00063411806898195938880791189262709 1:-1.7715428 2:0.85294116 3:1 4:64 #
0.00063411806898195938880791189262709 1:-2.0577941 2:0.55319148 3:31 4:22 #
-0.00063411806898195938880791189262709 1:-3.8913488 2:0.69930071 3:2 4:13 #
0.00063411806898195938880791189262709 1:-1.2173318 2:0.54545456 3:29 4:35 #
-0.00063411806898195938880791189262709 1:1.8124341 2:0.54473686 3:1 4:15 #
-0.00063411806898195938880791189262709 1:1.505183 2:0.60986549 3:1 4:66 #
-0.00063411806898195938880791189262709 1:0.96745396 2:0.47072071 3:5 4:11 #
0.00063411806898195938880791189262709 1:-5.0601478 2:0.65625 3:9 4:42 #
0.00063411806898195938880791189262709 1:-2.6865199 2:0.57894737 3:19 4:0 #
0.00063411806898195938880791189262709 1:-1.3165655 2:0.90909094 3:1 4:70 #
0.00063411806898195938880791189262709 1:-1.4200466 2:0.60869563 3:23 4:0 #
0.00063411806898195938880791189262709 1:-2.3265071 2:0.60416669 3:27 4:39 #
0.00063411806898195938880791189262709 1:-0.66264772 2:0.72727275 3:11 4:0 #
0.00063411806898195938880791189262709 1:-0.47379601 2:0.78260869 3:2 4:35 #
0.00063411806898195938880791189262709 1:-0.64172959 2:0.6511628 3:30 4:35 #
0.00063411806898195938880791189262709 1:-2.0740707 2:0.61538464 3:13 4:0 #
0.00063411806898195938880791189262709 1:-4.4517255 2:0.85185188 3:1 4:63 #
0.00063411806898195938880791189262709 1:-3.7102442 2:0.65909094 3:30 4:29 #
0.00063411806898195938880791189262709 1:-4.2084885 2:0.78260869 3:2 4:13 #
0.00063411806898195938880791189262709 1:-1.4747642 2:0.41176471 3:17 4:0 #
0.00063411806898195938880791189262709 1:1.6284163 2:0.60000002 3:25 4:0 #
0.00063411806898195938880791189262709 1:0.45905659 2:0.53846157 3:30 4:22 #
-0.00063411806898195938880791189262709 1:-2.586338 2:0.59649122 3:18 4:119 #
-0.00063411806898195938880791189262709 1:0.061312832 2:0.42776203 3:7 4:10 #
-0.00063411806898195938880791189262709 1:2.654892 2:0.80645162 3:1 4:47 #
0.00063411806898195938880791189262709 1:-4.6275473 2:0.41935483 3:25 4:20 #
0.00063411806898195938880791189262709 1:0.2874184 2:0.57894737 3:1 4:11 #
-0.00063411806898195938880791189262709 1:-2.2781518 2:0.43925235 3:1 4:13 #
0.00063411806898195938880791189262709 1:0.12054163 2:0.70454544 3:25 4:44 #
0.00063411806898195938880791189262709 1:2.2189863 2:0.69999999 3:10 4:0 #
-0.00063411806898195938880791189262709 1:0.53496832 2:0.67500001 3:1 4:15 #
0.00063411806898195938880791189262709 1:-0.447597 2:0.42857143 3:14 4:0 #
0.00063411806898195938880791189262709 1:2.4040661 2:0.8125 3:16 4:0 #
-0.00063411806898195938880791189262709 1:2.3193767 2:0.4478673 3:1 4:15 #
-0.00063411806898195938880791189262709 1:1.6036735 2:0.875 3:1 4:50 #
-0.00063411806898195938880791189262709 1:1.4270047 2:0.69999999 3:8 4:12 #
-0.00063411806898195938880791189262709 1:-3.7711797 2:0.60655737 3:2 4:13 #
0.00063411806898195938880791189262709 1:-0.64172959 2:0.6511628 3:30 4:35 #
-0.00063411806898195938880791189262709 1:1.2652431 2:0.90909094 3:1 4:22 #
-0.00063411806898195938880791189262709 1:-1.7623152 2:0.4989154 3:10 4:16 #
-0.00063411806898195938880791189262709 1:-1.1924247 2:0.53884709 3:1 4:70 #
-0.00063411806898195938880791189262709 1:-0.75736243 2:0.60000002 3:1 4:14 #
0.00063411806898195938880791189262709 1:-0.64172959 2:0.6511628 3:30 4:35 #
0.00063411806898195938880791189262709 1:0.75674063 2:0.54166669 3:31 4:32 #
-0.00063411806898195938880791189262709 1:1.4327801 2:0.93333334 3:1 4:38 #
-0.00063411806898195938880791189262709 1:-0.64543867 2:0.64516127 3:2 4:13 #
-0.00063411806898195938880791189262709 1:1.7804139 2:0.50729924 3:4 4:12 #
-0.00063411806898195938880791189262709 1:-2.8933587 2:0.61052632 3:1 4:14 #
-0.00063411806898195938880791189262709 1:-5.0491414 2:0.50284094 3:1 4:67 #
-0.00063411806898195938880791189262709 1:-2.571939 2:0.54444444 3:4 4:11 #
-0.00063411806898195938880791189262709 1:-3.4962797 2:0.76595747 3:1 4:58 #
-0.00063411806898195938880791189262709 1:1.4038813 2:0.59941518 3:5 4:12 #
0.00063411806898195938880791189262709 1:1.2566848 2:0.69999999 3:7 4:36 #
-0.00063411806898195938880791189262709 1:1.582274 2:0.90909094 3:1 4:24 #
0.00063411806898195938880791189262709 1:0.96190238 2:0.80000001 3:8 4:30 #
-0.00063411806898195938880791189262709 1:-4.531774 2:0.74647886 3:1 4:53 #
-0.00063411806898195938880791189262709 1:0.54055429 2:0.625 3:1 4:15 #
0.00063411806898195938880791189262709 1:-1.8303626 2:0.80555558 3:2 4:66 #
0.00063411806898195938880791189262709 1:-0.43148255 2:0.58333331 3:12 4:0 #
0.00063411806898195938880791189262709 1:-0.58713245 2:0.81818181 3:3 4:44 #
-0.00063411806898195938880791189262709 1:-0.93891978 2:0.57471263 3:1 4:14 #
0.00063411806898195938880791189262709 1:-0.52204955 2:0.51219511 3:30 4:31 #
0.00063411806898195938880791189262709 1:0.52508765 2:0.72222221 3:1 4:11 #
-0.00063411806898195938880791189262709 1:2.7538967 2:0.74747473 3:1 4:22 #
-0.00063411806898195938880791189262709 1:-0.1498258 2:0.78723407 3:10 4:12 #
0.00063411806898195938880791189262709 1:-1.0017092 2:0.875 3:1 4:70 #
0.00063411806898195938880791189262709 1:0.70312285 2:0.54166669 3:24 4:0 #
-0.00063411806898195938880791189262709 1:-0.93891978 2:0.55813956 3:1 4:14 #
0.00063411806898195938880791189262709 1:1.0142411 2:0.7647059 3:5 4:23 #
-0.00063411806898195938880791189262709 1:0.81840384 2:0.7027027 3:1 4:16 #
0.00063411806898195938880791189262709 1:-0.73370618 2:0.44999999 3:20 4:0 #
-0.00063411806898195938880791189262709 1:0.44717351 2:0.46521738 3:1 4:14 #
-0.00063411806898195938880791189262709 1:0.15465121 2:0.63568771 3:2 4:13 #
0.00063411806898195938880791189262709 1:-2.7245166 2:0.63043481 3:26 4:40 #
0.00063411806898195938880791189262709 1:-1.8451815 2:0.58139533 3:26 4:39 #
0.00063411806898195938880791189262709 1:1.6143175 2:0.66666669 3:12 4:0 #
0.00063411806898195938880791189262709 1:1.3850173 2:0.75 3:11 4:31 #
0.00063411806898195938880791189262709 1:2.8548934 2:0.5777778 3:30 4:31 #
0.00063411806898195938880791189262709 1:0.89713317 2:0.60416669 3:28 4:36 #
0.00063411806898195938880791189262709 1:-0.43894991 2:0.41176471 3:17 4:0 #
-0.00063411806898195938880791189262709 1:0.77738535 2:0.73239434 3:1 4:63 #
0.00063411806898195938880791189262709 1:1.0776612 2:0.48979592 3:29 4:21 #
0.00063411806898195938880791189262709 1:-0.42678204 2:0.48888889 3:28 4:33 #
0.00063411806898195938880791189262709 1:1.2674391 2:0.72222221 3:8 4:24 #
-0.00063411806898195938880791189262709 1:2.9526427 2:0.50273222 3:38 4:19 #
0.00063411806898195938880791189262709 1:-0.28401259 2:0.48717949 3:28 4:19 #
-0.00063411806898195938880791189262709 1:-2.7953272 2:0.52484471 3:9 4:15 #
0.00063411806898195938880791189262709 1:-1.2124891 2:0.76923078 3:1 4:37 #
-0.00063411806898195938880791189262709 1:-1.0226263 2:0.52777779 3:21 4:28 #
-0.00063411806898195938880791189262709 1:-2.1341999 2:0.51549298 3:10 4:21 #
0.00063411806898195938880791189262709 1:2.7661059 2:0.61363637 3:24 4:38 #
0.00063411806898195938880791189262709 1:-1.4383631 2:0.66666669 3:12 4:0 #
0.00063411806898195938880791189262709 1:-4.2681761 2:1 3:1 4:37 #
0.00063411806898195938880791189262709 1:-2.3341863 2:0.5777778 3:25 4:39 #
0.00063411806898195938880791189262709 1:-2.0445158 2:0.58823532 3:27 4:18 #
0.00063411806898195938880791189262709 1:-3.3190572 2:0.63636363 3:22 4:40 #
-0.00063411806898195938880791189262709 1:3.9374807 2:0.5566265 3:9 4:16 #
0.00063411806898195938880791189262709 1:-4.9778538 2:0.6785714 3:9 4:37 #
0.00063411806898195938880791189262709 1:3.9374807 2:0.55000001 3:20 4:0 #
0.00063411806898195938880791189262709 1:1.3688884 2:0.75 3:23 4:40 #
0.00063411806898195938880791189262709 1:-0.34852663 2:0.77777779 3:1 4:28 #
0.00063411806898195938880791189262709 1:0.8553251 2:0.55000001 3:29 4:24 #
-0.00063411806898195938880791189262709 1:-2.3055503 2:0.57249069 3:14 4:28 #
0.00063411806898195938880791189262709 1:-0.35535577 2:0.5 3:5 4:7 #
0.00063411806898195938880791189262709 1:-3.2827356 2:0.77777779 3:1 4:33 #
-0.00063411806898195938880791189262709 1:-0.44423023 2:0.48109242 3:21 4:23 #
0.00063411806898195938880791189262709 1:2.6792045 2:0.67567569 3:20 4:39 #
0.00063411806898195938880791189262709 1:-2.0005088 2:0.84210527 3:1 4:37 #
0.00063411806898195938880791189262709 1:-0.31540713 2:0.63043481 3:27 4:37 #
0.00063411806898195938880791189262709 1:-2.1759357 2:0.53333336 3:15 4:0 #
-0.00063411806898195938880791189262709 1:1.4609771 2:0.6226415 3:11 4:11 #
0.00063411806898195938880791189262709 1:0.65099895 2:0.58333331 3:12 4:0 #
0.00063411806898195938880791189262709 1:2.3025002 2:0.5 3:24 4:0 #
0.00063411806898195938880791189262709 1:2.7783909 2:0.46153846 3:13 4:0 #
-0.00063411806898195938880791189262709 1:-0.14012833 2:0.45864663 3:23 4:25 #
0.00063411806898195938880791189262709 1:-1.7045881 2:0.47058824 3:17 4:0 #
0.00063411806898195938880791189262709 1:-2.4254541 2:0.57894737 3:21 4:40 #
0.00063411806898195938880791189262709 1:-3.9810495 2:0.71428573 3:5 4:38 #
0.00063411806898195938880791189262709 1:1.7620488 2:0.53333336 3:28 4:34 #
-0.00063411806898195938880791189262709 1:0.69386321 2:0.56435645 3:6 4:11 #
0.00063411806898195938880791189262709 1:-0.47020459 2:0.46153846 3:13 4:0 #
0.00063411806898195938880791189262709 1:1.9154371 2:0.375 3:16 4:0 #
0.00063411806898195938880791189262709 1:0.10347642 2:0.63999999 3:1 4:33 #
-0.00063411806898195938880791189262709 1:0.13616262 2:0.50183153 3:24 4:14 #
0.00063411806898195938880791189262709 1:-0.038533535 2:0.93333334 3:2 4:39 #
0.00063411806898195938880791189262709 1:-2.1076946 2:0.65789473 3:22 4:40 #
-0.00063411806898195938880791189262709 1:-1.2587802 2:0.7088235 3:3 4:13 #
-0.00063411806898195938880791189262709 1:0.77976912 2:0.53253013 3:3 4:13 #
-0.00063411806898195938880791189262709 1:2.6375148 2:0.529661 3:5 4:14 #
0.00063411806898195938880791189262709 1:-1.0512999 2:0.65217394 3:23 4:0 #
0.00063411806898195938880791189262709 1:0.35671481 2:0.80952382 3:3 4:39 #
0.00063411806898195938880791189262709 1:0.25621623 2:0.7037037 3:2 4:38 #
-0.00063411806898195938880791189262709 1:-2.2376406 2:0.51145041 3:10 4:26 #
-0.00063411806898195938880791189262709 1:1.6610322 2:0.51898736 3:1 4:15 #
-0.00063411806898195938880791189262709 1:3.6889267 2:0.52631581 3:1 4:19 #
0.00063411806898195938880791189262709 1:-0.91498917 2:0.61904764 3:28 4:30 #
0.00063411806898195938880791189262709 1:0.28694195 2:0.67500001 3:28 4:29 #
-0.00063411806898195938880791189262709 1:0.26239869 2:0.53865981 3:1 4:66 #
-0.00063411806898195938880791189262709 1:-2.0577941 2:0.78260869 3:2 4:15 #
0.00063411806898195938880791189262709 1:-0.45681229 2:0.55263156 3:18 4:40 #
-0.00063411806898195938880791189262709 1:0.53776199 2:0.73333335 3:28 4:129 #
-0.00063411806898195938880791189262709 1:1.0256729 2:0.78333336 3:1 4:55 #
-0.00063411806898195938880791189262709 1:0.15532365 2:0.56140351 3:2 4:13 #
0.00063411806898195938880791189262709 1:0.32227933 2:0.66666669 3:6 4:21 #
-0.00063411806898195938880791189262709 1:-0.43427411 2:0.5224719 3:3 4:12 #
-0.00063411806898195938880791189262709 1:-0.50903136 2:0.79738563 3:20 4:13 #
0.00063411806898195938880791189262709 1:-2.3999155 2:0.56410259 3:22 4:39 #
0.00063411806898195938880791189262709 1:1.4583923 2:0.7647059 3:8 4:24 #
0.00063411806898195938880791189262709 1:3.6300652 2:0.54545456 3:22 4:0 #
-0.00063411806898195938880791189262709 1:-1.9206904 2:0.5 3:5 4:11 #
-0.00063411806898195938880791189262709 1:-1.8054016 2:0.51595747 3:13 4:16 #
-0.00063411806898195938880791189262709 1:-1.2756985 2:0.90909094 3:1 4:48 #
0.00063411806898195938880791189262709 1:-0.28060812 2:0.53658539 3:28 4:20 #
-0.00063411806898195938880791189262709 1:-1.2189581 2:0.58720928 3:13 4:25 #
0.00063411806898195938880791189262709 1:-1.4496722 2:0.625 3:1 4:12 #
-0.00063411806898195938880791189262709 1:0.24608083 2:0.65853661 3:9 4:12 #
0.00063411806898195938880791189262709 1:0.52308768 2:0.70588237 3:5 4:23 #
-0.00063411806898195938880791189262709 1:-2.5004861 2:0.55102038 3:1 4:14 #
0.00063411806898195938880791189262709 1:3.0683861 2:0.62222224 3:25 4:37 #
0.00063411806898195938880791189262709 1:-0.98576593 2:0.89473683 3:2 4:41 #
-0.00063411806898195938880791189262709 1:-3.0669417 2:0.55056179 3:6 4:11 #
-0.00063411806898195938880791189262709 1:-4.4756575 2:0.58354753 3:1 4:64 #
-0.00063411806898195938880791189262709 1:-1.9541421 2:0.55967081 3:1 4:14 #
-0.00063411806898195938880791189262709 1:0.37021473 2:0.55725193 3:2 4:16 #
-0.00063411806898195938880791189262709 1:2.8799284 2:0.56949151 3:1 4:17 #
-0.00063411806898195938880791189262709 1:2.7538967 2:0.65517241 3:1 4:19 #
0.00063411806898195938880791189262709 1:-1.1819124 2:0.67567569 3:28 4:26 #
-0.00063411806898195938880791189262709 1:-0.61817235 2:0.5076142 3:5 4:11 #
-0.00063411806898195938880791189262709 1:0.22225641 2:0.52602738 3:2 4:13 #
-0.00063411806898195938880791189262709 1:-1.0817385 2:0.69090909 3:1 4:15 #
-0.00063411806898195938880791189262709 1:3.727773 2:0.53416151 3:1 4:20 #
-0.00063411806898195938880791189262709 1:-0.082171597 2:0.89999998 3:1 4:21 #
-0.00063411806898195938880791189262709 1:-4.3180079 2:0.85000002 3:2 4:41 #
-0.00063411806898195938880791189262709 1:-0.94752467 2:0.48582995 3:15 4:21 #
0.00063411806898195938880791189262709 1:-0.25626945 2:0.69999999 3:3 4:29 #
-0.00063411806898195938880791189262709 1:-0.84421432 2:0.55089819 3:19 4:24 #
-0.00063411806898195938880791189262709 1:-1.7903929 2:0.5925926 3:12 4:28 #
-0.00063411806898195938880791189262709 1:-1.7965876 2:0.53846157 3:11 4:25 #
-0.00063411806898195938880791189262709 1:-3.1763341 2:0.5022831 3:3 4:21 #
0.00063411806898195938880791189262709 1:-4.9778538 2:0.67647058 3:19 4:41 #
0.00063411806898195938880791189262709 1:-1.8087641 2:0.5 3:16 4:0 #
0.00063411806898195938880791189262709 1:-0.17851496 2:0.93333334 3:1 4:33 #
0.00063411806898195938880791189262709 1:1.6745278 2:0.625 3:24 4:0 #
0.00063411806898195938880791189262709 1:0.072551243 2:0.73333335 3:4 4:24 #
0.00063411806898195938880791189262709 1:-1.4091818 2:0.63414633 3:25 4:42 #
-0.00063411806898195938880791189262709 1:-0.58713245 2:0.55485892 3:15 4:23 #
-0.00063411806898195938880791189262709 1:0.20437294 2:0.48421052 3:17 4:20 #
-0.00063411806898195938880791189262709 1:-2.8807299 2:0.5 3:5 4:26 #
0.00063411806898195938880791189262709 1:-1.4387797 2:0.9285714 3:1 4:69 #
0.00063411806898195938880791189262709 1:-0.20510642 2:0.59090906 3:22 4:0 #
-0.00063411806898195938880791189262709 1:-0.58713245 2:0.4417178 3:17 4:29 #
0.00063411806898195938880791189262709 1:1.005061 2:0.63157892 3:28 4:24 #
-0.00063411806898195938880791189262709 1:2.9061587 2:0.47702408 3:1 4:17 #
-0.00063411806898195938880791189262709 1:4.0368648 2:0.54385966 3:47 4:13 #
-0.00063411806898195938880791189262709 1:1.2674391 2:0.55063289 3:1 4:15 #
0.00063411806898195938880791189262709 1:-1.5003678 2:0.625 3:24 4:42 #
0.00063411806898195938880791189262709 1:-0.50266474 2:0.66666669 3:12 4:0 #
0.00063411806898195938880791189262709 1:1.2500674 2:0.80000001 3:7 4:27 #
-0.00063411806898195938880791189262709 1:0.88312525 2:0.58957654 3:1 4:15 #
0.00063411806898195938880791189262709 1:-1.0320983 2:0.51111114 3:23 4:42 #
0.00063411806898195938880791189262709 1:1.201658 2:0.66666669 3:12 4:0 #
0.00063411806898195938880791189262709 1:0.60726368 2:0.85714287 3:3 4:28 #
-0.00063411806898195938880791189262709 1:0.74384928 2:0.58299595 3:22 4:123 #
-0.00063411806898195938880791189262709 1:-2.0954838 2:0.47706422 3:5 4:11 #
-0.00063411806898195938880791189262709 1:-0.03584633 2:0.66972476 3:1 4:60 #
-0.00063411806898195938880791189262709 1:0.23220605 2:0.74358976 3:1 4:17 #
0.00063411806898195938880791189262709 1:-1.1552087 2:0.64999998 3:20 4:47 #
-0.00063411806898195938880791189262709 1:-1.222398 2:0.52688169 3:13 4:24 #
-0.00063411806898195938880791189262709 1:-3.0124354 2:0.61764705 3:2 4:13 #
0.00063411806898195938880791189262709 1:1.201658 2:0.47826087 3:23 4:0 #
-0.00063411806898195938880791189262709 1:2.2328768 2:0.85714287 3:1 4:30 #
-0.00063411806898195938880791189262709 1:1.0594295 2:0.88 3:1 4:49 #
0.00063411806898195938880791189262709 1:-0.98173177 2:0.47619048 3:27 4:27 #
0.00063411806898195938880791189262709 1:2.4368942 2:0.56410259 3:28 4:27 #
-0.00063411806898195938880791189262709 1:0.37319914 2:0.54929578 3:16 4:29 #
0.00063411806898195938880791189262709 1:3.5717659 2:0.66666669 3:24 4:0 #
-0.00063411806898195938880791189262709 1:1.1903917 2:0.57692307 3:1 4:30 #
-0.00063411806898195938880791189262709 1:2.2891841 2:0.63157892 3:9 4:13 #
0.00063411806898195938880791189262709 1:-1.7821548 2:0.74285716 3:6 4:61 #
0.00063411806898195938880791189262709 1:0.66601503 2:0.69767439 3:24 4:41 #
0.00063411806898195938880791189262709 1:-0.013312568 2:0.46153846 3:13 4:0 #
0.00063411806898195938880791189262709 1:-1.9337733 2:0.40000001 3:10 4:21 #
0.00063411806898195938880791189262709 1:-1.5343595 2:0.53846157 3:27 4:29 #
0.00063411806898195938880791189262709 1:0.47096795 2:0.42857143 3:26 4:19 #
0.00063411806898195938880791189262709 1:0.77300173 2:0.70833331 3:9 4:36 #
0.00063411806898195938880791189262709 1:0.45709583 2:0.6111111 3:27 4:23 #
-0.00063411806898195938880791189262709 1:2.544368 2:0.55477858 3:16 4:29 #
0.00063411806898195938880791189262709 1:-0.48348945 2:0.60416669 3:26 4:34 #
0.00063411806898195938880791189262709 1:2.470547 2:0.52173913 3:23 4:0 #
0.00063411806898195938880791189262709 1:-0.035618294 2:0.75 3:1 4:25 #
-0.00063411806898195938880791189262709 1:0.18038407 2:0.61165047 3:16 4:29 #
-0.00063411806898195938880791189262709 1:-1.9252107 2:0.52238804 3:13 4:21 #
-0.00063411806898195938880791189262709 1:-0.93891978 2:0.66666669 3:17 4:31 #
-0.00063411806898195938880791189262709 1:2.599793 2:0.54569191 3:1 4:17 #
-0.00063411806898195938880791189262709 1:-2.4537554 2:0.48803827 3:4 4:33 #
-0.00063411806898195938880791189262709 1:0.73649055 2:0.63709676 3:1 4:61 #
-0.00063411806898195938880791189262709 1:3.0550447 2:0.52941179 3:6 4:14 #
-0.00063411806898195938880791189262709 1:-0.52789545 2:0.57182318 3:2 4:13 #
-0.00063411806898195938880791189262709 1:-1.0004071 2:0.51475412 3:1 4:14 #
-0.00063411806898195938880791189262709 1:2.6173725 2:0.78947371 3:1 4:26 #
-0.00063411806898195938880791189262709 1:-1.884477 2:0.50497514 3:10 4:12 #
-0.00063411806898195938880791189262709 1:0.75051475 2:0.72340423 3:1 4:17 #
-0.00063411806898195938880791189262709 1:-0.28372011 2:0.50167227 3:2 4:13 #
-0.00063411806898195938880791189262709 1:1.5164756 2:0.46359223 3:6 4:11 #
-0.00063411806898195938880791189262709 1:-0.2288613 2:0.90476191 3:1 4:42 #
0.00063411806898195938880791189262709 1:-2.9747903 2:0.45714286 3:25 4:20 #
0.00063411806898195938880791189262709 1:0.93475044 2:0.7368421 3:8 4:26 #
0.00063411806898195938880791189262709 1:-0.8868103 2:0.80952382 3:2 4:38 #
0.00063411806898195938880791189262709 1:-1.6379732 2:0.65789473 3:17 4:47 #
-0.00063411806898195938880791189262709 1:-2.6809072 2:0.52405065 3:1 4:14 #
0.00063411806898195938880791189262709 1:-1.9599516 2:0.71428573 3:1 4:31 #
0.00063411806898195938880791189262709 1:-0.52064186 2:0.71052629 3:14 4:54 #
-0.00063411806898195938880791189262709 1:-0.65832102 2:0.52790695 3:2 4:13 #
0.00063411806898195938880791189262709 1:0.77776158 2:0.84210527 3:5 4:36 #
0.00063411806898195938880791189262709 1:0.3846902 2:0.83870965 3:5 4:67 #
-0.00063411806898195938880791189262709 1:1.5358076 2:0.4858757 3:1 4:15 #
0.00063411806898195938880791189262709 1:0.31605971 2:0.64285713 3:14 4:52 #
-0.00063411806898195938880791189262709 1:-0.87479895 2:0.52158272 3:2 4:13 #
0.00063411806898195938880791189262709 1:0.27337709 2:0.75 3:4 4:33 #
-0.00063411806898195938880791189262709 1:2.1129358 2:0.53111112 3:1 4:16 #
-0.00063411806898195938880791189262709 1:0.25621623 2:0.45036319 3:2 4:13 #
-0.00063411806898195938880791189262709 1:0.2264816 2:0.9285714 3:2 4:31 #
-0.00063411806898195938880791189262709 1:1.9860888 2:0.56953645 3:1 4:30 #
0.00063411806898195938880791189262709 1:-2.221843 2:0.64285713 3:5 4:35 #
0.00063411806898195938880791189262709 1:-2.7088711 2:0.75 3:4 4:34 #
0.00063411806898195938880791189262709 1:-0.90719646 2:0.76190478 3:1 4:33 #
-0.00063411806898195938880791189262709 1:2.2102101 2:0.77083331 3:1 4:27 #
-0.00063411806898195938880791189262709 1:1.5929743 2:0.5625 3:1 4:30 #
0.00063411806898195938880791189262709 1:-0.2220283 2:0.66666669 3:5 4:35 #
-0.00063411806898195938880791189262709 1:0.1440569 2:0.49874687 3:27 4:22 #
-0.00063411806898195938880791189262709 1:-1.9720154 2:0.86666667 3:1 4:30 #
0.00063411806898195938880791189262709 1:0.038034655 2:0.69230771 3:5 4:35 #
-0.00063411806898195938880791189262709 1:-0.76731104 2:0.5 3:21 4:20 #
0.00063411806898195938880791189262709 1:-1.6627617 2:0.75 3:1 4:31 #
-0.00063411806898195938880791189262709 1:0.84724748 2:0.52360517 3:1 4:15 #
-0.00063411806898195938880791189262709 1:1.9301144 2:0.51904762 3:1 4:30 #
-0.00063411806898195938880791189262709 1:3.840318 2:0.56435645 3:14 4:15 #
-0.00063411806898195938880791189262709 1:1.8883981 2:0.57065219 3:5 4:13 #
0.00063411806898195938880791189262709 1:-2.6889906 2:0.63333333 3:4 4:35 #
-0.00063411806898195938880791189262709 1:-2.1669874 2:0.5182482 3:14 4:23 #
-0.00063411806898195938880791189262709 1:-0.35866758 2:0.59302324 3:1 4:15 #
0.00063411806898195938880791189262709 1:-1.3171237 2:0.71428573 3:4 4:35 #
-0.00063411806898195938880791189262709 1:-0.39109078 2:0.43513513 3:20 4:16 #
0.00063411806898195938880791189262709 1:-1.4801776 2:0.72000003 3:4 4:34 #
-0.00063411806898195938880791189262709 1:-1.2811228 2:0.64497042 3:3 4:13 #
0.00063411806898195938880791189262709 1:0.24608083 2:0.66666669 3:4 4:34 #
-0.00063411806898195938880791189262709 1:3.0479202 2:0.74468082 3:23 4:50 #
0.00063411806898195938880791189262709 1:-0.58708751 2:0.7368421 3:1 4:31 #
-0.00063411806898195938880791189262709 1:-3.3915138 2:0.59615386 3:1 4:15 #
-0.00063411806898195938880791189262709 1:-3.6256127 2:0.54464287 3:1 4:30 #
0.00063411806898195938880791189262709 1:0.64039248 2:0.69387758 3:7 4:30 #
0.00063411806898195938880791189262709 1:-2.5867646 2:0.8125 3:4 4:34 #
-0.00063411806898195938880791189262709 1:3.4677176 2:0.5582329 3:1 4:21 #
-0.00063411806898195938880791189262709 1:-1.7036287 2:0.62453532 3:1 4:30 #
0.00063411806898195938880791189262709 1:-0.84980953 2:0.69565219 3:4 4:34 #
-0.00063411806898195938880791189262709 1:0.71044546 2:0.70526314 3:19 4:48 #
0.00063411806898195938880791189262709 1:-0.90627897 2:0.68181819 3:3 4:33 #
-0.00063411806898195938880791189262709 1:-0.22771633 2:0.89999998 3:1 4:25 #
0.00063411806898195938880791189262709 1:-0.32987344 2:1 3:1 4:24 #
0.00063411806898195938880791189262709 1:-0.45500031 2:0.71428573 3:4 4:34 #
-0.00063411806898195938880791189262709 1:-3.1312194 2:0.52976191 3:1 4:30 #
0.00063411806898195938880791189262709 1:0.163545 2:0.72727275 3:4 4:34 #
-0.00063411806898195938880791189262709 1:-1.7047317 2:0.76086956 3:2 4:31 #
0.00063411806898195938880791189262709 1:0.32524228 2:0.75 3:4 4:34 #
-0.00063411806898195938880791189262709 1:1.0970463 2:0.68421054 3:3 4:32 #
0.00063411806898195938880791189262709 1:-0.60161328 2:0.7368421 3:3 4:33 #
-0.00063411806898195938880791189262709 1:0.13354108 2:0.73076922 3:9 4:38 #
0.00063411806898195938880791189262709 1:0.017229598 2:0.70833331 3:2 4:32 #
-0.00063411806898195938880791189262709 1:1.1580979 2:0.52873564 3:1 4:30 #
0.00063411806898195938880791189262709 1:0.5171085 2:0.75 3:4 4:34 #
0.00063411806898195938880791189262709 1:-1.0041169 2:0.76190478 3:3 4:33 #
-0.00063411806898195938880791189262709 1:-0.91792482 2:0.72000003 3:5 4:34 #
-0.00063411806898195938880791189262709 1:-0.15824293 2:0.49068323 3:1 4:30 #
0.00063411806898195938880791189262709 1:0.17273012 2:0.77272725 3:4 4:34 #
0.00063411806898195938880791189262709 1:-0.61770791 2:0.5 3:14 4:0 #
-0.00063411806898195938880791189262709 1:2.2690713 2:0.60683763 3:15 4:44 #
0.00063411806898195938880791189262709 1:-1.1042857 2:0.78947371 3:1 4:31 #
-0.00063411806898195938880791189262709 1:-1.5839502 2:0.5120275 3:1 4:30 #
0.00063411806898195938880791189262709 1:0.31255311 2:0.78260869 3:2 4:19 #
-0.00063411806898195938880791189262709 1:0.35389453 2:0.68674701 3:1 4:29 #
0.00063411806898195938880791189262709 1:0.17273012 2:0.77272725 3:4 4:34 #
-0.00063411806898195938880791189262709 1:-0.44782427 2:0.52657002 3:2 4:31 #
0.00063411806898195938880791189262709 1:2.0489738 2:0.73913044 3:11 4:21 #
-0.00063411806898195938880791189262709 1:-1.262287 2:0.52278179 3:2 4:31 #
0.00063411806898195938880791189262709 1:-0.9119367 2:0.78947371 3:3 4:33 #
-0.00063411806898195938880791189262709 1:2.6173725 2:0.51760566 3:8 4:37 #
0.00063411806898195938880791189262709 1:-1.543498 2:0.85000002 3:2 4:32 #
-0.00063411806898195938880791189262709 1:-2.008435 2:0.57792211 3:2 4:31 #
0.00063411806898195938880791189262709 1:0.23632015 2:0.8125 3:2 4:26 #
-0.00063411806898195938880791189262709 1:1.8124341 2:0.50890583 3:1 4:29 #
0.00063411806898195938880791189262709 1:-0.39262426 2:0.76190478 3:3 4:33 #
-0.00063411806898195938880791189262709 1:-1.2160786 2:0.60742706 3:3 4:32 #
0.00063411806898195938880791189262709 1:-0.03584633 2:0.875 3:1 4:43 #
0.00063411806898195938880791189262709 1:-0.82589853 2:0.78260869 3:2 4:32 #
-0.00063411806898195938880791189262709 1:0.35437244 2:0.52339178 3:6 4:35 #
-0.00063411806898195938880791189262709 1:1.1547896 2:0.58974361 3:1 4:29 #
0.00063411806898195938880791189262709 1:-0.073262341 2:0.78947371 3:3 4:33 #
-0.00063411806898195938880791189262709 1:-2.1277804 2:0.68000001 3:5 4:34 #
0.00063411806898195938880791189262709 1:-0.381024 2:0.72727275 3:2 4:32 #
-0.00063411806898195938880791189262709 1:0.18632737 2:0.63768119 3:1 4:29 #
0.00063411806898195938880791189262709 1:-0.0027822149 2:0.80000001 3:3 4:33 #
0.00063411806898195938880791189262709 1:-1.3884555 2:0.82352942 3:1 4:31 #
-0.00063411806898195938880791189262709 1:-1.5422083 2:0.63095236 3:5 4:34 #
0.00063411806898195938880791189262709 1:0.11499563 2:0.84210527 3:1 4:35 #
-0.00063411806898195938880791189262709 1:-0.14907095 2:0.61282051 3:1 4:29 #
-0.00063411806898195938880791189262709 1:-0.74580139 2:0.64102566 3:6 4:35 #
0.00063411806898195938880791189262709 1:-2.2044137 2:0.92307693 3:1 4:31 #
0.00063411806898195938880791189262709 1:0.6015774 2:0.72222221 3:4 4:28 #
-0.00063411806898195938880791189262709 1:-0.47114354 2:0.61176473 3:1 4:29 #
-0.00063411806898195938880791189262709 1:-2.7001796 2:0.49213484 3:12 4:24 #
-0.00063411806898195938880791189262709 1:1.0459607 2:0.60545903 3:11 4:40 #
-0.00063411806898195938880791189262709 1:-0.47321385 2:0.60337555 3:1 4:29 #
0.00063411806898195938880791189262709 1:1.9748065 2:0.66666669 3:10 4:20 #
-0.00063411806898195938880791189262709 1:3.4179819 2:0.50990099 3:1 4:28 #
0.00063411806898195938880791189262709 1:-1.0033853 2:0.92307693 3:2 4:32 #
-0.00063411806898195938880791189262709 1:-0.55284369 2:0.60805082 3:7 4:36 #
0.00063411806898195938880791189262709 1:-0.043729074 2:0.80000001 3:2 4:32 #
-0.00063411806898195938880791189262709 1:-0.85734028 2:0.61666667 3:1 4:29 #
0.00063411806898195938880791189262709 1:1.0337756 2:0.6785714 3:6 4:38 #
-0.00063411806898195938880791189262709 1:-2.1979113 2:0.49311927 3:4 4:33 #
0.00063411806898195938880791189262709 1:0.22523859 2:0.77777779 3:2 4:32 #
-0.00063411806898195938880791189262709 1:-0.88256598 2:0.59574467 3:1 4:29 #
0.00063411806898195938880791189262709 1:-1.3899537 2:0.92307693 3:1 4:31 #
-0.00063411806898195938880791189262709 1:-0.767667 2:0.80000001 3:2 4:30 #
-0.00063411806898195938880791189262709 1:-1.4077754 2:0.58536583 3:6 4:35 #
0.00063411806898195938880791189262709 1:-0.19123742 2:0.74285716 3:1 4:31 #
-0.00063411806898195938880791189262709 1:1.7720035 2:0.63247865 3:1 4:28 #
0.00063411806898195938880791189262709 1:1.6610322 2:0.75999999 3:10 4:31 #
0.00063411806898195938880791189262709 1:0.21063921 2:0.82352942 3:1 4:30 #
-0.00063411806898195938880791189262709 1:0.08047387 2:0.56209153 3:2 4:30 #
0.00063411806898195938880791189262709 1:-0.55314296 2:0.875 3:1 4:31 #
-0.00063411806898195938880791189262709 1:-2.4537554 2:0.49070632 3:4 4:33 #
0.00063411806898195938880791189262709 1:-0.49539855 2:0.86666667 3:1 4:31 #
-0.00063411806898195938880791189262709 1:2.1381049 2:0.50134772 3:1 4:28 #
-0.00063411806898195938880791189262709 1:-2.783906 2:0.5 3:10 4:18 #
-0.00063411806898195938880791189262709 1:2.6603751 2:0.53038675 3:22 4:50 #
0.00063411806898195938880791189262709 1:-0.32888013 2:0.86666667 3:1 4:31 #
-0.00063411806898195938880791189262709 1:3.6889267 2:0.55936074 3:1 4:27 #
0.00063411806898195938880791189262709 1:-0.14973032 2:0.71428573 3:3 4:34 #
-0.00063411806898195938880791189262709 1:1.8728775 2:0.58333331 3:1 4:28 #
-0.00063411806898195938880791189262709 1:-1.4493929 2:0.71052629 3:18 4:20 #
-0.00063411806898195938880791189262709 1:-1.7895719 2:0.64264262 3:1 4:29 #
0.00063411806898195938880791189262709 1:0.28242528 2:0.80000001 3:3 4:37 #
-0.00063411806898195938880791189262709 1:0.98528045 2:0.59663868 3:1 4:28 #
0.00063411806898195938880791189262709 1:0.10743761 2:0.83333331 3:1 4:36 #
0.00063411806898195938880791189262709 1:-0.37803632 2:0.92307693 3:1 4:31 #
-0.00063411806898195938880791189262709 1:-0.57643628 2:0.8125 3:3 4:31 #
-0.00063411806898195938880791189262709 1:-1.8441639 2:0.6111111 3:17 4:29 #
-0.00063411806898195938880791189262709 1:0.20536433 2:0.5514223 3:3 4:31 #
0.00063411806898195938880791189262709 1:0.12986986 2:0.8125 3:1 4:31 #
-0.00063411806898195938880791189262709 1:-0.36288783 2:0.66153848 3:3 4:31 #
-0.00063411806898195938880791189262709 1:-1.2756985 2:0.52088451 3:1 4:29 #
0.00063411806898195938880791189262709 1:-1.3479575 2:0.72727275 3:2 4:33 #
-0.00063411806898195938880791189262709 1:0.12416437 2:0.5925926 3:9 4:38 #
0.00063411806898195938880791189262709 1:0.91323549 2:0.75 3:4 4:23 #
-0.00063411806898195938880791189262709 1:3.4677176 2:0.53555554 3:1 4:27 #
0.00063411806898195938880791189262709 1:2.1579928 2:0.75 3:13 4:24 #
0.00063411806898195938880791189262709 1:0.57565117 2:0.66666669 3:4 4:32 #
-0.00063411806898195938880791189262709 1:1.0132368 2:0.5479452 3:1 4:28 #
-0.00063411806898195938880791189262709 1:-1.8187366 2:0.48997134 3:5 4:34 #
0.00063411806898195938880791189262709 1:0.4750239 2:0.76190478 3:2 4:27 #
0.00063411806898195938880791189262709 1:-1.2165647 2:0.78947371 3:2 4:33 #
-0.00063411806898195938880791189262709 1:1.4647316 2:0.60851061 3:2 4:29 #
0.00063411806898195938880791189262709 1:0.18522719 2:0.88235295 3:1 4:31 #
-0.00063411806898195938880791189262709 1:-1.0592737 2:0.5488506 3:2 4:30 #
0.00063411806898195938880791189262709 1:0.043738008 2:0.92307693 3:1 4:31 #
-0.00063411806898195938880791189262709 1:0.35202491 2:0.92307693 3:2 4:29 #
-0.00063411806898195938880791189262709 1:-1.4443108 2:0.52490419 3:6 4:35 #
0.00063411806898195938880791189262709 1:1.0980633 2:0.7037037 3:7 4:35 #
0.00063411806898195938880791189262709 1:-3.416872 2:0.76190478 3:2 4:34 #
-0.00063411806898195938880791189262709 1:-3.1829069 2:0.58555132 3:1 4:29 #
0.00063411806898195938880791189262709 1:-0.48387918 2:0.875 3:1 4:37 #
-0.00063411806898195938880791189262709 1:-0.09242256 2:0.5411765 3:4 4:32 #
0.00063411806898195938880791189262709 1:0.95214391 2:0.76190478 3:6 4:30 #
0.00063411806898195938880791189262709 1:-1.6372039 2:0.75 3:1 4:32 #
0.00063411806898195938880791189262709 1:-1.7471367 2:0.60000002 3:20 4:0 #
0.00063411806898195938880791189262709 1:-0.1623586 2:0.5 3:14 4:0 #
-0.00063411806898195938880791189262709 1:0.8698808 2:0.54545456 3:11 4:12 #
-0.00063411806898195938880791189262709 1:-1.3330985 2:0.48604652 3:16 4:25 #
0.00063411806898195938880791189262709 1:-1.6614134 2:0.76923078 3:13 4:0 #
0.00063411806898195938880791189262709 1:-2.6213593 2:0.88235295 3:1 4:65 #
-0.00063411806898195938880791189262709 1:1.9876317 2:0.49038461 3:3 4:14 #
0.00063411806898195938880791189262709 1:-1.051299 2:0.78787881 3:7 4:63 #
0.00063411806898195938880791189262709 1:-0.87199444 2:0.69230771 3:13 4:0 #
-0.00063411806898195938880791189262709 1:0.44958752 2:0.44559586 3:18 4:10 #
0.00063411806898195938880791189262709 1:-2.0921719 2:0.5625 3:16 4:0 #
-0.00063411806898195938880791189262709 1:-0.68712831 2:0.51071429 3:2 4:13 #
0.00063411806898195938880791189262709 1:2.1487298 2:0.625 3:24 4:0 #
-0.00063411806898195938880791189262709 1:-0.3420819 2:0.51351351 3:8 4:11 #
0.00063411806898195938880791189262709 1:0.35040826 2:0.54545456 3:22 4:0 #
-0.00063411806898195938880791189262709 1:-1.0978063 2:0.51371568 3:2 4:13 #
0.00063411806898195938880791189262709 1:2.2204521 2:0.625 3:24 4:0 #
-0.00063411806898195938880791189262709 1:3.1470921 2:0.56026059 3:1 4:19 #
0.00063411806898195938880791189262709 1:-0.093144216 2:0.75 3:12 4:0 #
0.00063411806898195938880791189262709 1:-1.9822525 2:0.55555558 3:18 4:0 #
-0.00063411806898195938880791189262709 1:1.9987873 2:0.41472867 3:11 4:11 #
-0.00063411806898195938880791189262709 1:1.8997581 2:0.63313609 3:16 4:13 #
0.00063411806898195938880791189262709 1:-0.55709946 2:0.53846157 3:13 4:0 #
-0.00063411806898195938880791189262709 1:-0.65970117 2:0.58064514 3:11 4:11 #
-0.00063411806898195938880791189262709 1:3.6857111 2:0.65591395 3:33 4:32 #
0.00063411806898195938880791189262709 1:0.7296471 2:0.66666669 3:12 4:0 #
-0.00063411806898195938880791189262709 1:-2.1707878 2:0.54004574 3:2 4:13 #
0.00063411806898195938880791189262709 1:1.0883483 2:0.40000001 3:15 4:0 #
0.00063411806898195938880791189262709 1:3.0514815 2:0.70833331 3:24 4:0 #
-0.00063411806898195938880791189262709 1:-1.2153641 2:0.48110831 3:14 4:12 #
-0.00063411806898195938880791189262709 1:-0.21003596 2:0.44782609 3:9 4:12 #
-0.00063411806898195938880791189262709 1:1.1041104 2:0.56410259 3:9 4:12 #
0.00063411806898195938880791189262709 1:-0.73370618 2:0.44999999 3:20 4:0 #
-0.00063411806898195938880791189262709 1:-0.09242256 2:0.56849313 3:13 4:12 #
0.00063411806898195938880791189262709 1:-0.91568518 2:0.5 3:14 4:0 #
-0.00063411806898195938880791189262709 1:-0.40269455 2:0.59302324 3:12 4:12 #
0.00063411806898195938880791189262709 1:1.1676538 2:0.75 3:12 4:0 #
-0.00063411806898195938880791189262709 1:-3.1052985 2:0.47222221 3:8 4:11 #
-0.00063411806898195938880791189262709 1:1.5853889 2:0.52987015 3:11 4:12 #
-0.00063411806898195938880791189262709 1:-0.33909178 2:0.52777779 3:12 4:12 #
0.00063411806898195938880791189262709 1:0.23015735 2:0.61538464 3:13 4:0 #
0.00063411806898195938880791189262709 1:1.5191132 2:0.75 3:12 4:0 #
-0.00063411806898195938880791189262709 1:-1.1166573 2:0.65441179 3:10 4:12 #
0.00063411806898195938880791189262709 1:0.82556814 2:0.61538464 3:13 4:0 #
-0.00063411806898195938880791189262709 1:-0.64824694 2:0.5413534 3:15 4:13 #
0.00063411806898195938880791189262709 1:1.0394006 2:0.61538464 3:13 4:0 #
-0.00063411806898195938880791189262709 1:0.41298008 2:0.5625 3:9 4:12 #
0.00063411806898195938880791189262709 1:0.7726903 2:0.69230771 3:13 4:0 #
-0.00063411806898195938880791189262709 1:-0.73566109 2:0.50523561 3:15 4:13 #
0.00063411806898195938880791189262709 1:1.0925527 2:0.69230771 3:13 4:0 #
-0.00063411806898195938880791189262709 1:0.13406582 2:0.51704544 3:14 4:13 #
0.00063411806898195938880791189262709 1:-0.50226754 2:0.64285713 3:14 4:0 #
0.00063411806898195938880791189262709 1:-0.062438041 2:0.5 3:18 4:0 #
0.00063411806898195938880791189262709 1:-0.6711545 2:0.69999999 3:6 4:31 #
0.00063411806898195938880791189262709 1:-1.2412103 2:0.60000002 3:15 4:0 #
0.00063411806898195938880791189262709 1:-0.29798797 2:0.60000002 3:15 4:0 #
-0.00063411806898195938880791189262709 1:3.263149 2:0.54000002 3:10 4:14 #
-0.00063411806898195938880791189262709 1:1.5814106 2:0.60526317 3:3 4:14 #
0.00063411806898195938880791189262709 1:0.1458441 2:0.53333336 3:15 4:0 #
-0.00063411806898195938880791189262709 1:0.39713648 2:0.64406782 3:3 4:14 #
0.00063411806898195938880791189262709 1:0.21290328 2:0.53333336 3:15 4:0 #
-0.00063411806898195938880791189262709 1:0.4341386 2:0.67647058 3:5 4:13 #
-0.00063411806898195938880791189262709 1:-1.2716161 2:0.71428573 3:3 4:14 #
0.00063411806898195938880791189262709 1:0.30494225 2:0.53333336 3:15 4:0 #
0.00063411806898195938880791189262709 1:-0.53661621 2:0.66666669 3:15 4:0 #
-0.00063411806898195938880791189262709 1:1.3817015 2:0.57446808 3:5 4:14 #
-0.00063411806898195938880791189262709 1:0.18634163 2:0.5687204 3:3 4:14 #
0.00063411806898195938880791189262709 1:0.76670861 2:0.53333336 3:15 4:0 #
0.00063411806898195938880791189262709 1:0.43914828 2:0.60000002 3:15 4:0 #
-0.00063411806898195938880791189262709 1:1.4061186 2:0.57936507 3:7 4:13 #
0.00063411806898195938880791189262709 1:0.086104847 2:0.5714286 3:14 4:0 #
-0.00063411806898195938880791189262709 1:0.018246584 2:0.5536105 3:3 4:14 #
0.00063411806898195938880791189262709 1:-0.18916848 2:0.66666669 3:15 4:0 #
-0.00063411806898195938880791189262709 1:-1.745455 2:0.63636363 3:3 4:13 #
0.00063411806898195938880791189262709 1:0.17522244 2:0.5714286 3:14 4:0 #
-0.00063411806898195938880791189262709 1:2.6648195 2:0.5258621 3:10 4:13 #
0.00063411806898195938880791189262709 1:0.67817271 2:0.60000002 3:15 4:0 #
-0.00063411806898195938880791189262709 1:0.13906211 2:0.48930481 3:3 4:13 #
0.00063411806898195938880791189262709 1:0.74086481 2:0.60000002 3:15 4:0 #
-0.00063411806898195938880791189262709 1:0.18483055 2:0.62337661 3:6 4:13 #
0.00063411806898195938880791189262709 1:0.4691835 2:0.5714286 3:14 4:0 #
-0.00063411806898195938880791189262709 1:-0.87075555 2:0.53276354 3:3 4:13 #
-0.00063411806898195938880791189262709 1:1.2847855 2:0.56944442 3:6 4:14 #
0.00063411806898195938880791189262709 1:-0.74328905 2:0.80000001 3:15 4:0 #
0.00063411806898195938880791189262709 1:1.1998954 2:0.5714286 3:14 4:0 #
-0.00063411806898195938880791189262709 1:-1.7886569 2:0.4977169 3:2 4:13 #
0.00063411806898195938880791189262709 1:-0.46069869 2:0.71428573 3:14 4:0 #
-0.00063411806898195938880791189262709 1:2.0189893 2:0.68316829 3:13 4:15 #
-0.00063411806898195938880791189262709 1:1.2495283 2:0.4375 3:8 4:12 #
-0.00063411806898195938880791189262709 1:0.79662204 2:0.57738096 3:8 4:13 #
0.00063411806898195938880791189262709 1:-0.4478586 2:0.71428573 3:14 4:0 #
0.00063411806898195938880791189262709 1:-0.25915897 2:0.71428573 3:14 4:0 #
0.00063411806898195938880791189262709 1:-0.64434409 2:0.80000001 3:15 4:0 #
-0.00063411806898195938880791189262709 1:-2.3168845 2:0.46953404 3:2 4:13 #
-0.00063411806898195938880791189262709 1:-2.4853818 2:0.62068963 3:3 4:13 #
-0.00063411806898195938880791189262709 1:1.4015087 2:0.53225809 3:9 4:13 #
-0.00063411806898195938880791189262709 1:0.97831535 2:0.56521738 3:9 4:13 #
0.00063411806898195938880791189262709 1:0.78411806 2:0.64285713 3:14 4:0 #
0.00063411806898195938880791189262709 1:0.81163406 2:0.64285713 3:14 4:0 #
0.00063411806898195938880791189262709 1:1.8074051 2:0.61538464 3:13 4:0 #
-0.00063411806898195938880791189262709 1:-1.6250139 2:0.54220778 3:5 4:12 #
0.00063411806898195938880791189262709 1:0.99388623 2:0.64285713 3:14 4:0 #
0.00063411806898195938880791189262709 1:0.055020079 2:0.78571427 3:14 4:0 #
-0.00063411806898195938880791189262709 1:-1.6239165 2:0.55774647 3:6 4:12 #
-0.00063411806898195938880791189262709 1:-0.8463034 2:0.49418604 3:3 4:13 #
0.00063411806898195938880791189262709 1:0.095708966 2:0.78571427 3:14 4:0 #
-0.00063411806898195938880791189262709 1:-0.79588473 2:0.53433478 3:7 4:12 #
0.00063411806898195938880791189262709 1:1.1998954 2:0.64285713 3:14 4:0 #
0.00063411806898195938880791189262709 1:0.89254189 2:0.71428573 3:14 4:0 #
-0.00063411806898195938880791189262709 1:-4.2281303 2:0.59033614 3:2 4:25 #
0.00063411806898195938880791189262709 1:0.98195249 2:0.71428573 3:14 4:0 #
-0.00063411806898195938880791189262709 1:1.6205847 2:0.43450481 3:6 4:13 #
0.00063411806898195938880791189262709 1:1.4118909 2:0.64285713 3:14 4:0 #
-0.00063411806898195938880791189262709 1:1.1059272 2:0.52912623 3:8 4:13 #
0.00063411806898195938880791189262709 1:1.607959 2:0.64285713 3:14 4:0 #
-0.00063411806898195938880791189262709 1:1.5738175 2:0.48341233 3:11 4:13 #
-0.00063411806898195938880791189262709 1:1.0368111 2:0.52380955 3:10 4:13 #
-0.00063411806898195938880791189262709 1:3.2917416 2:0.5714286 3:15 4:16 #
0.00063411806898195938880791189262709 1:-4.1657214 2:0.45161289 3:18 4:27 #
0.00063411806898195938880791189262709 1:1.3497562 2:0.58139533 3:21 4:12 #
-0.00063411806898195938880791189262709 1:1.9974744 2:0.64444447 3:16 4:14 #
0.00063411806898195938880791189262709 1:-1.4387797 2:0.9285714 3:1 4:69 #
0.00063411806898195938880791189262709 1:-1.2271363 2:0.71428573 3:1 4:12 #
0.00063411806898195938880791189262709 1:2.2102101 2:0.5714286 3:14 4:0 #
0.00063411806898195938880791189262709 1:-1.3272539 2:0.52941179 3:26 4:17 #
-0.00063411806898195938880791189262709 1:0.038034655 2:0.5625 3:5 4:13 #
0.00063411806898195938880791189262709 1:-1.6588691 2:0.4375 3:24 4:17 #
-0.00063411806898195938880791189262709 1:0.71891028 2:0.57526881 3:8 4:13 #
0.00063411806898195938880791189262709 1:1.2924988 2:0.73809522 3:6 4:20 #
0.00063411806898195938880791189262709 1:-0.84536022 2:0.80555558 3:2 4:67 #
-0.00063411806898195938880791189262709 1:1.8124341 2:0.51157898 3:15 4:15 #
-0.00063411806898195938880791189262709 1:0.0086841369 2:0.7037037 3:7 4:14 #
0.00063411806898195938880791189262709 1:-4.1206055 2:0.65789473 3:17 4:42 #
0.00063411806898195938880791189262709 1:1.2072257 2:0.66666669 3:9 4:36 #
0.00063411806898195938880791189262709 1:0.0039224294 2:0.67391306 3:21 4:46 #
0.00063411806898195938880791189262709 1:-1.515336 2:0.64102566 3:22 4:43 #
-0.00063411806898195938880791189262709 1:-1.7045881 2:0.55787039 3:3 4:13 #
-0.00063411806898195938880791189262709 1:1.1148394 2:0.37748346 3:3 4:14 #
-0.00063411806898195938880791189262709 1:3.1721957 2:0.49707603 3:14 4:15 #
-0.00063411806898195938880791189262709 1:-0.8463034 2:0.5420168 3:3 4:14 #
0.00063411806898195938880791189262709 1:-1.4873428 2:0.52173913 3:26 4:20 #
0.00063411806898195938880791189262709 1:-1.3165655 2:0.48571429 3:26 4:23 #
0.00063411806898195938880791189262709 1:0.45187616 2:0.70588237 3:3 4:22 #
0.00063411806898195938880791189262709 1:1.3359977 2:0.5 3:22 4:0 #
0.00063411806898195938880791189262709 1:-1.7043942 2:0.51282054 3:2 4:13 #
0.00063411806898195938880791189262709 1:2.3978195 2:0.60869563 3:23 4:0 #
0.00063411806898195938880791189262709 1:0.66024262 2:0.73913044 3:7 4:34 #
-0.00063411806898195938880791189262709 1:1.4075181 2:0.625 3:1 4:16 #
0.00063411806898195938880791189262709 1:1.1751885 2:0.63636363 3:24 4:39 #
0.00063411806898195938880791189262709 1:1.8472455 2:0.61538464 3:13 4:0 #
0.00063411806898195938880791189262709 1:0.54281735 2:0.86363637 3:7 4:42 #
-0.00063411806898195938880791189262709 1:0.02114963 2:0.5750916 3:1 4:15 #
0.00063411806898195938880791189262709 1:-1.1525365 2:0.69999999 3:19 4:47 #
-0.00063411806898195938880791189262709 1:0.39523941 2:0.53333336 3:1 4:15 #
-0.00063411806898195938880791189262709 1:0.78213501 2:0.51139241 3:1 4:15 #
-0.00063411806898195938880791189262709 1:-0.86257708 2:0.47033897 3:13 4:38 #
-0.00063411806898195938880791189262709 1:2.2445271 2:0.56793481 3:1 4:55 #
-0.00063411806898195938880791189262709 1:1.4072068 2:0.5714286 3:19 4:11 #
0.00063411806898195938880791189262709 1:0.89548355 2:0.60000002 3:8 4:21 #
-0.00063411806898195938880791189262709 1:-0.63567114 2:0.5300926 3:1 4:61 #
-0.00063411806898195938880791189262709 1:2.0696006 2:0.70588237 3:1 4:20 #
-0.00063411806898195938880791189262709 1:-2.1489429 2:0.80000001 3:1 4:18 #
-0.00063411806898195938880791189262709 1:2.0489738 2:0.7352941 3:2 4:18 #
0.00063411806898195938880791189262709 1:-0.19962545 2:0.54761904 3:27 4:30 #
0.00063411806898195938880791189262709 1:1.565187 2:0.41176471 3:17 4:0 #
0.00063411806898195938880791189262709 1:2.0318696 2:0.57894737 3:27 4:25 #
0.00063411806898195938880791189262709 1:-1.3348887 2:0.61904764 3:21 4:43 #
-0.00063411806898195938880791189262709 1:-0.70323789 2:0.57999998 3:1 4:15 #
-0.00063411806898195938880791189262709 1:-2.0336587 2:0.51119405 3:10 4:41 #
-0.00063411806898195938880791189262709 1:0.70745277 2:0.84615386 3:1 4:49 #
-0.00063411806898195938880791189262709 1:0.53922784 2:0.72972971 3:3 4:15 #
-0.00063411806898195938880791189262709 1:-2.5205977 2:0.625 3:1 4:15 #
-0.00063411806898195938880791189262709 1:-0.26438999 2:0.83333331 3:1 4:22 #
0.00063411806898195938880791189262709 1:-2.559371 2:0.53846157 3:24 4:32 #
0.00063411806898195938880791189262709 1:1.0970463 2:0.75 3:5 4:18 #
-0.00063411806898195938880791189262709 1:-2.2200747 2:0.69444442 3:15 4:40 #
0.00063411806898195938880791189262709 1:1.5425469 2:0.72222221 3:21 4:44 #
0.00063411806898195938880791189262709 1:1.8873111 2:0.61538464 3:13 4:0 #
0.00063411806898195938880791189262709 1:2.0685337 2:0.67741936 3:11 4:30 #
0.00063411806898195938880791189262709 1:-0.60043299 2:0.65957445 3:22 4:42 #
0.00063411806898195938880791189262709 1:-1.6587949 2:0.71794873 3:19 4:46 #
0.00063411806898195938880791189262709 1:-0.20092778 2:0.4375 3:16 4:0 #
0.00063411806898195938880791189262709 1:-1.0150273 2:0.83783782 3:1 4:67 #
0.00063411806898195938880791189262709 1:-2.556504 2:0.60975611 3:26 4:29 #
-0.00063411806898195938880791189262709 1:1.4118909 2:0.59722221 3:2 4:15 #
0.00063411806898195938880791189262709 1:-0.95630848 2:0.5 3:20 4:0 #
-0.00063411806898195938880791189262709 1:-0.7794627 2:0.66101694 3:6 4:13 #
0.00063411806898195938880791189262709 1:0.44091499 2:0.59090906 3:22 4:0 #
0.00063411806898195938880791189262709 1:0.24768953 2:0.80000001 3:3 4:41 #
0.00063411806898195938880791189262709 1:1.9357079 2:0.65217394 3:23 4:0 #
-0.00063411806898195938880791189262709 1:-2.1086812 2:0.54436451 3:3 4:13 #
-0.00063411806898195938880791189262709 1:3.2156925 2:0.62899786 3:1 4:48 #
0.00063411806898195938880791189262709 1:-1.7201275 2:0.5945946 3:26 4:21 #
-0.00063411806898195938880791189262709 1:-1.0672867 2:0.80000001 3:1 4:19 #
0.00063411806898195938880791189262709 1:1.7226605 2:0.4893617 3:26 4:31 #
-0.00063411806898195938880791189262709 1:0.041056827 2:0.54887217 3:1 4:15 #
-0.00063411806898195938880791189262709 1:-0.15407409 2:0.54198474 3:25 4:18 #
0.00063411806898195938880791189262709 1:-2.8810761 2:0.4074074 3:16 4:15 #
-0.00063411806898195938880791189262709 1:0.47265157 2:0.85000002 3:1 4:42 #
0.00063411806898195938880791189262709 1:-0.30501869 2:0.51428574 3:26 4:24 #
0.00063411806898195938880791189262709 1:-2.0665221 2:0.61290324 3:1 4:14 #
-0.00063411806898195938880791189262709 1:-0.44368351 2:0.56976742 3:1 4:15 #
0.00063411806898195938880791189262709 1:-1.464039 2:0.70731705 3:26 4:34 #
0.00063411806898195938880791189262709 1:2.7259276 2:0.48571429 3:26 4:20 #
0.00063411806898195938880791189262709 1:-2.69538 2:0.73333335 3:1 4:13 #
0.00063411806898195938880791189262709 1:-1.1021155 2:0.65957445 3:21 4:41 #
0.00063411806898195938880791189262709 1:-0.6372211 2:0.62790698 3:26 4:33 #
0.00063411806898195938880791189262709 1:-3.5346291 2:0.65714288 3:25 4:26 #
0.00063411806898195938880791189262709 1:0.13685296 2:0.74074072 3:5 4:42 #
0.00063411806898195938880791189262709 1:0.4050341 2:0.75 3:5 4:30 #
0.00063411806898195938880791189262709 1:0.96224588 2:0.64999998 3:4 4:21 #
0.00063411806898195938880791189262709 1:0.11636104 2:0.69999999 3:3 4:27 #
0.00063411806898195938880791189262709 1:-1.9392247 2:0.47058824 3:24 4:23 #
0.00063411806898195938880791189262709 1:0.40116549 2:0.63157892 3:5 4:20 #
0.00063411806898195938880791189262709 1:1.2488347 2:0.64285713 3:27 4:29 #
-0.00063411806898195938880791189262709 1:-2.4251041 2:0.54545456 3:6 4:23 #
-0.00063411806898195938880791189262709 1:-2.6809072 2:0.56613755 3:1 4:15 #
-0.00063411806898195938880791189262709 1:-4.8202276 2:0.53237408 3:1 4:63 #
0.00063411806898195938880791189262709 1:0.80288899 2:0.52941179 3:26 4:20 #
-0.00063411806898195938880791189262709 1:1.1041104 2:0.46315789 3:1 4:15 #
-0.00063411806898195938880791189262709 1:1.5877433 2:0.77419353 3:1 4:47 #
0.00063411806898195938880791189262709 1:0.56340492 2:0.61764705 3:26 4:18 #
-0.00063411806898195938880791189262709 1:2.0777996 2:0.66666669 3:1 4:18 #
0.00063411806898195938880791189262709 1:-3.0310903 2:0.73170733 3:12 4:54 #
0.00063411806898195938880791189262709 1:-0.079933025 2:0.89999998 3:2 4:44 #
0.00063411806898195938880791189262709 1:-0.90587837 2:0.78947371 3:1 4:35 #
0.00063411806898195938880791189262709 1:0.67770666 2:0.65909094 3:18 4:46 #
-0.00063411806898195938880791189262709 1:0.16355421 2:0.53709197 3:1 4:15 #
0.00063411806898195938880791189262709 1:0.28844807 2:0.61904764 3:23 4:37 #
0.00063411806898195938880791189262709 1:-1.8864793 2:0.68181819 3:13 4:52 #
-0.00063411806898195938880791189262709 1:-0.53321171 2:0.55339807 3:16 4:11 #
-0.00063411806898195938880791189262709 1:0.76761019 2:0.69523811 3:3 4:15 #
-0.00063411806898195938880791189262709 1:2.1678619 2:0.61320752 3:1 4:18 #
-0.00063411806898195938880791189262709 1:2.6720333 2:0.74074072 3:1 4:38 #
0.00063411806898195938880791189262709 1:0.64201862 2:0.7037037 3:4 4:40 #
-0.00063411806898195938880791189262709 1:-4.2281303 2:0.69999999 3:2 4:15 #
-0.00063411806898195938880791189262709 1:-2.5484085 2:0.66666669 3:1 4:16 #
-0.00063411806898195938880791189262709 1:-3.3212967 2:0.5667575 3:3 4:13 #
-0.00063411806898195938880791189262709 1:2.7424283 2:0.62453532 3:5 4:16 #
0.00063411806898195938880791189262709 1:0.17077899 2:0.4375 3:16 4:0 #
0.00063411806898195938880791189262709 1:1.7456073 2:0.46666667 3:15 4:0 #
-0.00063411806898195938880791189262709 1:1.1774688 2:0.57314152 3:1 4:16 #
-0.00063411806898195938880791189262709 1:0.95561558 2:0.56578946 3:33 4:18 #
-0.00063411806898195938880791189262709 1:-2.4203184 2:0.66420662 3:1 4:16 #
-0.00063411806898195938880791189262709 1:-1.7832997 2:0.54989386 3:12 4:27 #
-0.00063411806898195938880791189262709 1:1.1959547 2:0.62653565 3:1 4:17 #
-0.00063411806898195938880791189262709 1:-0.41324189 2:0.55352479 3:26 4:38 #
-0.00063411806898195938880791189262709 1:-0.13906685 2:0.53225809 3:1 4:15 #
0.00063411806898195938880791189262709 1:-2.4576716 2:0.39285713 3:16 4:20 #
0.00063411806898195938880791189262709 1:0.60132414 2:0.74285716 3:2 4:20 #
0.00063411806898195938880791189262709 1:-1.8408734 2:0.5714286 3:25 4:29 #
-0.00063411806898195938880791189262709 1:-4.0049014 2:0.48895028 3:4 4:19 #
0.00063411806898195938880791189262709 1:3.0493844 2:0.60869563 3:23 4:0 #
0.00063411806898195938880791189262709 1:-0.19175102 2:0.75 3:4 4:40 #
0.00063411806898195938880791189262709 1:0.22970179 2:0.74358976 3:6 4:64 #
0.00063411806898195938880791189262709 1:-0.08567638 2:0.52380955 3:21 4:0 #
