SVM-light Version V6.02
0 # kernel type
3 # kernel parameter -d 
1 # kernel parameter -g 
1 # kernel parameter -s 
1 # kernel parameter -r 
empty# kernel parameter -u 
4 # highest feature index 
16298 # number of training documents 
8332 # number of support vectors plus 1 
-0.4017779 # threshold b, each following line is a SV (starting with alpha*y)
-0.00064559937944932629938499246691208 1:-0.31773382 2:0.5925926 3:1 4:17 #
0.00064559937944932629938499246691208 1:-1.55669 2:0.85714287 3:2 4:67 #
0.00064559937944932629938499246691208 1:-1.788383 2:0.63636363 3:1 4:15 #
0.00064559937944932629938499246691208 1:0.87041801 2:0.65217394 3:6 4:27 #
-0.00064559937944932629938499246691208 1:-1.0544907 2:0.49285713 3:22 4:46 #
0.00064559937944932629938499246691208 1:0.046396263 2:0.86956519 3:8 4:36 #
-0.00064559937944932629938499246691208 1:0.47903562 2:0.47945204 3:1 4:7 #
-0.00064559937944932629938499246691208 1:-1.9890617 2:0.50226247 3:11 4:14 #
0.00064559937944932629938499246691208 1:0.97700602 2:0.54166669 3:48 4:0 #
-0.00064559937944932629938499246691208 1:-1.4125259 2:0.60000002 3:10 4:0 #
-0.00064559937944932629938499246691208 1:1.2601492 2:0.72727275 3:11 4:0 #
-0.00064559937944932629938499246691208 1:-1.0022194 2:0.69999999 3:10 4:0 #
0.00064559937944932629938499246691208 1:-2.2163575 2:0.54545456 3:11 4:0 #
0.00064559937944932629938499246691208 1:-1.5175714 2:0.40425533 3:47 4:0 #
-0.00064559937944932629938499246691208 1:1.7703981 2:0.54198474 3:1 4:9 #
0.00064559937944932629938499246691208 1:-1.4214929 2:0.47826087 3:46 4:0 #
-0.00064559937944932629938499246691208 1:-1.5141193 2:0.49803922 3:19 4:32 #
0.00064559937944932629938499246691208 1:-1.7273798 2:0.51162791 3:43 4:0 #
0.00064559937944932629938499246691208 1:1.5809814 2:0.44444445 3:45 4:0 #
-0.00064559937944932629938499246691208 1:1.7477053 2:0.71428573 3:21 4:0 #
0.00064559937944932629938499246691208 1:-1.7273798 2:0.51162791 3:43 4:0 #
-0.00064559937944932629938499246691208 1:-1.840155 2:0.35920176 3:10 4:20 #
-0.00064559937944932629938499246691208 1:3.5764525 2:0.5 3:24 4:0 #
0.00064559937944932629938499246691208 1:-0.33116817 2:0.59523809 3:42 4:0 #
0.00064559937944932629938499246691208 1:-0.46197906 2:0.57894737 3:38 4:0 #
-0.00064559937944932629938499246691208 1:-1.5292667 2:0.51953125 3:12 4:18 #
0.00064559937944932629938499246691208 1:-1.4526228 2:0.56756759 3:37 4:0 #
-0.00064559937944932629938499246691208 1:-1.3368975 2:0.47945204 3:18 4:22 #
0.00064559937944932629938499246691208 1:-0.48376805 2:0.47058824 3:34 4:0 #
-0.00064559937944932629938499246691208 1:0.98949784 2:0.5 3:24 4:0 #
0.00064559937944932629938499246691208 1:-2.7313302 2:0.52941179 3:34 4:0 #
0.00064559937944932629938499246691208 1:0.42101875 2:0.78571427 3:2 4:26 #
0.00064559937944932629938499246691208 1:0.82769555 2:0.57575756 3:33 4:0 #
-0.00064559937944932629938499246691208 1:-1.7383379 2:0.48295453 3:11 4:18 #
0.00064559937944932629938499246691208 1:4.6653619 2:0.625 3:24 4:0 #
-0.00064559937944932629938499246691208 1:-2.3501551 2:0.53763443 3:12 4:15 #
0.00064559937944932629938499246691208 1:-2.1518178 2:0.52941179 3:34 4:0 #
-0.00064559937944932629938499246691208 1:0.2851007 2:0.58666664 3:23 4:9 #
0.00064559937944932629938499246691208 1:-0.47625929 2:0.5151515 3:33 4:0 #
-0.00064559937944932629938499246691208 1:0.85738033 2:0.53787881 3:23 4:11 #
-0.00064559937944932629938499246691208 1:-3.7875931 2:0.77777779 3:4 4:30 #
-0.00064559937944932629938499246691208 1:-1.1188555 2:0.48364487 3:20 4:18 #
0.00064559937944932629938499246691208 1:1.1746721 2:0.72222221 3:7 4:31 #
0.00064559937944932629938499246691208 1:0.53027195 2:0.64705884 3:6 4:24 #
-0.00064559937944932629938499246691208 1:0.13269958 2:0.43157893 3:22 4:19 #
-0.00064559937944932629938499246691208 1:2.3694034 2:0.51231527 3:41 4:38 #
0.00064559937944932629938499246691208 1:0.22088321 2:0.81818181 3:4 4:41 #
0.00064559937944932629938499246691208 1:0.1918055 2:0.4848485 3:33 4:0 #
0.00064559937944932629938499246691208 1:-0.31418198 2:0.73913044 3:1 4:35 #
-0.00064559937944932629938499246691208 1:0.53057766 2:0.59770113 3:1 4:17 #
0.00064559937944932629938499246691208 1:0.40486741 2:0.83333331 3:2 4:25 #
0.00064559937944932629938499246691208 1:1.2155981 2:0.6875 3:6 4:23 #
0.00064559937944932629938499246691208 1:-1.9748645 2:0.42857143 3:40 4:20 #
0.00064559937944932629938499246691208 1:-0.93740392 2:0.45238096 3:34 4:16 #
-0.00064559937944932629938499246691208 1:0.80908573 2:0.44976076 3:23 4:12 #
-0.00064559937944932629938499246691208 1:-2.8994067 2:0.57558137 3:7 4:31 #
0.00064559937944932629938499246691208 1:-0.5452497 2:0.75999999 3:5 4:43 #
0.00064559937944932629938499246691208 1:0.34111562 2:0.72222221 3:7 4:34 #
0.00064559937944932629938499246691208 1:0.59963393 2:0.54545456 3:38 4:15 #
0.00064559937944932629938499246691208 1:1.6084617 2:0.45652175 3:35 4:16 #
-0.00064559937944932629938499246691208 1:-3.1861849 2:0.52964425 3:5 4:29 #
0.00064559937944932629938499246691208 1:-0.10258218 2:0.53125 3:32 4:0 #
0.00064559937944932629938499246691208 1:0.10164504 2:0.83333331 3:1 4:31 #
0.00064559937944932629938499246691208 1:-1.353641 2:0.51612902 3:31 4:0 #
0.00064559937944932629938499246691208 1:-0.38418871 2:0.56521738 3:33 4:28 #
-0.00064559937944932629938499246691208 1:-2.3621497 2:0.58333331 3:11 4:15 #
-0.00064559937944932629938499246691208 1:-0.56291437 2:0.53142858 3:19 4:17 #
0.00064559937944932629938499246691208 1:-1.9195575 2:0.80000001 3:6 4:91 #
0.00064559937944932629938499246691208 1:0.80724967 2:0.46875 3:32 4:0 #
0.00064559937944932629938499246691208 1:-0.38113922 2:0.94736844 3:1 4:49 #
0.00064559937944932629938499246691208 1:-0.72825319 2:0.42553192 3:34 4:39 #
0.00064559937944932629938499246691208 1:-2.5554729 2:0.47826087 3:37 4:15 #
-0.00064559937944932629938499246691208 1:0.2948283 2:0.50741839 3:25 4:19 #
-0.00064559937944932629938499246691208 1:-2.5333154 2:0.65584415 3:7 4:19 #
0.00064559937944932629938499246691208 1:0.32224345 2:0.75 3:3 4:35 #
0.00064559937944932629938499246691208 1:-0.0044856048 2:0.51020408 3:37 4:15 #
0.00064559937944932629938499246691208 1:-1.594725 2:0.56818181 3:36 4:20 #
-0.00064559937944932629938499246691208 1:-1.0556325 2:0.55196303 3:19 4:18 #
0.00064559937944932629938499246691208 1:-0.16343951 2:0.65217394 3:31 4:44 #
-0.00064559937944932629938499246691208 1:-2.5151551 2:0.55223882 3:7 4:17 #
0.00064559937944932629938499246691208 1:-3.5112228 2:0.54347825 3:31 4:39 #
-0.00064559937944932629938499246691208 1:1.2493715 2:0.56666666 3:38 4:40 #
0.00064559937944932629938499246691208 1:3.7434704 2:0.625 3:33 4:36 #
-0.00064559937944932629938499246691208 1:-0.64647007 2:0.55963302 3:17 4:20 #
0.00064559937944932629938499246691208 1:-1.689907 2:0.45652175 3:32 4:33 #
0.00064559937944932629938499246691208 1:0.10787822 2:0.82352942 3:3 4:32 #
0.00064559937944932629938499246691208 1:1.5273385 2:0.5777778 3:32 4:36 #
-0.00064559937944932629938499246691208 1:-0.4583708 2:0.54210526 3:23 4:29 #
-0.00064559937944932629938499246691208 1:3.6662376 2:0.59649122 3:40 4:40 #
-0.00064559937944932629938499246691208 1:-1.0825745 2:0.64948452 3:21 4:18 #
-0.00064559937944932629938499246691208 1:-1.3296514 2:0.43942994 3:12 4:16 #
0.00064559937944932629938499246691208 1:1.2142122 2:0.66666669 3:33 4:28 #
0.00064559937944932629938499246691208 1:-1.9697055 2:0.48888889 3:33 4:24 #
-0.00064559937944932629938499246691208 1:-2.7211795 2:0.460733 3:5 4:17 #
0.00064559937944932629938499246691208 1:0.16702022 2:0.52173913 3:32 4:32 #
-0.00064559937944932629938499246691208 1:-2.2756176 2:0.49579832 3:9 4:19 #
0.00064559937944932629938499246691208 1:-0.030296622 2:0.47727272 3:33 4:26 #
0.00064559937944932629938499246691208 1:-1.714608 2:0.55319148 3:34 4:13 #
0.00064559937944932629938499246691208 1:-0.029695442 2:0.59090906 3:33 4:24 #
0.00064559937944932629938499246691208 1:0.85738033 2:0.55813956 3:32 4:32 #
-0.00064559937944932629938499246691208 1:-0.18426317 2:0.51229507 3:22 4:19 #
0.00064559937944932629938499246691208 1:1.0151676 2:0.54545456 3:32 4:32 #
-0.00064559937944932629938499246691208 1:-0.63666898 2:0.6082474 3:16 4:18 #
0.00064559937944932629938499246691208 1:1.1382086 2:0.64285713 3:9 4:35 #
0.00064559937944932629938499246691208 1:-1.1130822 2:0.37777779 3:32 4:27 #
0.00064559937944932629938499246691208 1:-1.3555136 2:0.53333336 3:33 4:16 #
0.00064559937944932629938499246691208 1:-0.94626713 2:0.55813956 3:32 4:25 #
-0.00064559937944932629938499246691208 1:2.8898375 2:0.47774482 3:1 4:11 #
0.00064559937944932629938499246691208 1:2.4980481 2:0.64516127 3:31 4:0 #
0.00064559937944932629938499246691208 1:-1.6592164 2:0.43333334 3:30 4:0 #
0.00064559937944932629938499246691208 1:-1.4685277 2:0.66666669 3:26 4:49 #
-0.00064559937944932629938499246691208 1:3.7475612 2:0.42608696 3:1 4:13 #
0.00064559937944932629938499246691208 1:-1.6670002 2:0.44444445 3:27 4:0 #
0.00064559937944932629938499246691208 1:0.074864611 2:0.66666669 3:4 4:33 #
0.00064559937944932629938499246691208 1:-0.23685917 2:0.625 3:22 4:50 #
0.00064559937944932629938499246691208 1:1.5424315 2:0.6111111 3:18 4:0 #
-0.00064559937944932629938499246691208 1:1.2842624 2:0.63636363 3:11 4:0 #
-0.00064559937944932629938499246691208 1:4.2287722 2:0.70212764 3:1 4:24 #
0.00064559937944932629938499246691208 1:-3.7661226 2:0.56097561 3:31 4:28 #
-0.00064559937944932629938499246691208 1:-0.6938315 2:0.47043702 3:17 4:29 #
-0.00064559937944932629938499246691208 1:3.6004388 2:1 3:1 4:24 #
0.00064559937944932629938499246691208 1:2.6029677 2:0.71428573 3:23 4:47 #
-0.00064559937944932629938499246691208 1:-2.4179003 2:0.7352941 3:13 4:42 #
0.00064559937944932629938499246691208 1:1.0490781 2:0.66666669 3:27 4:0 #
-0.00064559937944932629938499246691208 1:-1.0279366 2:0.60447758 3:17 4:24 #
0.00064559937944932629938499246691208 1:1.0740476 2:0.69999999 3:6 4:22 #
0.00064559937944932629938499246691208 1:3.2756543 2:0.62068963 3:29 4:0 #
0.00064559937944932629938499246691208 1:-3.6080749 2:0.53846157 3:24 4:30 #
-0.00064559937944932629938499246691208 1:4.1251597 2:0.52512562 3:1 4:54 #
0.00064559937944932629938499246691208 1:-3.610949 2:0.60975611 3:29 4:22 #
-0.00064559937944932629938499246691208 1:-3.1288559 2:0.57599998 3:9 4:27 #
0.00064559937944932629938499246691208 1:0.60463536 2:0.5 3:25 4:17 #
0.00064559937944932629938499246691208 1:0.084658094 2:0.70833331 3:7 4:37 #
0.00064559937944932629938499246691208 1:-1.4685277 2:0.66666669 3:26 4:49 #
-0.00064559937944932629938499246691208 1:-0.89293092 2:0.51048952 3:1 4:10 #
0.00064559937944932629938499246691208 1:-0.60445511 2:0.61702126 3:28 4:48 #
0.00064559937944932629938499246691208 1:-1.4685277 2:0.66666669 3:26 4:49 #
0.00064559937944932629938499246691208 1:-1.5089633 2:0.64444447 3:22 4:45 #
-0.00064559937944932629938499246691208 1:-0.082525402 2:0.72727275 3:11 4:0 #
-0.00064559937944932629938499246691208 1:1.6048208 2:0.45777777 3:1 4:10 #
0.00064559937944932629938499246691208 1:-1.5306754 2:0.66666669 3:26 4:48 #
-0.00064559937944932629938499246691208 1:-3.8676906 2:0.60294116 3:1 4:27 #
0.00064559937944932629938499246691208 1:1.1859518 2:0.63043481 3:24 4:47 #
0.00064559937944932629938499246691208 1:1.7877675 2:0.53333336 3:30 4:0 #
-0.00064559937944932629938499246691208 1:-2.2366276 2:0.50458717 3:13 4:32 #
-0.00064559937944932629938499246691208 1:3.5041251 2:0.57017541 3:48 4:28 #
-0.00064559937944932629938499246691208 1:-1.4817215 2:0.51310861 3:1 4:11 #
-0.00064559937944932629938499246691208 1:0.38080606 2:0.50632912 3:30 4:25 #
0.00064559937944932629938499246691208 1:2.5263774 2:0.69387758 3:27 4:47 #
-0.00064559937944932629938499246691208 1:-1.662214 2:0.48760331 3:10 4:19 #
0.00064559937944932629938499246691208 1:-0.54858094 2:0.63157892 3:23 4:44 #
-0.00064559937944932629938499246691208 1:1.2863706 2:0.75 3:12 4:0 #
-0.00064559937944932629938499246691208 1:2.4966311 2:0.61538464 3:1 4:12 #
0.00064559937944932629938499246691208 1:-1.5306754 2:0.66666669 3:26 4:48 #
-0.00064559937944932629938499246691208 1:4.1257262 2:0.50777203 3:49 4:18 #
0.00064559937944932629938499246691208 1:1.9846967 2:0.61363637 3:30 4:41 #
-0.00064559937944932629938499246691208 1:-1.8273685 2:0.52682924 3:8 4:23 #
0.00064559937944932629938499246691208 1:1.080256 2:0.71052629 3:24 4:28 #
0.00064559937944932629938499246691208 1:1.3331488 2:0.46341464 3:33 4:17 #
-0.00064559937944932629938499246691208 1:3.1262999 2:0.69930071 3:1 4:14 #
-0.00064559937944932629938499246691208 1:-0.004919135 2:0.60000002 3:23 4:18 #
0.00064559937944932629938499246691208 1:0.28847244 2:0.60000002 3:23 4:40 #
-0.00064559937944932629938499246691208 1:4.2034225 2:0.69117647 3:1 4:24 #
-0.00064559937944932629938499246691208 1:-1.241258 2:0.50202429 3:10 4:22 #
0.00064559937944932629938499246691208 1:-0.118398 2:0.62790698 3:23 4:42 #
0.00064559937944932629938499246691208 1:-0.59336168 2:0.58536583 3:32 4:19 #
-0.00064559937944932629938499246691208 1:2.2245238 2:0.87234044 3:1 4:92 #
-0.00064559937944932629938499246691208 1:-0.78336066 2:0.58426964 3:14 4:24 #
0.00064559937944932629938499246691208 1:-0.16275214 2:0.60000002 3:25 4:17 #
-0.00064559937944932629938499246691208 1:1.8646903 2:0.50755286 3:1 4:11 #
0.00064559937944932629938499246691208 1:-2.3117754 2:0.47916666 3:31 4:30 #
-0.00064559937944932629938499246691208 1:-0.50496167 2:0.47794119 3:19 4:29 #
0.00064559937944932629938499246691208 1:0.70910436 2:0.64285713 3:25 4:47 #
-0.00064559937944932629938499246691208 1:-0.93740392 2:0.59415585 3:1 4:11 #
0.00064559937944932629938499246691208 1:1.0627367 2:0.70454544 3:28 4:43 #
0.00064559937944932629938499246691208 1:0.58875108 2:0.5925926 3:27 4:0 #
0.00064559937944932629938499246691208 1:0.50658953 2:0.71428573 3:6 4:33 #
0.00064559937944932629938499246691208 1:-0.42312729 2:0.86956519 3:3 4:49 #
0.00064559937944932629938499246691208 1:-1.9590482 2:0.63043481 3:23 4:42 #
0.00064559937944932629938499246691208 1:-2.0350096 2:0.69230771 3:23 4:42 #
-0.00064559937944932629938499246691208 1:-0.2208555 2:0.6082949 3:5 4:136 #
-0.00064559937944932629938499246691208 1:-0.15402049 2:0.5215947 3:21 4:21 #
0.00064559937944932629938499246691208 1:0.56423914 2:0.88235295 3:4 4:33 #
0.00064559937944932629938499246691208 1:2.0602911 2:0.52499998 3:32 4:13 #
0.00064559937944932629938499246691208 1:-0.94886059 2:0.65853661 3:23 4:40 #
0.00064559937944932629938499246691208 1:-1.5306754 2:0.66666669 3:26 4:48 #
-0.00064559937944932629938499246691208 1:-1.5496541 2:0.57843137 3:17 4:14 #
0.00064559937944932629938499246691208 1:0.69779956 2:0.68181819 3:6 4:29 #
-0.00064559937944932629938499246691208 1:-1.4084293 2:0.50467288 3:1 4:11 #
0.00064559937944932629938499246691208 1:0.94081879 2:0.61363637 3:32 4:23 #
-0.00064559937944932629938499246691208 1:-1.5355195 2:0.78750002 3:27 4:119 #
-0.00064559937944932629938499246691208 1:0.49200988 2:0.47916666 3:33 4:41 #
-0.00064559937944932629938499246691208 1:-1.1788787 2:0.60098523 3:16 4:19 #
0.00064559937944932629938499246691208 1:-2.511451 2:0.48571429 3:25 4:20 #
-0.00064559937944932629938499246691208 1:-0.16767636 2:0.41723356 3:26 4:24 #
0.00064559937944932629938499246691208 1:-0.34221506 2:0.63829786 3:29 4:39 #
-0.00064559937944932629938499246691208 1:-0.67149413 2:0.7735849 3:9 4:135 #
0.00064559937944932629938499246691208 1:-0.43255997 2:0.6785714 3:2 4:35 #
-0.00064559937944932629938499246691208 1:-0.52581656 2:0.54680848 3:22 4:32 #
0.00064559937944932629938499246691208 1:-3.103399 2:0.58139533 3:25 4:42 #
-0.00064559937944932629938499246691208 1:-0.17087121 2:0.62676054 3:3 4:128 #
-0.00064559937944932629938499246691208 1:-4.5746951 2:0.81818181 3:1 4:21 #
0.00064559937944932629938499246691208 1:1.0898118 2:0.51020408 3:27 4:41 #
0.00064559937944932629938499246691208 1:-2.7115548 2:0.57575756 3:26 4:14 #
0.00064559937944932629938499246691208 1:-0.36623666 2:0.88235295 3:2 4:38 #
0.00064559937944932629938499246691208 1:-1.7516041 2:0.62857145 3:24 4:27 #
-0.00064559937944932629938499246691208 1:0.66943401 2:0.58823532 3:1 4:11 #
0.00064559937944932629938499246691208 1:-2.4473519 2:0.54545456 3:30 4:30 #
0.00064559937944932629938499246691208 1:1.593492 2:0.6785714 3:28 4:0 #
-0.00064559937944932629938499246691208 1:-2.0841227 2:0.59322035 3:8 4:23 #
-0.00064559937944932629938499246691208 1:0.44741365 2:0.60869563 3:25 4:21 #
0.00064559937944932629938499246691208 1:-1.014972 2:0.55555558 3:24 4:27 #
-0.00064559937944932629938499246691208 1:-0.63666898 2:0.52552551 3:1 4:11 #
-0.00064559937944932629938499246691208 1:-0.45605701 2:0.5 3:1 4:11 #
0.00064559937944932629938499246691208 1:0.23125865 2:0.65853661 3:28 4:40 #
0.00064559937944932629938499246691208 1:-0.26834032 2:0.8888889 3:2 4:38 #
0.00064559937944932629938499246691208 1:-0.5452497 2:0.5714286 3:28 4:0 #
0.00064559937944932629938499246691208 1:-0.9430294 2:0.55555558 3:24 4:30 #
0.00064559937944932629938499246691208 1:0.23125865 2:0.65853661 3:28 4:40 #
0.00064559937944932629938499246691208 1:-0.36298481 2:0.52380955 3:24 4:40 #
0.00064559937944932629938499246691208 1:-0.98734683 2:0.62068963 3:29 4:0 #
-0.00064559937944932629938499246691208 1:-0.83390284 2:0.71428573 3:14 4:0 #
0.00064559937944932629938499246691208 1:-2.3676178 2:0.63043481 3:26 4:40 #
-0.00064559937944932629938499246691208 1:2.0303421 2:0.59683794 3:1 4:36 #
0.00064559937944932629938499246691208 1:0.63330537 2:0.81818181 3:7 4:41 #
-0.00064559937944932629938499246691208 1:-1.8273685 2:0.55913979 3:8 4:25 #
0.00064559937944932629938499246691208 1:2.6818027 2:0.59090906 3:24 4:40 #
-0.00064559937944932629938499246691208 1:2.5121195 2:0.52597404 3:1 4:12 #
0.00064559937944932629938499246691208 1:0.23125865 2:0.65853661 3:28 4:40 #
0.00064559937944932629938499246691208 1:1.57302 2:0.66666669 3:10 4:25 #
-0.00064559937944932629938499246691208 1:-1.2714903 2:0.54976302 3:19 4:28 #
0.00064559937944932629938499246691208 1:-2.8766036 2:0.5 3:25 4:32 #
0.00064559937944932629938499246691208 1:-1.0043818 2:0.62222224 3:30 4:31 #
-0.00064559937944932629938499246691208 1:-0.43255997 2:0.42141229 3:17 4:22 #
0.00064559937944932629938499246691208 1:0.3395474 2:0.60526317 3:24 4:29 #
0.00064559937944932629938499246691208 1:-1.3989816 2:0.61363637 3:26 4:40 #
-0.00064559937944932629938499246691208 1:-0.45593855 2:0.53846157 3:21 4:38 #
-0.00064559937944932629938499246691208 1:-1.3789299 2:0.61627907 3:24 4:120 #
0.00064559937944932629938499246691208 1:0.12044708 2:0.7647059 3:3 4:26 #
0.00064559937944932629938499246691208 1:-0.79217649 2:0.65714288 3:24 4:33 #
-0.00064559937944932629938499246691208 1:0.21366382 2:0.51635516 3:1 4:11 #
0.00064559937944932629938499246691208 1:-1.2224101 2:0.5625 3:30 4:29 #
0.00064559937944932629938499246691208 1:0.91542941 2:0.6785714 3:28 4:0 #
0.00064559937944932629938499246691208 1:0.31986222 2:0.67567569 3:24 4:31 #
-0.00064559937944932629938499246691208 1:-1.1722296 2:0.49086758 3:10 4:17 #
-0.00064559937944932629938499246691208 1:1.8687431 2:0.54393303 3:1 4:12 #
-0.00064559937944932629938499246691208 1:-2.8189886 2:1 3:1 4:39 #
0.00064559937944932629938499246691208 1:0.60787684 2:0.51351351 3:31 4:15 #
0.00064559937944932629938499246691208 1:-0.90935135 2:0.5945946 3:25 4:24 #
0.00064559937944932629938499246691208 1:0.10866152 2:0.6511628 3:24 4:40 #
0.00064559937944932629938499246691208 1:0.51442277 2:0.66666669 3:25 4:40 #
0.00064559937944932629938499246691208 1:-3.475065 2:0.51162791 3:29 4:33 #
0.00064559937944932629938499246691208 1:0.95134383 2:0.5 3:25 4:24 #
0.00064559937944932629938499246691208 1:0.2741906 2:0.61702126 3:24 4:40 #
-0.00064559937944932629938499246691208 1:0.50847989 2:0.6007067 3:34 4:90 #
0.00064559937944932629938499246691208 1:-0.64869303 2:0.65853661 3:24 4:34 #
-0.00064559937944932629938499246691208 1:0.139191 2:0.49038461 3:30 4:75 #
0.00064559937944932629938499246691208 1:-0.26992726 2:0.5 3:26 4:38 #
0.00064559937944932629938499246691208 1:0.38312662 2:0.59523809 3:24 4:34 #
0.00064559937944932629938499246691208 1:-1.5945657 2:0.69999999 3:25 4:35 #
0.00064559937944932629938499246691208 1:-1.7415462 2:0.60526317 3:25 4:34 #
-0.00064559937944932629938499246691208 1:-2.4296334 2:0.7368421 3:7 4:33 #
0.00064559937944932629938499246691208 1:-0.47778097 2:0.72222221 3:1 4:30 #
-0.00064559937944932629938499246691208 1:1.2656754 2:0.39209726 3:5 4:9 #
0.00064559937944932629938499246691208 1:0.37970746 2:0.55172414 3:29 4:0 #
-0.00064559937944932629938499246691208 1:0.771887 2:0.56287426 3:31 4:20 #
-0.00064559937944932629938499246691208 1:2.3205442 2:0.60377359 3:3 4:11 #
-0.00064559937944932629938499246691208 1:0.12292141 2:0.51641792 3:19 4:20 #
0.00064559937944932629938499246691208 1:0.63234597 2:0.74193549 3:9 4:39 #
0.00064559937944932629938499246691208 1:-1.0924057 2:0.79166669 3:3 4:84 #
0.00064559937944932629938499246691208 1:-2.1811461 2:0.69999999 3:10 4:0 #
-0.00064559937944932629938499246691208 1:1.5457982 2:0.62987012 3:1 4:12 #
0.00064559937944932629938499246691208 1:-1.5409123 2:0.85000002 3:10 4:84 #
0.00064559937944932629938499246691208 1:-1.4283202 2:0.60000002 3:10 4:0 #
-0.00064559937944932629938499246691208 1:0.40531084 2:0.55434781 3:37 4:138 #
-0.00064559937944932629938499246691208 1:-1.5496541 2:0.55426359 3:5 4:10 #
0.00064559937944932629938499246691208 1:-1.1447748 2:0.34210527 3:30 4:20 #
-0.00064559937944932629938499246691208 1:-0.56931424 2:0.59880239 3:1 4:12 #
0.00064559937944932629938499246691208 1:0.56515223 2:0.55172414 3:29 4:0 #
0.00064559937944932629938499246691208 1:1.0939753 2:0.61904764 3:7 4:28 #
0.00064559937944932629938499246691208 1:1.056693 2:0.72727275 3:6 4:31 #
-0.00064559937944932629938499246691208 1:-0.91149437 2:0.42553192 3:2 4:11 #
-0.00064559937944932629938499246691208 1:3.6800649 2:0.67407405 3:1 4:17 #
-0.00064559937944932629938499246691208 1:-1.041792 2:0.57069409 3:6 4:96 #
-0.00064559937944932629938499246691208 1:3.6800649 2:0.55282557 3:1 4:48 #
-0.00064559937944932629938499246691208 1:-0.57492059 2:0.44578314 3:16 4:14 #
-0.00064559937944932629938499246691208 1:-1.3448189 2:0.55555558 3:2 4:11 #
0.00064559937944932629938499246691208 1:-2.1078064 2:0.55000001 3:30 4:26 #
-0.00064559937944932629938499246691208 1:1.6940963 2:0.59154928 3:47 4:101 #
0.00064559937944932629938499246691208 1:0.1392162 2:0.85714287 3:1 4:27 #
-0.00064559937944932629938499246691208 1:-1.0750971 2:0.52733117 3:21 4:37 #
0.00064559937944932629938499246691208 1:0.079738721 2:0.875 3:1 4:36 #
-0.00064559937944932629938499246691208 1:1.4866736 2:0.47916666 3:1 4:12 #
0.00064559937944932629938499246691208 1:-1.2767116 2:0.75510204 3:19 4:62 #
-0.00064559937944932629938499246691208 1:0.55976689 2:0.56947607 3:3 4:80 #
-0.00064559937944932629938499246691208 1:0.99103278 2:0.556701 3:1 4:12 #
0.00064559937944932629938499246691208 1:-0.9610464 2:0.83333331 3:11 4:80 #
0.00064559937944932629938499246691208 1:0.39070404 2:0.78571427 3:1 4:24 #
-0.00064559937944932629938499246691208 1:-0.013254455 2:0.61290324 3:9 4:96 #
0.00064559937944932629938499246691208 1:-1.5016353 2:0.53333336 3:15 4:0 #
0.00064559937944932629938499246691208 1:-0.54092878 2:0.90909094 3:1 4:48 #
-0.00064559937944932629938499246691208 1:-0.85102999 2:0.54545456 3:5 4:93 #
0.00064559937944932629938499246691208 1:1.499281 2:0.34999999 3:28 4:11 #
0.00064559937944932629938499246691208 1:-0.014937496 2:0.82608694 3:5 4:42 #
0.00064559937944932629938499246691208 1:-0.059416115 2:0.55882353 3:29 4:13 #
-0.00064559937944932629938499246691208 1:1.2348551 2:0.57352942 3:3 4:11 #
0.00064559937944932629938499246691208 1:-2.0451064 2:0.46153846 3:30 4:16 #
-0.00064559937944932629938499246691208 1:-2.3773086 2:0.75925928 3:7 4:88 #
-0.00064559937944932629938499246691208 1:0.0074399645 2:0.49492386 3:25 4:15 #
0.00064559937944932629938499246691208 1:0.65398782 2:0.69230771 3:3 4:32 #
-0.00064559937944932629938499246691208 1:3.9569046 2:0.46039605 3:13 4:11 #
-0.00064559937944932629938499246691208 1:-0.83899492 2:0.54044116 3:12 4:91 #
0.00064559937944932629938499246691208 1:-0.94064796 2:0.60000002 3:15 4:0 #
-0.00064559937944932629938499246691208 1:-1.4419863 2:0.54773867 3:12 4:15 #
-0.00064559937944932629938499246691208 1:2.369482 2:0.66060609 3:1 4:13 #
0.00064559937944932629938499246691208 1:0.051473305 2:0.66666669 3:29 4:34 #
-0.00064559937944932629938499246691208 1:-0.96031189 2:0.68181819 3:24 4:94 #
-0.00064559937944932629938499246691208 1:0.37766454 2:0.625 3:3 4:11 #
0.00064559937944932629938499246691208 1:-0.90940994 2:0.66666669 3:15 4:0 #
-0.00064559937944932629938499246691208 1:-1.366765 2:0.53398061 3:14 4:17 #
-0.00064559937944932629938499246691208 1:3.8180676 2:0.54910713 3:1 4:17 #
0.00064559937944932629938499246691208 1:-2.8192725 2:0.53488374 3:30 4:20 #
-0.00064559937944932629938499246691208 1:-0.37833658 2:0.72058821 3:29 4:91 #
-0.00064559937944932629938499246691208 1:-3.2969825 2:0.74074072 3:1 4:13 #
0.00064559937944932629938499246691208 1:0.71844542 2:0.5777778 3:30 4:26 #
0.00064559937944932629938499246691208 1:-0.37833658 2:0.80000001 3:5 4:81 #
0.00064559937944932629938499246691208 1:-0.595842 2:0.79166669 3:10 4:80 #
-0.00064559937944932629938499246691208 1:-0.95605636 2:0.69999999 3:12 4:87 #
0.00064559937944932629938499246691208 1:-0.97578335 2:0.73333335 3:15 4:0 #
-0.00064559937944932629938499246691208 1:-0.72742403 2:0.64814812 3:8 4:10 #
-0.00064559937944932629938499246691208 1:1.9392211 2:0.5723542 3:1 4:13 #
-0.00064559937944932629938499246691208 1:-2.6725502 2:0.56183743 3:11 4:18 #
0.00064559937944932629938499246691208 1:0.64328247 2:0.40000001 3:15 4:0 #
-0.00064559937944932629938499246691208 1:-1.6351475 2:0.53731346 3:3 4:11 #
0.00064559937944932629938499246691208 1:-0.82091957 2:0.90909094 3:2 4:44 #
-0.00064559937944932629938499246691208 1:3.6744404 2:0.59722221 3:1 4:17 #
0.00064559937944932629938499246691208 1:-2.3773086 2:0.53488374 3:26 4:37 #
-0.00064559937944932629938499246691208 1:-2.6776335 2:0.63905323 3:14 4:87 #
0.00064559937944932629938499246691208 1:3.5203149 2:0.46666667 3:15 4:0 #
0.00064559937944932629938499246691208 1:1.2268834 2:0.6875 3:5 4:21 #
0.00064559937944932629938499246691208 1:-0.35165653 2:0.53333336 3:15 4:0 #
0.00064559937944932629938499246691208 1:0.78974408 2:0.80000001 3:11 4:75 #
-0.00064559937944932629938499246691208 1:0.51447511 2:0.59537572 3:20 4:89 #
0.00064559937944932629938499246691208 1:-1.1501386 2:0.94117647 3:1 4:81 #
-0.00064559937944932629938499246691208 1:-2.3340518 2:0.51829267 3:3 4:11 #
-0.00064559937944932629938499246691208 1:-1.1513005 2:0.6417526 3:17 4:20 #
0.00064559937944932629938499246691208 1:0.12044708 2:0.7647059 3:3 4:26 #
0.00064559937944932629938499246691208 1:-0.92433631 2:0.42857143 3:14 4:0 #
-0.00064559937944932629938499246691208 1:-0.178468 2:0.4678899 3:1 4:12 #
0.00018091154169038464890294226616874 1:-0.98917592 2:0.96875 3:1 4:79 #
0.00064559937944932629938499246691208 1:0.66287422 2:0.76190478 3:7 4:31 #
-0.00064559937944932629938499246691208 1:1.2695218 2:0.67532468 3:2 4:12 #
-0.00064559937944932629938499246691208 1:1.8923775 2:0.51234567 3:1 4:13 #
0.00064559937944932629938499246691208 1:0.25230223 2:0.79069769 3:9 4:78 #
-0.00064559937944932629938499246691208 1:-2.0597682 2:0.83720928 3:3 4:76 #
0.00064559937944932629938499246691208 1:-4.5565548 2:0.79411763 3:6 4:64 #
-0.00064559937944932629938499246691208 1:3.6800649 2:0.4954955 3:1 4:16 #
-0.00064559937944932629938499246691208 1:3.6398048 2:0.66666669 3:21 4:13 #
-0.00064559937944932629938499246691208 1:3.536479 2:0.82608694 3:1 4:37 #
-0.00064559937944932629938499246691208 1:-0.8485921 2:0.48837209 3:19 4:16 #
-0.00064559937944932629938499246691208 1:2.9628386 2:1 3:1 4:30 #
-0.00064559937944932629938499246691208 1:-1.181435 2:0.49777779 3:13 4:20 #
0.00064559937944932629938499246691208 1:0.90531844 2:0.68000001 3:7 4:32 #
0.00064559937944932629938499246691208 1:-1.0740453 2:0.78571427 3:2 4:27 #
0.00064559937944932629938499246691208 1:2.3861537 2:0.46666667 3:15 4:0 #
0.00064559937944932629938499246691208 1:-0.64867318 2:0.66666669 3:15 4:0 #
0.00064559937944932629938499246691208 1:-1.2869079 2:0.60000002 3:10 4:0 #
0.00064559937944932629938499246691208 1:0.94411945 2:0.66666669 3:4 4:17 #
0.00064559937944932629938499246691208 1:-1.9539243 2:0.53658539 3:29 4:27 #
-0.00064559937944932629938499246691208 1:2.5594578 2:0.489418 3:1 4:37 #
0.00064559937944932629938499246691208 1:0.028687721 2:0.85000002 3:4 4:37 #
0.00064559937944932629938499246691208 1:-0.95136613 2:0.53846157 3:13 4:0 #
0.00064559937944932629938499246691208 1:0.16369577 2:0.53333336 3:15 4:0 #
0.00064559937944932629938499246691208 1:1.6107999 2:0.61538464 3:8 4:24 #
-0.00064559937944932629938499246691208 1:0.14056107 2:0.85714287 3:1 4:37 #
0.00064559937944932629938499246691208 1:-1.0249879 2:0.47727272 3:28 4:36 #
-0.00064559937944932629938499246691208 1:1.0007221 2:0.61904764 3:1 4:37 #
0.00064559937944932629938499246691208 1:-0.49759954 2:0.78260869 3:2 4:39 #
-0.00064559937944932629938499246691208 1:1.6873389 2:1 3:1 4:47 #
0.00064559937944932629938499246691208 1:-0.034241423 2:0.60000002 3:29 4:25 #
-0.00064559937944932629938499246691208 1:-3.3819132 2:0.83333331 3:1 4:37 #
0.00064559937944932629938499246691208 1:-0.38873577 2:0.60000002 3:15 4:0 #
0.00064559937944932629938499246691208 1:-0.15545432 2:0.92307693 3:1 4:28 #
-0.00064559937944932629938499246691208 1:0.59050077 2:0.6111111 3:1 4:37 #
-0.00064559937944932629938499246691208 1:4.1281767 2:0.54945058 3:1 4:38 #
0.00064559937944932629938499246691208 1:-0.95136613 2:0.52499998 3:29 4:30 #
0.00064559937944932629938499246691208 1:-0.64419144 2:0.8888889 3:1 4:34 #
-0.00064559937944932629938499246691208 1:-3.0439548 2:0.9375 3:1 4:38 #
0.00064559937944932629938499246691208 1:2.5750906 2:0.51282054 3:28 4:27 #
0.00064559937944932629938499246691208 1:-3.3547485 2:0.66666669 3:10 4:26 #
0.00064559937944932629938499246691208 1:-0.27041534 2:0.70454544 3:16 4:63 #
-0.00064559937944932629938499246691208 1:2.4141314 2:0.57295376 3:1 4:39 #
-0.00064559937944932629938499246691208 1:-0.92559808 2:0.77499998 3:1 4:37 #
0.00064559937944932629938499246691208 1:0.19450261 2:0.77777779 3:13 4:67 #
-0.00064559937944932629938499246691208 1:-1.2980708 2:0.69333333 3:1 4:47 #
-0.00064559937944932629938499246691208 1:0.56445289 2:0.60344827 3:1 4:37 #
-0.00064559937944932629938499246691208 1:1.9298286 2:0.83999997 3:1 4:46 #
0.00064559937944932629938499246691208 1:-0.11182223 2:0.60000002 3:15 4:0 #
0.00064559937944932629938499246691208 1:-0.49759954 2:0.78260869 3:2 4:39 #
-0.00064559937944932629938499246691208 1:-0.25808513 2:0.58935362 3:1 4:37 #
-0.00064559937944932629938499246691208 1:-0.21436241 2:0.495 3:16 4:21 #
-0.00064559937944932629938499246691208 1:3.5460691 2:0.54263568 3:1 4:44 #
-0.00064559937944932629938499246691208 1:0.70941955 2:0.52509654 3:31 4:25 #
0.00064559937944932629938499246691208 1:-1.785385 2:0.61904764 3:27 4:34 #
-0.00064559937944932629938499246691208 1:0.87874651 2:0.74285716 3:1 4:38 #
0.00064559937944932629938499246691208 1:-0.96774417 2:0.82051283 3:4 4:74 #
0.00064559937944932629938499246691208 1:-0.9052633 2:0.69999999 3:10 4:0 #
-0.00064559937944932629938499246691208 1:1.1746721 2:0.62 3:3 4:46 #
-0.00064559937944932629938499246691208 1:-4.1655211 2:0.60887098 3:1 4:37 #
-0.00064559937944932629938499246691208 1:3.0516648 2:0.75757575 3:7 4:44 #
0.00064559937944932629938499246691208 1:-4.658958 2:0.6785714 3:9 4:35 #
0.00064559937944932629938499246691208 1:0.66388911 2:0.58536583 3:18 4:58 #
-0.00064559937944932629938499246691208 1:-3.9850061 2:0.58086562 3:1 4:46 #
0.00064559937944932629938499246691208 1:0.2505233 2:0.79166669 3:5 4:42 #
-0.00064559937944932629938499246691208 1:-0.4170506 2:0.62222224 3:1 4:37 #
0.00064559937944932629938499246691208 1:0.23819174 2:0.85000002 3:5 4:35 #
0.00064559937944932629938499246691208 1:-0.98917592 2:0.72727275 3:11 4:0 #
-0.00064559937944932629938499246691208 1:0.97883481 2:0.80645162 3:1 4:46 #
0.00064559937944932629938499246691208 1:-2.8350928 2:0.64864862 3:28 4:27 #
-0.00064559937944932629938499246691208 1:1.322073 2:0.61538464 3:1 4:38 #
-0.00064559937944932629938499246691208 1:-1.4996458 2:0.9375 3:1 4:38 #
0.00064559937944932629938499246691208 1:-0.10163572 2:0.66666669 3:28 4:28 #
-0.00064559937944932629938499246691208 1:-0.8144905 2:0.60479039 3:1 4:37 #
0.00064559937944932629938499246691208 1:-1.5894682 2:0.73913044 3:13 4:65 #
0.00064559937944932629938499246691208 1:0.74215609 2:0.45454547 3:11 4:0 #
-0.00064559937944932629938499246691208 1:1.0553544 2:0.75862068 3:1 4:46 #
0.00064559937944932629938499246691208 1:-0.036809202 2:0.60000002 3:15 4:0 #
0.00064559937944932629938499246691208 1:0.27671954 2:0.60000002 3:15 4:0 #
-0.00064559937944932629938499246691208 1:-1.6685393 2:0.66233766 3:1 4:37 #
-0.00064559937944932629938499246691208 1:-0.76726079 2:0.56763923 3:1 4:37 #
-0.00064559937944932629938499246691208 1:0.74732196 2:0.50335568 3:29 4:21 #
-0.00064559937944932629938499246691208 1:2.9510696 2:0.77777779 3:6 4:45 #
-0.00064559937944932629938499246691208 1:0.72243077 2:0.54945058 3:27 4:17 #
-0.00064559937944932629938499246691208 1:-0.8144905 2:0.56 3:1 4:37 #
-0.00064559937944932629938499246691208 1:-1.2796118 2:0.83333331 3:2 4:37 #
0.00064559937944932629938499246691208 1:0.46160275 2:0.80000001 3:4 4:35 #
-0.00064559937944932629938499246691208 1:-0.57742709 2:0.63157892 3:1 4:46 #
-0.00064559937944932629938499246691208 1:-0.90799612 2:0.49438202 3:7 4:39 #
-0.00064559937944932629938499246691208 1:1.0627881 2:0.94444442 3:1 4:45 #
0.00064559937944932629938499246691208 1:-0.46519494 2:0.80000001 3:15 4:0 #
0.00064559937944932629938499246691208 1:-0.048989668 2:0.69696969 3:2 4:34 #
-0.00064559937944932629938499246691208 1:-4.2707024 2:0.48275861 3:1 4:20 #
-0.00064559937944932629938499246691208 1:1.5501803 2:0.86363637 3:1 4:44 #
-0.00064559937944932629938499246691208 1:0.84515476 2:0.90476191 3:1 4:39 #
0.00064559937944932629938499246691208 1:-2.1308641 2:0.84375 3:4 4:72 #
-0.00064559937944932629938499246691208 1:-1.6951122 2:0.7647059 3:2 4:46 #
-0.00064559937944932629938499246691208 1:0.76200229 2:0.76744187 3:1 4:38 #
0.00064559937944932629938499246691208 1:-2.0026693 2:0.60975611 3:27 4:32 #
0.00064559937944932629938499246691208 1:-0.39434022 2:0.76923078 3:1 4:34 #
-0.00064559937944932629938499246691208 1:-0.99069518 2:0.88235295 3:1 4:38 #
0.00064559937944932629938499246691208 1:0.15883918 2:0.67441863 3:26 4:37 #
0.00064559937944932629938499246691208 1:-0.88927805 2:0.82608694 3:1 4:42 #
-0.00064559937944932629938499246691208 1:-2.8244233 2:0.57493186 3:1 4:37 #
-0.00064559937944932629938499246691208 1:-1.4317365 2:0.76271188 3:1 4:46 #
0.00064559937944932629938499246691208 1:1.1297514 2:0.53333336 3:15 4:0 #
0.00064559937944932629938499246691208 1:1.652432 2:0.72000003 3:13 4:32 #
-0.00064559937944932629938499246691208 1:1.3843421 2:0.59395975 3:1 4:38 #
-0.00064559937944932629938499246691208 1:1.8243364 2:0.60674155 3:5 4:38 #
0.00064559937944932629938499246691208 1:-2.470413 2:0.90625 3:1 4:71 #
0.00064559937944932629938499246691208 1:-0.26718488 2:0.73333335 3:15 4:0 #
0.00064559937944932629938499246691208 1:0.13269958 2:0.76923078 3:7 4:71 #
-0.00064559937944932629938499246691208 1:-0.75675023 2:0.66666669 3:2 4:46 #
0.00064559937944932629938499246691208 1:0.56711501 2:0.60000002 3:15 4:0 #
-0.00064559937944932629938499246691208 1:-2.0972059 2:0.5714286 3:13 4:15 #
-0.00064559937944932629938499246691208 1:2.5317681 2:0.59574467 3:1 4:44 #
-0.00064559937944932629938499246691208 1:0.87642163 2:0.53475934 3:1 4:38 #
-0.00064559937944932629938499246691208 1:1.3955777 2:0.52491695 3:1 4:45 #
-0.00064559937944932629938499246691208 1:-0.097006761 2:0.81818181 3:1 4:38 #
0.00064559937944932629938499246691208 1:-0.57456994 2:0.80555558 3:10 4:66 #
0.00064559937944932629938499246691208 1:-0.077307455 2:0.73333335 3:15 4:0 #
0.00064559937944932629938499246691208 1:-0.39347979 2:0.5714286 3:14 4:0 #
-0.00064559937944932629938499246691208 1:-0.38877985 2:0.6857143 3:17 4:40 #
-0.00064559937944932629938499246691208 1:-0.20294395 2:0.5869565 3:17 4:40 #
0.00064559937944932629938499246691208 1:0.36188659 2:0.66666669 3:15 4:0 #
0.00064559937944932629938499246691208 1:-1.4082583 2:0.60000002 3:18 4:53 #
-0.00064559937944932629938499246691208 1:-1.219256 2:0.52284265 3:16 4:40 #
-0.00064559937944932629938499246691208 1:-0.68017876 2:0.75384617 3:1 4:45 #
-0.00064559937944932629938499246691208 1:0.28729248 2:0.69387758 3:4 4:45 #
-0.00064559937944932629938499246691208 1:-0.40870741 2:0.46240601 3:17 4:18 #
-0.00064559937944932629938499246691208 1:0.29821497 2:0.64367819 3:1 4:38 #
0.00064559937944932629938499246691208 1:-0.7191329 2:0.77551019 3:4 4:72 #
0.00064559937944932629938499246691208 1:-0.44300625 2:0.63636363 3:11 4:0 #
-0.00064559937944932629938499246691208 1:1.8584361 2:0.70588237 3:13 4:40 #
-0.00064559937944932629938499246691208 1:-1.2528538 2:0.74193549 3:5 4:45 #
0.00064559937944932629938499246691208 1:-2.6512413 2:0.85714287 3:1 4:70 #
0.00064559937944932629938499246691208 1:-1.2597932 2:0.51111114 3:27 4:29 #
-0.00064559937944932629938499246691208 1:0.35810256 2:0.54037267 3:14 4:40 #
-0.00064559937944932629938499246691208 1:-0.78801304 2:0.61956519 3:22 4:18 #
0.00064559937944932629938499246691208 1:-0.7931987 2:0.72727275 3:11 4:0 #
-0.00064559937944932629938499246691208 1:-0.56817645 2:0.62272727 3:1 4:45 #
0.00064559937944932629938499246691208 1:0.4155314 2:0.66666669 3:15 4:0 #
-0.00064559937944932629938499246691208 1:1.2463169 2:0.52380955 3:7 4:38 #
-0.00064559937944932629938499246691208 1:-0.66115683 2:0.48172757 3:15 4:40 #
-0.00064559937944932629938499246691208 1:-0.91248429 2:0.54074073 3:15 4:19 #
-0.00064559937944932629938499246691208 1:2.4913871 2:0.539823 3:1 4:42 #
0.00064559937944932629938499246691208 1:-2.5426807 2:0.42500001 3:26 4:29 #
-0.00064559937944932629938499246691208 1:-1.9412811 2:0.48979592 3:15 4:41 #
0.00064559937944932629938499246691208 1:-0.99510241 2:0.84210527 3:1 4:42 #
-0.00064559937944932629938499246691208 1:1.1848838 2:0.7096774 3:10 4:43 #
-0.00064559937944932629938499246691208 1:-0.12454791 2:0.55870444 3:13 4:40 #
0.00064559937944932629938499246691208 1:1.4272515 2:0.64285713 3:10 4:38 #
-0.00064559937944932629938499246691208 1:1.8174905 2:0.48657718 3:1 4:44 #
0.00064559937944932629938499246691208 1:-1.0264611 2:0.78571427 3:14 4:0 #
-0.00064559937944932629938499246691208 1:-2.7204697 2:0.6875 3:12 4:39 #
0.00064559937944932629938499246691208 1:1.4799216 2:0.69565219 3:8 4:29 #
-0.00064559937944932629938499246691208 1:1.6131412 2:0.54060322 3:1 4:44 #
0.00064559937944932629938499246691208 1:-0.32448271 2:0.5714286 3:14 4:0 #
-0.00064559937944932629938499246691208 1:0.40569213 2:0.47087377 3:7 4:38 #
0.00064559937944932629938499246691208 1:0.85207015 2:0.84210527 3:5 4:33 #
-0.00064559937944932629938499246691208 1:1.0813353 2:0.69999999 3:13 4:41 #
0.00064559937944932629938499246691208 1:1.4162446 2:0.53333336 3:15 4:0 #
-0.00064559937944932629938499246691208 1:0.0087454319 2:0.68478262 3:2 4:45 #
-0.00064559937944932629938499246691208 1:-0.77158171 2:0.58490568 3:11 4:39 #
0.00064559937944932629938499246691208 1:0.1540987 2:0.75 3:3 4:33 #
0.00064559937944932629938499246691208 1:-0.26136392 2:0.64285713 3:14 4:0 #
-0.00064559937944932629938499246691208 1:1.0553544 2:0.72727275 3:1 4:44 #
0.00064559937944932629938499246691208 1:-0.6475175 2:0.61538464 3:13 4:0 #
-0.00064559937944932629938499246691208 1:0.40587434 2:0.54545456 3:3 4:37 #
-0.00064559937944932629938499246691208 1:-1.2135783 2:0.5271318 3:17 4:15 #
0.00064559937944932629938499246691208 1:1.0167969 2:0.69230771 3:8 4:39 #
0.00064559937944932629938499246691208 1:-3.7577746 2:0.6875 3:1 4:13 #
-0.00064559937944932629938499246691208 1:-0.78358382 2:0.58571428 3:14 4:41 #
0.00064559937944932629938499246691208 1:-3.103399 2:0.89999998 3:1 4:63 #
-0.00064559937944932629938499246691208 1:-1.4623868 2:0.61038959 3:2 4:45 #
0.00064559937944932629938499246691208 1:1.490333 2:0.53333336 3:15 4:0 #
-0.00064559937944932629938499246691208 1:-0.012298944 2:0.75 3:10 4:39 #
0.00064559937944932629938499246691208 1:0.40591064 2:0.66666669 3:8 4:35 #
-0.00064559937944932629938499246691208 1:0.65368193 2:0.75999999 3:1 4:44 #
-0.00064559937944932629938499246691208 1:0.3103638 2:0.52499998 3:10 4:39 #
0.00064559937944932629938499246691208 1:-0.2431072 2:0.78260869 3:6 4:44 #
-0.00064559937944932629938499246691208 1:2.1881905 2:0.56079406 3:7 4:42 #
-0.00064559937944932629938499246691208 1:-2.0191958 2:0.57183909 3:2 4:37 #
0.00064559937944932629938499246691208 1:0.51853573 2:0.77777779 3:6 4:37 #
0.00064559937944932629938499246691208 1:-0.22796799 2:0.5 3:12 4:0 #
-0.00064559937944932629938499246691208 1:1.0540687 2:0.54581672 3:1 4:44 #
-0.00064559937944932629938499246691208 1:-2.2053795 2:0.60606062 3:11 4:39 #
-0.00064559937944932629938499246691208 1:-0.64647007 2:0.49278846 3:20 4:17 #
-0.00064559937944932629938499246691208 1:1.5008264 2:0.55803573 3:2 4:38 #
0.00064559937944932629938499246691208 1:-2.4452999 2:0.83783782 3:5 4:68 #
-0.00064559937944932629938499246691208 1:-0.37736678 2:0.63716817 3:4 4:45 #
0.00064559937944932629938499246691208 1:-0.47804663 2:0.72727275 3:11 4:0 #
0.00064559937944932629938499246691208 1:0.3361232 2:0.8125 3:6 4:32 #
0.00064559937944932629938499246691208 1:-0.3876093 2:0.76923078 3:13 4:0 #
0.00064559937944932629938499246691208 1:-0.27240631 2:0.72727275 3:11 4:0 #
-0.00064559937944932629938499246691208 1:1.4817643 2:0.60539216 3:3 4:43 #
-0.00064559937944932629938499246691208 1:-0.17963298 2:0.46354166 3:6 4:38 #
-0.00064559937944932629938499246691208 1:-0.84094328 2:0.55035973 3:19 4:15 #
-0.00064559937944932629938499246691208 1:0.77184343 2:0.51428574 3:11 4:40 #
0.00064559937944932629938499246691208 1:-2.7145288 2:0.8125 3:5 4:66 #
-0.00064559937944932629938499246691208 1:-0.38906643 2:0.4861111 3:3 4:45 #
0.00064559937944932629938499246691208 1:0.01192607 2:0.64285713 3:14 4:0 #
-0.00064559937944932629938499246691208 1:0.4280771 2:0.61572051 3:11 4:40 #
-0.00064559937944932629938499246691208 1:0.93622613 2:0.52447551 3:33 4:27 #
-0.00064559937944932629938499246691208 1:0.97883481 2:0.578022 3:1 4:44 #
-0.00064559937944932629938499246691208 1:0.90512866 2:0.50387597 3:1 4:44 #
0.00064559937944932629938499246691208 1:0.11840295 2:0.46153846 3:13 4:0 #
0.00064559937944932629938499246691208 1:-0.27752671 2:0.78571427 3:14 4:0 #
-0.00064559937944932629938499246691208 1:-3.1655657 2:0.51635516 3:7 4:38 #
-0.00064559937944932629938499246691208 1:-0.6475175 2:0.49765259 3:18 4:15 #
-0.00064559937944932629938499246691208 1:0.31762707 2:0.75862068 3:8 4:39 #
-0.00064559937944932629938499246691208 1:-0.7248342 2:0.48929664 3:21 4:18 #
-0.00064559937944932629938499246691208 1:-1.4844749 2:0.58168316 3:13 4:41 #
0.00064559937944932629938499246691208 1:-4.0868163 2:0.8214286 3:2 4:55 #
-0.00064559937944932629938499246691208 1:1.551344 2:0.52996844 3:2 4:43 #
-0.00064559937944932629938499246691208 1:0.7318697 2:0.51662403 3:4 4:38 #
-0.00064559937944932629938499246691208 1:1.597236 2:0.58064514 3:5 4:39 #
-0.00064559937944932629938499246691208 1:-2.9218822 2:0.4775281 3:7 4:17 #
0.00064559937944932629938499246691208 1:0.37626314 2:0.5714286 3:14 4:0 #
-0.00064559937944932629938499246691208 1:0.52769142 2:0.70999998 3:6 4:44 #
0.00064559937944932629938499246691208 1:-0.22901973 2:0.75 3:12 4:0 #
-0.00064559937944932629938499246691208 1:-0.12687452 2:0.77272725 3:4 4:38 #
0.00064559937944932629938499246691208 1:-0.84417528 2:0.90909094 3:2 4:49 #
-0.00064559937944932629938499246691208 1:0.32262987 2:0.57575756 3:10 4:43 #
0.00064559937944932629938499246691208 1:-3.0078056 2:0.66666669 3:1 4:13 #
-0.00064559937944932629938499246691208 1:-4.3296771 2:0.57936507 3:2 4:37 #
0.00064559937944932629938499246691208 1:0.92832571 2:0.81818181 3:7 4:39 #
0.00064559937944932629938499246691208 1:0.022680806 2:0.80000001 3:4 4:40 #
-0.00064559937944932629938499246691208 1:1.2478515 2:0.55339807 3:7 4:43 #
-0.00064559937944932629938499246691208 1:1.3337437 2:0.48148149 3:8 4:42 #
0.00064559937944932629938499246691208 1:-4.1162081 2:0.86666667 3:1 4:32 #
-0.00064559937944932629938499246691208 1:-0.065405428 2:0.53977275 3:1 4:38 #
0.00064559937944932629938499246691208 1:0.38770649 2:0.77777779 3:5 4:30 #
-0.00064559937944932629938499246691208 1:0.38656142 2:0.58093125 3:6 4:44 #
0.00064559937944932629938499246691208 1:0.088462904 2:0.66666669 3:12 4:0 #
-0.00064559937944932629938499246691208 1:-0.55690628 2:0.77419353 3:8 4:39 #
0.00064559937944932629938499246691208 1:-0.010334686 2:0.73170733 3:6 4:41 #
-0.00064559937944932629938499246691208 1:1.0735047 2:0.55242968 3:3 4:38 #
0.00064559937944932629938499246691208 1:-0.98717594 2:0.8611111 3:3 4:68 #
-0.00064559937944932629938499246691208 1:-3.8570974 2:0.66818184 3:5 4:45 #
0.00064559937944932629938499246691208 1:0.15286531 2:0.61538464 3:13 4:0 #
-0.00064559937944932629938499246691208 1:-2.1209226 2:0.5754717 3:12 4:40 #
0.00064559937944932629938499246691208 1:-0.59150892 2:0.88235295 3:2 4:68 #
-0.00064559937944932629938499246691208 1:-0.058610268 2:0.50988144 3:4 4:38 #
0.00064559937944932629938499246691208 1:1.2762926 2:0.77777779 3:7 4:27 #
-0.00064559937944932629938499246691208 1:0.37905651 2:0.69117647 3:8 4:42 #
0.00064559937944932629938499246691208 1:0.5281738 2:0.72727275 3:11 4:0 #
-0.00064559937944932629938499246691208 1:-1.4871656 2:0.57033247 3:9 4:39 #
0.00064559937944932629938499246691208 1:0.14037478 2:0.76923078 3:3 4:48 #
-0.00064559937944932629938499246691208 1:1.9263333 2:0.59736842 3:1 4:40 #
0.00064559937944932629938499246691208 1:-4.658958 2:0.69444442 3:12 4:56 #
-0.00064559937944932629938499246691208 1:-1.8720386 2:0.49038461 3:12 4:42 #
0.00064559937944932629938499246691208 1:1.9301996 2:0.69999999 3:10 4:0 #
-0.00064559937944932629938499246691208 1:-0.9689998 2:0.61963189 3:8 4:39 #
0.00064559937944932629938499246691208 1:1.4878528 2:0.71428573 3:8 4:26 #
-0.00064559937944932629938499246691208 1:-0.31965607 2:0.7096774 3:11 4:41 #
0.00064559937944932629938499246691208 1:-2.2707663 2:0.75 3:3 4:11 #
-0.00064559937944932629938499246691208 1:-0.050886847 2:0.56800002 3:2 4:38 #
0.00064559937944932629938499246691208 1:1.4563717 2:0.7368421 3:9 4:24 #
-0.00064559937944932629938499246691208 1:1.1544582 2:0.75862068 3:4 4:42 #
0.00064559937944932629938499246691208 1:0.49958599 2:0.53846157 3:13 4:0 #
-0.00064559937944932629938499246691208 1:-0.57050073 2:0.51445085 3:7 4:39 #
0.00064559937944932629938499246691208 1:0.76906449 2:0.63999999 3:8 4:35 #
-0.00064559937944932629938499246691208 1:0.12334257 2:0.61290324 3:9 4:40 #
0.00064559937944932629938499246691208 1:-1.3281239 2:0.93333334 3:1 4:65 #
-0.00064559937944932629938499246691208 1:-0.16357239 2:0.58823532 3:2 4:44 #
-0.00064559937944932629938499246691208 1:0.49958599 2:0.59885389 3:3 4:43 #
0.00064559937944932629938499246691208 1:0.38199416 2:0.61538464 3:13 4:0 #
-0.00064559937944932629938499246691208 1:-3.7505112 2:0.46951219 3:1 4:23 #
-0.00064559937944932629938499246691208 1:-1.2799896 2:0.68000001 3:4 4:38 #
-0.00064559937944932629938499246691208 1:-0.62816298 2:0.65506327 3:10 4:42 #
0.00064559937944932629938499246691208 1:-2.1669931 2:0.78571427 3:2 4:62 #
0.00064559937944932629938499246691208 1:0.2948283 2:0.64285713 3:14 4:0 #
-0.00064559937944932629938499246691208 1:-2.4296334 2:0.53669727 3:11 4:40 #
0.00064559937944932629938499246691208 1:0.5194211 2:0.73333335 3:3 4:23 #
-0.00064559937944932629938499246691208 1:1.572759 2:0.72131145 3:1 4:41 #
-0.00064559937944932629938499246691208 1:1.727453 2:0.55084747 3:2 4:41 #
0.00064559937944932629938499246691208 1:-3.6810129 2:0.80769229 3:1 4:44 #
0.00064559937944932629938499246691208 1:-3.6114662 2:0.5 3:7 4:14 #
0.00064559937944932629938499246691208 1:-0.3876093 2:0.76190478 3:1 4:35 #
-0.00064559937944932629938499246691208 1:0.42574576 2:0.53389829 3:4 4:39 #
-0.00064559937944932629938499246691208 1:-4.3402066 2:0.54672897 3:1 4:21 #
-0.00064559937944932629938499246691208 1:-0.86698323 2:0.62318838 3:6 4:44 #
0.00064559937944932629938499246691208 1:0.69268477 2:0.46153846 3:13 4:0 #
-0.00064559937944932629938499246691208 1:-1.219256 2:0.59953159 3:4 4:38 #
-0.00064559937944932629938499246691208 1:-0.47625929 2:0.53562653 3:9 4:41 #
0.00064559937944932629938499246691208 1:1.190268 2:0.76923078 3:8 4:35 #
-0.00064559937944932629938499246691208 1:-0.40540716 2:0.56315792 3:1 4:44 #
0.00064559937944932629938499246691208 1:0.48967275 2:0.61538464 3:13 4:0 #
-0.00064559937944932629938499246691208 1:-2.9850464 2:0.53958946 3:9 4:39 #
0.00064559937944932629938499246691208 1:0.50147945 2:0.78947371 3:4 4:36 #
-0.00064559937944932629938499246691208 1:1.6740634 2:0.54427081 3:2 4:41 #
-0.00064559937944932629938499246691208 1:1.8416641 2:0.53703701 3:1 4:40 #
0.00064559937944932629938499246691208 1:-3.4031544 2:0.85185188 3:1 4:54 #
-0.00064559937944932629938499246691208 1:0.38662985 2:0.59104478 3:7 4:42 #
0.00064559937944932629938499246691208 1:0.52428985 2:0.66666669 3:12 4:0 #
0.00064559937944932629938499246691208 1:0.490513 2:0.7647059 3:6 4:26 #
-0.00064559937944932629938499246691208 1:-2.6250298 2:0.54920638 3:5 4:38 #
-0.00064559937944932629938499246691208 1:-0.97108775 2:0.4852547 3:10 4:42 #
0.00064559937944932629938499246691208 1:-3.6905661 2:0.77272725 3:1 4:33 #
-0.00064559937944932629938499246691208 1:0.56511652 2:0.84210527 3:1 4:39 #
0.00064559937944932629938499246691208 1:-0.86253417 2:0.76595747 3:7 4:67 #
-0.00064559937944932629938499246691208 1:-0.34520298 2:0.45857987 3:4 4:44 #
0.00064559937944932629938499246691208 1:0.66533273 2:0.75 3:12 4:0 #
-0.00064559937944932629938499246691208 1:-3.1220617 2:0.53092784 3:10 4:40 #
0.00064559937944932629938499246691208 1:0.082775608 2:0.72727275 3:7 4:41 #
0.00064559937944932629938499246691208 1:-2.7591658 2:0.62222224 3:4 4:13 #
-0.00064559937944932629938499246691208 1:0.58495617 2:0.79166669 3:1 4:39 #
0.00064559937944932629938499246691208 1:-0.20685244 2:0.81818181 3:6 4:68 #
-0.00064559937944932629938499246691208 1:-0.041333672 2:0.5272727 3:8 4:42 #
0.00064559937944932629938499246691208 1:-0.096722916 2:0.625 3:1 4:10 #
-0.00064559937944932629938499246691208 1:-0.47477087 2:0.55844158 3:1 4:38 #
-0.00064559937944932629938499246691208 1:-2.3406019 2:0.616 3:14 4:25 #
-0.00064559937944932629938499246691208 1:-0.9510318 2:0.67525774 3:7 4:43 #
0.00064559937944932629938499246691208 1:-2.1260669 2:0.67500001 3:2 4:13 #
-0.00064559937944932629938499246691208 1:0.76337677 2:0.56278026 3:1 4:39 #
0.00064559937944932629938499246691208 1:0.67254651 2:0.77777779 3:5 4:35 #
-0.00064559937944932629938499246691208 1:-1.0031097 2:0.56707317 3:7 4:43 #
-0.00064559937944932629938499246691208 1:0.68000495 2:0.84210527 3:3 4:41 #
0.00064559937944932629938499246691208 1:-2.8945427 2:0.83999997 3:1 4:51 #
-0.00064559937944932629938499246691208 1:-0.91644299 2:0.71153843 3:6 4:43 #
0.00064559937944932629938499246691208 1:1.2155981 2:0.5 3:12 4:0 #
-0.00064559937944932629938499246691208 1:-0.8658728 2:0.62068963 3:21 4:19 #
-0.00064559937944932629938499246691208 1:-1.4594213 2:0.54702967 3:3 4:38 #
-0.00064559937944932629938499246691208 1:-1.8536917 2:0.71428573 3:2 4:39 #
-0.00064559937944932629938499246691208 1:-0.13111617 2:0.53608245 3:6 4:41 #
0.00064559937944932629938499246691208 1:-2.1702759 2:0.72500002 3:2 4:57 #
-0.00064559937944932629938499246691208 1:0.0087454319 2:0.78873241 3:2 4:43 #
0.00064559937944932629938499246691208 1:0.94529486 2:0.66666669 3:12 4:0 #
-0.00064559937944932629938499246691208 1:-0.78698856 2:0.48929664 3:5 4:39 #
0.00064559937944932629938499246691208 1:0.16450855 2:0.84210527 3:2 4:36 #
-0.00064559937944932629938499246691208 1:-3.5857568 2:0.58921164 3:4 4:19 #
0.00064559937944932629938499246691208 1:-0.82041699 2:0.8888889 3:1 4:61 #
-0.00064559937944932629938499246691208 1:0.33161014 2:0.63855422 3:1 4:43 #
0.00064559937944932629938499246691208 1:0.40130547 2:0.71428573 3:14 4:0 #
-0.00064559937944932629938499246691208 1:-1.3057947 2:0.51371568 3:17 4:16 #
-0.00064559937944932629938499246691208 1:-1.4871656 2:0.52767527 3:7 4:40 #
-0.00064559937944932629938499246691208 1:0.89619839 2:0.484375 3:4 4:41 #
0.00064559937944932629938499246691208 1:-3.0120733 2:0.86956519 3:2 4:52 #
0.00064559937944932629938499246691208 1:1.6048208 2:0.54545456 3:11 4:0 #
-0.00064559937944932629938499246691208 1:-1.0095371 2:0.55940592 3:2 4:38 #
0.00064559937944932629938499246691208 1:0.89980417 2:0.68421054 3:6 4:31 #
-0.00064559937944932629938499246691208 1:0.0011505203 2:0.55040872 3:5 4:42 #
0.00064559937944932629938499246691208 1:-2.7591658 2:0.62222224 3:4 4:13 #
-0.00064559937944932629938499246691208 1:-1.5001303 2:0.53349876 3:2 4:38 #
0.00064559937944932629938499246691208 1:1.4242915 2:0.59090906 3:8 4:23 #
-0.00064559937944932629938499246691208 1:-1.8150359 2:0.52442157 3:9 4:43 #
0.00064559937944932629938499246691208 1:-1.989557 2:0.70833331 3:2 4:13 #
-0.00064559937944932629938499246691208 1:0.94845122 2:0.55038762 3:1 4:40 #
0.00064559937944932629938499246691208 1:-0.61890119 2:0.84210527 3:1 4:36 #
-0.00064559937944932629938499246691208 1:0.99075848 2:0.5663507 3:1 4:42 #
-0.00064559937944932629938499246691208 1:-0.055544917 2:0.56481481 3:5 4:42 #
0.00064559937944932629938499246691208 1:-3.8651991 2:0.75862068 3:4 4:48 #
0.00064559937944932629938499246691208 1:-4.0868163 2:0.71428573 3:5 4:34 #
-0.00064559937944932629938499246691208 1:-1.4317735 2:0.50694442 3:8 4:41 #
0.00064559937944932629938499246691208 1:-2.0088825 2:0.77777779 3:2 4:58 #
-0.00064559937944932629938499246691208 1:0.13068229 2:0.60447758 3:1 4:43 #
0.00064559937944932629938499246691208 1:0.4129501 2:0.71428573 3:14 4:0 #
-0.00064559937944932629938499246691208 1:1.5339755 2:0.53968257 3:34 4:17 #
-0.00064559937944932629938499246691208 1:-0.91325295 2:0.54500002 3:4 4:39 #
-0.00064559937944932629938499246691208 1:-2.1763673 2:0.53783786 3:8 4:42 #
0.00064559937944932629938499246691208 1:-3.3946779 2:0.85714287 3:1 4:41 #
-0.00064559937944932629938499246691208 1:0.27086511 2:0.68000001 3:1 4:40 #
0.00064559937944932629938499246691208 1:-3.7042766 2:0.83333331 3:4 4:51 #
-0.00064559937944932629938499246691208 1:-1.7397642 2:0.52988046 3:7 4:43 #
0.00064559937944932629938499246691208 1:-2.6770723 2:0.72727275 3:2 4:51 #
-0.00064559937944932629938499246691208 1:-0.82381696 2:0.62801933 3:5 4:43 #
0.00064559937944932629938499246691208 1:0.84001809 2:0.69230771 3:13 4:0 #
-0.00064559937944932629938499246691208 1:-2.5139537 2:0.75862068 3:3 4:38 #
0.00064559937944932629938499246691208 1:-0.81155688 2:0.9375 3:1 4:36 #
0.00064559937944932629938499246691208 1:1.7230903 2:0.73913044 3:10 4:23 #
-0.00064559937944932629938499246691208 1:0.57190758 2:0.53793103 3:1 4:40 #
0.00064559937944932629938499246691208 1:-0.47655639 2:0.85714287 3:2 4:64 #
-0.00064559937944932629938499246691208 1:-1.9839051 2:0.55922866 3:4 4:44 #
0.00064559937944932629938499246691208 1:2.4073246 2:0.69999999 3:10 4:0 #
-0.00064559937944932629938499246691208 1:-2.3605564 2:0.62857145 3:6 4:40 #
-0.00064559937944932629938499246691208 1:-0.20096853 2:0.64705884 3:2 4:40 #
0.00064559937944932629938499246691208 1:-1.2350456 2:0.78787881 3:2 4:61 #
-0.00064559937944932629938499246691208 1:-1.0174011 2:0.55284554 3:4 4:43 #
0.00064559937944932629938499246691208 1:1.364507 2:0.66666669 3:12 4:0 #
0.00064559937944932629938499246691208 1:0.13278905 2:0.76190478 3:2 4:34 #
-0.00064559937944932629938499246691208 1:-0.60117561 2:0.53260869 3:2 4:39 #
-0.00064559937944932629938499246691208 1:-1.7151232 2:0.78571427 3:5 4:41 #
0.00064559937944932629938499246691208 1:-3.5265126 2:0.88235295 3:1 4:37 #
-0.00064559937944932629938499246691208 1:0.679326 2:0.42608696 3:1 4:41 #
0.00064559937944932629938499246691208 1:-1.1771674 2:1 3:1 4:59 #
-0.00064559937944932629938499246691208 1:-0.29103509 2:0.68421054 3:1 4:42 #
0.00064559937944932629938499246691208 1:-0.50338638 2:0.64285713 3:1 4:11 #
0.00064559937944932629938499246691208 1:0.076298803 2:0.7368421 3:1 4:31 #
-0.00064559937944932629938499246691208 1:-1.0077912 2:0.60425532 3:3 4:40 #
-0.00064559937944932629938499246691208 1:-0.93586057 2:1 3:1 4:42 #
0.00064559937944932629938499246691208 1:-1.4317735 2:0.48717949 3:2 4:13 #
-0.00064559937944932629938499246691208 1:-2.3773086 2:0.49559471 3:10 4:18 #
-0.00064559937944932629938499246691208 1:-1.2823658 2:0.93333334 3:1 4:39 #
-0.00064559937944932629938499246691208 1:-0.14583869 2:0.61578947 3:1 4:40 #
0.00064559937944932629938499246691208 1:-2.2141771 2:0.67567569 3:3 4:13 #
-0.00064559937944932629938499246691208 1:-2.8661141 2:0.49308756 3:3 4:38 #
0.00064559937944932629938499246691208 1:1.6683903 2:0.65384614 3:11 4:34 #
-0.00064559937944932629938499246691208 1:-0.93470508 2:0.37012988 3:3 4:40 #
0.00064559937944932629938499246691208 1:-2.5246966 2:0.60000002 3:4 4:13 #
-0.00064559937944932629938499246691208 1:-1.2877014 2:0.53515625 3:2 4:39 #
0.00064559937944932629938499246691208 1:1.5170251 2:0.71428573 3:10 4:26 #
-0.00064559937944932629938499246691208 1:-1.8365959 2:0.61538464 3:4 4:40 #
0.00064559937944932629938499246691208 1:-1.9194117 2:0.58823532 3:3 4:13 #
-0.00064559937944932629938499246691208 1:-0.17222115 2:0.44986451 3:23 4:21 #
-0.00064559937944932629938499246691208 1:-0.79717374 2:0.51572329 3:2 4:40 #
0.00064559937944932629938499246691208 1:-2.8994257 2:0.78260869 3:1 4:34 #
-0.00064559937944932629938499246691208 1:-1.1846012 2:0.73255813 3:1 4:42 #
-0.00064559937944932629938499246691208 1:-0.26136392 2:0.50842696 3:25 4:16 #
0.00064559937944932629938499246691208 1:0.87522227 2:0.69230771 3:13 4:0 #
-0.00064559937944932629938499246691208 1:-2.5179713 2:0.48257372 3:2 4:44 #
0.00064559937944932629938499246691208 1:-2.2859099 2:0.65909094 3:4 4:12 #
-0.00064559937944932629938499246691208 1:-1.4844749 2:0.58823532 3:1 4:39 #
-0.00064559937944932629938499246691208 1:-0.72825319 2:0.60909092 3:21 4:25 #
-0.00064559937944932629938499246691208 1:-1.586455 2:0.75862068 3:1 4:42 #
0.00064559937944932629938499246691208 1:-2.1929939 2:0.58139533 3:4 4:13 #
-0.00064559937944932629938499246691208 1:-1.7834619 2:0.94117647 3:1 4:40 #
0.00064559937944932629938499246691208 1:0.13375472 2:0.75999999 3:3 4:43 #
-0.00064559937944932629938499246691208 1:-1.6765391 2:0.60000002 3:15 4:17 #
0.00064559937944932629938499246691208 1:-2.1736248 2:0.71428573 3:4 4:13 #
-0.00064559937944932629938499246691208 1:-2.1761167 2:0.59467453 3:2 4:40 #
-0.00064559937944932629938499246691208 1:-1.1683755 2:0.56521738 3:16 4:15 #
-0.00064559937944932629938499246691208 1:-1.6936797 2:0.61643833 3:2 4:41 #
0.00064559937944932629938499246691208 1:-3.3224213 2:0.70833331 3:2 4:39 #
-0.00064559937944932629938499246691208 1:-1.4617535 2:0.55284554 3:1 4:42 #
0.00064559937944932629938499246691208 1:-2.9104922 2:0.81481481 3:2 4:51 #
-0.00064559937944932629938499246691208 1:-1.840155 2:0.57077628 3:1 4:41 #
-0.00064559937944932629938499246691208 1:-2.3036017 2:0.56896549 3:1 4:40 #
0.00064559937944932629938499246691208 1:1.499281 2:0.64285713 3:6 4:19 #
0.00064559937944932629938499246691208 1:0.24908444 2:0.80952382 3:1 4:31 #
-0.00064559937944932629938499246691208 1:-1.3267567 2:0.51254481 3:9 4:17 #
-0.00064559937944932629938499246691208 1:4.2287722 2:0.54761904 3:1 4:20 #
-0.00064559937944932629938499246691208 1:4.2293386 2:0.44897959 3:12 4:14 #
-0.00064559937944932629938499246691208 1:4.1071854 2:0.6883117 3:1 4:21 #
-0.00064559937944932629938499246691208 1:-4.1745334 2:0.5546875 3:3 4:35 #
-0.00064559937944932629938499246691208 1:0.34111562 2:0.48255813 3:25 4:21 #
-0.00064559937944932629938499246691208 1:4.6653619 2:0.54545456 3:20 4:20 #
0.00064559937944932629938499246691208 1:-4.479176 2:0.56 3:15 4:23 #
0.00064559937944932629938499246691208 1:-4.0308862 2:0.52173913 3:23 4:0 #
0.00064559937944932629938499246691208 1:-2.2146068 2:0.63414633 3:10 4:63 #
-0.00064559937944932629938499246691208 1:3.0382955 2:0.56637168 3:1 4:16 #
0.00064559937944932629938499246691208 1:-3.6733339 2:0.65217394 3:15 4:54 #
0.00064559937944932629938499246691208 1:-3.6874101 2:0.52631581 3:19 4:0 #
0.00064559937944932629938499246691208 1:-3.6905661 2:0.82608694 3:1 4:16 #
0.00064559937944932629938499246691208 1:-1.9635772 2:0.75 3:10 4:63 #
-0.00064559937944932629938499246691208 1:3.5936804 2:0.70886075 3:1 4:20 #
-0.00064559937944932629938499246691208 1:2.6766679 2:0.5662393 3:1 4:15 #
-0.00064559937944932629938499246691208 1:1.3546321 2:0.67500001 3:1 4:13 #
-0.00064559937944932629938499246691208 1:2.7593591 2:0.80000001 3:1 4:23 #
-0.00064559937944932629938499246691208 1:-0.37184349 2:0.51351351 3:13 4:18 #
-0.00064559937944932629938499246691208 1:1.8658071 2:0.89999998 3:1 4:24 #
-0.00064559937944932629938499246691208 1:1.77344 2:0.49344978 3:36 4:17 #
-0.00064559937944932629938499246691208 1:-3.2199924 2:0.530837 3:1 4:44 #
-0.00064559937944932629938499246691208 1:-1.0326856 2:0.54304636 3:1 4:12 #
-0.00064559937944932629938499246691208 1:-2.9050126 2:0.85000002 3:1 4:42 #
0.00064559937944932629938499246691208 1:-2.1863494 2:0.57692307 3:26 4:0 #
0.00064559937944932629938499246691208 1:2.2360246 2:0.5 3:26 4:0 #
-0.00064559937944932629938499246691208 1:-3.5674393 2:0.5947867 3:1 4:42 #
-0.00064559937944932629938499246691208 1:-3.6176016 2:0.50925928 3:1 4:28 #
0.00064559937944932629938499246691208 1:0.8966158 2:0.83333331 3:11 4:65 #
0.00064559937944932629938499246691208 1:-1.3584839 2:0.44 3:25 4:0 #
-0.00064559937944932629938499246691208 1:-3.8676906 2:0.57632399 3:1 4:30 #
0.00064559937944932629938499246691208 1:0.59190744 2:0.63999999 3:1 4:17 #
0.00064559937944932629938499246691208 1:-2.9208055 2:0.5 3:18 4:0 #
0.00064559937944932629938499246691208 1:-1.4945247 2:0.60975611 3:30 4:22 #
-0.00064559937944932629938499246691208 1:0.6462819 2:0.63709676 3:33 4:31 #
0.00064559937944932629938499246691208 1:-0.58184487 2:0.53658539 3:30 4:24 #
-0.00064559937944932629938499246691208 1:3.1620388 2:0.68085104 3:1 4:19 #
-0.00064559937944932629938499246691208 1:-1.4175217 2:0.64285713 3:17 4:17 #
0.00064559937944932629938499246691208 1:-0.25783968 2:0.4054054 3:29 4:21 #
-0.00064559937944932629938499246691208 1:0.83930922 2:0.48175183 3:28 4:29 #
-0.00064559937944932629938499246691208 1:-1.3144624 2:0.71428573 3:1 4:13 #
0.00064559937944932629938499246691208 1:0.070710212 2:0.61538464 3:30 4:22 #
0.00064559937944932629938499246691208 1:-1.8696408 2:0.9130435 3:1 4:48 #
-0.00064559937944932629938499246691208 1:-3.7268929 2:0.9375 3:1 4:40 #
-0.00064559937944932629938499246691208 1:-1.3487738 2:0.55485892 3:1 4:12 #
-0.00064559937944932629938499246691208 1:1.4969449 2:0.51475412 3:1 4:13 #
-0.00064559937944932629938499246691208 1:-2.8348501 2:0.64077669 3:1 4:69 #
-0.00064559937944932629938499246691208 1:-3.204747 2:0.52906978 3:3 4:30 #
0.00064559937944932629938499246691208 1:-3.8061962 2:0.71428573 3:5 4:37 #
-0.00064559937944932629938499246691208 1:2.5360379 2:0.70129871 3:1 4:22 #
-0.00064559937944932629938499246691208 1:-4.3837161 2:0.59842521 3:1 4:35 #
-0.00064559937944932629938499246691208 1:-0.97350764 2:0.58791208 3:4 4:11 #
-0.00064559937944932629938499246691208 1:-1.9838583 2:0.44109589 3:5 4:18 #
0.00064559937944932629938499246691208 1:-3.2051532 2:0.57894737 3:19 4:0 #
0.00064559937944932629938499246691208 1:-0.20033541 2:0.80000001 3:1 4:51 #
-0.00064559937944932629938499246691208 1:3.1805019 2:0.51260507 3:1 4:23 #
-0.00064559937944932629938499246691208 1:3.5460691 2:0.51923078 3:1 4:20 #
0.00064559937944932629938499246691208 1:-1.8465605 2:0.57894737 3:19 4:0 #
-0.00064559937944932629938499246691208 1:-2.4861712 2:0.51898736 3:1 4:43 #
0.00064559937944932629938499246691208 1:-1.6294379 2:0.80769229 3:2 4:49 #
-0.00064559937944932629938499246691208 1:1.069724 2:0.55988026 3:1 4:13 #
0.00064559937944932629938499246691208 1:-0.11706816 2:0.80000001 3:1 4:31 #
-0.00064559937944932629938499246691208 1:-3.3449857 2:0.50675678 3:6 4:22 #
-0.00064559937944932629938499246691208 1:1.0091046 2:0.49516907 3:2 4:12 #
0.00064559937944932629938499246691208 1:-0.9196716 2:0.90909094 3:1 4:51 #
0.00064559937944932629938499246691208 1:1.7125424 2:0.36842105 3:19 4:0 #
-0.00064559937944932629938499246691208 1:-3.7505112 2:0.48850575 3:1 4:42 #
0.00064559937944932629938499246691208 1:-0.61929566 2:0.88461536 3:1 4:51 #
-0.00064559937944932629938499246691208 1:1.1301048 2:0.52873564 3:1 4:13 #
-0.00064559937944932629938499246691208 1:-3.284519 2:0.82608694 3:2 4:42 #
0.00064559937944932629938499246691208 1:-0.45808032 2:0.52631581 3:19 4:0 #
0.00064559937944932629938499246691208 1:3.1021087 2:0.60714287 3:20 4:21 #
0.00064559937944932629938499246691208 1:-1.9201496 2:0.77142859 3:1 4:44 #
0.00064559937944932629938499246691208 1:0.17819759 2:0.57894737 3:19 4:0 #
0.00064559937944932629938499246691208 1:-1.60337 2:0.5 3:18 4:0 #
-0.00064559937944932629938499246691208 1:-1.9588053 2:0.53731346 3:13 4:20 #
0.00064559937944932629938499246691208 1:0.058114875 2:0.7647059 3:2 4:33 #
0.00064559937944932629938499246691208 1:-2.7548983 2:0.58823532 3:17 4:0 #
0.00064559937944932629938499246691208 1:-0.0083311694 2:0.40000001 3:15 4:13 #
0.00064559937944932629938499246691208 1:0.73811555 2:0.47368422 3:19 4:0 #
0.00064559937944932629938499246691208 1:-1.1018577 2:0.5 3:18 4:0 #
0.00064559937944932629938499246691208 1:0.79108399 2:0.47368422 3:19 4:0 #
0.00064559937944932629938499246691208 1:0.63455373 2:0.75 3:5 4:37 #
-0.00064559937944932629938499246691208 1:0.58695728 2:0.53757226 3:1 4:13 #
-0.00064559937944932629938499246691208 1:-1.1856207 2:0.5413534 3:17 4:44 #
-0.00064559937944932629938499246691208 1:2.4960647 2:0.9375 3:1 4:34 #
0.00064559937944932629938499246691208 1:-2.3431685 2:0.42857143 3:13 4:16 #
-0.00064559937944932629938499246691208 1:-4.0252829 2:0.60352421 3:1 4:13 #
0.00064559937944932629938499246691208 1:-0.34512308 2:0.75 3:3 4:35 #
-0.00064559937944932629938499246691208 1:-1.6095194 2:0.81538463 3:5 4:119 #
-0.00064559937944932629938499246691208 1:2.5811493 2:0.58792651 3:1 4:16 #
-0.00064559937944932629938499246691208 1:0.50658953 2:0.53172207 3:2 4:12 #
-0.00064559937944932629938499246691208 1:1.6454405 2:0.58181816 3:1 4:14 #
0.00064559937944932629938499246691208 1:-1.2507025 2:0.80000001 3:2 4:49 #
-0.00064559937944932629938499246691208 1:0.76200229 2:0.77272725 3:1 4:16 #
0.00064559937944932629938499246691208 1:0.58423692 2:0.76923078 3:2 4:24 #
0.00064559937944932629938499246691208 1:0.6656186 2:0.52631581 3:19 4:0 #
0.00064559937944932629938499246691208 1:1.401096 2:0.64999998 3:7 4:23 #
-0.00064559937944932629938499246691208 1:1.2300397 2:0.671875 3:1 4:15 #
0.00064559937944932629938499246691208 1:-3.2171347 2:0.625 3:8 4:32 #
-0.00064559937944932629938499246691208 1:-1.3068147 2:0.56043959 3:1 4:65 #
-0.00064559937944932629938499246691208 1:-0.26789817 2:0.77884614 3:2 4:104 #
0.00064559937944932629938499246691208 1:0.16602875 2:0.88235295 3:2 4:39 #
0.00064559937944932629938499246691208 1:-0.20345898 2:0.88235295 3:3 4:34 #
0.00064559937944932629938499246691208 1:-1.4947505 2:0.55555558 3:18 4:0 #
-0.00064559937944932629938499246691208 1:1.3191602 2:0.4528302 3:1 4:13 #
-0.00064559937944932629938499246691208 1:2.1571064 2:0.69696969 3:1 4:18 #
-0.00064559937944932629938499246691208 1:1.7397394 2:0.53846157 3:1 4:14 #
0.00064559937944932629938499246691208 1:-1.6207874 2:0.82608694 3:2 4:48 #
0.00064559937944932629938499246691208 1:1.1847594 2:0.33333334 3:18 4:0 #
-0.00064559937944932629938499246691208 1:-0.99645531 2:0.57923496 3:2 4:12 #
-0.00064559937944932629938499246691208 1:1.6708815 2:1 3:1 4:87 #
-0.00064559937944932629938499246691208 1:1.2788407 2:0.68780488 3:8 4:12 #
0.00064559937944932629938499246691208 1:1.2982305 2:0.68421054 3:9 4:30 #
-0.00064559937944932629938499246691208 1:-0.63902879 2:0.57783639 3:1 4:95 #
-0.00064559937944932629938499246691208 1:-0.92679447 2:0.60317463 3:10 4:22 #
-0.00064559937944932629938499246691208 1:-0.46850681 2:0.89999998 3:1 4:20 #
-0.00064559937944932629938499246691208 1:0.037387829 2:0.6857143 3:1 4:14 #
0.00064559937944932629938499246691208 1:-0.18800387 2:0.68965518 3:3 4:46 #
0.00064559937944932629938499246691208 1:0.049409948 2:0.29411766 3:17 4:0 #
0.00064559937944932629938499246691208 1:1.815675 2:0.73076922 3:11 4:37 #
0.00064559937944932629938499246691208 1:0.17932101 2:0.3125 3:16 4:0 #
-0.00064559937944932629938499246691208 1:-0.06214777 2:0.73333335 3:1 4:15 #
-0.00064559937944932629938499246691208 1:2.3639131 2:0.54632586 3:1 4:15 #
-0.00064559937944932629938499246691208 1:-3.3398395 2:0.51690823 3:6 4:15 #
-0.00064559937944932629938499246691208 1:-2.1882803 2:0.5 3:12 4:45 #
-0.00064559937944932629938499246691208 1:0.040265407 2:0.67647058 3:20 4:28 #
0.00064559937944932629938499246691208 1:-1.6712136 2:0.69696969 3:4 4:43 #
-0.00064559937944932629938499246691208 1:-1.9015292 2:0.6111111 3:15 4:47 #
0.00064559937944932629938499246691208 1:-0.26110902 2:0.80000001 3:2 4:40 #
0.00064559937944932629938499246691208 1:-1.9373534 2:0.56521738 3:12 4:21 #
-0.00064559937944932629938499246691208 1:2.0667524 2:0.75949365 3:1 4:73 #
0.00064559937944932629938499246691208 1:2.4555023 2:0.47368422 3:19 4:0 #
0.00064559937944932629938499246691208 1:0.024728363 2:0.47826087 3:13 4:18 #
0.00064559937944932629938499246691208 1:0.58423692 2:0.62962961 3:2 4:23 #
0.00064559937944932629938499246691208 1:0.99075848 2:0.52631581 3:19 4:0 #
0.00064559937944932629938499246691208 1:-0.35363516 2:0.88235295 3:1 4:35 #
0.00064559937944932629938499246691208 1:0.027951144 2:0.44444445 3:18 4:0 #
-0.00064559937944932629938499246691208 1:0.6896956 2:0.60471207 3:32 4:25 #
0.00064559937944932629938499246691208 1:0.60713804 2:0.7647059 3:2 4:23 #
0.00064559937944932629938499246691208 1:-1.0386122 2:0.90476191 3:1 4:50 #
-0.00064559937944932629938499246691208 1:-1.1809614 2:0.60000002 3:1 4:13 #
-0.00064559937944932629938499246691208 1:-0.89083683 2:0.89999998 3:1 4:20 #
0.00064559937944932629938499246691208 1:0.054048158 2:0.58974361 3:1 4:42 #
-0.00064559937944932629938499246691208 1:-4.3560719 2:0.87804878 3:2 4:93 #
0.00064559937944932629938499246691208 1:1.4567816 2:0.71428573 3:6 4:18 #
-0.00064559937944932629938499246691208 1:-0.34546199 2:0.54347825 3:1 4:13 #
-0.00064559937944932629938499246691208 1:-1.2757221 2:0.51247168 3:18 4:24 #
-0.00064559937944932629938499246691208 1:1.7397394 2:0.48186529 3:1 4:14 #
-0.00064559937944932629938499246691208 1:1.988221 2:0.56310678 3:10 4:11 #
-0.00064559937944932629938499246691208 1:3.6744404 2:0.79782611 3:1 4:61 #
-0.00064559937944932629938499246691208 1:-2.9260333 2:0.875 3:1 4:80 #
-0.00064559937944932629938499246691208 1:-0.8504898 2:0.60606062 3:8 4:11 #
-0.00064559937944932629938499246691208 1:-2.0595329 2:0.55352479 3:5 4:11 #
-0.00064559937944932629938499246691208 1:-0.23685917 2:0.51757187 3:6 4:11 #
-0.00064559937944932629938499246691208 1:2.5107157 2:0.5247525 3:1 4:15 #
0.00064559937944932629938499246691208 1:-2.1925046 2:0.5714286 3:13 4:17 #
0.00064559937944932629938499246691208 1:-0.38979283 2:0.875 3:1 4:49 #
-0.00064559937944932629938499246691208 1:-2.7493885 2:0.60000002 3:1 4:13 #
0.00064559937944932629938499246691208 1:0.771887 2:0.62962961 3:9 4:37 #
0.00064559937944932629938499246691208 1:-1.4153615 2:0.6111111 3:18 4:0 #
-0.00064559937944932629938499246691208 1:0.33679447 2:0.58865249 3:1 4:32 #
-0.00064559937944932629938499246691208 1:0.58507854 2:0.52573532 3:7 4:11 #
-0.00064559937944932629938499246691208 1:2.4246635 2:0.875 3:1 4:33 #
-0.00064559937944932629938499246691208 1:-0.45605701 2:0.54938269 3:1 4:13 #
0.00064559937944932629938499246691208 1:1.2695218 2:0.70833331 3:7 4:22 #
0.00064559937944932629938499246691208 1:-0.96447533 2:0.55555558 3:18 4:0 #
-0.00064559937944932629938499246691208 1:0.43303412 2:0.61209965 3:1 4:89 #
-0.00064559937944932629938499246691208 1:-0.54597229 2:0.54025424 3:1 4:13 #
-0.00064559937944932629938499246691208 1:1.2280715 2:0.92592591 3:1 4:61 #
-0.00064559937944932629938499246691208 1:3.1257334 2:0.61809045 3:9 4:14 #
0.00064559937944932629938499246691208 1:-1.5252312 2:0.80769229 3:1 4:48 #
0.00064559937944932629938499246691208 1:0.11714029 2:0.80952382 3:6 4:36 #
-0.00064559937944932629938499246691208 1:-3.3927538 2:0.68023258 3:1 4:14 #
0.00064559937944932629938499246691208 1:0.091674581 2:0.75 3:3 4:46 #
-0.00064559937944932629938499246691208 1:0.57271534 2:0.84615386 3:1 4:20 #
0.00064559937944932629938499246691208 1:1.4377 2:0.78260869 3:9 4:35 #
-0.00064559937944932629938499246691208 1:0.51754755 2:0.9375 3:2 4:84 #
0.00064559937944932629938499246691208 1:1.0888381 2:0.52631581 3:19 4:0 #
0.00064559937944932629938499246691208 1:-0.35902306 2:0.86956519 3:1 4:43 #
-0.00064559937944932629938499246691208 1:-0.9382177 2:0.57692307 3:1 4:66 #
-0.00064559937944932629938499246691208 1:1.3936455 2:0.63809526 3:2 4:14 #
0.00064559937944932629938499246691208 1:-1.6936797 2:0.875 3:2 4:48 #
0.00064559937944932629938499246691208 1:0.45415306 2:0.82352942 3:3 4:34 #
-0.00064559937944932629938499246691208 1:0.53027195 2:0.68518519 3:6 4:13 #
0.00064559937944932629938499246691208 1:0.53207177 2:0.73913044 3:4 4:34 #
0.00064559937944932629938499246691208 1:0.46838349 2:0.57894737 3:19 4:0 #
-0.00064559937944932629938499246691208 1:-1.2155918 2:0.4742268 3:11 4:20 #
-0.00064559937944932629938499246691208 1:2.8210418 2:0.56593406 3:1 4:18 #
-0.00064559937944932629938499246691208 1:-1.3017806 2:0.56050956 3:1 4:84 #
-0.00064559937944932629938499246691208 1:-1.6002182 2:0.54647887 3:15 4:18 #
-0.00064559937944932629938499246691208 1:0.44657847 2:0.65068495 3:3 4:87 #
-0.00064559937944932629938499246691208 1:-1.499482 2:0.47586206 3:5 4:11 #
-0.00064559937944932629938499246691208 1:-2.4548073 2:0.5276382 3:8 4:24 #
0.00064559937944932629938499246691208 1:0.50191134 2:0.81481481 3:6 4:39 #
0.00064559937944932629938499246691208 1:0.14513209 2:0.7241379 3:3 4:46 #
0.00064559937944932629938499246691208 1:0.46053839 2:0.8125 3:6 4:48 #
-0.00064559937944932629938499246691208 1:-1.260664 2:0.627451 3:2 4:86 #
0.00064559937944932629938499246691208 1:1.2466733 2:0.77272725 3:9 4:29 #
-0.00064559937944932629938499246691208 1:0.010364675 2:0.82608694 3:1 4:79 #
0.00064559937944932629938499246691208 1:-0.92559808 2:0.95238096 3:1 4:50 #
0.00064559937944932629938499246691208 1:-0.9361034 2:0.83333331 3:2 4:48 #
0.00064559937944932629938499246691208 1:-0.15349033 2:0.83999997 3:2 4:45 #
0.00064559937944932629938499246691208 1:-1.9297198 2:0.64705884 3:17 4:0 #
0.00064559937944932629938499246691208 1:-0.87961298 2:0.94999999 3:2 4:48 #
0.00064559937944932629938499246691208 1:-0.3147237 2:0.84210527 3:1 4:35 #
0.00064559937944932629938499246691208 1:-0.32421252 2:0.82608694 3:2 4:41 #
-0.00064559937944932629938499246691208 1:-3.4484148 2:0.66666669 3:2 4:71 #
-0.00064559937944932629938499246691208 1:-0.68377119 2:0.73809522 3:2 4:73 #
0.00064559937944932629938499246691208 1:-0.37812909 2:0.95238096 3:1 4:50 #
0.00064559937944932629938499246691208 1:-1.0755529 2:0.86956519 3:1 4:49 #
-0.00064559937944932629938499246691208 1:0.57190758 2:0.74257427 3:1 4:71 #
0.00064559937944932629938499246691208 1:-1.963781 2:0.75 3:5 4:41 #
-0.00064559937944932629938499246691208 1:-2.0374427 2:0.92307693 3:1 4:64 #
-0.00064559937944932629938499246691208 1:-0.68010205 2:0.4730539 3:18 4:14 #
-0.00064559937944932629938499246691208 1:-1.0078046 2:0.60370368 3:1 4:69 #
-0.00064559937944932629938499246691208 1:-0.29495963 2:0.52941179 3:1 4:65 #
0.00064559937944932629938499246691208 1:-0.37758741 2:0.78260869 3:1 4:41 #
0.00064559937944932629938499246691208 1:0.058638796 2:0.68965518 3:5 4:39 #
-0.00064559937944932629938499246691208 1:0.36852628 2:0.86486489 3:1 4:66 #
-0.00064559937944932629938499246691208 1:-1.8656939 2:0.59162301 3:1 4:65 #
0.00064559937944932629938499246691208 1:-0.37056369 2:0.88235295 3:4 4:38 #
-0.00064559937944932629938499246691208 1:-0.83521491 2:0.80303031 3:1 4:67 #
0.00064559937944932629938499246691208 1:-0.34019834 2:0.95238096 3:1 4:50 #
-0.00064559937944932629938499246691208 1:-0.7278899 2:0.59344262 3:1 4:67 #
0.00064559937944932629938499246691208 1:0.3200641 2:0.79310346 3:7 4:39 #
-0.00064559937944932629938499246691208 1:1.2300397 2:0.50236964 3:1 4:70 #
0.00064559937944932629938499246691208 1:0.58423692 2:0.73076922 3:2 4:25 #
0.00064559937944932629938499246691208 1:-1.2291303 2:0.9130435 3:1 4:49 #
-0.00064559937944932629938499246691208 1:-2.087461 2:0.51835853 3:13 4:20 #
-0.00064559937944932629938499246691208 1:-1.3928825 2:0.67142856 3:2 4:69 #
0.00064559937944932629938499246691208 1:0.16945979 2:0.79166669 3:7 4:41 #
-0.00064559937944932629938499246691208 1:0.060186807 2:0.47142857 3:1 4:13 #
-0.00064559937944932629938499246691208 1:4.2293386 2:0.49333334 3:1 4:30 #
0.00064559937944932629938499246691208 1:-4.479176 2:0.66666669 3:6 4:27 #
0.00064559937944932629938499246691208 1:-1.8710653 2:0.74358976 3:5 4:58 #
0.00064559937944932629938499246691208 1:-1.3927107 2:0.58823532 3:17 4:0 #
0.00064559937944932629938499246691208 1:0.52520049 2:0.67391306 3:20 4:55 #
0.00064559937944932629938499246691208 1:-1.8602906 2:0.625 3:16 4:0 #
0.00064559937944932629938499246691208 1:-1.859675 2:0.77777779 3:8 4:60 #
-0.00064559937944932629938499246691208 1:3.0664513 2:0.40227273 3:1 4:16 #
0.00064559937944932629938499246691208 1:-0.071813874 2:0.70454544 3:16 4:57 #
-0.00064559937944932629938499246691208 1:2.6203294 2:0.73493975 3:19 4:86 #
-0.00064559937944932629938499246691208 1:1.8084338 2:0.54491019 3:6 4:12 #
-0.00064559937944932629938499246691208 1:3.6744404 2:0.62878788 3:1 4:36 #
-0.00064559937944932629938499246691208 1:2.9716079 2:0.53365386 3:1 4:18 #
0.00064559937944932629938499246691208 1:-2.0114813 2:0.68292683 3:12 4:57 #
-0.00064559937944932629938499246691208 1:-0.79693091 2:0.41772151 3:22 4:24 #
-0.00064559937944932629938499246691208 1:2.5467615 2:0.59681094 3:1 4:56 #
-0.00064559937944932629938499246691208 1:-1.8867357 2:0.55937499 3:8 4:35 #
-0.00064559937944932629938499246691208 1:2.6205213 2:0.59047621 3:1 4:18 #
0.00064559937944932629938499246691208 1:-0.44556236 2:0.55555558 3:18 4:0 #
0.00064559937944932629938499246691208 1:0.056406338 2:0.82857144 3:9 4:65 #
-0.00064559937944932629938499246691208 1:1.8929417 2:0.55952382 3:1 4:15 #
0.00064559937944932629938499246691208 1:-1.3517839 2:0.71052629 3:14 4:56 #
-0.00064559937944932629938499246691208 1:-0.46197906 2:0.54013014 3:19 4:14 #
-0.00064559937944932629938499246691208 1:0.019231081 2:0.46132597 3:1 4:13 #
-0.00064559937944932629938499246691208 1:1.3383484 2:0.85185188 3:1 4:48 #
-0.00064559937944932629938499246691208 1:2.9950275 2:0.52631581 3:10 4:12 #
0.00064559937944932629938499246691208 1:0.0028864569 2:0.84375 3:7 4:65 #
0.00064559937944932629938499246691208 1:0.079757757 2:0.83333331 3:1 4:38 #
-0.00064559937944932629938499246691208 1:-2.1522691 2:0.63235295 3:16 4:87 #
0.00064559937944932629938499246691208 1:1.0660368 2:0.72222221 3:6 4:26 #
-0.00064559937944932629938499246691208 1:0.8544656 2:1 3:1 4:31 #
-0.00064559937944932629938499246691208 1:2.4980481 2:0.83333331 3:1 4:31 #
0.00064559937944932629938499246691208 1:-2.0875196 2:0.625 3:13 4:18 #
0.00064559937944932629938499246691208 1:1.3006632 2:0.6875 3:6 4:26 #
0.00064559937944932629938499246691208 1:-0.23867832 2:0.73076922 3:4 4:36 #
-0.00064559937944932629938499246691208 1:-1.0386122 2:0.72727275 3:1 4:15 #
0.00064559937944932629938499246691208 1:-0.017993722 2:0.78571427 3:13 4:61 #
0.00064559937944932629938499246691208 1:0.012971476 2:0.73076922 3:1 4:11 #
-0.00064559937944932629938499246691208 1:-1.7242944 2:0.61803716 3:1 4:78 #
-0.00064559937944932629938499246691208 1:1.5026041 2:0.5695067 3:6 4:12 #
-0.00064559937944932629938499246691208 1:-0.7256586 2:0.53061223 3:20 4:16 #
-0.00064559937944932629938499246691208 1:-1.0421445 2:0.54984891 3:13 4:16 #
-0.00064559937944932629938499246691208 1:-1.299077 2:0.56164384 3:6 4:11 #
-0.00064559937944932629938499246691208 1:-0.3461653 2:0.54120266 3:24 4:18 #
-0.00064559937944932629938499246691208 1:-0.021064514 2:0.53676468 3:23 4:24 #
-0.00064559937944932629938499246691208 1:1.6401283 2:0.60816324 3:12 4:83 #
0.00064559937944932629938499246691208 1:-2.9971073 2:0.56 3:11 4:21 #
-0.00064559937944932629938499246691208 1:0.6225819 2:0.73913044 3:1 4:17 #
0.00064559937944932629938499246691208 1:0.98332471 2:0.78947371 3:13 4:61 #
0.00064559937944932629938499246691208 1:-1.3162276 2:0.5714286 3:1 4:15 #
-0.00064559937944932629938499246691208 1:-1.7742964 2:0.47338936 3:1 4:80 #
0.00064559937944932629938499246691208 1:-0.75914991 2:0.52631581 3:11 4:22 #
0.00064559937944932629938499246691208 1:-1.2790146 2:0.6511628 3:11 4:23 #
-0.00064559937944932629938499246691208 1:0.3635298 2:0.57017541 3:1 4:14 #
0.00064559937944932629938499246691208 1:-0.89535618 2:0.69565219 3:12 4:59 #
-0.00064559937944932629938499246691208 1:-1.6135855 2:0.56267411 3:1 4:13 #
0.00064559937944932629938499246691208 1:1.0888381 2:0.68421054 3:4 4:19 #
-0.00064559937944932629938499246691208 1:-2.1015623 2:0.56278026 3:5 4:21 #
-0.00064559937944932629938499246691208 1:1.7477053 2:0.85714287 3:1 4:30 #
0.00064559937944932629938499246691208 1:-2.763314 2:0.5 3:10 4:22 #
-0.00064559937944932629938499246691208 1:0.90917403 2:0.6171875 3:34 4:29 #
-0.00064559937944932629938499246691208 1:-0.39480117 2:0.7352941 3:1 4:16 #
0.00064559937944932629938499246691208 1:0.012067801 2:0.75862068 3:3 4:45 #
-0.00064559937944932629938499246691208 1:1.6721956 2:0.59420288 3:1 4:16 #
0.00064559937944932629938499246691208 1:-0.96648198 2:0.79487181 3:3 4:62 #
-0.00064559937944932629938499246691208 1:-1.3994374 2:0.52487564 3:1 4:75 #
0.00064559937944932629938499246691208 1:-3.6810129 2:0.66666669 3:1 4:18 #
0.00064559937944932629938499246691208 1:1.4967583 2:0.75 3:9 4:32 #
-0.00064559937944932629938499246691208 1:1.7437006 2:0.81034482 3:18 4:79 #
-0.00064559937944932629938499246691208 1:-0.33871105 2:1 3:1 4:32 #
0.00064559937944932629938499246691208 1:-1.7820883 2:0.76744187 3:11 4:57 #
0.00064559937944932629938499246691208 1:-2.0718181 2:0.54545456 3:9 4:22 #
-0.00064559937944932629938499246691208 1:-1.3994374 2:1 3:1 4:26 #
0.00064559937944932629938499246691208 1:0.55100012 2:0.66666669 3:11 4:23 #
0.00064559937944932629938499246691208 1:-1.0507106 2:0.46153846 3:10 4:23 #
-0.00064559937944932629938499246691208 1:1.8758278 2:0.5401786 3:7 4:22 #
-0.00064559937944932629938499246691208 1:-2.3709931 2:0.54838711 3:1 4:13 #
0.00064559937944932629938499246691208 1:1.074442 2:0.6785714 3:8 4:29 #
0.00064559937944932629938499246691208 1:-2.2517436 2:0.57894737 3:10 4:22 #
-0.00064559937944932629938499246691208 1:-2.0207174 2:0.61710036 3:8 4:82 #
-0.00064559937944932629938499246691208 1:-0.9237681 2:0.58677685 3:8 4:11 #
-0.00064559937944932629938499246691208 1:0.63609153 2:0.92307693 3:1 4:28 #
0.00064559937944932629938499246691208 1:-2.1509404 2:0.55000001 3:10 4:24 #
-0.00064559937944932629938499246691208 1:-1.1102514 2:0.53365386 3:1 4:13 #
-0.00064559937944932629938499246691208 1:-2.0811954 2:0.78750002 3:2 4:75 #
0.00064559937944932629938499246691208 1:-1.1769183 2:0.52631581 3:10 4:23 #
-0.00064559937944932629938499246691208 1:-1.840155 2:0.49456522 3:1 4:73 #
0.00064559937944932629938499246691208 1:-0.90832084 2:0.74468082 3:11 4:23 #
0.00064559937944932629938499246691208 1:-3.4031544 2:0.69999999 3:10 4:23 #
-0.00064559937944932629938499246691208 1:0.055580884 2:0.78947371 3:8 4:79 #
0.00064559937944932629938499246691208 1:-0.77110392 2:0.5 3:6 4:30 #
0.00064559937944932629938499246691208 1:-4.2333159 2:0.55555558 3:4 4:25 #
0.00064559937944932629938499246691208 1:0.48133451 2:0.54166669 3:10 4:26 #
-0.00064559937944932629938499246691208 1:-0.98917592 2:0.81395346 3:1 4:49 #
0.00064559937944932629938499246691208 1:-0.30840564 2:0.72222221 3:11 4:23 #
-0.00064559937944932629938499246691208 1:-4.8036532 2:0.95833331 3:1 4:60 #
0.00064559937944932629938499246691208 1:-2.6776335 2:0.70588237 3:9 4:22 #
-0.00064559937944932629938499246691208 1:0.64692456 2:0.73584908 3:1 4:48 #
0.00064559937944932629938499246691208 1:-1.263167 2:0.625 3:10 4:26 #
-0.00064559937944932629938499246691208 1:-0.028727638 2:0.60624999 3:7 4:45 #
0.00064559937944932629938499246691208 1:0.17932101 2:0.5714286 3:10 4:24 #
-0.00064559937944932629938499246691208 1:1.4406468 2:0.7037037 3:1 4:48 #
-0.00064559937944932629938499246691208 1:-2.5771091 2:0.88 3:1 4:52 #
-0.00064559937944932629938499246691208 1:0.69997138 2:0.56572771 3:1 4:49 #
-0.00064559937944932629938499246691208 1:3.1491532 2:0.53787881 3:1 4:50 #
-0.00064559937944932629938499246691208 1:-2.6180971 2:0.67403316 3:1 4:49 #
-0.00064559937944932629938499246691208 1:-3.3331709 2:0.92592591 3:1 4:58 #
-0.00064559937944932629938499246691208 1:-0.67506552 2:0.60638297 3:1 4:49 #
0.00064559937944932629938499246691208 1:-1.0328041 2:0.64516127 3:6 4:37 #
-0.00064559937944932629938499246691208 1:-1.8387458 2:0.5707196 3:8 4:45 #
-0.00064559937944932629938499246691208 1:-0.075087018 2:0.88461536 3:1 4:53 #
-0.00064559937944932629938499246691208 1:-0.14461784 2:0.85185188 3:1 4:52 #
0.00064559937944932629938499246691208 1:-2.3773086 2:0.5925926 3:7 4:33 #
0.00064559937944932629938499246691208 1:0.14513209 2:0.60714287 3:10 4:26 #
-0.00064559937944932629938499246691208 1:-2.5594926 2:0.75999999 3:4 4:48 #
0.00064559937944932629938499246691208 1:-0.93839681 2:0.6785714 3:6 4:37 #
0.00064559937944932629938499246691208 1:-1.3337963 2:0.52380955 3:9 4:27 #
0.00064559937944932629938499246691208 1:0.61611563 2:0.7647059 3:7 4:30 #
0.00064559937944932629938499246691208 1:0.62543887 2:0.7368421 3:3 4:28 #
0.00064559937944932629938499246691208 1:-0.94626713 2:0.65217394 3:7 4:35 #
-0.00064559937944932629938499246691208 1:-3.6905661 2:0.55905509 3:1 4:13 #
0.00064559937944932629938499246691208 1:-2.4030354 2:0.69999999 3:5 4:37 #
0.00064559937944932629938499246691208 1:-1.6922568 2:0.68181819 3:10 4:25 #
0.00064559937944932629938499246691208 1:0.26635998 2:0.7037037 3:6 4:37 #
0.00064559937944932629938499246691208 1:-1.7599066 2:0.63636363 3:8 4:32 #
0.00064559937944932629938499246691208 1:-1.255152 2:0.71428573 3:7 4:35 #
-0.00064559937944932629938499246691208 1:-0.64913154 2:0.48475611 3:1 4:13 #
0.00064559937944932629938499246691208 1:0.011500628 2:0.74074072 3:6 4:37 #
-0.00064559937944932629938499246691208 1:0.87522227 2:0.875 3:1 4:29 #
-0.00064559937944932629938499246691208 1:0.073577374 2:0.63855422 3:6 4:12 #
-0.00064559937944932629938499246691208 1:-2.8749919 2:0.56896549 3:8 4:17 #
-0.00064559937944932629938499246691208 1:-3.5414603 2:0.58909088 3:4 4:21 #
0.00064559937944932629938499246691208 1:-2.538002 2:0.7368421 3:3 4:34 #
0.00064559937944932629938499246691208 1:-3.7513776 2:0.74285716 3:4 4:37 #
-0.00064559937944932629938499246691208 1:1.2946676 2:0.47901234 3:1 4:14 #
-0.00064559937944932629938499246691208 1:1.7802842 2:0.63865548 3:1 4:17 #
-0.00064559937944932629938499246691208 1:-0.9461087 2:0.49866667 3:1 4:13 #
-0.00064559937944932629938499246691208 1:1.2868285 2:0.81818181 3:1 4:21 #
-0.00064559937944932629938499246691208 1:-1.409411 2:1 3:1 4:27 #
-0.00064559937944932629938499246691208 1:-1.8037755 2:0.55905509 3:8 4:11 #
-0.00064559937944932629938499246691208 1:-3.6009755 2:0.53665692 3:1 4:13 #
-0.00064559937944932629938499246691208 1:-3.4948874 2:0.627451 3:2 4:13 #
-0.00064559937944932629938499246691208 1:-0.16357239 2:0.66197181 3:2 4:14 #
0.00064559937944932629938499246691208 1:1.8929417 2:0.75 3:12 4:25 #
0.00064559937944932629938499246691208 1:-1.3394213 2:0.2857143 3:21 4:0 #
0.00064559937944932629938499246691208 1:1.1062465 2:0.74193549 3:9 4:44 #
0.00064559937944932629938499246691208 1:0.26762545 2:0.3611111 3:29 4:14 #
-0.00064559937944932629938499246691208 1:-0.70437312 2:0.61716938 3:1 4:14 #
0.00064559937944932629938499246691208 1:-0.96677083 2:0.54347825 3:27 4:32 #
0.00064559937944932629938499246691208 1:1.9792067 2:0.63636363 3:11 4:0 #
-0.00064559937944932629938499246691208 1:-0.21930161 2:0.49824563 3:17 4:16 #
-0.00064559937944932629938499246691208 1:-0.83587438 2:0.48947367 3:1 4:13 #
0.00064559937944932629938499246691208 1:0.85483795 2:0.58536583 3:20 4:51 #
0.00064559937944932629938499246691208 1:-0.69674253 2:0.375 3:16 4:0 #
-0.00064559937944932629938499246691208 1:0.68443155 2:0.53648067 3:1 4:14 #
-0.00064559937944932629938499246691208 1:-0.82478732 2:0.7027027 3:19 4:85 #
0.00064559937944932629938499246691208 1:-0.89951962 2:0.52631581 3:29 4:18 #
0.00064559937944932629938499246691208 1:-0.89951962 2:0.47999999 3:25 4:0 #
-0.00064559937944932629938499246691208 1:-0.77701241 2:0.48494983 3:1 4:13 #
-0.00064559937944932629938499246691208 1:-1.7708935 2:0.55501223 3:8 4:80 #
-0.00064559937944932629938499246691208 1:0.727763 2:0.53092784 3:1 4:14 #
0.00064559937944932629938499246691208 1:-0.16455048 2:0.58333331 3:29 4:18 #
0.00064559937944932629938499246691208 1:-3.6810129 2:0.7368421 3:1 4:20 #
0.00064559937944932629938499246691208 1:1.4776735 2:0.51020408 3:28 4:18 #
-0.00064559937944932629938499246691208 1:-0.39531973 2:0.45132744 3:1 4:13 #
0.00064559937944932629938499246691208 1:-0.92438352 2:0.72727275 3:2 4:19 #
-0.00064559937944932629938499246691208 1:1.364507 2:0.55319148 3:1 4:15 #
-0.00064559937944932629938499246691208 1:2.777653 2:0.53496504 3:10 4:12 #
0.00064559937944932629938499246691208 1:-1.823499 2:0.5106383 3:27 4:17 #
0.00064559937944932629938499246691208 1:-0.9228943 2:0.54545456 3:1 4:16 #
0.00064559937944932629938499246691208 1:1.0773295 2:0.56756759 3:29 4:15 #
-0.00064559937944932629938499246691208 1:-3.0774786 2:0.53932583 3:1 4:13 #
-0.00064559937944932629938499246691208 1:-3.6234369 2:0.68152869 3:1 4:15 #
0.00064559937944932629938499246691208 1:-0.064065039 2:0.5 3:28 4:16 #
-0.00064559937944932629938499246691208 1:-0.46240363 2:0.60377359 3:1 4:14 #
-0.00064559937944932629938499246691208 1:-0.88242555 2:0.83333331 3:1 4:19 #
0.00064559937944932629938499246691208 1:-0.49257097 2:0.51282054 3:27 4:16 #
0.00064559937944932629938499246691208 1:-0.13727245 2:0.54545456 3:27 4:17 #
-0.00064559937944932629938499246691208 1:-2.2596638 2:0.80000001 3:1 4:18 #
-0.00064559937944932629938499246691208 1:-1.4410212 2:0.54587156 3:1 4:20 #
0.00064559937944932629938499246691208 1:-1.963781 2:0.5 3:4 4:19 #
0.00064559937944932629938499246691208 1:0.9424476 2:0.5 3:27 4:14 #
-0.00064559937944932629938499246691208 1:-1.0249879 2:0.53535354 3:9 4:24 #
0.00064559937944932629938499246691208 1:-3.1014845 2:0.55555558 3:6 4:20 #
-0.00064559937944932629938499246691208 1:1.4100288 2:0.59649122 3:1 4:16 #
0.00064559937944932629938499246691208 1:-0.19278581 2:0.51428574 3:24 4:17 #
-0.00064559937944932629938499246691208 1:0.60604072 2:0.84615386 3:1 4:23 #
0.00064559937944932629938499246691208 1:1.3948478 2:0.63636363 3:23 4:18 #
0.00064559937944932629938499246691208 1:-3.0347414 2:0.39473686 3:23 4:15 #
0.00064559937944932629938499246691208 1:0.33679447 2:0.5625 3:1 4:18 #
-0.00064559937944932629938499246691208 1:-1.7506933 2:0.60714287 3:1 4:14 #
0.00064559937944932629938499246691208 1:-0.66984946 2:0.61764705 3:24 4:15 #
-0.00064559937944932629938499246691208 1:1.8698858 2:0.64705884 3:1 4:18 #
-0.00064559937944932629938499246691208 1:0.032851156 2:0.65079367 3:1 4:16 #
0.00064559937944932629938499246691208 1:2.1383858 2:0.51724136 3:24 4:13 #
0.00064559937944932629938499246691208 1:-3.342993 2:0.72727275 3:3 4:20 #
-0.00064559937944932629938499246691208 1:0.92087054 2:0.4893617 3:1 4:14 #
-0.00064559937944932629938499246691208 1:2.4810612 2:0.63604242 3:1 4:19 #
-0.00064559937944932629938499246691208 1:1.5984952 2:0.78571427 3:1 4:24 #
0.00064559937944932629938499246691208 1:-3.3117988 2:0.51351351 3:21 4:17 #
0.00064559937944932629938499246691208 1:-3.2423246 2:0.5625 3:21 4:15 #
0.00064559937944932629938499246691208 1:1.4567816 2:0.78947371 3:9 4:25 #
-0.00064559937944932629938499246691208 1:-2.8530557 2:0.48189417 3:4 4:17 #
0.00064559937944932629938499246691208 1:0.99821895 2:0.64285713 3:9 4:33 #
0.00064559937944932629938499246691208 1:4.1480122 2:0.60000002 3:25 4:0 #
0.00064559937944932629938499246691208 1:0.80908573 2:0.64516127 3:22 4:18 #
-0.00064559937944932629938499246691208 1:-3.4049051 2:0.90909094 3:2 4:23 #
0.00064559937944932629938499246691208 1:-0.36298481 2:0.4642857 3:22 4:15 #
0.00064559937944932629938499246691208 1:-1.8345697 2:0.75 3:1 4:19 #
0.00064559937944932629938499246691208 1:0.94447339 2:0.51999998 3:25 4:0 #
0.00064559937944932629938499246691208 1:-1.7599066 2:0.5 3:21 4:18 #
-0.00064559937944932629938499246691208 1:-1.2379622 2:0.47945204 3:1 4:13 #
-0.00064559937944932629938499246691208 1:0.59725171 2:0.51304346 3:1 4:14 #
0.00064559937944932629938499246691208 1:-0.053213108 2:0.66666669 3:23 4:16 #
-0.00064559937944932629938499246691208 1:-4.8036532 2:0.75 3:1 4:36 #
0.00064559937944932629938499246691208 1:1.7433339 2:0.47999999 3:25 4:0 #
-0.00064559937944932629938499246691208 1:-1.1195238 2:0.53703701 3:8 4:11 #
-0.00064559937944932629938499246691208 1:0.53684014 2:0.81818181 3:1 4:22 #
0.00064559937944932629938499246691208 1:-2.3354855 2:0.53658539 3:23 4:10 #
0.00064559937944932629938499246691208 1:0.77890807 2:0.81818181 3:6 4:38 #
-0.00064559937944932629938499246691208 1:-1.4160703 2:0.50769234 3:1 4:32 #
-0.00064559937944932629938499246691208 1:-0.9256205 2:0.80769229 3:2 4:18 #
0.00064559937944932629938499246691208 1:1.9950881 2:0.42857143 3:20 4:17 #
0.00064559937944932629938499246691208 1:-1.3781185 2:0.56818181 3:1 4:17 #
-0.00064559937944932629938499246691208 1:1.2003458 2:0.54347825 3:1 4:15 #
-0.00064559937944932629938499246691208 1:-1.4176613 2:0.56676561 3:16 4:20 #
-0.00064559937944932629938499246691208 1:-1.3931142 2:0.69999999 3:1 4:16 #
-0.00064559937944932629938499246691208 1:-1.840155 2:0.4861111 3:1 4:13 #
-0.00064559937944932629938499246691208 1:2.8622434 2:0.66976744 3:1 4:31 #
-0.00064559937944932629938499246691208 1:2.3530173 2:0.64423078 3:1 4:19 #
-0.00064559937944932629938499246691208 1:0.41649145 2:0.47940075 3:2 4:13 #
-0.00064559937944932629938499246691208 1:0.49363923 2:0.83333331 3:1 4:23 #
-0.00064559937944932629938499246691208 1:-1.7742964 2:0.66942149 3:1 4:15 #
-0.00064559937944932629938499246691208 1:0.67606056 2:0.55172414 3:3 4:13 #
-0.00064559937944932629938499246691208 1:-2.7899892 2:0.60714287 3:1 4:14 #
-0.00064559937944932629938499246691208 1:-1.3224474 2:0.58865249 3:1 4:14 #
-0.00064559937944932629938499246691208 1:0.042872019 2:0.60194176 3:1 4:15 #
-0.00064559937944932629938499246691208 1:1.4066511 2:0.54545456 3:2 4:14 #
0.00064559937944932629938499246691208 1:-2.0029655 2:0.55263156 3:29 4:23 #
-0.00064559937944932629938499246691208 1:3.5936804 2:0.57276994 3:1 4:28 #
-0.00064559937944932629938499246691208 1:-0.48941427 2:0.4675768 3:14 4:17 #
0.00064559937944932629938499246691208 1:3.2137895 2:0.60000002 3:15 4:0 #
0.00064559937944932629938499246691208 1:-0.35513169 2:0.80000001 3:4 4:36 #
0.00064559937944932629938499246691208 1:2.4629841 2:0.56 3:25 4:0 #
-0.00064559937944932629938499246691208 1:-2.8083708 2:0.497006 3:1 4:13 #
0.00064559937944932629938499246691208 1:0.31800261 2:0.71794873 3:20 4:50 #
0.00064559937944932629938499246691208 1:-1.3684304 2:0.4375 3:16 4:0 #
-0.00064559937944932629938499246691208 1:-3.7549515 2:0.53403139 3:1 4:20 #
-0.00064559937944932629938499246691208 1:0.57190758 2:0.69354838 3:1 4:61 #
0.00064559937944932629938499246691208 1:-1.253827 2:0.53488374 3:29 4:23 #
0.00064559937944932629938499246691208 1:0.27999592 2:0.54761904 3:27 4:31 #
0.00064559937944932629938499246691208 1:-2.1925046 2:0.66666669 3:1 4:13 #
-0.00064559937944932629938499246691208 1:2.2502735 2:0.65633804 3:1 4:36 #
0.00064559937944932629938499246691208 1:-0.88534558 2:0.53658539 3:29 4:24 #
0.00064559937944932629938499246691208 1:0.58423692 2:0.42105263 3:2 4:15 #
-0.00064559937944932629938499246691208 1:-1.1102606 2:0.90909094 3:1 4:25 #
-0.00064559937944932629938499246691208 1:-3.7268929 2:0.9375 3:1 4:40 #
0.00064559937944932629938499246691208 1:0.94447339 2:0.56756759 3:29 4:22 #
0.00064559937944932629938499246691208 1:-0.70052725 2:0.64102566 3:29 4:20 #
0.00064559937944932629938499246691208 1:-0.40788302 2:0.81818181 3:5 4:39 #
0.00064559937944932629938499246691208 1:1.2696612 2:0.72500002 3:20 4:50 #
-0.00064559937944932629938499246691208 1:0.018078974 2:0.5097276 3:1 4:14 #
0.00064559937944932629938499246691208 1:-0.15545432 2:0.67441863 3:27 4:32 #
0.00064559937944932629938499246691208 1:1.3603219 2:0.53846157 3:13 4:0 #
0.00064559937944932629938499246691208 1:-0.83119488 2:0.5 3:28 4:20 #
-0.00064559937944932629938499246691208 1:0.13392147 2:0.46007603 3:1 4:14 #
0.00064559937944932629938499246691208 1:-3.196173 2:0.65217394 3:23 4:0 #
-0.00064559937944932629938499246691208 1:0.59241962 2:0.54411763 3:19 4:10 #
-0.00064559937944932629938499246691208 1:-3.8458996 2:0.53513515 3:2 4:21 #
0.00064559937944932629938499246691208 1:-2.2168274 2:0.58333331 3:24 4:0 #
0.00064559937944932629938499246691208 1:-0.77024251 2:0.65909094 3:19 4:49 #
-0.00064559937944932629938499246691208 1:1.9868321 2:0.46000001 3:1 4:16 #
0.00064559937944932629938499246691208 1:1.0740476 2:0.67441863 3:26 4:36 #
0.00064559937944932629938499246691208 1:0.53805494 2:0.73913044 3:5 4:37 #
-0.00064559937944932629938499246691208 1:0.25257862 2:0.62595421 3:1 4:60 #
-0.00064559937944932629938499246691208 1:2.4808698 2:0.60000002 3:1 4:18 #
-0.00064559937944932629938499246691208 1:1.7433339 2:0.66666669 3:1 4:19 #
0.00064559937944932629938499246691208 1:-1.1501386 2:0.44117647 3:27 4:22 #
-0.00064559937944932629938499246691208 1:-3.3069561 2:0.5673759 3:8 4:28 #
0.00064559937944932629938499246691208 1:3.1257334 2:0.625 3:28 4:19 #
-0.00064559937944932629938499246691208 1:-3.4031544 2:0.46813187 3:1 4:13 #
0.00064559937944932629938499246691208 1:-1.6772689 2:0.54166669 3:24 4:0 #
-0.00064559937944932629938499246691208 1:-0.015123809 2:0.71929824 3:17 4:83 #
0.00064559937944932629938499246691208 1:0.11972429 2:0.78571427 3:1 4:23 #
-0.00064559937944932629938499246691208 1:0.1793915 2:0.58237547 3:21 4:10 #
0.00064559937944932629938499246691208 1:-0.37736678 2:0.66666669 3:10 4:59 #
0.00064559937944932629938499246691208 1:0.49775681 2:0.75999999 3:5 4:39 #
-0.00064559937944932629938499246691208 1:-1.1777724 2:0.85714287 3:1 4:33 #
0.00064559937944932629938499246691208 1:-0.38186082 2:0.5 3:27 4:20 #
0.00064559937944932629938499246691208 1:-0.031134792 2:0.64999998 3:20 4:47 #
-0.00064559937944932629938499246691208 1:1.57302 2:0.60377359 3:1 4:17 #
0.00064559937944932629938499246691208 1:1.5347614 2:0.63829786 3:27 4:33 #
0.00064559937944932629938499246691208 1:-0.56291437 2:0.82608694 3:2 4:41 #
-0.00064559937944932629938499246691208 1:-0.99532413 2:0.56040269 3:1 4:14 #
-0.00064559937944932629938499246691208 1:0.84576863 2:0.91666669 3:2 4:28 #
-0.00064559937944932629938499246691208 1:1.0691849 2:0.8888889 3:2 4:36 #
0.00064559937944932629938499246691208 1:-1.0245453 2:0.45714286 3:26 4:21 #
0.00064559937944932629938499246691208 1:-1.5801249 2:0.41176471 3:23 4:24 #
0.00064559937944932629938499246691208 1:2.2536185 2:0.42857143 3:14 4:0 #
0.00064559937944932629938499246691208 1:-0.06214777 2:0.58139533 3:20 4:46 #
0.00064559937944932629938499246691208 1:1.1305621 2:0.2857143 3:21 4:0 #
0.00064559937944932629938499246691208 1:-2.938571 2:0.56410259 3:17 4:48 #
-0.00064559937944932629938499246691208 1:-2.1680975 2:0.42857143 3:2 4:13 #
-0.00064559937944932629938499246691208 1:-2.1475313 2:0.58419245 3:1 4:14 #
-0.00064559937944932629938499246691208 1:-1.2504597 2:0.73239434 3:1 4:58 #
-0.00064559937944932629938499246691208 1:-0.78739291 2:0.65555555 3:7 4:12 #
-0.00064559937944932629938499246691208 1:-0.98660737 2:0.52296817 3:11 4:81 #
-0.00064559937944932629938499246691208 1:0.53821522 2:0.62280703 3:9 4:12 #
0.00064559937944932629938499246691208 1:0.44681323 2:0.80000001 3:4 4:33 #
-0.00064559937944932629938499246691208 1:1.159519 2:0.59825325 3:18 4:82 #
0.00064559937944932629938499246691208 1:-1.8324063 2:0.52173913 3:23 4:0 #
