SVM-light Version V6.02
0 # kernel type
3 # kernel parameter -d 
1 # kernel parameter -g 
1 # kernel parameter -s 
1 # kernel parameter -r 
empty# kernel parameter -u 
4 # highest feature index 
16298 # number of training documents 
8300 # number of support vectors plus 1 
-0.43108279 # threshold b, each following line is a SV (starting with alpha*y)
-0.0006432126897840969139211186877958 1:0.016741218 2:0.49889624 3:22 4:14 #
0.0006432126897840969139211186877958 1:0.61491835 2:0.71428573 3:3 4:18 #
-0.0006432126897840969139211186877958 1:0.98925883 2:0.6392405 3:1 4:265 #
0.0006432126897840969139211186877958 1:0.12647289 2:0.53191489 3:47 4:0 #
-0.0006432126897840969139211186877958 1:0.082155332 2:0.59523809 3:1 4:9 #
0.0006432126897840969139211186877958 1:-0.37760714 2:0.72727275 3:6 4:35 #
-0.0006432126897840969139211186877958 1:0.89757603 2:0.5 3:10 4:0 #
0.0006432126897840969139211186877958 1:0.57362461 2:0.78571427 3:8 4:47 #
0.0006432126897840969139211186877958 1:-1.3492761 2:0.47826087 3:46 4:0 #
-0.0006432126897840969139211186877958 1:-2.9436181 2:0.53539824 3:7 4:13 #
-0.0006432126897840969139211186877958 1:1.6438318 2:0.64444447 3:1 4:10 #
-0.0006432126897840969139211186877958 1:4.5082264 2:0.625 3:1 4:18 #
0.0006432126897840969139211186877958 1:-4.5250902 2:0.80000001 3:6 4:67 #
0.0006432126897840969139211186877958 1:0.79325533 2:0.7647059 3:7 4:30 #
-0.0006432126897840969139211186877958 1:1.1787117 2:0.63013697 3:1 4:230 #
0.0006432126897840969139211186877958 1:-0.98628867 2:0.76190478 3:2 4:37 #
0.0006432126897840969139211186877958 1:1.3840168 2:0.72222221 3:7 4:23 #
-0.0006432126897840969139211186877958 1:-0.66944659 2:0.72727275 3:11 4:0 #
-0.0006432126897840969139211186877958 1:-0.35829806 2:0.54421771 3:14 4:18 #
-0.0006432126897840969139211186877958 1:-1.9163506 2:0.55776894 3:10 4:26 #
0.00057268744766756295942050636327281 1:-0.87003678 2:0.94117647 3:1 4:79 #
-0.0006432126897840969139211186877958 1:-0.75099111 2:0.6111111 3:1 4:11 #
0.0006432126897840969139211186877958 1:-1.4014611 2:0.3877551 3:40 4:20 #
0.0006432126897840969139211186877958 1:0.56087297 2:0.71428573 3:3 4:19 #
-0.0006432126897840969139211186877958 1:4.0140281 2:0.54773867 3:1 4:14 #
-0.0006432126897840969139211186877958 1:0.67834586 2:0.61538464 3:13 4:0 #
-0.0006432126897840969139211186877958 1:-2.286869 2:0.60305345 3:25 4:164 #
0.0006432126897840969139211186877958 1:-3.7681541 2:0.82352942 3:1 4:67 #
0.0006432126897840969139211186877958 1:-1.1142609 2:0.85714287 3:1 4:42 #
0.0006432126897840969139211186877958 1:0.67907441 2:0.44444445 3:45 4:0 #
-0.0006432126897840969139211186877958 1:2.6173909 2:0.63122922 3:1 4:144 #
-0.0006432126897840969139211186877958 1:-0.70158619 2:0.76245213 3:8 4:174 #
-0.0006432126897840969139211186877958 1:-0.069888271 2:0.61538464 3:13 4:0 #
-0.0006432126897840969139211186877958 1:3.3562284 2:0.51693004 3:1 4:12 #
0.0006432126897840969139211186877958 1:0.12626985 2:0.78947371 3:6 4:30 #
0.0006432126897840969139211186877958 1:-0.24213608 2:0.82352942 3:6 4:32 #
0.0006432126897840969139211186877958 1:-0.94449925 2:0.83333331 3:11 4:80 #
-0.0006432126897840969139211186877958 1:1.7895948 2:0.61576355 3:1 4:12 #
0.0006432126897840969139211186877958 1:0.074871659 2:0.66666669 3:7 4:30 #
0.0006432126897840969139211186877958 1:-0.46693203 2:0.83720928 3:10 4:84 #
-0.0006432126897840969139211186877958 1:0.57636577 2:0.61574072 3:1 4:139 #
0.0006432126897840969139211186877958 1:-1.3360107 2:0.84848487 3:3 4:79 #
0.0006432126897840969139211186877958 1:-0.2503936 2:0.75 3:3 4:35 #
-0.0006432126897840969139211186877958 1:-0.32815501 2:0.59813082 3:22 4:133 #
-0.0006432126897840969139211186877958 1:-4.3016019 2:0.59831458 3:1 4:121 #
0.0006432126897840969139211186877958 1:-0.64936435 2:0.78378379 3:9 4:82 #
0.0006432126897840969139211186877958 1:0.29038161 2:0.73913044 3:7 4:26 #
0.0006432126897840969139211186877958 1:1.5067784 2:0.78947371 3:9 4:25 #
-0.0006432126897840969139211186877958 1:1.5865257 2:0.65400845 3:7 4:121 #
-0.0006432126897840969139211186877958 1:3.6481457 2:0.79411763 3:11 4:57 #
0.0006432126897840969139211186877958 1:-1.87533 2:0.79069769 3:6 4:85 #
0.0006432126897840969139211186877958 1:-0.31807268 2:0.80000001 3:4 4:36 #
-0.0006432126897840969139211186877958 1:0.55606782 2:0.76363635 3:1 4:55 #
-0.0006432126897840969139211186877958 1:1.1787117 2:0.58490568 3:1 4:118 #
0.0006432126897840969139211186877958 1:1.5428728 2:0.72222221 3:8 4:22 #
-0.0006432126897840969139211186877958 1:0.52077627 2:0.87037039 3:1 4:109 #
-0.0006432126897840969139211186877958 1:0.58387578 2:0.60044152 3:1 4:55 #
0.0006432126897840969139211186877958 1:-0.15834163 2:0.85714287 3:2 4:28 #
-0.0006432126897840969139211186877958 1:-1.1025178 2:0.53255814 3:12 4:117 #
0.0006432126897840969139211186877958 1:0.16944225 2:0.77777779 3:3 4:27 #
0.0006432126897840969139211186877958 1:0.28149444 2:0.82608694 3:7 4:33 #
-0.0006432126897840969139211186877958 1:0.23069407 2:0.72727275 3:1 4:55 #
-0.0006432126897840969139211186877958 1:0.14624032 2:0.67716533 3:1 4:106 #
0.0006432126897840969139211186877958 1:-1.7077901 2:0.79166669 3:3 4:83 #
-0.0006432126897840969139211186877958 1:3.5401807 2:0.57908165 3:1 4:64 #
0.0006432126897840969139211186877958 1:-0.0023153152 2:0.78260869 3:2 4:33 #
-0.0006432126897840969139211186877958 1:-0.5674476 2:0.69607842 3:36 4:123 #
0.0006432126897840969139211186877958 1:1.0243965 2:0.62962961 3:7 4:34 #
0.0006432126897840969139211186877958 1:-0.62380475 2:0.88235295 3:3 4:35 #
-0.0006432126897840969139211186877958 1:0.85694247 2:0.87096775 3:1 4:68 #
-0.0006432126897840969139211186877958 1:-2.0121722 2:0.61160713 3:8 4:114 #
0.0006432126897840969139211186877958 1:0.85433275 2:0.82608694 3:11 4:31 #
-0.0006432126897840969139211186877958 1:-1.2475588 2:0.56880736 3:1 4:55 #
-0.0006432126897840969139211186877958 1:-0.42456439 2:0.68717951 3:2 4:107 #
0.0006432126897840969139211186877958 1:0.2231822 2:0.75 3:5 4:41 #
0.0006432126897840969139211186877958 1:0.95077014 2:0.65217394 3:8 4:26 #
-0.0006432126897840969139211186877958 1:-1.687802 2:0.53872055 3:1 4:56 #
-0.0006432126897840969139211186877958 1:-2.528806 2:0.60533333 3:5 4:109 #
-0.0006432126897840969139211186877958 1:1.4992279 2:0.64035088 3:1 4:67 #
-0.0006432126897840969139211186877958 1:1.2181638 2:0.65042371 3:1 4:93 #
0.0006432126897840969139211186877958 1:-1.0189971 2:0.969697 3:2 4:84 #
-0.0006432126897840969139211186877958 1:-0.079967313 2:0.5754717 3:1 4:58 #
0.0006432126897840969139211186877958 1:0.12808397 2:0.7368421 3:7 4:31 #
-0.0006432126897840969139211186877958 1:-0.71387082 2:0.61340207 3:1 4:95 #
0.0006432126897840969139211186877958 1:0.81465447 2:0.68181819 3:9 4:27 #
-0.0006432126897840969139211186877958 1:0.62468266 2:0.57731956 3:1 4:59 #
0.0006432126897840969139211186877958 1:0.62431163 2:0.73333335 3:4 4:25 #
0.0006432126897840969139211186877958 1:0.58886838 2:0.69999999 3:5 4:26 #
0.0006432126897840969139211186877958 1:0.049249399 2:0.69565219 3:5 4:33 #
0.0006432126897840969139211186877958 1:0.0056259413 2:0.71428573 3:6 4:34 #
-0.0006432126897840969139211186877958 1:4.0140281 2:0.47557002 3:1 4:17 #
0.0006432126897840969139211186877958 1:-0.097766228 2:0.77777779 3:4 4:32 #
-0.0006432126897840969139211186877958 1:0.093262702 2:0.62915599 3:7 4:105 #
0.0006432126897840969139211186877958 1:0.724684 2:0.62068963 3:5 4:19 #
-0.0006432126897840969139211186877958 1:-1.0453479 2:0.61486489 3:14 4:13 #
-0.0006432126897840969139211186877958 1:2.8717639 2:0.85714287 3:1 4:48 #
0.0006432126897840969139211186877958 1:-0.49428988 2:0.80000001 3:2 4:26 #
-0.0006432126897840969139211186877958 1:2.03034 2:0.50356293 3:1 4:49 #
-0.0006432126897840969139211186877958 1:-0.22982684 2:0.81481481 3:2 4:96 #
-0.0006432126897840969139211186877958 1:4.0218239 2:0.51485151 3:1 4:54 #
-0.0006432126897840969139211186877958 1:1.514521 2:0.58823532 3:24 4:102 #
0.0006432126897840969139211186877958 1:0.35891831 2:0.66666669 3:5 4:23 #
0.0006432126897840969139211186877958 1:-0.2763662 2:0.7647059 3:1 4:19 #
-0.0006432126897840969139211186877958 1:0.52211744 2:0.58101851 3:12 4:103 #
0.0006432126897840969139211186877958 1:0.30808109 2:0.56818181 3:44 4:0 #
-0.0006432126897840969139211186877958 1:-3.0918274 2:0.55782312 3:2 4:63 #
0.0006432126897840969139211186877958 1:-1.8914865 2:0.84210527 3:10 4:79 #
-0.0006432126897840969139211186877958 1:1.4992279 2:0.5210728 3:1 4:49 #
0.0006432126897840969139211186877958 1:-3.5245924 2:0.5714286 3:34 4:39 #
-0.0006432126897840969139211186877958 1:0.52913338 2:0.60487807 3:1 4:86 #
-0.0006432126897840969139211186877958 1:1.3708178 2:0.49152541 3:1 4:49 #
0.0006432126897840969139211186877958 1:0.041810323 2:0.69387758 3:31 4:47 #
-0.0006432126897840969139211186877958 1:0.4756723 2:0.67201835 3:1 4:49 #
-0.0006432126897840969139211186877958 1:-2.0771906 2:0.62068963 3:8 4:15 #
0.0006432126897840969139211186877958 1:-2.3715274 2:0.69999999 3:10 4:0 #
0.0006432126897840969139211186877958 1:-0.80777824 2:0.59523809 3:42 4:0 #
0.0006432126897840969139211186877958 1:0.31322443 2:0.81818181 3:7 4:30 #
-0.0006432126897840969139211186877958 1:2.5840819 2:0.74285716 3:1 4:51 #
0.0006432126897840969139211186877958 1:-2.6782291 2:0.88571429 3:1 4:75 #
0.0006432126897840969139211186877958 1:0.70036197 2:0.54545456 3:44 4:0 #
0.0006432126897840969139211186877958 1:0.59979194 2:0.80000001 3:4 4:35 #
-0.0006432126897840969139211186877958 1:-0.30258185 2:0.62393165 3:1 4:50 #
0.0006432126897840969139211186877958 1:-0.25985458 2:0.72916669 3:16 4:70 #
-0.0006432126897840969139211186877958 1:2.8871729 2:0.86956519 3:1 4:52 #
0.0006432126897840969139211186877958 1:-1.2865121 2:0.75510204 3:19 4:63 #
0.0006432126897840969139211186877958 1:1.0510148 2:0.78571427 3:7 4:39 #
-0.0006432126897840969139211186877958 1:-0.71160901 2:0.78571427 3:1 4:50 #
-0.0006432126897840969139211186877958 1:-0.46282652 2:0.57608694 3:1 4:50 #
-0.0006432126897840969139211186877958 1:-0.32734916 2:0.64135021 3:2 4:50 #
0.0006432126897840969139211186877958 1:0.90684831 2:0.63636363 3:10 4:30 #
0.0006432126897840969139211186877958 1:0.24563855 2:0.76744187 3:9 4:73 #
-0.0006432126897840969139211186877958 1:1.5667048 2:0.61151081 3:1 4:51 #
0.0006432126897840969139211186877958 1:0.54095149 2:0.67391306 3:20 4:59 #
0.0006432126897840969139211186877958 1:-1.8580291 2:0.82352942 3:1 4:70 #
-0.0006432126897840969139211186877958 1:2.6516762 2:0.83333331 3:1 4:53 #
-0.0006432126897840969139211186877958 1:-0.13132465 2:0.52290076 3:2 4:50 #
0.0006432126897840969139211186877958 1:-0.52016336 2:0.75 3:4 4:34 #
-0.0006432126897840969139211186877958 1:1.0492034 2:0.53142858 3:1 4:51 #
0.0006432126897840969139211186877958 1:-0.39994648 2:0.75 3:3 4:75 #
-0.0006432126897840969139211186877958 1:-1.6499369 2:0.71186441 3:17 4:100 #
-0.0006432126897840969139211186877958 1:-0.92611146 2:0.57676351 3:2 4:50 #
0.0006432126897840969139211186877958 1:0.066844493 2:0.72727275 3:1 4:24 #
0.0006432126897840969139211186877958 1:-3.4803054 2:0.82051283 3:9 4:71 #
-0.0006432126897840969139211186877958 1:-0.76170093 2:0.54502368 3:1 4:51 #
-0.0006432126897840969139211186877958 1:0.49225605 2:0.56701028 3:2 4:51 #
0.0006432126897840969139211186877958 1:-0.52911806 2:1 3:1 4:27 #
-0.0006432126897840969139211186877958 1:-0.12318347 2:0.41463414 3:21 4:20 #
0.0006432126897840969139211186877958 1:-0.5313611 2:0.61363637 3:23 4:49 #
-0.0006432126897840969139211186877958 1:-1.2017313 2:0.65714288 3:11 4:18 #
-0.0006432126897840969139211186877958 1:2.4045334 2:0.63636363 3:1 4:13 #
-0.0006432126897840969139211186877958 1:-0.48594013 2:0.67424244 3:31 4:100 #
-0.0006432126897840969139211186877958 1:-0.21104828 2:0.60000002 3:15 4:0 #
-0.0006432126897840969139211186877958 1:-4.7402725 2:0.45476773 3:4 4:92 #
-0.0006432126897840969139211186877958 1:1.5330327 2:0.48750001 3:1 4:12 #
0.0006432126897840969139211186877958 1:1.1522604 2:0.63636363 3:8 4:34 #
-0.0006432126897840969139211186877958 1:-1.6958394 2:0.63814181 3:1 4:87 #
-0.0006432126897840969139211186877958 1:-1.3476777 2:0.63779527 3:6 4:95 #
-0.0006432126897840969139211186877958 1:-0.26684925 2:0.50704223 3:17 4:13 #
0.0006432126897840969139211186877958 1:-4.2341213 2:0.74074072 3:4 4:44 #
-0.0006432126897840969139211186877958 1:-0.62135702 2:0.57006371 3:1 4:11 #
-0.0006432126897840969139211186877958 1:2.4970291 2:0.49315068 3:1 4:40 #
0.0006432126897840969139211186877958 1:-0.16169699 2:0.60416669 3:22 4:49 #
0.0006432126897840969139211186877958 1:-4.0584908 2:0.58974361 3:17 4:48 #
-0.0006432126897840969139211186877958 1:-2.4245684 2:0.48058254 3:4 4:26 #
-0.0006432126897840969139211186877958 1:-0.78321135 2:0.76190478 3:1 4:86 #
-0.0006432126897840969139211186877958 1:-4.2961097 2:0.60674155 3:1 4:88 #
0.0006432126897840969139211186877958 1:-0.73793489 2:0.68888891 3:20 4:54 #
0.0006432126897840969139211186877958 1:-0.78984261 2:0.84210527 3:2 4:36 #
-0.0006432126897840969139211186877958 1:0.94221425 2:0.44999999 3:20 4:0 #
0.0006432126897840969139211186877958 1:0.18278593 2:0.72727275 3:12 4:46 #
0.0006432126897840969139211186877958 1:-0.93291414 2:0.78947371 3:5 4:73 #
0.0006432126897840969139211186877958 1:-2.1583765 2:0.60000002 3:18 4:53 #
-0.0006432126897840969139211186877958 1:0.16616112 2:0.51612902 3:16 4:20 #
-0.0006432126897840969139211186877958 1:4.4169617 2:0.56796116 3:1 4:34 #
0.0006432126897840969139211186877958 1:-4.5051818 2:0.67647058 3:12 4:51 #
0.0006432126897840969139211186877958 1:-2.0464592 2:0.75999999 3:3 4:44 #
0.0006432126897840969139211186877958 1:-1.9032161 2:0.77142859 3:1 4:44 #
0.0006432126897840969139211186877958 1:-0.068993747 2:0.69230771 3:16 4:48 #
0.0006432126897840969139211186877958 1:0.86656249 2:0.77777779 3:11 4:70 #
0.0006432126897840969139211186877958 1:0.041810323 2:0.78571427 3:1 4:25 #
0.0006432126897840969139211186877958 1:-0.87954509 2:0.75609756 3:18 4:60 #
-0.0006432126897840969139211186877958 1:-0.061993428 2:0.53783786 3:7 4:90 #
-0.0006432126897840969139211186877958 1:-2.6234579 2:0.61860466 3:9 4:52 #
-0.0006432126897840969139211186877958 1:-1.1791701 2:0.6047619 3:24 4:94 #
0.0006432126897840969139211186877958 1:-1.4652587 2:0.7037037 3:3 4:44 #
-0.0006432126897840969139211186877958 1:-1.9085084 2:0.73809522 3:12 4:51 #
-0.0006432126897840969139211186877958 1:-0.76685727 2:0.57225436 3:2 4:11 #
-0.0006432126897840969139211186877958 1:-0.84974045 2:0.50632912 3:20 4:18 #
0.0006432126897840969139211186877958 1:0.99525779 2:0.74285716 3:13 4:47 #
-0.0006432126897840969139211186877958 1:2.8684485 2:0.55818963 3:1 4:54 #
0.0006432126897840969139211186877958 1:0.49623451 2:0.76744187 3:18 4:50 #
-0.0006432126897840969139211186877958 1:-2.6436396 2:0.56441718 3:1 4:53 #
-0.0006432126897840969139211186877958 1:-2.5607371 2:0.75 3:2 4:54 #
0.0006432126897840969139211186877958 1:0.58616304 2:0.64285713 3:17 4:50 #
0.0006432126897840969139211186877958 1:0.3691996 2:0.72972971 3:17 4:50 #
-0.0006432126897840969139211186877958 1:2.2152646 2:0.5025773 3:3 4:54 #
0.0006432126897840969139211186877958 1:-0.032219708 2:0.63414633 3:17 4:51 #
-0.0006432126897840969139211186877958 1:-2.4995644 2:0.61428571 3:3 4:55 #
-0.0006432126897840969139211186877958 1:-2.9233532 2:0.77777779 3:4 4:55 #
-0.0006432126897840969139211186877958 1:0.29910666 2:0.80645162 3:3 4:52 #
0.0006432126897840969139211186877958 1:-3.7042878 2:0.71428573 3:7 4:47 #
-0.0006432126897840969139211186877958 1:-1.3960723 2:0.80000001 3:1 4:52 #
0.0006432126897840969139211186877958 1:1.4143933 2:0.7368421 3:8 4:27 #
0.0006432126897840969139211186877958 1:-0.084682599 2:0.69696969 3:12 4:47 #
-0.0006432126897840969139211186877958 1:-0.28605911 2:0.77142859 3:7 4:53 #
0.0006432126897840969139211186877958 1:-1.3727733 2:0.75 3:3 4:44 #
-0.0006432126897840969139211186877958 1:1.7963233 2:0.64102566 3:2 4:12 #
0.0006432126897840969139211186877958 1:-2.2167201 2:0.78947371 3:11 4:67 #
0.0006432126897840969139211186877958 1:-0.75215715 2:0.75757575 3:1 4:44 #
-0.0006432126897840969139211186877958 1:-3.2081952 2:0.59103644 3:4 4:54 #
0.0006432126897840969139211186877958 1:-1.4345819 2:0.76923078 3:2 4:44 #
-0.0006432126897840969139211186877958 1:-1.7470596 2:0.70059878 3:3 4:53 #
0.0006432126897840969139211186877958 1:-1.3561251 2:0.78260869 3:3 4:44 #
-0.0006432126897840969139211186877958 1:-1.7661685 2:0.58823532 3:6 4:53 #
-0.0006432126897840969139211186877958 1:-2.7435646 2:0.6111111 3:2 4:53 #
0.0006432126897840969139211186877958 1:-1.1134459 2:0.82608694 3:3 4:44 #
0.0006432126897840969139211186877958 1:-1.9050841 2:0.94444442 3:1 4:44 #
-0.0006432126897840969139211186877958 1:-0.31033286 2:0.49842271 3:1 4:52 #
0.0006432126897840969139211186877958 1:-1.2653869 2:0.74358976 3:9 4:46 #
0.0006432126897840969139211186877958 1:-3.2370639 2:0.89999998 3:1 4:64 #
-0.0006432126897840969139211186877958 1:-2.866658 2:0.59512198 3:1 4:52 #
0.0006432126897840969139211186877958 1:-1.3409826 2:0.71052629 3:17 4:52 #
0.0006432126897840969139211186877958 1:-1.0107428 2:0.80000001 3:2 4:28 #
-0.0006432126897840969139211186877958 1:-3.0916488 2:0.6119734 3:1 4:52 #
-0.0006432126897840969139211186877958 1:0.20780627 2:0.53584903 3:2 4:51 #
0.0006432126897840969139211186877958 1:-1.7067705 2:0.6785714 3:6 4:45 #
-0.0006432126897840969139211186877958 1:2.3307738 2:0.70697677 3:3 4:47 #
0.0006432126897840969139211186877958 1:-2.1954207 2:0.86363637 3:5 4:45 #
-0.0006432126897840969139211186877958 1:-1.6818734 2:0.83333331 3:10 4:52 #
0.0006432126897840969139211186877958 1:-0.71313393 2:0.75999999 3:3 4:44 #
-0.0006432126897840969139211186877958 1:1.4020913 2:0.62711865 3:1 4:13 #
0.0006432126897840969139211186877958 1:0.0027575486 2:0.56097561 3:18 4:57 #
-0.0006432126897840969139211186877958 1:-0.34068921 2:0.57851237 3:25 4:20 #
0.0006432126897840969139211186877958 1:1.0442771 2:0.86956519 3:8 4:36 #
-0.0006432126897840969139211186877958 1:-2.7046168 2:0.56344086 3:5 4:53 #
0.0006432126897840969139211186877958 1:-0.72730774 2:0.78260869 3:3 4:44 #
-0.0006432126897840969139211186877958 1:-1.3614424 2:0.71428573 3:6 4:52 #
0.0006432126897840969139211186877958 1:-0.47192755 2:0.77777779 3:2 4:44 #
-0.0006432126897840969139211186877958 1:-1.0784748 2:0.52649009 3:4 4:51 #
-0.0006432126897840969139211186877958 1:-4.03794 2:0.80769229 3:5 4:52 #
-0.0006432126897840969139211186877958 1:0.81554902 2:0.68333334 3:1 4:13 #
0.0006432126897840969139211186877958 1:0.30785811 2:0.68000001 3:7 4:32 #
-0.0006432126897840969139211186877958 1:-0.43622744 2:0.59195405 3:1 4:85 #
0.0006432126897840969139211186877958 1:-2.2477674 2:0.60975611 3:14 4:56 #
-0.0006432126897840969139211186877958 1:-3.8778121 2:0.63577586 3:4 4:88 #
-0.0006432126897840969139211186877958 1:1.8900676 2:0.44252872 3:37 4:17 #
-0.0006432126897840969139211186877958 1:-1.9871695 2:0.47727272 3:9 4:15 #
0.0006432126897840969139211186877958 1:0.31051582 2:0.76923078 3:7 4:71 #
0.0006432126897840969139211186877958 1:-0.86589772 2:0.74418604 3:7 4:64 #
0.0006432126897840969139211186877958 1:0.015739931 2:0.5777778 3:32 4:34 #
-0.0006432126897840969139211186877958 1:1.8822345 2:0.48124999 3:1 4:76 #
-0.0006432126897840969139211186877958 1:-3.7681541 2:0.49731183 3:1 4:18 #
0.0006432126897840969139211186877958 1:-2.1433952 2:0.84375 3:4 4:71 #
-0.0006432126897840969139211186877958 1:-1.5771526 2:0.496788 3:18 4:27 #
0.0006432126897840969139211186877958 1:-1.3237077 2:0.7368421 3:14 4:61 #
0.0006432126897840969139211186877958 1:-1.7294085 2:0.41666666 3:36 4:27 #
0.0006432126897840969139211186877958 1:-3.4988244 2:0.69047618 3:15 4:58 #
-0.0006432126897840969139211186877958 1:0.028493969 2:0.50253808 3:1 4:79 #
-0.0006432126897840969139211186877958 1:-2.213938 2:0.60317463 3:1 4:85 #
-0.0006432126897840969139211186877958 1:1.2613419 2:0.54545456 3:1 4:71 #
0.0006432126897840969139211186877958 1:0.29626641 2:0.83333331 3:11 4:64 #
0.0006432126897840969139211186877958 1:-0.33934703 2:0.51111114 3:39 4:16 #
-0.0006432126897840969139211186877958 1:1.0480202 2:0.62559241 3:1 4:71 #
-0.0006432126897840969139211186877958 1:-0.19077682 2:0.77049178 3:5 4:69 #
-0.0006432126897840969139211186877958 1:0.73199511 2:0.75555557 3:7 4:69 #
0.0006432126897840969139211186877958 1:-0.0075085699 2:0.83333331 3:3 4:32 #
-0.0006432126897840969139211186877958 1:-0.88742775 2:0.5754717 3:21 4:22 #
-0.0006432126897840969139211186877958 1:-0.076422051 2:0.62068963 3:4 4:70 #
-0.0006432126897840969139211186877958 1:0.67797744 2:0.5 3:30 4:23 #
-0.0006432126897840969139211186877958 1:-3.0916488 2:0.83333331 3:1 4:71 #
0.0006432126897840969139211186877958 1:-0.6978696 2:0.76595747 3:4 4:70 #
-0.0006432126897840969139211186877958 1:-0.2781885 2:0.5916115 3:4 4:70 #
0.0006432126897840969139211186877958 1:-0.39445144 2:0.83333331 3:1 4:43 #
-0.0006432126897840969139211186877958 1:-0.65435618 2:0.58767772 3:2 4:71 #
0.0006432126897840969139211186877958 1:-2.1927998 2:0.73913044 3:13 4:63 #
-0.0006432126897840969139211186877958 1:-1.7618701 2:0.68250543 3:1 4:79 #
-0.0006432126897840969139211186877958 1:-0.6067062 2:0.67415732 3:6 4:71 #
-0.0006432126897840969139211186877958 1:-0.58628112 2:0.46840149 3:24 4:31 #
-0.0006432126897840969139211186877958 1:0.9482581 2:0.61494255 3:26 4:65 #
0.0006432126897840969139211186877958 1:0.75028431 2:0.72727275 3:7 4:34 #
0.0006432126897840969139211186877958 1:0.055437397 2:0.80487806 3:13 4:63 #
-0.0006432126897840969139211186877958 1:-3.7675018 2:0.59285712 3:1 4:75 #
-0.0006432126897840969139211186877958 1:1.3903008 2:0.61089492 3:12 4:71 #
0.0006432126897840969139211186877958 1:-1.8407184 2:0.75 3:10 4:64 #
-0.0006432126897840969139211186877958 1:-1.5698111 2:0.72425246 3:7 4:74 #
0.0006432126897840969139211186877958 1:-0.78771573 2:1 3:1 4:44 #
-0.0006432126897840969139211186877958 1:-1.6741377 2:0.61987042 3:14 4:70 #
0.0006432126897840969139211186877958 1:-0.088047184 2:0.77499998 3:4 4:69 #
-0.0006432126897840969139211186877958 1:0.098075382 2:0.68867922 3:2 4:79 #
-0.0006432126897840969139211186877958 1:1.7531894 2:0.59278351 3:22 4:67 #
-0.0006432126897840969139211186877958 1:-0.85633504 2:0.55052263 3:8 4:74 #
0.0006432126897840969139211186877958 1:-1.037131 2:0.79487181 3:4 4:68 #
-0.0006432126897840969139211186877958 1:2.3848193 2:0.55084747 3:19 4:69 #
-0.0006432126897840969139211186877958 1:-3.7681541 2:0.57422972 3:1 4:78 #
0.0006432126897840969139211186877958 1:-0.92392355 2:0.86666667 3:1 4:34 #
-0.0006432126897840969139211186877958 1:0.76183063 2:0.59734511 3:8 4:76 #
0.0006432126897840969139211186877958 1:-1.2310538 2:0.80000001 3:9 4:64 #
0.0006432126897840969139211186877958 1:-0.39164191 2:0.94999999 3:1 4:47 #
0.0006432126897840969139211186877958 1:0.12626985 2:0.89473683 3:3 4:38 #
-0.0006432126897840969139211186877958 1:-3.7400494 2:0.51757187 3:1 4:81 #
0.0006432126897840969139211186877958 1:0.070328519 2:0.82857144 3:9 4:64 #
-0.0006432126897840969139211186877958 1:-3.6523914 2:0.63849765 3:5 4:77 #
0.0006432126897840969139211186877958 1:0.74216831 2:0.73913044 3:13 4:61 #
0.0006432126897840969139211186877958 1:0.16774946 2:0.83333331 3:2 4:34 #
-0.0006432126897840969139211186877958 1:-1.1636777 2:0.69306928 3:2 4:84 #
-0.0006432126897840969139211186877958 1:1.4894303 2:0.57111597 3:9 4:78 #
0.0006432126897840969139211186877958 1:-1.4402995 2:0.69230771 3:11 4:60 #
-0.0006432126897840969139211186877958 1:-3.0869467 2:0.62247193 3:10 4:74 #
0.0006432126897840969139211186877958 1:-0.99101883 2:0.84375 3:5 4:66 #
-0.0006432126897840969139211186877958 1:0.26110473 2:0.53428572 3:24 4:13 #
-0.0006432126897840969139211186877958 1:-2.4623473 2:0.62126243 3:12 4:75 #
0.0006432126897840969139211186877958 1:-0.1040868 2:0.80555558 3:4 4:67 #
0.0006432126897840969139211186877958 1:-0.41486746 2:0.93333334 3:1 4:30 #
-0.0006432126897840969139211186877958 1:-2.8573081 2:0.49210528 3:1 4:85 #
0.0006432126897840969139211186877958 1:-0.89980072 2:0.80769229 3:1 4:42 #
-0.0006432126897840969139211186877958 1:4.0359745 2:0.45488721 3:1 4:30 #
-0.0006432126897840969139211186877958 1:-1.7014592 2:0.72727275 3:11 4:60 #
-0.0006432126897840969139211186877958 1:1.3092904 2:0.44444445 3:35 4:21 #
-0.0006432126897840969139211186877958 1:3.672622 2:0.57974136 3:4 4:13 #
0.0006432126897840969139211186877958 1:-2.5822902 2:0.82857144 3:5 4:64 #
-0.0006432126897840969139211186877958 1:-0.31067693 2:0.63571429 3:7 4:83 #
0.0006432126897840969139211186877958 1:-3.1789756 2:0.71052629 3:8 4:58 #
-0.0006432126897840969139211186877958 1:3.6481457 2:0.79569894 3:10 4:11 #
0.0006432126897840969139211186877958 1:0.015725162 2:0.85000002 3:1 4:32 #
0.0006432126897840969139211186877958 1:-2.1251493 2:0.78125 3:6 4:61 #
-0.0006432126897840969139211186877958 1:-0.080332361 2:0.57336342 3:22 4:88 #
0.0006432126897840969139211186877958 1:-1.6362684 2:0.79069769 3:11 4:57 #
-0.0006432126897840969139211186877958 1:-0.28480956 2:0.52296817 3:10 4:57 #
-0.0006432126897840969139211186877958 1:0.43058687 2:0.55752212 3:11 4:79 #
0.0006432126897840969139211186877958 1:-1.9959108 2:0.68292683 3:12 4:58 #
-0.0006432126897840969139211186877958 1:-1.4125923 2:0.55238098 3:16 4:49 #
0.0006432126897840969139211186877958 1:-1.7328858 2:0.74285716 3:6 4:64 #
-0.0006432126897840969139211186877958 1:-3.7813683 2:0.64606744 3:8 4:79 #
0.0006432126897840969139211186877958 1:-0.45713186 2:0.64285713 3:13 4:58 #
-0.0006432126897840969139211186877958 1:-0.18721811 2:0.67924529 3:13 4:77 #
0.0006432126897840969139211186877958 1:-2.1255648 2:0.72222221 3:10 4:59 #
-0.0006432126897840969139211186877958 1:3.9630623 2:0.62393165 3:1 4:34 #
-0.0006432126897840969139211186877958 1:-1.445793 2:0.67307693 3:11 4:77 #
0.0006432126897840969139211186877958 1:-1.5205489 2:0.77777779 3:8 4:59 #
-0.0006432126897840969139211186877958 1:0.079894185 2:0.56896549 3:17 4:73 #
0.0006432126897840969139211186877958 1:-1.1544001 2:0.71111113 3:11 4:59 #
0.0006432126897840969139211186877958 1:-0.47574723 2:0.7352941 3:8 4:59 #
-0.0006432126897840969139211186877958 1:0.5695045 2:0.60057473 3:5 4:68 #
0.0006432126897840969139211186877958 1:0.74563086 2:0.80555558 3:10 4:59 #
-0.0006432126897840969139211186877958 1:3.0534155 2:0.68674701 3:7 4:63 #
0.0006432126897840969139211186877958 1:-0.98484415 2:0.8214286 3:6 4:62 #
-0.0006432126897840969139211186877958 1:0.5873698 2:0.68103451 3:1 4:64 #
0.0006432126897840969139211186877958 1:-1.4471232 2:0.85714287 3:2 4:66 #
-0.0006432126897840969139211186877958 1:-0.76823348 2:0.80555558 3:1 4:66 #
0.0006432126897840969139211186877958 1:0.69263303 2:0.7631579 3:9 4:60 #
0.0006432126897840969139211186877958 1:-0.16556031 2:0.86956519 3:1 4:44 #
-0.0006432126897840969139211186877958 1:-0.14847197 2:0.51923078 3:2 4:67 #
-0.0006432126897840969139211186877958 1:2.38151 2:0.59139782 3:5 4:61 #
0.0006432126897840969139211186877958 1:-0.23955809 2:0.7647059 3:6 4:62 #
0.0006432126897840969139211186877958 1:-0.33212733 2:0.80645162 3:6 4:62 #
-0.0006432126897840969139211186877958 1:3.8396268 2:0.57278478 3:20 4:49 #
-0.0006432126897840969139211186877958 1:-1.6305894 2:0.62962961 3:3 4:69 #
0.0006432126897840969139211186877958 1:1.0080266 2:0.77777779 3:7 4:23 #
-0.0006432126897840969139211186877958 1:-1.2285788 2:0.63333333 3:1 4:65 #
0.0006432126897840969139211186877958 1:-0.013066016 2:0.83870965 3:7 4:62 #
-0.0006432126897840969139211186877958 1:-1.0570254 2:0.80555558 3:2 4:65 #
-0.0006432126897840969139211186877958 1:1.5229807 2:0.5299539 3:9 4:65 #
0.0006432126897840969139211186877958 1:-1.2106717 2:0.83870965 3:5 4:65 #
0.0006432126897840969139211186877958 1:-0.070570372 2:0.79310346 3:6 4:62 #
-0.0006432126897840969139211186877958 1:3.062469 2:0.85000002 3:1 4:39 #
-0.0006432126897840969139211186877958 1:1.458585 2:0.57575756 3:23 4:69 #
0.0006432126897840969139211186877958 1:1.3340344 2:0.79166669 3:9 4:40 #
-0.0006432126897840969139211186877958 1:-2.6478846 2:0.53811657 3:2 4:64 #
-0.0006432126897840969139211186877958 1:0.89127076 2:0.57971013 3:31 4:18 #
-0.0006432126897840969139211186877958 1:-0.19419415 2:0.68354428 3:3 4:63 #
0.0006432126897840969139211186877958 1:0.12219951 2:0.7647059 3:3 4:26 #
-0.0006432126897840969139211186877958 1:-0.74864584 2:0.53892213 3:3 4:64 #
0.0006432126897840969139211186877958 1:-0.25818935 2:0.94117647 3:1 4:38 #
-0.0006432126897840969139211186877958 1:-0.39261591 2:0.6032787 3:3 4:63 #
0.0006432126897840969139211186877958 1:1.583776 2:0.77272725 3:10 4:28 #
-0.0006432126897840969139211186877958 1:-2.601387 2:0.5755102 3:4 4:66 #
0.0006432126897840969139211186877958 1:-0.2528801 2:0.85714287 3:1 4:39 #
-0.0006432126897840969139211186877958 1:-1.3083904 2:0.54608297 3:5 4:65 #
-0.0006432126897840969139211186877958 1:-2.6016498 2:0.58333331 3:10 4:17 #
-0.0006432126897840969139211186877958 1:-1.7098957 2:0.58598727 3:3 4:63 #
0.0006432126897840969139211186877958 1:-0.23694874 2:0.84210527 3:1 4:35 #
-0.0006432126897840969139211186877958 1:-0.74520332 2:0.59890109 3:6 4:63 #
0.0006432126897840969139211186877958 1:-0.48805609 2:0.86956519 3:1 4:45 #
-0.0006432126897840969139211186877958 1:-3.032939 2:0.56216216 3:2 4:64 #
0.0006432126897840969139211186877958 1:2.459218 2:0.54545456 3:12 4:21 #
-0.0006432126897840969139211186877958 1:-1.628165 2:0.45169082 3:16 4:18 #
-0.0006432126897840969139211186877958 1:1.0257246 2:0.50372207 3:33 4:22 #
-0.0006432126897840969139211186877958 1:-1.0666957 2:0.61290324 3:3 4:61 #
-0.0006432126897840969139211186877958 1:-1.7966386 2:0.44776121 3:12 4:18 #
-0.0006432126897840969139211186877958 1:0.083502635 2:0.63829786 3:6 4:61 #
0.0006432126897840969139211186877958 1:0.33419335 2:0.72000003 3:5 4:37 #
-0.0006432126897840969139211186877958 1:-3.5581231 2:0.75675678 3:5 4:65 #
-0.0006432126897840969139211186877958 1:-0.58228129 2:0.51999998 3:17 4:21 #
-0.0006432126897840969139211186877958 1:3.6001508 2:0.60000002 3:26 4:50 #
0.0006432126897840969139211186877958 1:0.098175116 2:0.72000003 3:4 4:37 #
-0.0006432126897840969139211186877958 1:1.2435521 2:0.66386557 3:15 4:58 #
0.0006432126897840969139211186877958 1:0.7953881 2:0.66666669 3:7 4:25 #
0.0006432126897840969139211186877958 1:-0.64479744 2:0.7368421 3:1 4:32 #
-0.0006432126897840969139211186877958 1:-2.7635112 2:0.57366771 3:3 4:62 #
-0.0006432126897840969139211186877958 1:-0.030829918 2:0.61352658 3:2 4:58 #
0.0006432126897840969139211186877958 1:0.60308933 2:0.72222221 3:7 4:29 #
-0.0006432126897840969139211186877958 1:-0.22408892 2:0.49454546 3:1 4:58 #
0.0006432126897840969139211186877958 1:0.5378449 2:0.63157892 3:6 4:26 #
-0.0006432126897840969139211186877958 1:-0.73601818 2:0.67080748 3:5 4:60 #
0.0006432126897840969139211186877958 1:0.52822793 2:0.75 3:8 4:37 #
-0.0006432126897840969139211186877958 1:0.94793999 2:0.72093022 3:18 4:57 #
-0.0006432126897840969139211186877958 1:-1.1419885 2:0.51264369 3:12 4:22 #
-0.0006432126897840969139211186877958 1:0.44948086 2:0.56302524 3:11 4:59 #
0.0006432126897840969139211186877958 1:0.12406904 2:0.6875 3:1 4:23 #
0.0006432126897840969139211186877958 1:0.14038822 2:0.78947371 3:7 4:39 #
-0.0006432126897840969139211186877958 1:1.9965701 2:0.83999997 3:1 4:46 #
0.0006432126897840969139211186877958 1:0.13557102 2:0.73913044 3:7 4:33 #
-0.0006432126897840969139211186877958 1:-0.50117648 2:0.6502732 3:10 4:59 #
-0.0006432126897840969139211186877958 1:0.73793399 2:0.70454544 3:21 4:54 #
-0.0006432126897840969139211186877958 1:-0.8559348 2:0.5567227 3:12 4:19 #
-0.0006432126897840969139211186877958 1:-1.3070022 2:0.69767439 3:9 4:60 #
0.0006432126897840969139211186877958 1:-0.068376109 2:0.75999999 3:6 4:36 #
-0.0006432126897840969139211186877958 1:-1.6391201 2:0.57004833 3:8 4:60 #
-0.0006432126897840969139211186877958 1:-0.017282302 2:0.46606335 3:17 4:55 #
-0.0006432126897840969139211186877958 1:2.2357152 2:0.75609756 3:15 4:51 #
0.0006432126897840969139211186877958 1:-0.13187298 2:0.80952382 3:6 4:36 #
-0.0006432126897840969139211186877958 1:-0.28039888 2:0.78787881 3:8 4:57 #
0.0006432126897840969139211186877958 1:-2.7483516 2:0.52941179 3:34 4:0 #
-0.0006432126897840969139211186877958 1:-1.043916 2:0.43915343 3:6 4:14 #
0.0006432126897840969139211186877958 1:-4.1239543 2:0.8214286 3:2 4:55 #
0.0006432126897840969139211186877958 1:-1.8685166 2:0.5777778 3:38 4:17 #
-0.0006432126897840969139211186877958 1:2.8698463 2:0.54700857 3:1 4:14 #
0.0006432126897840969139211186877958 1:-3.4700077 2:0.65217394 3:15 4:54 #
0.0006432126897840969139211186877958 1:-3.4803054 2:0.5 3:20 4:0 #
-0.0006432126897840969139211186877958 1:0.57089531 2:0.75 3:14 4:54 #
-0.0006432126897840969139211186877958 1:3.1185079 2:0.71900827 3:1 4:38 #
0.0006432126897840969139211186877958 1:-1.7199228 2:0.43589744 3:39 4:0 #
0.0006432126897840969139211186877958 1:-3.4526191 2:0.52380955 3:21 4:0 #
0.0006432126897840969139211186877958 1:-2.9475443 2:0.64285713 3:14 4:0 #
-0.0006432126897840969139211186877958 1:2.0156271 2:0.40625 3:32 4:0 #
-0.0006432126897840969139211186877958 1:3.2230744 2:0.60576922 3:1 4:17 #
0.0006432126897840969139211186877958 1:-3.4955215 2:0.55000001 3:31 4:24 #
0.0006432126897840969139211186877958 1:-1.9739889 2:0.58333331 3:15 4:23 #
0.0006432126897840969139211186877958 1:-3.7681541 2:0.78260869 3:1 4:15 #
-0.0006432126897840969139211186877958 1:3.1055255 2:0.71428573 3:1 4:16 #
0.0006432126897840969139211186877958 1:-4.0500789 2:0.65789473 3:11 4:51 #
0.0006432126897840969139211186877958 1:-1.7730649 2:0.8125 3:1 4:63 #
-0.0006432126897840969139211186877958 1:2.6238825 2:0.49004975 3:1 4:14 #
0.0006432126897840969139211186877958 1:-2.184422 2:0.63265306 3:23 4:46 #
0.0006432126897840969139211186877958 1:-2.1600537 2:0.54545456 3:11 4:0 #
-0.0006432126897840969139211186877958 1:3.0653725 2:0.58075601 3:1 4:43 #
-0.0006432126897840969139211186877958 1:1.2338483 2:0.7037037 3:27 4:0 #
-0.0006432126897840969139211186877958 1:-2.9379392 2:0.68717951 3:2 4:61 #
-0.0006432126897840969139211186877958 1:3.1403301 2:0.63999999 3:1 4:19 #
-0.0006432126897840969139211186877958 1:2.4338384 2:0.55603451 3:1 4:15 #
-0.0006432126897840969139211186877958 1:0.5946821 2:0.49648711 3:2 4:11 #
-0.0006432126897840969139211186877958 1:1.5966197 2:0.55214721 3:1 4:13 #
0.0006432126897840969139211186877958 1:-0.44245791 2:0.73913044 3:3 4:36 #
0.0006432126897840969139211186877958 1:-4.0584908 2:0.48387095 3:24 4:17 #
0.0006432126897840969139211186877958 1:-3.7301064 2:0.84615386 3:1 4:47 #
0.0006432126897840969139211186877958 1:-1.6169195 2:0.52083331 3:37 4:21 #
0.0006432126897840969139211186877958 1:-2.13358 2:0.75 3:12 4:0 #
-0.0006432126897840969139211186877958 1:2.1035316 2:0.69696969 3:1 4:15 #
-0.0006432126897840969139211186877958 1:1.1339833 2:0.84375 3:1 4:18 #
0.0006432126897840969139211186877958 1:-2.1115294 2:0.2857143 3:30 4:32 #
0.0006432126897840969139211186877958 1:-0.40808958 2:0.64516127 3:1 4:11 #
0.0006432126897840969139211186877958 1:1.1755648 2:0.54054052 3:37 4:0 #
-0.0006432126897840969139211186877958 1:-3.9044666 2:0.62962961 3:1 4:13 #
0.0006432126897840969139211186877958 1:2.017056 2:0.60465115 3:30 4:39 #
0.0006432126897840969139211186877958 1:-1.346956 2:0.60000002 3:10 4:0 #
-0.0006432126897840969139211186877958 1:1.1221381 2:0.5840708 3:1 4:48 #
0.0006432126897840969139211186877958 1:-1.0763434 2:0.69999999 3:24 4:46 #
0.0006432126897840969139211186877958 1:-1.5697167 2:0.70588237 3:1 4:57 #
-0.0006432126897840969139211186877958 1:0.082897753 2:0.90476191 3:1 4:46 #
0.0006432126897840969139211186877958 1:-0.54376477 2:0.47058824 3:34 4:0 #
-0.0006432126897840969139211186877958 1:1.0030005 2:0.5147059 3:1 4:16 #
-0.0006432126897840969139211186877958 1:0.015725162 2:0.75 3:1 4:14 #
0.0006432126897840969139211186877958 1:-0.60947537 2:0.52083331 3:37 4:17 #
0.0006432126897840969139211186877958 1:-2.1896241 2:0.5151515 3:33 4:0 #
0.0006432126897840969139211186877958 1:0.5946821 2:0.69565219 3:9 4:27 #
-0.0006432126897840969139211186877958 1:0.60852194 2:0.46320346 3:2 4:11 #
-0.0006432126897840969139211186877958 1:-0.28039888 2:0.63157892 3:1 4:13 #
-0.0006432126897840969139211186877958 1:0.73201793 2:0.94444442 3:1 4:45 #
-0.0006432126897840969139211186877958 1:-2.0121722 2:0.51546389 3:1 4:12 #
-0.0006432126897840969139211186877958 1:-0.063201159 2:0.94444442 3:1 4:43 #
-0.0006432126897840969139211186877958 1:-0.18754771 2:0.63636363 3:25 4:31 #
-0.0006432126897840969139211186877958 1:-0.39817968 2:0.63428569 3:1 4:48 #
-0.0006432126897840969139211186877958 1:0.46592632 2:0.82758623 3:2 4:48 #
0.0006432126897840969139211186877958 1:-0.26861408 2:0.47619048 3:36 4:16 #
0.0006432126897840969139211186877958 1:-0.065007739 2:0.29411766 3:17 4:0 #
-0.0006432126897840969139211186877958 1:-1.0561725 2:0.48823529 3:9 4:16 #
0.0006432126897840969139211186877958 1:1.0957105 2:0.63043481 3:24 4:48 #
0.0006432126897840969139211186877958 1:-1.2890424 2:0.60000002 3:10 4:0 #
0.0006432126897840969139211186877958 1:-1.5457433 2:0.56818181 3:36 4:20 #
0.0006432126897840969139211186877958 1:-0.13360068 2:0.4848485 3:33 4:0 #
0.0006432126897840969139211186877958 1:-1.6593806 2:0.44827586 3:29 4:0 #
0.0006432126897840969139211186877958 1:-0.69715893 2:0.48780489 3:28 4:39 #
0.0006432126897840969139211186877958 1:-1.3719151 2:0.37777779 3:33 4:15 #
0.0006432126897840969139211186877958 1:-3.3520217 2:0.66666669 3:1 4:13 #
0.0006432126897840969139211186877958 1:2.6903133 2:0.71428573 3:23 4:48 #
0.0006432126897840969139211186877958 1:0.80584133 2:0.57575756 3:33 4:0 #
-0.0006432126897840969139211186877958 1:-0.59139061 2:0.53333336 3:7 4:86 #
-0.0006432126897840969139211186877958 1:-1.3883967 2:0.44144145 3:13 4:15 #
-0.0006432126897840969139211186877958 1:-2.896018 2:0.75862068 3:1 4:15 #
0.0006432126897840969139211186877958 1:0.27804059 2:0.54545456 3:32 4:33 #
0.0006432126897840969139211186877958 1:1.2165402 2:0.8125 3:6 4:24 #
0.0006432126897840969139211186877958 1:-0.56521076 2:0.5 3:32 4:0 #
-0.0006432126897840969139211186877958 1:1.5557976 2:0.53571427 3:1 4:13 #
0.0006432126897840969139211186877958 1:0.38061693 2:0.76923078 3:6 4:38 #
-0.0006432126897840969139211186877958 1:2.185519 2:1 3:1 4:35 #
0.0006432126897840969139211186877958 1:-2.239032 2:0.5 3:34 4:24 #
0.0006432126897840969139211186877958 1:-0.10052684 2:0.82608694 3:5 4:42 #
-0.0006432126897840969139211186877958 1:-1.3666764 2:0.65671641 3:1 4:13 #
0.0006432126897840969139211186877958 1:0.22848544 2:0.52173913 3:32 4:32 #
-0.0006432126897840969139211186877958 1:-0.25985458 2:0.50364965 3:3 4:11 #
-0.0006432126897840969139211186877958 1:-0.59809655 2:0.58435208 3:11 4:85 #
-0.0006432126897840969139211186877958 1:1.8550848 2:0.74626863 3:2 4:15 #
0.0006432126897840969139211186877958 1:-1.3298419 2:0.80000001 3:1 4:13 #
-0.0006432126897840969139211186877958 1:0.34482911 2:0.54705882 3:24 4:17 #
-0.0006432126897840969139211186877958 1:1.3856021 2:0.62711865 3:1 4:14 #
-0.0006432126897840969139211186877958 1:-0.55048209 2:1 3:1 4:26 #
-0.0006432126897840969139211186877958 1:-1.6818734 2:0.54615384 3:8 4:24 #
-0.0006432126897840969139211186877958 1:-3.3529353 2:0.57746476 3:1 4:13 #
-0.0006432126897840969139211186877958 1:-3.0916488 2:0.94736844 3:1 4:47 #
-0.0006432126897840969139211186877958 1:-0.96874887 2:0.62359548 3:1 4:13 #
0.0006432126897840969139211186877958 1:-0.037682142 2:0.45454547 3:35 4:20 #
0.0006432126897840969139211186877958 1:-0.14109002 2:0.7368421 3:4 4:30 #
-0.0006432126897840969139211186877958 1:-1.6499369 2:0.56989247 3:5 4:10 #
0.0006432126897840969139211186877958 1:0.85198539 2:0.5 3:32 4:0 #
0.0006432126897840969139211186877958 1:-2.3268561 2:0.78571427 3:2 4:61 #
0.0006432126897840969139211186877958 1:-2.777004 2:0.64444447 3:34 4:24 #
0.0006432126897840969139211186877958 1:0.21058837 2:0.68181819 3:1 4:12 #
-0.0006432126897840969139211186877958 1:-2.1246309 2:0.51327431 3:4 4:21 #
0.0006432126897840969139211186877958 1:0.78457719 2:0.63999999 3:8 4:26 #
-0.0006432126897840969139211186877958 1:-1.2310538 2:0.59269661 3:17 4:86 #
-0.0006432126897840969139211186877958 1:-2.562346 2:0.57244658 3:4 4:25 #
0.0006432126897840969139211186877958 1:-0.82463509 2:0.69999999 3:10 4:0 #
-0.0006432126897840969139211186877958 1:0.84196889 2:0.48717949 3:30 4:24 #
0.0006432126897840969139211186877958 1:-1.9494565 2:0.72727275 3:11 4:0 #
0.0006432126897840969139211186877958 1:-2.777004 2:0.64444447 3:34 4:24 #
0.0006432126897840969139211186877958 1:-3.3900695 2:0.71428573 3:1 4:13 #
-0.0006432126897840969139211186877958 1:-3.267947 2:0.49541286 3:1 4:61 #
0.0006432126897840969139211186877958 1:0.45702872 2:0.77777779 3:2 4:27 #
0.0006432126897840969139211186877958 1:1.1256213 2:0.63829786 3:29 4:39 #
0.0006432126897840969139211186877958 1:0.47312242 2:0.61290324 3:31 4:0 #
0.0006432126897840969139211186877958 1:-2.6425312 2:0.65714288 3:11 4:54 #
0.0006432126897840969139211186877958 1:-2.0911839 2:0.47916666 3:31 4:30 #
0.0006432126897840969139211186877958 1:-3.8336177 2:0.73333335 3:2 4:13 #
-0.0006432126897840969139211186877958 1:-0.51637322 2:0.50226247 3:23 4:20 #
-0.0006432126897840969139211186877958 1:-1.7388535 2:0.50375938 3:1 4:49 #
0.0006432126897840969139211186877958 1:-0.42958388 2:0.65909094 3:25 4:44 #
-0.0006432126897840969139211186877958 1:-3.2990012 2:0.52369076 3:1 4:49 #
-0.0006432126897840969139211186877958 1:-3.8093448 2:0.60504204 3:1 4:49 #
-0.0006432126897840969139211186877958 1:0.10109481 2:0.60869563 3:7 4:51 #
-0.0006432126897840969139211186877958 1:-0.47573429 2:0.54447442 3:6 4:55 #
-0.0006432126897840969139211186877958 1:-4.1001973 2:0.77777779 3:3 4:49 #
-0.0006432126897840969139211186877958 1:-1.3988888 2:0.71794873 3:7 4:50 #
-0.0006432126897840969139211186877958 1:-0.9386307 2:0.73333335 3:8 4:51 #
-0.0006432126897840969139211186877958 1:-3.8690054 2:0.55607474 3:1 4:58 #
-0.0006432126897840969139211186877958 1:2.4884312 2:0.60000002 3:42 4:58 #
-0.0006432126897840969139211186877958 1:2.466609 2:0.53608245 3:1 4:15 #
0.0006432126897840969139211186877958 1:-2.9289322 2:0.51162791 3:29 4:32 #
0.0006432126897840969139211186877958 1:-3.7505846 2:0.78947371 3:1 4:13 #
0.0006432126897840969139211186877958 1:0.1758877 2:0.58620691 3:29 4:0 #
-0.0006432126897840969139211186877958 1:1.4761814 2:0.53181821 3:1 4:13 #
0.0006432126897840969139211186877958 1:-1.7138618 2:0.80645162 3:5 4:61 #
0.0006432126897840969139211186877958 1:-2.3236105 2:0.57692307 3:26 4:0 #
-0.0006432126897840969139211186877958 1:1.7525703 2:0.57228917 3:13 4:7 #
0.0006432126897840969139211186877958 1:-2.7414575 2:0.40000001 3:26 4:22 #
0.0006432126897840969139211186877958 1:2.2034535 2:0.64516127 3:31 4:0 #
-0.0006432126897840969139211186877958 1:1.072955 2:0.44565219 3:3 4:11 #
0.0006432126897840969139211186877958 1:1.5034204 2:0.45652175 3:35 4:20 #
0.0006432126897840969139211186877958 1:-3.7301064 2:0.66666669 3:1 4:17 #
-0.0006432126897840969139211186877958 1:0.55767596 2:0.56084657 3:1 4:13 #
-0.0006432126897840969139211186877958 1:-2.9874456 2:0.51587301 3:1 4:15 #
-0.0006432126897840969139211186877958 1:0.028493969 2:0.90909094 3:1 4:23 #
0.0006432126897840969139211186877958 1:-0.87800586 2:0.46511629 3:34 4:18 #
0.0006432126897840969139211186877958 1:-1.2143166 2:0.68000001 3:1 4:18 #
-0.0006432126897840969139211186877958 1:-0.90174574 2:0.39163497 3:15 4:8 #
0.0006432126897840969139211186877958 1:-3.4303164 2:0.63157892 3:26 4:22 #
0.0006432126897840969139211186877958 1:-1.1505811 2:0.72222221 3:1 4:13 #
-0.0006432126897840969139211186877958 1:-2.1430993 2:0.60975611 3:1 4:13 #
0.0006432126897840969139211186877958 1:-1.0178107 2:0.58139533 3:32 4:21 #
0.0006432126897840969139211186877958 1:-0.75475758 2:0.66666669 3:1 4:18 #
-0.0006432126897840969139211186877958 1:-1.0106288 2:0.48955223 3:2 4:12 #
-0.0006432126897840969139211186877958 1:-1.7570208 2:0.89999998 3:1 4:22 #
0.0006432126897840969139211186877958 1:-1.0583849 2:0.34210527 3:30 4:20 #
0.0006432126897840969139211186877958 1:0.86447084 2:0.43902439 3:33 4:17 #
-0.0006432126897840969139211186877958 1:0.20409955 2:0.91666669 3:1 4:25 #
-0.0006432126897840969139211186877958 1:2.2138929 2:0.7647059 3:9 4:16 #
0.0006432126897840969139211186877958 1:-2.898031 2:0.34999999 3:25 4:17 #
0.0006432126897840969139211186877958 1:0.16143985 2:0.58333331 3:1 4:17 #
0.0006432126897840969139211186877958 1:0.55847663 2:0.38095239 3:2 4:15 #
-0.0006432126897840969139211186877958 1:-1.5356797 2:0.52058822 3:19 4:30 #
-0.0006432126897840969139211186877958 1:-1.9885173 2:0.58808935 3:12 4:16 #
0.0006432126897840969139211186877958 1:-0.38500693 2:0.63414633 3:30 4:22 #
0.0006432126897840969139211186877958 1:-1.1550407 2:0.625 3:1 4:15 #
0.0006432126897840969139211186877958 1:2.1375546 2:0.35714287 3:14 4:0 #
-0.0006432126897840969139211186877958 1:-1.1805109 2:0.51999998 3:13 4:9 #
0.0006432126897840969139211186877958 1:-1.5864605 2:0.51851851 3:12 4:20 #
-0.0006432126897840969139211186877958 1:-1.9137409 2:0.76923078 3:8 4:13 #
0.0006432126897840969139211186877958 1:-1.3680502 2:0.55555558 3:33 4:16 #
-0.0006432126897840969139211186877958 1:0.64724112 2:0.57746476 3:9 4:9 #
0.0006432126897840969139211186877958 1:2.3612473 2:0.58139533 3:30 4:21 #
-0.0006432126897840969139211186877958 1:2.9923592 2:0.52320677 3:19 4:13 #
0.0006432126897840969139211186877958 1:-3.9160986 2:0.64516127 3:4 4:19 #
-0.0006432126897840969139211186877958 1:-4.3109851 2:0.66666669 3:1 4:15 #
0.0006432126897840969139211186877958 1:0.10701397 2:0.59090906 3:33 4:20 #
0.0006432126897840969139211186877958 1:-2.1691575 2:0.72222221 3:1 4:13 #
-0.0006432126897840969139211186877958 1:0.97100544 2:0.47169811 3:16 4:11 #
-0.0006432126897840969139211186877958 1:-3.3784869 2:0.63333333 3:2 4:13 #
-0.0006432126897840969139211186877958 1:3.5350585 2:0.57511735 3:18 4:15 #
-0.0006432126897840969139211186877958 1:1.8763334 2:0.55555558 3:17 4:13 #
0.0006432126897840969139211186877958 1:-0.50755161 2:0.55102038 3:2 4:18 #
0.0006432126897840969139211186877958 1:1.9475219 2:0.52499998 3:32 4:13 #
0.0006432126897840969139211186877958 1:-1.1756792 2:0.56818181 3:1 4:17 #
-0.0006432126897840969139211186877958 1:2.7167685 2:0.55849057 3:17 4:13 #
0.0006432126897840969139211186877958 1:0.58735979 2:0.63999999 3:1 4:17 #
-0.0006432126897840969139211186877958 1:0.73431647 2:0.55938697 3:10 4:10 #
-0.0006432126897840969139211186877958 1:-4.0903831 2:0.80000001 3:1 4:20 #
-0.0006432126897840969139211186877958 1:0.75193214 2:0.63265306 3:16 4:13 #
0.0006432126897840969139211186877958 1:-0.43759865 2:0.44444445 3:4 4:17 #
-0.0006432126897840969139211186877958 1:-4.1286693 2:0.49710983 3:1 4:13 #
0.0006432126897840969139211186877958 1:-2.6426287 2:0.53488374 3:30 4:20 #
0.0006432126897840969139211186877958 1:-0.87260962 2:0.5714286 3:1 4:17 #
-0.0006432126897840969139211186877958 1:1.3203249 2:0.62790698 3:16 4:13 #
0.0006432126897840969139211186877958 1:1.4800712 2:0.34999999 3:28 4:11 #
-0.0006432126897840969139211186877958 1:2.6250701 2:0.51636362 3:15 4:13 #
-0.0006432126897840969139211186877958 1:0.80453306 2:0.50947869 3:14 4:11 #
0.0006432126897840969139211186877958 1:-0.033603545 2:0.65957445 3:1 4:17 #
-0.0006432126897840969139211186877958 1:-3.0757828 2:0.5451389 3:5 4:11 #
0.0006432126897840969139211186877958 1:0.99638069 2:0.53125 3:26 4:21 #
-0.0006432126897840969139211186877958 1:2.576803 2:0.52459013 3:16 4:17 #
0.0006432126897840969139211186877958 1:-1.9231728 2:0.625 3:1 4:17 #
-0.0006432126897840969139211186877958 1:-0.38643646 2:0.65306121 3:13 4:12 #
0.0006432126897840969139211186877958 1:0.99516338 2:0.58823532 3:3 4:18 #
-0.0006432126897840969139211186877958 1:-2.4021151 2:0.51760566 3:4 4:11 #
0.0006432126897840969139211186877958 1:-0.26495788 2:0.4054054 3:29 4:20 #
-0.0006432126897840969139211186877958 1:2.3284831 2:0.53571427 3:15 4:15 #
0.0006432126897840969139211186877958 1:-1.2841424 2:0.63265306 3:1 4:17 #
-0.0006432126897840969139211186877958 1:0.16774946 2:0.59872609 3:14 4:13 #
0.0006432126897840969139211186877958 1:0.080055311 2:0.625 3:1 4:16 #
-0.0006432126897840969139211186877958 1:-1.0263215 2:0.60000002 3:4 4:11 #
0.0006432126897840969139211186877958 1:-0.87899852 2:0.5 3:28 4:20 #
-0.0006432126897840969139211186877958 1:1.6603861 2:0.48598132 3:15 4:15 #
0.0006432126897840969139211186877958 1:-0.22408892 2:0.71111113 3:1 4:17 #
-0.0006432126897840969139211186877958 1:-2.4648674 2:0.55882353 3:11 4:11 #
-0.0006432126897840969139211186877958 1:-2.1942763 2:0.54347825 3:13 4:19 #
0.0006432126897840969139211186877958 1:1.4906915 2:0.56666666 3:24 4:20 #
-0.0006432126897840969139211186877958 1:0.27105072 2:0.4968017 3:14 4:13 #
0.0006432126897840969139211186877958 1:-0.96932662 2:0.64285713 3:1 4:17 #
0.0006432126897840969139211186877958 1:1.7150036 2:0.53333336 3:30 4:0 #
0.0006432126897840969139211186877958 1:0.56604713 2:0.83333331 3:3 4:31 #
-0.0006432126897840969139211186877958 1:-0.14391093 2:0.54761904 3:12 4:11 #
0.0006432126897840969139211186877958 1:-2.037683 2:0.52173913 3:12 4:20 #
-0.0006432126897840969139211186877958 1:-0.86599362 2:0.73015875 3:12 4:13 #
-0.0006432126897840969139211186877958 1:-2.316767 2:0.41471571 3:10 4:12 #
-0.0006432126897840969139211186877958 1:-1.352214 2:0.50800914 3:5 4:11 #
-0.0006432126897840969139211186877958 1:-1.6911316 2:0.58490568 3:9 4:11 #
0.0006432126897840969139211186877958 1:-1.8930016 2:0.4893617 3:27 4:20 #
0.0006432126897840969139211186877958 1:-2.499577 2:0.51428574 3:25 4:20 #
-0.0006432126897840969139211186877958 1:1.6423616 2:0.53531599 3:14 4:13 #
0.0006432126897840969139211186877958 1:-1.8096482 2:0.81818181 3:1 4:18 #
-0.0006432126897840969139211186877958 1:1.6484773 2:0.5131579 3:14 4:13 #
0.0006432126897840969139211186877958 1:-0.11427371 2:0.73913044 3:1 4:17 #
-0.0006432126897840969139211186877958 1:-0.74141818 2:0.53953487 3:13 4:13 #
0.0006432126897840969139211186877958 1:-0.11427371 2:0.73913044 3:1 4:17 #
0.0006432126897840969139211186877958 1:4.0218239 2:0.47999999 3:25 4:0 #
0.0006432126897840969139211186877958 1:2.2301409 2:0.47368422 3:12 4:19 #
-0.0006432126897840969139211186877958 1:-0.59448099 2:0.51822919 3:12 4:11 #
0.0006432126897840969139211186877958 1:-0.41714385 2:0.66666669 3:2 4:18 #
0.0006432126897840969139211186877958 1:0.94528753 2:0.55555558 3:29 4:19 #
-0.0006432126897840969139211186877958 1:2.8715842 2:0.57110608 3:14 4:13 #
-0.0006432126897840969139211186877958 1:-0.43424267 2:0.57037038 3:13 4:13 #
-0.0006432126897840969139211186877958 1:-1.9088404 2:0.57446808 3:11 4:12 #
-0.0006432126897840969139211186877958 1:-4.2961097 2:0.6797753 3:1 4:16 #
-0.0006432126897840969139211186877958 1:2.8228679 2:0.53932583 3:15 4:18 #
-0.0006432126897840969139211186877958 1:-2.0360441 2:0.52066118 3:11 4:12 #
-0.0006432126897840969139211186877958 1:-1.2456849 2:0.47714287 3:11 4:11 #
-0.0006432126897840969139211186877958 1:1.2960553 2:0.52580643 3:14 4:14 #
-0.0006432126897840969139211186877958 1:3.2509491 2:0.4520548 3:15 4:18 #
-0.0006432126897840969139211186877958 1:-0.30271769 2:0.72307694 3:23 4:87 #
0.0006432126897840969139211186877958 1:-1.610653 2:0.58333331 3:1 4:16 #
0.0006432126897840969139211186877958 1:-0.38770226 2:0.78571427 3:2 4:27 #
0.0006432126897840969139211186877958 1:-0.082667544 2:0.68181819 3:16 4:53 #
0.0006432126897840969139211186877958 1:0.82252532 2:0.45454547 3:11 4:0 #
0.0006432126897840969139211186877958 1:1.1480539 2:0.65853661 3:24 4:46 #
0.0006432126897840969139211186877958 1:-1.3473743 2:0.2857143 3:21 4:0 #
-0.0006432126897840969139211186877958 1:-0.43892941 2:0.62562811 3:12 4:16 #
-0.0006432126897840969139211186877958 1:1.3617755 2:0.60000002 3:30 4:0 #
0.0006432126897840969139211186877958 1:-1.8236066 2:0.78125 3:4 4:61 #
0.0006432126897840969139211186877958 1:-0.33427742 2:0.69999999 3:10 4:0 #
0.0006432126897840969139211186877958 1:-1.2942824 2:0.58139533 3:25 4:42 #
0.0006432126897840969139211186877958 1:0.73443973 2:0.56410259 3:7 4:20 #
0.0006432126897840969139211186877958 1:0.46325141 2:0.64999998 3:7 4:26 #
-0.0006432126897840969139211186877958 1:-0.27025852 2:0.71739131 3:23 4:41 #
0.0006432126897840969139211186877958 1:-3.026752 2:0.5 3:25 4:32 #
-0.0006432126897840969139211186877958 1:-0.8187834 2:0.56828195 3:19 4:23 #
0.0006432126897840969139211186877958 1:-0.098986447 2:0.64285713 3:22 4:47 #
0.0006432126897840969139211186877958 1:-1.3298419 2:0.44 3:25 4:0 #
-0.0006432126897840969139211186877958 1:0.74972057 2:0.59537572 3:24 4:34 #
0.0006432126897840969139211186877958 1:-0.86726314 2:0.62790698 3:24 4:40 #
-0.0006432126897840969139211186877958 1:2.2187037 2:0.53681707 3:25 4:33 #
-0.0006432126897840969139211186877958 1:-1.0514863 2:0.56521738 3:16 4:20 #
0.0006432126897840969139211186877958 1:0.3691996 2:0.61702126 3:24 4:41 #
0.0006432126897840969139211186877958 1:2.6087925 2:0.56818181 3:24 4:40 #
-0.0006432126897840969139211186877958 1:-1.8451921 2:0.56410259 3:16 4:26 #
-0.0006432126897840969139211186877958 1:1.2294782 2:0.56962025 3:24 4:37 #
-0.0006432126897840969139211186877958 1:-0.4490585 2:0.61363637 3:24 4:35 #
0.0006432126897840969139211186877958 1:-1.4745221 2:0.55000001 3:25 4:33 #
0.0006432126897840969139211186877958 1:-0.37760714 2:0.58139533 3:20 4:46 #
-0.0006432126897840969139211186877958 1:0.83363765 2:0.52009457 3:24 4:36 #
0.0006432126897840969139211186877958 1:-1.510584 2:0.57499999 3:24 4:36 #
-0.0006432126897840969139211186877958 1:-0.9459132 2:0.56231004 3:18 4:19 #
0.0006432126897840969139211186877958 1:-2.28232 2:0.56097561 3:24 4:35 #
-0.0006432126897840969139211186877958 1:-0.071047939 2:0.45820433 3:24 4:35 #
0.0006432126897840969139211186877958 1:-2.28232 2:0.56097561 3:24 4:35 #
-0.0006432126897840969139211186877958 1:-2.1320314 2:0.50717705 3:10 4:14 #
0.0006432126897840969139211186877958 1:0.21170518 2:0.60000002 3:23 4:39 #
-0.0006432126897840969139211186877958 1:-3.5175357 2:0.51851851 3:6 4:25 #
-0.0006432126897840969139211186877958 1:-4.2961097 2:0.58108109 3:1 4:19 #
0.0006432126897840969139211186877958 1:0.45702872 2:0.77777779 3:2 4:26 #
-0.0006432126897840969139211186877958 1:1.0492134 2:0.43206522 3:1 4:13 #
-0.0006432126897840969139211186877958 1:0.044838682 2:0.5498392 3:23 4:17 #
-0.0006432126897840969139211186877958 1:-0.19164144 2:0.57631576 3:1 4:13 #
-0.0006432126897840969139211186877958 1:1.8188288 2:0.85714287 3:1 4:38 #
0.0006432126897840969139211186877958 1:0.16944225 2:0.69999999 3:3 4:26 #
0.0006432126897840969139211186877958 1:-2.0811346 2:0.72500002 3:2 4:57 #
-0.0006432126897840969139211186877958 1:-0.88165158 2:0.58935362 3:1 4:13 #
0.0006432126897840969139211186877958 1:0.21205425 2:0.60000002 3:26 4:42 #
0.0006432126897840969139211186877958 1:0.85853219 2:0.69999999 3:10 4:0 #
-0.0006432126897840969139211186877958 1:0.11529258 2:0.4504717 3:22 4:15 #
0.0006432126897840969139211186877958 1:-0.28039888 2:0.5714286 3:28 4:0 #
0.0006432126897840969139211186877958 1:0.30808109 2:0.73333335 3:4 4:27 #
-0.0006432126897840969139211186877958 1:3.1749756 2:0.58959538 3:1 4:20 #
0.0006432126897840969139211186877958 1:-1.0734973 2:0.48888889 3:33 4:24 #
0.0006432126897840969139211186877958 1:0.021691805 2:0.63999999 3:1 4:13 #
0.0006432126897840969139211186877958 1:-1.3447511 2:0.48780489 3:32 4:14 #
0.0006432126897840969139211186877958 1:1.2038801 2:0.64705884 3:5 4:20 #
0.0006432126897840969139211186877958 1:0.60970634 2:0.68421054 3:3 4:21 #
0.0006432126897840969139211186877958 1:-0.20118415 2:0.88235295 3:1 4:33 #
0.0006432126897840969139211186877958 1:0.18192275 2:0.5714286 3:28 4:0 #
-0.0006432126897840969139211186877958 1:-2.5107293 2:0.50719422 3:1 4:19 #
-0.0006432126897840969139211186877958 1:1.9953215 2:0.51666665 3:1 4:14 #
0.0006432126897840969139211186877958 1:-1.6778332 2:0.60000002 3:31 4:32 #
0.0006432126897840969139211186877958 1:1.5954928 2:0.57894737 3:8 4:22 #
-0.0006432126897840969139211186877958 1:0.13895638 2:0.40298507 3:2 4:12 #
-0.0006432126897840969139211186877958 1:1.3075485 2:0.59183675 3:1 4:14 #
0.0006432126897840969139211186877958 1:0.48460656 2:0.52083331 3:26 4:41 #
-0.0006432126897840969139211186877958 1:-0.35851616 2:0.54419887 3:1 4:13 #
-0.0006432126897840969139211186877958 1:-1.1314334 2:0.58530182 3:9 4:18 #
-0.0006432126897840969139211186877958 1:-2.2184167 2:0.70175439 3:5 4:60 #
0.0006432126897840969139211186877958 1:-2.7779627 2:0.5 3:18 4:0 #
-0.0006432126897840969139211186877958 1:2.38151 2:0.53892213 3:1 4:15 #
0.0006432126897840969139211186877958 1:-0.86726314 2:0.40000001 3:32 4:27 #
0.0006432126897840969139211186877958 1:0.055376448 2:0.89999998 3:1 4:23 #
0.0006432126897840969139211186877958 1:0.76859069 2:0.55813956 3:32 4:32 #
0.0006432126897840969139211186877958 1:-0.88857985 2:0.47999999 3:25 4:0 #
-0.0006432126897840969139211186877958 1:1.1277802 2:0.60000002 3:4 4:12 #
0.0006432126897840969139211186877958 1:0.66185081 2:0.75 3:3 4:28 #
0.0006432126897840969139211186877958 1:0.48279443 2:0.72222221 3:4 4:31 #
0.0006432126897840969139211186877958 1:1.6047026 2:0.71428573 3:28 4:0 #
-0.0006432126897840969139211186877958 1:1.9965701 2:0.55038762 3:1 4:15 #
0.0006432126897840969139211186877958 1:-1.5881804 2:0.92000002 3:2 4:63 #
0.0006432126897840969139211186877958 1:-0.92172027 2:0.42857143 3:14 4:0 #
0.0006432126897840969139211186877958 1:0.36699575 2:0.69999999 3:1 4:18 #
-0.0006432126897840969139211186877958 1:-0.72287422 2:0.49618322 3:1 4:13 #
-0.0006432126897840969139211186877958 1:0.31297997 2:0.71084338 3:1 4:15 #
0.0006432126897840969139211186877958 1:-0.39213499 2:0.54347825 3:33 4:29 #
-0.0006432126897840969139211186877958 1:-0.0014236772 2:0.64864862 3:22 4:84 #
0.0006432126897840969139211186877958 1:-0.48758203 2:0.78260869 3:2 4:39 #
-0.0006432126897840969139211186877958 1:1.0064954 2:0.69696969 3:1 4:16 #
0.0006432126897840969139211186877958 1:-0.22408892 2:0.62790698 3:34 4:24 #
-0.0006432126897840969139211186877958 1:-3.0692086 2:0.54913294 3:3 4:31 #
-0.0006432126897840969139211186877958 1:-2.5556955 2:0.57372653 3:1 4:13 #
0.0006432126897840969139211186877958 1:-0.029475925 2:0.73913044 3:7 4:60 #
0.0006432126897840969139211186877958 1:-1.6528418 2:0.43478259 3:23 4:0 #
-0.0006432126897840969139211186877958 1:0.39666086 2:0.58333331 3:1 4:48 #
-0.0006432126897840969139211186877958 1:-3.5847847 2:0.52808988 3:4 4:30 #
-0.0006432126897840969139211186877958 1:-0.45887032 2:0.73214287 3:1 4:15 #
0.0006432126897840969139211186877958 1:1.2662297 2:0.68888891 3:33 4:28 #
0.0006432126897840969139211186877958 1:0.99846786 2:0.66666669 3:27 4:0 #
0.0006432126897840969139211186877958 1:-0.029475925 2:0.73913044 3:7 4:60 #
0.0006432126897840969139211186877958 1:0.073276356 2:0.76190478 3:4 4:36 #
-0.0006432126897840969139211186877958 1:0.73803592 2:0.59420288 3:2 4:13 #
0.0006432126897840969139211186877958 1:-1.4015645 2:0.64285713 3:26 4:40 #
0.0006432126897840969139211186877958 1:-0.93848753 2:0.58139533 3:32 4:24 #
-0.0006432126897840969139211186877958 1:0.53485656 2:0.6785714 3:1 4:16 #
0.0006432126897840969139211186877958 1:3.713238 2:0.625 3:30 4:36 #
0.0006432126897840969139211186877958 1:-0.38837701 2:0.63636363 3:11 4:0 #
-0.0006432126897840969139211186877958 1:-0.39627227 2:0.51208794 3:15 4:13 #
-0.0006432126897840969139211186877958 1:3.7115731 2:0.64985996 3:1 4:32 #
0.0006432126897840969139211186877958 1:-2.9162276 2:0.78125 3:6 4:56 #
-0.0006432126897840969139211186877958 1:-0.90068322 2:0.67741936 3:2 4:13 #
0.0006432126897840969139211186877958 1:0.62580144 2:0.7631579 3:7 4:60 #
0.0006432126897840969139211186877958 1:-0.30909786 2:0.5 3:12 4:0 #
-0.0006432126897840969139211186877958 1:1.7039533 2:0.56595743 3:38 4:84 #
-0.0006432126897840969139211186877958 1:2.27636 2:0.59036142 3:1 4:17 #
0.0006432126897840969139211186877958 1:2.1938906 2:0.54545456 3:11 4:0 #
-0.0006432126897840969139211186877958 1:-1.2839013 2:0.49302325 3:2 4:27 #
-0.0006432126897840969139211186877958 1:-0.21417467 2:0.68939394 3:1 4:16 #
-0.0006432126897840969139211186877958 1:0.58461785 2:0.78409094 3:1 4:19 #
0.0006432126897840969139211186877958 1:1.2626415 2:0.59090906 3:32 4:23 #
0.0006432126897840969139211186877958 1:-0.79674268 2:0.66666669 3:1 4:13 #
-0.0006432126897840969139211186877958 1:-0.26431414 2:0.82978725 3:1 4:46 #
0.0006432126897840969139211186877958 1:1.4634125 2:0.79487181 3:12 4:56 #
0.0006432126897840969139211186877958 1:-0.71576697 2:0.375 3:16 4:0 #
-0.0006432126897840969139211186877958 1:1.0498612 2:0.56716418 3:1 4:15 #
0.0006432126897840969139211186877958 1:-1.0475409 2:0.62222224 3:30 4:32 #
0.0006432126897840969139211186877958 1:0.9675374 2:0.29411766 3:17 4:0 #
-0.0006432126897840969139211186877958 1:-2.715843 2:0.66666669 3:1 4:14 #
0.0006432126897840969139211186877958 1:-0.84832191 2:0.62222224 3:30 4:32 #
0.0006432126897840969139211186877958 1:-2.0021703 2:0.52173913 3:23 4:0 #
-0.0006432126897840969139211186877958 1:0.97956133 2:0.51666665 3:4 4:12 #
-0.0006432126897840969139211186877958 1:-0.27039048 2:0.7037037 3:18 4:76 #
-0.0006432126897840969139211186877958 1:-0.76452261 2:0.69736844 3:9 4:67 #
0.0006432126897840969139211186877958 1:-1.2777644 2:0.54166669 3:24 4:0 #
-0.0006432126897840969139211186877958 1:0.47312242 2:0.52941179 3:1 4:14 #
0.0006432126897840969139211186877958 1:-0.95984811 2:0.5 3:28 4:36 #
0.0006432126897840969139211186877958 1:2.2138929 2:0.69999999 3:10 4:0 #
0.0006432126897840969139211186877958 1:0.37573153 2:0.60000002 3:5 4:27 #
0.0006432126897840969139211186877958 1:-2.7724786 2:0.59090906 3:28 4:34 #
-0.0006432126897840969139211186877958 1:-2.5464523 2:0.50187266 3:11 4:18 #
-0.0006432126897840969139211186877958 1:-1.5427009 2:0.51376146 3:1 4:13 #
-0.0006432126897840969139211186877958 1:1.3296273 2:0.88235295 3:1 4:35 #
-0.0006432126897840969139211186877958 1:-1.5504582 2:0.58823532 3:18 4:25 #
0.0006432126897840969139211186877958 1:-0.67526269 2:0.51351351 3:31 4:15 #
0.0006432126897840969139211186877958 1:2.6218944 2:0.5 3:26 4:0 #
-0.0006432126897840969139211186877958 1:-0.47599688 2:0.46085012 3:1 4:13 #
-0.0006432126897840969139211186877958 1:3.0339191 2:0.54655868 3:1 4:18 #
-0.0006432126897840969139211186877958 1:2.5578594 2:0.78571427 3:3 4:22 #
0.0006432126897840969139211186877958 1:-3.5070982 2:0.56410259 3:24 4:29 #
-0.0006432126897840969139211186877958 1:-3.4986091 2:0.50397879 3:1 4:13 #
0.0006432126897840969139211186877958 1:0.6457485 2:0.68000001 3:6 4:36 #
0.0006432126897840969139211186877958 1:0.54956746 2:0.73333335 3:3 4:20 #
0.0006432126897840969139211186877958 1:-0.96337354 2:0.89999998 3:2 4:63 #
-0.0006432126897840969139211186877958 1:1.0912379 2:0.50684929 3:2 4:13 #
0.0006432126897840969139211186877958 1:-0.58710378 2:0.78787881 3:10 4:57 #
-0.0006432126897840969139211186877958 1:2.6806557 2:0.6825397 3:8 4:15 #
0.0006432126897840969139211186877958 1:1.2323467 2:0.66666669 3:6 4:20 #
0.0006432126897840969139211186877958 1:2.4776645 2:0.64583331 3:27 4:40 #
-0.0006432126897840969139211186877958 1:3.9227636 2:0.52597404 3:1 4:22 #
0.0006432126897840969139211186877958 1:-1.4040316 2:0.60465115 3:29 4:30 #
0.0006432126897840969139211186877958 1:2.465179 2:0.57692307 3:26 4:0 #
0.0006432126897840969139211186877958 1:0.4823896 2:0.79411763 3:9 4:58 #
-0.0006432126897840969139211186877958 1:1.0087923 2:0.59708738 3:3 4:13 #
0.0006432126897840969139211186877958 1:-0.50860441 2:0.65909094 3:10 4:56 #
0.0006432126897840969139211186877958 1:1.7403852 2:0.47999999 3:25 4:0 #
0.0006432126897840969139211186877958 1:-0.87975299 2:0.84375 3:1 4:62 #
0.0006432126897840969139211186877958 1:-2.0021703 2:0.52173913 3:23 4:0 #
0.0006432126897840969139211186877958 1:-0.066660933 2:0.66666669 3:3 4:24 #
0.0006432126897840969139211186877958 1:-0.10253347 2:0.8125 3:2 4:28 #
0.0006432126897840969139211186877958 1:0.72442067 2:0.75 3:4 4:24 #
-0.0006432126897840969139211186877958 1:-3.8979592 2:0.74358976 3:5 4:59 #
0.0006432126897840969139211186877958 1:-0.64479744 2:0.89285713 3:1 4:63 #
-0.0006432126897840969139211186877958 1:1.1068364 2:0.83999997 3:1 4:44 #
-0.0006432126897840969139211186877958 1:1.0691625 2:0.6736111 3:1 4:17 #
0.0006432126897840969139211186877958 1:-0.87582064 2:0.52499998 3:29 4:30 #
0.0006432126897840969139211186877958 1:0.60478467 2:0.66666669 3:3 4:20 #
-0.0006432126897840969139211186877958 1:-1.9462746 2:0.67708331 3:11 4:64 #
0.0006432126897840969139211186877958 1:-0.44119209 2:0.93333334 3:1 4:38 #
-0.0006432126897840969139211186877958 1:0.58735979 2:0.55348837 3:22 4:18 #
-0.0006432126897840969139211186877958 1:-1.309085 2:0.66666669 3:11 4:29 #
-0.0006432126897840969139211186877958 1:1.6359597 2:0.48589343 3:1 4:15 #
0.0006432126897840969139211186877958 1:0.10360016 2:0.68421054 3:5 4:29 #
0.0006432126897840969139211186877958 1:1.2599119 2:0.63999999 3:8 4:19 #
-0.0006432126897840969139211186877958 1:-3.277782 2:0.4937107 3:1 4:16 #
0.0006432126897840969139211186877958 1:-1.2700671 2:0.54166669 3:24 4:0 #
-0.0006432126897840969139211186877958 1:-1.1683424 2:0.45689654 3:1 4:13 #
-0.0006432126897840969139211186877958 1:2.38151 2:0.57978725 3:1 4:18 #
-0.0006432126897840969139211186877958 1:3.5032415 2:0.55208331 3:1 4:22 #
0.0006432126897840969139211186877958 1:-4.1066184 2:0.62857145 3:17 4:42 #
-0.0006432126897840969139211186877958 1:0.091569111 2:0.51945078 3:1 4:48 #
-0.0006432126897840969139211186877958 1:-1.5924656 2:0.47924528 3:1 4:13 #
0.0006432126897840969139211186877958 1:0.47300926 2:0.70833331 3:8 4:34 #
-0.0006432126897840969139211186877958 1:0.62144321 2:0.58558559 3:29 4:19 #
-0.0006432126897840969139211186877958 1:-1.4136418 2:0.54545456 3:18 4:18 #
0.0006432126897840969139211186877958 1:-2.604178 2:0.80645162 3:3 4:57 #
-0.0006432126897840969139211186877958 1:1.5845652 2:0.73394495 3:1 4:45 #
-0.0006432126897840969139211186877958 1:1.0588752 2:0.75862068 3:1 4:19 #
0.0006432126897840969139211186877958 1:1.8863809 2:0.61904764 3:9 4:23 #
0.0006432126897840969139211186877958 1:1.7524536 2:0.54285717 3:9 4:15 #
0.0006432126897840969139211186877958 1:0.94528753 2:0.51999998 3:25 4:0 #
-0.0006432126897840969139211186877958 1:0.59301734 2:0.54433495 3:2 4:13 #
0.0006432126897840969139211186877958 1:-1.7376745 2:0.76666665 3:8 4:57 #
0.0006432126897840969139211186877958 1:-2.0634012 2:0.56521738 3:23 4:0 #
0.0006432126897840969139211186877958 1:-2.9166474 2:0.57894737 3:19 4:0 #
0.0006432126897840969139211186877958 1:-0.42717618 2:0.68421054 3:3 4:27 #
-0.0006432126897840969139211186877958 1:-1.9462746 2:0.67708331 3:11 4:64 #
0.0006432126897840969139211186877958 1:0.52077627 2:0.75999999 3:3 4:24 #
-0.0006432126897840969139211186877958 1:-0.96874887 2:0.40211639 3:1 4:13 #
0.0006432126897840969139211186877958 1:0.2722916 2:0.68421054 3:6 4:25 #
0.0006432126897840969139211186877958 1:0.70654929 2:0.70833331 3:3 4:29 #
0.0006432126897840969139211186877958 1:0.21929243 2:0.66666669 3:29 4:34 #
-0.0006432126897840969139211186877958 1:0.39358413 2:0.5 3:1 4:14 #
0.0006432126897840969139211186877958 1:0.31227511 2:0.3611111 3:29 4:14 #
-0.0006432126897840969139211186877958 1:2.2808247 2:0.63043481 3:3 4:15 #
0.0006432126897840969139211186877958 1:-1.4015645 2:0.64285713 3:26 4:40 #
0.0006432126897840969139211186877958 1:1.4946973 2:0.56 3:25 4:0 #
0.0006432126897840969139211186877958 1:-0.67823255 2:0.53658539 3:30 4:24 #
0.0006432126897840969139211186877958 1:0.16735713 2:0.68181819 3:6 4:27 #
0.0006432126897840969139211186877958 1:1.0828286 2:0.2857143 3:21 4:0 #
0.0006432126897840969139211186877958 1:-1.4015645 2:0.64285713 3:26 4:40 #
0.0006432126897840969139211186877958 1:-4.5051818 2:0.64285713 3:9 4:31 #
-0.0006432126897840969139211186877958 1:0.079959907 2:0.52132702 3:2 4:13 #
-0.0006432126897840969139211186877958 1:-2.1310549 2:0.57692307 3:10 4:15 #
0.0006432126897840969139211186877958 1:0.038565677 2:0.55882353 3:29 4:13 #
-0.0006432126897840969139211186877958 1:-1.101359 2:0.40233237 3:1 4:13 #
-0.0006432126897840969139211186877958 1:-0.035384897 2:0.49322492 3:20 4:13 #
0.0006432126897840969139211186877958 1:1.6403111 2:0.60000002 3:25 4:0 #
-0.0006432126897840969139211186877958 1:-3.4776545 2:0.53370786 3:3 4:28 #
-0.0006432126897840969139211186877958 1:1.2641685 2:0.54515052 3:1 4:15 #
-0.0006432126897840969139211186877958 1:-0.012530856 2:0.55447942 3:12 4:64 #
0.0006432126897840969139211186877958 1:-1.3520496 2:0.9285714 3:1 4:61 #
-0.0006432126897840969139211186877958 1:3.6481457 2:0.62068963 3:1 4:27 #
-0.0006432126897840969139211186877958 1:0.64354557 2:0.62827224 3:27 4:72 #
-0.0006432126897840969139211186877958 1:-0.50987327 2:0.53754944 3:23 4:17 #
0.0006432126897840969139211186877958 1:-1.6593806 2:0.60869563 3:23 4:0 #
-0.0006432126897840969139211186877958 1:-2.2175195 2:0.50340134 3:5 4:57 #
0.0006432126897840969139211186877958 1:0.7245509 2:0.69565219 3:6 4:34 #
-0.0006432126897840969139211186877958 1:-2.1766236 2:0.5408805 3:11 4:15 #
-0.0006432126897840969139211186877958 1:2.35955 2:0.53784859 3:1 4:45 #
0.0006432126897840969139211186877958 1:-3.0707548 2:0.51219511 3:28 4:18 #
-0.0006432126897840969139211186877958 1:-0.30056334 2:0.51870322 3:2 4:13 #
-0.0006432126897840969139211186877958 1:0.92073715 2:0.76666665 3:2 4:16 #
0.0006432126897840969139211186877958 1:-1.4015645 2:0.64285713 3:26 4:40 #
-0.0006432126897840969139211186877958 1:3.4177957 2:0.65517241 3:1 4:27 #
0.0006432126897840969139211186877958 1:2.5282779 2:0.60000002 3:25 4:0 #
-0.0006432126897840969139211186877958 1:1.4867424 2:0.8214286 3:1 4:26 #
0.0006432126897840969139211186877958 1:0.89871287 2:0.5777778 3:30 4:26 #
-0.0006432126897840969139211186877958 1:-1.0597045 2:0.94736844 3:1 4:43 #
-0.0006432126897840969139211186877958 1:1.4875265 2:0.85714287 3:1 4:41 #
0.0006432126897840969139211186877958 1:-1.4015645 2:0.64285713 3:26 4:40 #
0.0006432126897840969139211186877958 1:4.0761495 2:0.60000002 3:25 4:0 #
-0.0006432126897840969139211186877958 1:-0.62961394 2:0.5236842 3:1 4:48 #
-0.0006432126897840969139211186877958 1:-0.080332361 2:0.49731183 3:6 4:11 #
-0.0006432126897840969139211186877958 1:-0.1545856 2:0.52681386 3:21 4:13 #
0.0006432126897840969139211186877958 1:0.078677088 2:0.74358976 3:1 4:25 #
0.0006432126897840969139211186877958 1:-0.073438764 2:0.47826087 3:23 4:0 #
-0.0006432126897840969139211186877958 1:1.2474583 2:0.55094337 3:5 4:12 #
0.0006432126897840969139211186877958 1:0.9455353 2:0.72222221 3:7 4:31 #
-0.0006432126897840969139211186877958 1:-1.651657 2:0.53181821 3:6 4:57 #
0.0006432126897840969139211186877958 1:-0.31764132 2:0.58333331 3:29 4:18 #
0.0006432126897840969139211186877958 1:-2.8740878 2:0.58823532 3:17 4:0 #
-0.0006432126897840969139211186877958 1:2.4845436 2:0.56845236 3:1 4:44 #
-0.0006432126897840969139211186877958 1:0.14916787 2:0.48070174 3:8 4:11 #
-0.0006432126897840969139211186877958 1:1.7011231 2:0.57783639 3:4 4:13 #
0.0006432126897840969139211186877958 1:1.0470506 2:0.76190478 3:6 4:33 #
0.0006432126897840969139211186877958 1:-0.39817968 2:0.81481481 3:1 4:21 #
-0.0006432126897840969139211186877958 1:-2.1459491 2:0.72727275 3:22 4:71 #
-0.0006432126897840969139211186877958 1:1.3661821 2:0.51898736 3:1 4:15 #
-0.0006432126897840969139211186877958 1:1.5809206 2:0.45510834 3:1 4:15 #
0.0006432126897840969139211186877958 1:-1.4015645 2:0.64285713 3:26 4:40 #
-0.0006432126897840969139211186877958 1:-3.4845388 2:0.44272447 3:1 4:13 #
-0.0006432126897840969139211186877958 1:-2.866658 2:0.70731705 3:1 4:47 #
-0.0006432126897840969139211186877958 1:0.98569906 2:0.52380955 3:5 4:12 #
-0.0006432126897840969139211186877958 1:0.096516639 2:0.5345912 3:26 4:26 #
-0.0006432126897840969139211186877958 1:0.99903989 2:0.60638297 3:2 4:14 #
-0.0006432126897840969139211186877958 1:-2.1013961 2:0.52380955 3:14 4:18 #
0.0006432126897840969139211186877958 1:-0.25769567 2:0.72222221 3:1 4:35 #
0.0006432126897840969139211186877958 1:-2.1298194 2:0.71794873 3:20 4:45 #
0.0006432126897840969139211186877958 1:-1.9643633 2:0.625 3:1 4:28 #
0.0006432126897840969139211186877958 1:-0.15209486 2:0.66666669 3:23 4:38 #
-0.0006432126897840969139211186877958 1:0.6429823 2:0.44162437 3:30 4:22 #
0.0006432126897840969139211186877958 1:-0.19226111 2:0.7368421 3:4 4:28 #
0.0006432126897840969139211186877958 1:0.2491812 2:0.78048778 3:7 4:59 #
0.0006432126897840969139211186877958 1:-0.71967727 2:0.77142859 3:8 4:58 #
0.0006432126897840969139211186877958 1:-3.0918274 2:0.60526317 3:21 4:40 #
-0.0006432126897840969139211186877958 1:0.96646667 2:0.86363637 3:1 4:42 #
-0.0006432126897840969139211186877958 1:-0.80651051 2:0.94444442 3:1 4:42 #
0.0006432126897840969139211186877958 1:-0.8858462 2:0.64999998 3:22 4:37 #
-0.0006432126897840969139211186877958 1:-2.7767751 2:0.94117647 3:1 4:41 #
-0.0006432126897840969139211186877958 1:-0.87003678 2:0.90909094 3:1 4:25 #
0.0006432126897840969139211186877958 1:-1.4102014 2:0.51282054 3:21 4:40 #
-0.0006432126897840969139211186877958 1:-0.44537607 2:0.50964189 3:21 4:13 #
-0.0006432126897840969139211186877958 1:-1.6263289 2:0.63636363 3:2 4:13 #
0.0006432126897840969139211186877958 1:-0.36094856 2:0.7368421 3:6 4:32 #
-0.0006432126897840969139211186877958 1:1.861931 2:0.58354115 3:1 4:45 #
-0.0006432126897840969139211186877958 1:-2.1988449 2:0.59649122 3:2 4:13 #
0.0006432126897840969139211186877958 1:-3.5341942 2:0.59090906 3:3 4:26 #
-0.0006432126897840969139211186877958 1:3.6699679 2:0.5592705 3:1 4:25 #
0.0006432126897840969139211186877958 1:-1.5735247 2:0.51111114 3:27 4:31 #
-0.0006432126897840969139211186877958 1:2.1203735 2:0.80952382 3:1 4:32 #
0.0006432126897840969139211186877958 1:-2.7482915 2:0.57894737 3:21 4:40 #
0.0006432126897840969139211186877958 1:-2.3109353 2:0.53125 3:11 4:40 #
0.0006432126897840969139211186877958 1:0.68314409 2:0.70833331 3:4 4:31 #
0.0006432126897840969139211186877958 1:-1.0262709 2:0.58974361 3:21 4:36 #
-0.0006432126897840969139211186877958 1:1.8400522 2:0.7647059 3:1 4:25 #
0.0006432126897840969139211186877958 1:-0.26187062 2:0.66666669 3:22 4:42 #
-0.0006432126897840969139211186877958 1:-0.2839106 2:0.50724638 3:26 4:23 #
-0.0006432126897840969139211186877958 1:-1.6128796 2:0.5863747 3:1 4:47 #
-0.0006432126897840969139211186877958 1:-0.38698259 2:0.9375 3:1 4:38 #
-0.0006432126897840969139211186877958 1:-0.085190751 2:0.52008927 3:1 4:47 #
0.0006432126897840969139211186877958 1:-1.1694812 2:0.44117647 3:11 4:32 #
-0.0006432126897840969139211186877958 1:-0.15032262 2:0.93333334 3:1 4:37 #
0.0006432126897840969139211186877958 1:-0.87941468 2:0.60975611 3:21 4:36 #
-0.0006432126897840969139211186877958 1:1.4437696 2:0.75 3:1 4:40 #
0.0006432126897840969139211186877958 1:0.45836103 2:0.61904764 3:1 4:18 #
-0.0006432126897840969139211186877958 1:-3.7400494 2:0.82758623 3:1 4:42 #
0.0006432126897840969139211186877958 1:-1.3079572 2:0.63829786 3:21 4:38 #
0.0006432126897840969139211186877958 1:-3.1877074 2:0.68421054 3:21 4:42 #
0.0006432126897840969139211186877958 1:-0.68221748 2:0.64705884 3:20 4:36 #
0.0006432126897840969139211186877958 1:0.56539434 2:0.61904764 3:6 4:24 #
-0.0006432126897840969139211186877958 1:-0.97102821 2:0.75757575 3:2 4:14 #
0.0006432126897840969139211186877958 1:0.19461621 2:0.68181819 3:21 4:44 #
-0.0006432126897840969139211186877958 1:0.9495706 2:0.63375795 3:2 4:48 #
-0.0006432126897840969139211186877958 1:2.0153861 2:0.5741325 3:1 4:17 #
0.0006432126897840969139211186877958 1:-4.1446662 2:0.6111111 3:4 4:29 #
0.0006432126897840969139211186877958 1:-4.1066184 2:0.60869563 3:6 4:31 #
-0.0006432126897840969139211186877958 1:1.5015296 2:0.86666667 3:4 4:28 #
-0.0006432126897840969139211186877958 1:-3.5581231 2:0.62703961 3:6 4:57 #
0.0006432126897840969139211186877958 1:0.28743169 2:0.65714288 3:20 4:36 #
-0.0006432126897840969139211186877958 1:-0.11923811 2:0.54368931 3:19 4:29 #
0.0006432126897840969139211186877958 1:-0.34864458 2:0.57575756 3:18 4:34 #
-0.0006432126897840969139211186877958 1:-1.3954047 2:0.56542057 3:9 4:26 #
-0.0006432126897840969139211186877958 1:0.99525779 2:0.54205608 3:1 4:15 #
-0.0006432126897840969139211186877958 1:3.0831084 2:0.55769229 3:7 4:14 #
0.0006432126897840969139211186877958 1:-0.60571611 2:0.7647059 3:1 4:29 #
-0.0006432126897840969139211186877958 1:-0.0028949725 2:0.5546875 3:33 4:75 #
-0.0006432126897840969139211186877958 1:-3.3529353 2:0.60000002 3:1 4:14 #
-0.0006432126897840969139211186877958 1:-3.1566217 2:0.6397059 3:12 4:64 #
0.0006432126897840969139211186877958 1:-1.0066375 2:0.66666669 3:20 4:45 #
0.0006432126897840969139211186877958 1:-2.5048079 2:0.80000001 3:1 4:23 #
-0.0006432126897840969139211186877958 1:-0.96874887 2:0.64429528 3:1 4:15 #
-0.0006432126897840969139211186877958 1:-2.7265756 2:0.93333334 3:1 4:38 #
0.0006432126897840969139211186877958 1:-0.84109688 2:0.57575756 3:2 4:24 #
-0.0006432126897840969139211186877958 1:-1.7069716 2:0.56701028 3:1 4:14 #
0.0006432126897840969139211186877958 1:0.92009711 2:0.53658539 3:20 4:42 #
0.0006432126897840969139211186877958 1:-0.70172989 2:0.65714288 3:20 4:39 #
-0.0006432126897840969139211186877958 1:-1.7570208 2:0.89999998 3:1 4:23 #
0.0006432126897840969139211186877958 1:-3.0583043 2:0.60000002 3:5 4:25 #
-0.0006432126897840969139211186877958 1:-1.9916972 2:0.61290324 3:2 4:13 #
0.0006432126897840969139211186877958 1:-0.94192672 2:0.60975611 3:20 4:43 #
-0.0006432126897840969139211186877958 1:0.55847663 2:0.72881359 3:2 4:47 #
0.0006432126897840969139211186877958 1:-0.57612497 2:0.67647058 3:19 4:36 #
0.0006432126897840969139211186877958 1:-0.16995993 2:0.8888889 3:2 4:38 #
-0.0006432126897840969139211186877958 1:-1.6499369 2:0.59183675 3:24 4:70 #
0.0006432126897840969139211186877958 1:-1.1413357 2:0.64516127 3:15 4:32 #
-0.0006432126897840969139211186877958 1:-0.84990472 2:0.53763443 3:2 4:13 #
0.0006432126897840969139211186877958 1:0.6405136 2:0.79166669 3:7 4:41 #
0.0006432126897840969139211186877958 1:-2.8382442 2:0.66666669 3:3 4:24 #
-0.0006432126897840969139211186877958 1:2.7167685 2:0.61453742 3:1 4:41 #
-0.0006432126897840969139211186877958 1:-0.75605989 2:0.53252035 3:25 4:70 #
0.0006432126897840969139211186877958 1:-3.936007 2:0.6875 3:4 4:25 #
-0.0006432126897840969139211186877958 1:-1.9166654 2:0.46938777 3:11 4:29 #
-0.0006432126897840969139211186877958 1:-1.1300263 2:0.53801167 3:1 4:14 #
-0.0006432126897840969139211186877958 1:0.02970539 2:0.73076922 3:22 4:63 #
0.0006432126897840969139211186877958 1:-2.283021 2:0.66666669 3:1 4:24 #
-0.0006432126897840969139211186877958 1:3.075238 2:0.48630136 3:1 4:43 #
0.0006432126897840969139211186877958 1:-1.6750863 2:0.69444442 3:19 4:38 #
-0.0006432126897840969139211186877958 1:1.0624467 2:0.7368421 3:2 4:46 #
0.0006432126897840969139211186877958 1:-0.078902312 2:0.72727275 3:20 4:38 #
-0.0006432126897840969139211186877958 1:-1.3547535 2:0.70212764 3:1 4:16 #
0.0006432126897840969139211186877958 1:-0.27391133 2:0.66666669 3:20 4:45 #
-0.0006432126897840969139211186877958 1:-1.5275007 2:0.69999999 3:19 4:64 #
-0.0006432126897840969139211186877958 1:-3.4692776 2:0.61832058 3:7 4:58 #
0.0006432126897840969139211186877958 1:1.0828286 2:0.51612902 3:17 4:34 #
-0.0006432126897840969139211186877958 1:-0.47664118 2:0.53333336 3:24 4:21 #
0.0006432126897840969139211186877958 1:-1.2937011 2:0.625 3:19 4:42 #
-0.0006432126897840969139211186877958 1:1.4437696 2:0.72727275 3:1 4:41 #
0.0006432126897840969139211186877958 1:-0.64720327 2:0.62222224 3:1 4:24 #
0.0006432126897840969139211186877958 1:1.7261841 2:0.67567569 3:20 4:39 #
-0.0006432126897840969139211186877958 1:-2.40609 2:0.82758623 3:5 4:51 #
0.0006432126897840969139211186877958 1:-0.056872852 2:0.75 3:2 4:30 #
-0.0006432126897840969139211186877958 1:-0.13858759 2:0.61157024 3:1 4:15 #
0.0006432126897840969139211186877958 1:-1.7651253 2:0.67441863 3:6 4:53 #
-0.0006432126897840969139211186877958 1:-0.99617559 2:0.67281103 3:1 4:45 #
0.0006432126897840969139211186877958 1:-1.3476777 2:0.57894737 3:17 4:35 #
0.0006432126897840969139211186877958 1:1.7121489 2:0.68292683 3:20 4:44 #
-0.0006432126897840969139211186877958 1:-0.55108488 2:0.61904764 3:5 4:13 #
-0.0006432126897840969139211186877958 1:-0.58450139 2:0.72727275 3:3 4:17 #
-0.0006432126897840969139211186877958 1:2.5837295 2:0.56270099 3:1 4:43 #
0.0006432126897840969139211186877958 1:-0.17542282 2:0.70588237 3:19 4:37 #
0.0006432126897840969139211186877958 1:0.97413468 2:0.69999999 3:8 4:32 #
0.0006432126897840969139211186877958 1:-1.8691819 2:0.60714287 3:15 4:33 #
-0.0006432126897840969139211186877958 1:-3.4845388 2:0.73134327 3:1 4:17 #
0.0006432126897840969139211186877958 1:0.59465826 2:0.71428573 3:3 4:34 #
-0.0006432126897840969139211186877958 1:-1.2006099 2:0.67647058 3:3 4:13 #
0.0006432126897840969139211186877958 1:-0.46341443 2:0.9375 3:1 4:40 #
0.0006432126897840969139211186877958 1:0.7770859 2:0.74074072 3:6 4:40 #
-0.0006432126897840969139211186877958 1:-0.42513886 2:0.53545231 3:2 4:48 #
0.0006432126897840969139211186877958 1:-1.1696749 2:0.69999999 3:17 4:34 #
0.0006432126897840969139211186877958 1:-2.8798645 2:0.66666669 3:10 4:50 #
-0.0006432126897840969139211186877958 1:-1.3915384 2:0.41690964 3:17 4:14 #
0.0006432126897840969139211186877958 1:-2.2329595 2:0.6875 3:3 4:24 #
-0.0006432126897840969139211186877958 1:-0.49023116 2:0.68674701 3:15 4:62 #
-0.0006432126897840969139211186877958 1:2.0109501 2:0.60220993 3:1 4:43 #
-0.0006432126897840969139211186877958 1:2.151495 2:0.50952381 3:1 4:43 #
0.0006432126897840969139211186877958 1:-1.3727733 2:0.63157892 3:19 4:40 #
0.0006432126897840969139211186877958 1:0.89326197 2:0.62162161 3:19 4:38 #
0.0006432126897840969139211186877958 1:0.85359681 2:0.66666669 3:6 4:40 #
0.0006432126897840969139211186877958 1:-0.26684925 2:0.60465115 3:19 4:41 #
0.0006432126897840969139211186877958 1:-2.0128481 2:0.66666669 3:12 4:30 #
-0.0006432126897840969139211186877958 1:-1.7165314 2:0.53439152 3:2 4:13 #
0.0006432126897840969139211186877958 1:0.51916003 2:0.71052629 3:15 4:51 #
-0.0006432126897840969139211186877958 1:1.32508 2:0.82352942 3:1 4:31 #
0.0006432126897840969139211186877958 1:-2.5375555 2:0.56521738 3:17 4:41 #
-0.0006432126897840969139211186877958 1:-1.9421651 2:0.64583331 3:1 4:46 #
0.0006432126897840969139211186877958 1:2.8865371 2:0.65957445 3:19 4:39 #
0.0006432126897840969139211186877958 1:-2.4971187 2:0.8888889 3:1 4:58 #
0.0006432126897840969139211186877958 1:-1.3234228 2:0.58536583 3:18 4:44 #
-0.0006432126897840969139211186877958 1:-1.9012051 2:0.6057269 3:8 4:57 #
0.0006432126897840969139211186877958 1:-2.4029818 2:0.71428573 3:3 4:24 #
0.0006432126897840969139211186877958 1:-0.59445596 2:0.60000002 3:19 4:40 #
0.0006432126897840969139211186877958 1:-0.038953129 2:0.60526317 3:1 4:42 #
-0.0006432126897840969139211186877958 1:-2.9074318 2:0.83333331 3:1 4:38 #
-0.0006432126897840969139211186877958 1:-1.6499369 2:0.54404145 3:11 4:13 #
-0.0006432126897840969139211186877958 1:0.2154195 2:0.78260869 3:1 4:39 #
-0.0006432126897840969139211186877958 1:-0.26398149 2:0.7037037 3:25 4:61 #
-0.0006432126897840969139211186877958 1:1.4223775 2:0.81818181 3:2 4:22 #
0.0006432126897840969139211186877958 1:-1.6421376 2:0.6875 3:1 4:24 #
0.0006432126897840969139211186877958 1:-0.83203417 2:0.56410259 3:2 4:26 #
-0.0006432126897840969139211186877958 1:-0.56852293 2:0.48816568 3:8 4:57 #
0.0006432126897840969139211186877958 1:0.093803316 2:0.59375 3:16 4:33 #
-0.0006432126897840969139211186877958 1:1.5190892 2:0.49275362 3:30 4:19 #
-0.0006432126897840969139211186877958 1:0.56851429 2:0.5299539 3:21 4:7 #
0.0006432126897840969139211186877958 1:-2.5784276 2:0.75 3:2 4:24 #
-0.0006432126897840969139211186877958 1:-2.893831 2:0.51020408 3:3 4:51 #
0.0006432126897840969139211186877958 1:-1.4162512 2:0.625 3:15 4:33 #
0.0006432126897840969139211186877958 1:-2.1896241 2:0.65517241 3:14 4:33 #
0.0006432126897840969139211186877958 1:-1.6033038 2:0.60000002 3:18 4:39 #
-0.0006432126897840969139211186877958 1:0.14276932 2:0.60119045 3:1 4:44 #
-0.0006432126897840969139211186877958 1:-1.2330276 2:0.50335568 3:9 4:57 #
-0.0006432126897840969139211186877958 1:0.72977507 2:0.73809522 3:1 4:40 #
-0.0006432126897840969139211186877958 1:-0.86726314 2:0.72340423 3:2 4:35 #
-0.0006432126897840969139211186877958 1:-1.0310231 2:0.5714286 3:17 4:63 #
-0.0006432126897840969139211186877958 1:-3.8093448 2:0.52392346 3:1 4:14 #
-0.0006432126897840969139211186877958 1:-3.6512396 2:0.52234638 3:3 4:19 #
-0.0006432126897840969139211186877958 1:1.1221381 2:0.59061831 3:1 4:16 #
-0.0006432126897840969139211186877958 1:-1.9296689 2:0.60869563 3:11 4:14 #
0.0006432126897840969139211186877958 1:1.0828286 2:0.47826087 3:23 4:0 #
0.0006432126897840969139211186877958 1:-1.2927974 2:0.48717949 3:2 4:13 #
0.0006432126897840969139211186877958 1:-0.40816531 2:0.56521738 3:23 4:0 #
0.0006432126897840969139211186877958 1:0.20409955 2:0.65957445 3:1 4:28 #
0.0006432126897840969139211186877958 1:-4.1286693 2:0.80000001 3:1 4:27 #
-0.0006432126897840969139211186877958 1:-0.75605989 2:0.46418339 3:19 4:14 #
-0.0006432126897840969139211186877958 1:-1.3753285 2:0.4765625 3:2 4:13 #
0.0006432126897840969139211186877958 1:-0.34181863 2:0.63636363 3:11 4:0 #
-0.0006432126897840969139211186877958 1:-1.0413276 2:0.46687698 3:1 4:46 #
0.0006432126897840969139211186877958 1:0.90825176 2:0.47826087 3:23 4:0 #
0.0006432126897840969139211186877958 1:-1.0550138 2:0.78125 3:1 4:28 #
0.0006432126897840969139211186877958 1:-1.173341 2:0.88235295 3:1 4:36 #
0.0006432126897840969139211186877958 1:-1.3037592 2:0.60465115 3:27 4:31 #
-0.0006432126897840969139211186877958 1:-1.2942824 2:0.54566211 3:1 4:14 #
-0.0006432126897840969139211186877958 1:1.7524536 2:0.5 3:28 4:9 #
0.0006432126897840969139211186877958 1:-2.8334062 2:0.57894737 3:19 4:30 #
-0.0006432126897840969139211186877958 1:-2.7145562 2:0.55778897 3:13 4:60 #
0.0006432126897840969139211186877958 1:2.9754267 2:0.625 3:24 4:0 #
-0.0006432126897840969139211186877958 1:-1.7209235 2:0.58139533 3:7 4:54 #
0.0006432126897840969139211186877958 1:-0.71270478 2:0.65517241 3:16 4:30 #
-0.0006432126897840969139211186877958 1:-2.3268108 2:0.55944055 3:5 4:12 #
0.0006432126897840969139211186877958 1:-2.6521678 2:0.57894737 3:26 4:30 #
-0.0006432126897840969139211186877958 1:-2.6937585 2:0.58104736 3:2 4:13 #
0.0006432126897840969139211186877958 1:-2.1894977 2:0.60000002 3:6 4:29 #
0.0006432126897840969139211186877958 1:-2.6521678 2:0.57894737 3:26 4:30 #
-0.0006432126897840969139211186877958 1:0.89885843 2:0.58203125 3:2 4:14 #
-0.0006432126897840969139211186877958 1:-0.92392355 2:0.55829597 3:1 4:45 #
-0.0006432126897840969139211186877958 1:-1.9018754 2:0.48638132 3:13 4:10 #
-0.0006432126897840969139211186877958 1:0.58387578 2:0.56270099 3:1 4:15 #
-0.0006432126897840969139211186877958 1:0.2471378 2:0.50213677 3:19 4:9 #
-0.0006432126897840969139211186877958 1:0.24800408 2:0.75757575 3:1 4:20 #
-0.0006432126897840969139211186877958 1:-0.017091902 2:0.59044367 3:1 4:15 #
0.0006432126897840969139211186877958 1:-1.1863377 2:0.4375 3:16 4:0 #
-0.0006432126897840969139211186877958 1:-1.3040859 2:0.48283261 3:10 4:16 #
0.0006432126897840969139211186877958 1:-0.31767583 2:0.5 3:26 4:38 #
0.0006432126897840969139211186877958 1:-0.82722509 2:0.72727275 3:11 4:0 #
0.0006432126897840969139211186877958 1:2.5023923 2:0.66666669 3:24 4:0 #
0.0006432126897840969139211186877958 1:0.94952834 2:0.47826087 3:23 4:0 #
0.0006432126897840969139211186877958 1:-1.2801731 2:0.89655173 3:1 4:60 #
0.0006432126897840969139211186877958 1:-1.4888915 2:0.53658539 3:29 4:27 #
0.0006432126897840969139211186877958 1:1.0714542 2:0.56521738 3:23 4:0 #
-0.0006432126897840969139211186877958 1:2.4350677 2:0.59134614 3:1 4:20 #
-0.0006432126897840969139211186877958 1:1.0374696 2:0.66777408 3:1 4:40 #
-0.0006432126897840969139211186877958 1:-0.30468643 2:0.80000001 3:1 4:37 #
0.0006432126897840969139211186877958 1:-1.0193698 2:0.53658539 3:29 4:24 #
0.0006432126897840969139211186877958 1:-0.96008521 2:0.55263156 3:29 4:24 #
-0.0006432126897840969139211186877958 1:-2.3693776 2:0.55197132 3:4 4:20 #
-0.0006432126897840969139211186877958 1:-3.1634927 2:0.50793654 3:2 4:13 #
0.0006432126897840969139211186877958 1:0.074871659 2:0.80000001 3:4 4:41 #
0.0006432126897840969139211186877958 1:0.57089531 2:0.69999999 3:2 4:27 #
0.0006432126897840969139211186877958 1:-0.015267872 2:0.74074072 3:5 4:18 #
0.0006432126897840969139211186877958 1:-0.87582064 2:0.53846157 3:13 4:0 #
-0.0006432126897840969139211186877958 1:-1.2022558 2:0.52173913 3:1 4:14 #
-0.0006432126897840969139211186877958 1:0.78096533 2:0.58536583 3:27 4:10 #
0.0006432126897840969139211186877958 1:-0.068822607 2:0.79166669 3:2 4:43 #
-0.0006432126897840969139211186877958 1:1.4591306 2:0.55555558 3:1 4:16 #
0.0006432126897840969139211186877958 1:-0.50755161 2:0.7368421 3:2 4:31 #
-0.0006432126897840969139211186877958 1:-1.7570208 2:0.55238098 3:1 4:45 #
0.0006432126897840969139211186877958 1:1.0824256 2:0.75 3:6 4:15 #
-0.0006432126897840969139211186877958 1:-2.4411137 2:0.53801167 3:11 4:34 #
-0.0006432126897840969139211186877958 1:1.0824256 2:0.47727272 3:1 4:15 #
0.0006432126897840969139211186877958 1:0.74906373 2:0.61904764 3:26 4:38 #
-0.0006432126897840969139211186877958 1:-1.0581383 2:0.59420288 3:20 4:25 #
-0.0006432126897840969139211186877958 1:1.1505567 2:0.52959502 3:1 4:43 #
0.0006432126897840969139211186877958 1:-1.2129089 2:0.63636363 3:22 4:0 #
0.0006432126897840969139211186877958 1:0.32303277 2:0.78947371 3:8 4:29 #
-0.0006432126897840969139211186877958 1:-1.8407184 2:0.51127821 3:2 4:13 #
0.0006432126897840969139211186877958 1:1.2011873 2:0.76190478 3:9 4:27 #
0.0006432126897840969139211186877958 1:-1.5681297 2:0.53333336 3:15 4:0 #
-0.0006432126897840969139211186877958 1:-0.7590276 2:0.45695364 3:1 4:14 #
-0.0006432126897840969139211186877958 1:0.60478467 2:0.45689654 3:28 4:10 #
-0.0006432126897840969139211186877958 1:-0.89160305 2:0.54852319 3:2 4:46 #
-0.0006432126897840969139211186877958 1:0.98925883 2:0.56783921 3:1 4:42 #
0.0006432126897840969139211186877958 1:-2.2257807 2:0.5714286 3:21 4:0 #
-0.0006432126897840969139211186877958 1:-1.2013735 2:0.57590359 3:9 4:55 #
-0.0006432126897840969139211186877958 1:-2.0064979 2:0.50413221 3:2 4:13 #
0.0006432126897840969139211186877958 1:-0.25267074 2:0.85714287 3:1 4:46 #
-0.0006432126897840969139211186877958 1:1.4670209 2:0.62666667 3:5 4:13 #
0.0006432126897840969139211186877958 1:-1.2142601 2:0.8125 3:5 4:58 #
0.0006432126897840969139211186877958 1:-0.86905855 2:0.47619048 3:21 4:0 #
-0.0006432126897840969139211186877958 1:3.0978835 2:0.53167421 3:1 4:22 #
0.0006432126897840969139211186877958 1:-0.95878762 2:0.5106383 3:28 4:32 #
0.0006432126897840969139211186877958 1:0.24467219 2:0.46153846 3:13 4:0 #
0.0006432126897840969139211186877958 1:-0.11203625 2:0.64705884 3:1 4:13 #
-0.0006432126897840969139211186877958 1:-3.7379909 2:0.72500002 3:5 4:51 #
0.0006432126897840969139211186877958 1:0.78319961 2:0.65217394 3:23 4:0 #
-0.0006432126897840969139211186877958 1:-0.88857985 2:0.60294116 3:3 4:13 #
0.0006432126897840969139211186877958 1:0.82367921 2:0.7647059 3:7 4:30 #
-0.0006432126897840969139211186877958 1:2.5837295 2:0.47072598 3:1 4:17 #
0.0006432126897840969139211186877958 1:-1.443051 2:0.62790698 3:26 4:36 #
0.0006432126897840969139211186877958 1:0.108261 2:0.5 3:22 4:0 #
0.0006432126897840969139211186877958 1:1.0753181 2:0.78947371 3:6 4:29 #
-0.0006432126897840969139211186877958 1:2.538589 2:0.578125 3:1 4:38 #
-0.0006432126897840969139211186877958 1:4.5082264 2:0.579602 3:39 4:17 #
0.0006432126897840969139211186877958 1:-3.8184788 2:0.75862068 3:4 4:48 #
-0.0006432126897840969139211186877958 1:-1.5588757 2:0.45812806 3:5 4:16 #
0.0006432126897840969139211186877958 1:0.62928534 2:0.67441863 3:26 4:36 #
-0.0006432126897840969139211186877958 1:2.4210696 2:0.49681529 3:1 4:17 #
0.0006432126897840969139211186877958 1:-0.43892941 2:0.60975611 3:29 4:28 #
-0.0006432126897840969139211186877958 1:-1.1658677 2:0.5316456 3:16 4:14 #
0.0006432126897840969139211186877958 1:1.4438207 2:0.60869563 3:23 4:0 #
0.0006432126897840969139211186877958 1:0.7953881 2:0.68421054 3:6 4:32 #
-0.0006432126897840969139211186877958 1:-1.1900365 2:0.5184136 3:1 4:14 #
0.0006432126897840969139211186877958 1:1.0477734 2:0.78378379 3:9 4:56 #
0.0006432126897840969139211186877958 1:0.16278575 2:0.86666667 3:1 4:26 #
-0.0006432126897840969139211186877958 1:0.73476893 2:0.54744524 3:1 4:15 #
-0.0006432126897840969139211186877958 1:2.5258203 2:0.55963302 3:1 4:19 #
0.0006432126897840969139211186877958 1:-3.3008566 2:0.62857145 3:26 4:26 #
-0.0006432126897840969139211186877958 1:0.78206253 2:0.55909091 3:2 4:14 #
0.0006432126897840969139211186877958 1:0.20132126 2:0.77777779 3:13 4:52 #
0.0006432126897840969139211186877958 1:1.1474386 2:0.5 3:12 4:0 #
-0.0006432126897840969139211186877958 1:4.1349106 2:0.53457445 3:7 4:18 #
0.0006432126897840969139211186877958 1:-3.7042878 2:0.83333331 3:4 4:51 #
0.0006432126897840969139211186877958 1:3.7047174 2:0.45454547 3:22 4:0 #
-0.0006432126897840969139211186877958 1:-3.2760594 2:0.56190479 3:1 4:14 #
0.0006432126897840969139211186877958 1:0.29720652 2:0.54761904 3:27 4:32 #
0.0006432126897840969139211186877958 1:1.5076369 2:0.60869563 3:23 4:0 #
-0.0006432126897840969139211186877958 1:1.957135 2:0.50980395 3:3 4:14 #
0.0006432126897840969139211186877958 1:1.4867002 2:0.72727275 3:8 4:26 #
0.0006432126897840969139211186877958 1:-0.19495016 2:0.42857143 3:21 4:0 #
-0.0006432126897840969139211186877958 1:0.45385888 2:0.7368421 3:1 4:31 #
0.0006432126897840969139211186877958 1:2.3929746 2:0.56521738 3:23 4:0 #
0.0006432126897840969139211186877958 1:-0.34720409 2:0.79310346 3:7 4:57 #
-0.0006432126897840969139211186877958 1:2.9665928 2:0.45514223 3:1 4:32 #
0.0006432126897840969139211186877958 1:0.54488647 2:0.5 3:22 4:0 #
0.0006432126897840969139211186877958 1:-1.0514863 2:0.60526317 3:25 4:34 #
0.0006432126897840969139211186877958 1:2.0807195 2:0.63636363 3:11 4:0 #
-0.0006432126897840969139211186877958 1:1.235732 2:0.62105262 3:1 4:31 #
-0.0006432126897840969139211186877958 1:3.5222898 2:0.52193993 3:1 4:31 #
0.0006432126897840969139211186877958 1:0.63218254 2:0.5 3:22 4:0 #
0.0006432126897840969139211186877958 1:-0.13360068 2:0.76190478 3:3 4:37 #
-0.0006432126897840969139211186877958 1:1.2550991 2:0.72000003 3:1 4:30 #
0.0006432126897840969139211186877958 1:-0.055709127 2:0.60000002 3:29 4:25 #
-0.0006432126897840969139211186877958 1:-0.33727556 2:0.71291864 3:1 4:30 #
-0.0006432126897840969139211186877958 1:-4.3073816 2:0.75 3:1 4:28 #
0.0006432126897840969139211186877958 1:1.4578884 2:0.51020408 3:28 4:18 #
0.0006432126897840969139211186877958 1:1.0030112 2:0.5 3:27 4:14 #
-0.0006432126897840969139211186877958 1:-4.3016019 2:0.53670883 3:1 4:19 #
-0.0006432126897840969139211186877958 1:2.7161708 2:0.52462524 3:1 4:31 #
-0.0006432126897840969139211186877958 1:-2.4546843 2:0.52212387 3:1 4:19 #
-0.0006432126897840969139211186877958 1:1.0480202 2:0.76923078 3:1 4:24 #
0.0006432126897840969139211186877958 1:-0.27826756 2:0.64285713 3:28 4:28 #
0.0006432126897840969139211186877958 1:-1.4600114 2:0.5151515 3:2 4:13 #
-0.0006432126897840969139211186877958 1:-0.75265026 2:0.85714287 3:2 4:29 #
-0.0006432126897840969139211186877958 1:0.033768006 2:0.54705882 3:16 4:11 #
0.0006432126897840969139211186877958 1:-0.38512272 2:0.47619048 3:21 4:0 #
-0.0006432126897840969139211186877958 1:1.0673958 2:0.72727275 3:8 4:23 #
0.0006432126897840969139211186877958 1:0.60478467 2:0.5 3:3 4:11 #
0.0006432126897840969139211186877958 1:1.1603125 2:0.33333334 3:18 4:0 #
-0.0006432126897840969139211186877958 1:-0.071047939 2:0.59829062 3:15 4:13 #
-0.0006432126897840969139211186877958 1:1.5368878 2:0.52835053 3:1 4:31 #
0.0006432126897840969139211186877958 1:0.37493855 2:0.46153846 3:13 4:0 #
-0.0006432126897840969139211186877958 1:-0.91772473 2:0.56089741 3:22 4:30 #
-0.0006432126897840969139211186877958 1:-0.51930219 2:0.54893619 3:19 4:24 #
-0.0006432126897840969139211186877958 1:3.0534155 2:0.55445546 3:1 4:30 #
0.0006432126897840969139211186877958 1:-0.2600534 2:0.72727275 3:11 4:0 #
-0.0006432126897840969139211186877958 1:-2.9224079 2:0.55743241 3:8 4:21 #
0.0006432126897840969139211186877958 1:0.46746925 2:0.78947371 3:8 4:26 #
-0.0006432126897840969139211186877958 1:2.2087779 2:0.60122699 3:1 4:30 #
0.0006432126897840969139211186877958 1:-0.32528663 2:0.53846157 3:13 4:0 #
0.0006432126897840969139211186877958 1:-3.7301064 2:0.7368421 3:1 4:20 #
-0.0006432126897840969139211186877958 1:-0.48897919 2:0.82352942 3:2 4:29 #
0.0006432126897840969139211186877958 1:0.66235936 2:0.46153846 3:13 4:0 #
0.0006432126897840969139211186877958 1:-0.0062462608 2:0.80952382 3:4 4:41 #
-0.0006432126897840969139211186877958 1:0.0056259413 2:0.51181102 3:15 4:13 #
0.0006432126897840969139211186877958 1:-0.36375907 2:0.80952382 3:1 4:35 #
-0.0006432126897840969139211186877958 1:1.2599571 2:0.55813956 3:1 4:30 #
-0.0006432126897840969139211186877958 1:1.3476697 2:0.54010695 3:2 4:30 #
-0.0006432126897840969139211186877958 1:1.3378394 2:0.58762884 3:3 4:29 #
-0.0006432126897840969139211186877958 1:-1.0391985 2:0.45676276 3:14 4:15 #
-0.0006432126897840969139211186877958 1:-0.84834826 2:0.59863943 3:14 4:13 #
0.0006432126897840969139211186877958 1:1.5708674 2:0.71428573 3:9 4:26 #
0.0006432126897840969139211186877958 1:-1.2403036 2:1 3:1 4:59 #
0.0006432126897840969139211186877958 1:-0.38723177 2:0.84848487 3:1 4:57 #
-0.0006432126897840969139211186877958 1:-0.19495016 2:0.44128114 3:17 4:21 #
0.0006432126897840969139211186877958 1:-3.7476037 2:0.77777779 3:10 4:36 #
0.0006432126897840969139211186877958 1:1.0756897 2:0.65217394 3:23 4:0 #
0.0006432126897840969139211186877958 1:-1.4684507 2:0.64864862 3:26 4:31 #
-0.0006432126897840969139211186877958 1:0.33252478 2:0.66666669 3:11 4:54 #
0.0006432126897840969139211186877958 1:-2.2993441 2:0.71428573 3:21 4:0 #
-0.0006432126897840969139211186877958 1:-2.3782122 2:0.5714286 3:1 4:45 #
-0.0006432126897840969139211186877958 1:0.70837885 2:0.71523178 3:3 4:39 #
-0.0006432126897840969139211186877958 1:1.6266687 2:0.53758544 3:1 4:40 #
-0.0006432126897840969139211186877958 1:0.76600277 2:0.54347825 3:18 4:17 #
-0.0006432126897840969139211186877958 1:-0.057709094 2:0.58518517 3:1 4:43 #
-0.0006432126897840969139211186877958 1:-1.4666655 2:0.63636363 3:19 4:21 #
0.0006432126897840969139211186877958 1:-1.5855323 2:0.52941179 3:17 4:0 #
0.0006432126897840969139211186877958 1:0.83363765 2:0.75 3:9 4:28 #
-0.0006432126897840969139211186877958 1:0.023065459 2:0.66000003 3:1 4:41 #
0.0006432126897840969139211186877958 1:2.4585385 2:0.51282054 3:28 4:27 #
0.0006432126897840969139211186877958 1:0.043437704 2:0.84210527 3:1 4:37 #
-0.0006432126897840969139211186877958 1:1.5021721 2:0.53221959 3:1 4:41 #
0.0006432126897840969139211186877958 1:-0.87003678 2:0.44117647 3:27 4:22 #
-0.0006432126897840969139211186877958 1:0.13531747 2:0.58974361 3:1 4:41 #
-0.0006432126897840969139211186877958 1:1.7039533 2:0.79166669 3:4 4:39 #
0.0006432126897840969139211186877958 1:0.86077255 2:0.70833331 3:7 4:28 #
0.0006432126897840969139211186877958 1:-0.056671537 2:0.41176471 3:17 4:0 #
-0.0006432126897840969139211186877958 1:-1.2435864 2:0.71052629 3:22 4:32 #
-0.0006432126897840969139211186877958 1:-1.7141294 2:0.8888889 3:2 4:41 #
0.0006432126897840969139211186877958 1:-2.1290321 2:0.58823532 3:25 4:29 #
-0.0006432126897840969139211186877958 1:0.730914 2:0.53676468 3:1 4:41 #
-0.0006432126897840969139211186877958 1:-0.020546563 2:0.46969697 3:23 4:15 #
-0.0006432126897840969139211186877958 1:0.85873646 2:0.58563536 3:2 4:40 #
0.0006432126897840969139211186877958 1:-0.49301139 2:0.5945946 3:25 4:31 #
-0.0006432126897840969139211186877958 1:-3.8093448 2:0.57959181 3:1 4:40 #
-0.0006432126897840969139211186877958 1:1.7601573 2:0.73972601 3:12 4:37 #
0.0006432126897840969139211186877958 1:-2.28232 2:0.39285713 3:16 4:19 #
0.0006432126897840969139211186877958 1:0.34833175 2:0.77777779 3:6 4:36 #
-0.0006432126897840969139211186877958 1:1.9317552 2:0.7027027 3:16 4:47 #
0.0006432126897840969139211186877958 1:0.15847684 2:0.6111111 3:1 4:27 #
-0.0006432126897840969139211186877958 1:-2.4151566 2:0.75999999 3:4 4:48 #
-0.0006432126897840969139211186877958 1:0.11042863 2:0.56144071 3:5 4:38 #
-0.0006432126897840969139211186877958 1:2.6806557 2:0.62857145 3:22 4:32 #
