SVM-light Version V6.02
0 # kernel type
3 # kernel parameter -d 
1 # kernel parameter -g 
1 # kernel parameter -s 
1 # kernel parameter -r 
empty# kernel parameter -u 
4 # highest feature index 
16298 # number of training documents 
8127 # number of support vectors plus 1 
-0.72783186 # threshold b, each following line is a SV (starting with alpha*y)
-0.00062832789088716593534772458795601 1:-1.2145224 2:0.6122449 3:2 4:13 #
-0.00062832789088716593534772458795601 1:-1.9147141 2:0.65517241 3:13 4:29 #
-0.00062832789088716593534772458795601 1:-3.4461594 2:0.56074768 3:8 4:28 #
0.00062832789088716593534772458795601 1:-1.4189558 2:0.54347825 3:46 4:0 #
-0.00062832789088716593534772458795601 1:3.2031567 2:0.72727275 3:11 4:0 #
0.00062832789088716593534772458795601 1:-0.67531168 2:0.94117647 3:1 4:41 #
-0.00062832789088716593534772458795601 1:-0.047927078 2:0.69999999 3:10 4:0 #
-0.00062832789088716593534772458795601 1:0.053606447 2:0.66410255 3:1 4:122 #
-0.00062832789088716593534772458795601 1:-1.1711597 2:0.60404623 3:1 4:122 #
0.00062832789088716593534772458795601 1:-0.23795022 2:0.74358976 3:2 4:36 #
-0.00062832789088716593534772458795601 1:-0.73600376 2:0.55494505 3:20 4:43 #
0.00062832789088716593534772458795601 1:0.42314231 2:0.7647059 3:5 4:23 #
-0.00062832789088716593534772458795601 1:0.47088498 2:0.55263156 3:1 4:9 #
0.00062832789088716593534772458795601 1:0.37985909 2:0.8888889 3:11 4:101 #
-0.00062832789088716593534772458795601 1:-1.6766634 2:0.60000002 3:10 4:0 #
0.00062832789088716593534772458795601 1:-2.8591356 2:0.60000002 3:10 4:0 #
-0.00062832789088716593534772458795601 1:-0.19696596 2:0.78666669 3:4 4:124 #
0.00062832789088716593534772458795601 1:-2.2249579 2:0.69999999 3:10 4:0 #
0.00062832789088716593534772458795601 1:-1.3021704 2:0.40000001 3:10 4:0 #
-0.00062832789088716593534772458795601 1:0.90067315 2:0.64503819 3:1 4:132 #
0.00062832789088716593534772458795601 1:-0.91928107 2:0.5 3:10 4:0 #
-0.00062832789088716593534772458795601 1:-0.80170298 2:0.54368931 3:19 4:35 #
0.00062832789088716593534772458795601 1:0.37985909 2:0.8888889 3:11 4:101 #
0.00062832789088716593534772458795601 1:1.8498991 2:0.72727275 3:11 4:0 #
-0.00062832789088716593534772458795601 1:-0.83414781 2:0.48787063 3:2 4:8 #
-0.00062832789088716593534772458795601 1:0.74688762 2:0.63636363 3:11 4:0 #
0.00062832789088716593534772458795601 1:-0.33235702 2:0.84444445 3:1 4:98 #
0.00062832789088716593534772458795601 1:-0.29812455 2:0.80000001 3:13 4:85 #
-0.00062832789088716593534772458795601 1:-1.3490425 2:0.49247313 3:2 4:8 #
-0.00062832789088716593534772458795601 1:0.5651747 2:0.72727275 3:11 4:0 #
0.00062832789088716593534772458795601 1:0.43466413 2:0.78260869 3:6 4:38 #
0.00062832789088716593534772458795601 1:0.43732971 2:0.66666669 3:5 4:26 #
-0.00062832789088716593534772458795601 1:3.2031567 2:0.55035126 3:1 4:11 #
0.00062832789088716593534772458795601 1:-1.7478637 2:0.79545456 3:5 4:87 #
0.00062832789088716593534772458795601 1:0.56747711 2:0.77777779 3:7 4:43 #
-0.00062832789088716593534772458795601 1:2.738795 2:0.56185567 3:1 4:11 #
-0.00062832789088716593534772458795601 1:2.0082378 2:0.52108431 3:1 4:23 #
-0.00062832789088716593534772458795601 1:3.9074318 2:0.59006214 3:1 4:19 #
-0.00062832789088716593534772458795601 1:0.88123685 2:0.52083331 3:1 4:11 #
-0.00062832789088716593534772458795601 1:1.5344498 2:0.55555558 3:18 4:0 #
-0.00062832789088716593534772458795601 1:-2.350143 2:0.66666669 3:12 4:0 #
0.00062832789088716593534772458795601 1:-2.8802578 2:0.57446808 3:32 4:35 #
0.00062832789088716593534772458795601 1:0.58403552 2:0.80000001 3:7 4:24 #
-0.00062832789088716593534772458795601 1:-2.60236 2:0.54838711 3:1 4:10 #
0.00062832789088716593534772458795601 1:-1.611148 2:0.72093022 3:22 4:63 #
-0.00062832789088716593534772458795601 1:2.1511045 2:0.54175591 3:1 4:11 #
0.00062832789088716593534772458795601 1:-0.078349985 2:0.67391306 3:16 4:72 #
-0.00062832789088716593534772458795601 1:1.035129 2:0.59340662 3:32 4:34 #
-0.00062832789088716593534772458795601 1:-2.1972899 2:0.44680852 3:1 4:11 #
-0.00062832789088716593534772458795601 1:-4.5359907 2:0.56097561 3:1 4:13 #
-0.00062832789088716593534772458795601 1:-2.1773791 2:0.51136363 3:9 4:17 #
-0.00062832789088716593534772458795601 1:2.6199369 2:0.81784385 3:1 4:450 #
0.00062832789088716593534772458795601 1:0.82307786 2:0.83333331 3:7 4:84 #
-0.00062832789088716593534772458795601 1:2.1511045 2:0.54175591 3:1 4:11 #
-0.00062832789088716593534772458795601 1:-1.1713356 2:0.42857143 3:14 4:0 #
-0.00062832789088716593534772458795601 1:-0.059483223 2:0.75 3:16 4:0 #
-0.00062832789088716593534772458795601 1:3.6408229 2:0.80000001 3:1 4:17 #
0.00062832789088716593534772458795601 1:-0.52867651 2:0.69999999 3:10 4:0 #
-0.00062832789088716593534772458795601 1:1.6114156 2:0.47183099 3:1 4:11 #
-0.00062832789088716593534772458795601 1:2.3752418 2:0.49681529 3:1 4:12 #
0.00062832789088716593534772458795601 1:0.022869593 2:0.69999999 3:10 4:0 #
0.00062832789088716593534772458795601 1:0.23878546 2:0.60000002 3:10 4:0 #
-0.00062832789088716593534772458795601 1:0.079976574 2:0.557971 3:1 4:11 #
-0.00062832789088716593534772458795601 1:1.9138595 2:0.51458883 3:1 4:12 #
0.00062832789088716593534772458795601 1:0.56559443 2:0.69999999 3:10 4:0 #
0.00062832789088716593534772458795601 1:1.1990066 2:0.69999999 3:10 4:0 #
-0.00062832789088716593534772458795601 1:1.3177693 2:0.75490195 3:1 4:12 #
0.00062832789088716593534772458795601 1:1.2766823 2:0.69999999 3:10 4:0 #
-0.00062832789088716593534772458795601 1:-1.9496161 2:0.5714286 3:14 4:0 #
-0.00062832789088716593534772458795601 1:2.3727596 2:0.54389721 3:1 4:13 #
0.00062832789088716593534772458795601 1:1.3410782 2:0.69999999 3:10 4:0 #
0.00062832789088716593534772458795601 1:1.7178682 2:0.69999999 3:10 4:0 #
-0.00062832789088716593534772458795601 1:1.426861 2:0.48091602 3:1 4:12 #
-0.00062832789088716593534772458795601 1:1.8390326 2:0.4789916 3:5 4:9 #
0.00062832789088716593534772458795601 1:1.068794 2:0.69999999 3:6 4:37 #
0.00062832789088716593534772458795601 1:-0.089550674 2:0.80952382 3:1 4:34 #
-0.00062832789088716593534772458795601 1:2.1871278 2:0.53937948 3:1 4:13 #
0.00062832789088716593534772458795601 1:0.79827237 2:0.71428573 3:5 4:17 #
-0.00062832789088716593534772458795601 1:0.87498361 2:0.57894737 3:19 4:0 #
-0.00062832789088716593534772458795601 1:1.557803 2:0.51999998 3:25 4:0 #
-0.00062832789088716593534772458795601 1:-3.37989 2:0.58405173 3:6 4:41 #
0.00062832789088716593534772458795601 1:-4.8331771 2:0.48837209 3:31 4:21 #
-0.00062832789088716593534772458795601 1:-1.0583861 2:0.64705884 3:17 4:0 #
0.00062832789088716593534772458795601 1:1.7970632 2:0.64705884 3:10 4:18 #
0.00062832789088716593534772458795601 1:-0.85895836 2:0.52272725 3:44 4:0 #
-0.00062832789088716593534772458795601 1:0.35986817 2:0.48922414 3:2 4:81 #
0.00062832789088716593534772458795601 1:1.6367441 2:0.69999999 3:11 4:22 #
0.00062832789088716593534772458795601 1:-2.350143 2:0.82051283 3:15 4:73 #
0.00062832789088716593534772458795601 1:-1.0378711 2:0.27272728 3:11 4:0 #
0.00062832789088716593534772458795601 1:-1.1532896 2:0.52272725 3:44 4:0 #
-0.00062832789088716593534772458795601 1:0.015518553 2:0.55000001 3:1 4:11 #
0.00062832789088716593534772458795601 1:-0.87671936 2:0.77272725 3:5 4:84 #
-0.00062832789088716593534772458795601 1:-1.6197696 2:0.51715684 3:1 4:11 #
-0.00062832789088716593534772458795601 1:-0.5098871 2:0.51700681 3:6 4:7 #
0.00062832789088716593534772458795601 1:-2.3989613 2:0.80000001 3:6 4:83 #
0.00062832789088716593534772458795601 1:3.1344278 2:0.5 3:38 4:0 #
0.00062832789088716593534772458795601 1:0.89698482 2:0.6111111 3:6 4:21 #
0.00062832789088716593534772458795601 1:-0.068343282 2:0.85000002 3:2 4:40 #
-0.00062832789088716593534772458795601 1:-0.98102367 2:0.51258582 3:21 4:24 #
-0.00062832789088716593534772458795601 1:-0.55724931 2:0.52644837 3:1 4:11 #
0.00062832789088716593534772458795601 1:-1.5286748 2:0.81818181 3:6 4:82 #
-0.00062832789088716593534772458795601 1:1.1585023 2:0.50632912 3:1 4:12 #
0.00062832789088716593534772458795601 1:1.3448527 2:0.68181819 3:8 4:36 #
0.00062832789088716593534772458795601 1:-4.2749615 2:0.79166669 3:2 4:45 #
0.00062832789088716593534772458795601 1:-0.28937781 2:0.82857144 3:6 4:82 #
-0.00062832789088716593534772458795601 1:-0.42499393 2:0.68201756 3:1 4:362 #
0.00062832789088716593534772458795601 1:-1.6554818 2:0.51219511 3:41 4:0 #
0.00062832789088716593534772458795601 1:-1.577448 2:0.40816328 3:41 4:23 #
0.00062832789088716593534772458795601 1:-1.5810922 2:0.55102038 3:42 4:18 #
0.00062832789088716593534772458795601 1:-1.7966394 2:0.625 3:12 4:24 #
0.00062832789088716593534772458795601 1:-4.4215722 2:0.75 3:4 4:46 #
-0.00062832789088716593534772458795601 1:2.6446056 2:0.7241379 3:1 4:15 #
0.00062832789088716593534772458795601 1:0.63153481 2:0.875 3:6 4:81 #
-0.00062832789088716593534772458795601 1:-1.8474147 2:0.64864862 3:1 4:12 #
-0.00062832789088716593534772458795601 1:0.69995958 2:0.61500001 3:2 4:52 #
-0.00062832789088716593534772458795601 1:-2.2754219 2:0.5 3:9 4:36 #
0.00062832789088716593534772458795601 1:0.16457112 2:0.53191489 3:33 4:36 #
0.00062832789088716593534772458795601 1:0.75517392 2:0.78947371 3:6 4:31 #
0.00062832789088716593534772458795601 1:-1.5735173 2:0.73913044 3:20 4:59 #
0.00062832789088716593534772458795601 1:0.057719044 2:0.75 3:2 4:27 #
-0.00062832789088716593534772458795601 1:-2.9739079 2:0.54545456 3:2 4:11 #
-0.00062832789088716593534772458795601 1:0.59850997 2:0.47732696 3:14 4:17 #
-0.00062832789088716593534772458795601 1:0.20718843 2:0.59310347 3:1 4:12 #
-0.00062832789088716593534772458795601 1:1.2376984 2:0.46534654 3:1 4:12 #
0.00062832789088716593534772458795601 1:-1.364408 2:0.52173913 3:37 4:24 #
-0.00062832789088716593534772458795601 1:1.4333353 2:0.89999998 3:1 4:19 #
-0.00062832789088716593534772458795601 1:0.30783781 2:0.55555558 3:1 4:12 #
-0.00062832789088716593534772458795601 1:-4.1339626 2:0.57591623 3:1 4:13 #
0.00062832789088716593534772458795601 1:-0.93976986 2:0.43478259 3:33 4:30 #
0.00062832789088716593534772458795601 1:-0.67531168 2:0.52631581 3:38 4:0 #
-0.00062832789088716593534772458795601 1:3.6445737 2:0.5487805 3:1 4:18 #
-0.00062832789088716593534772458795601 1:2.6845365 2:0.6891892 3:1 4:15 #
0.00062832789088716593534772458795601 1:0.83147043 2:0.48979592 3:32 4:31 #
0.00062832789088716593534772458795601 1:-0.2636371 2:0.51162791 3:32 4:28 #
0.00062832789088716593534772458795601 1:-1.9928938 2:0.56818181 3:39 4:13 #
-0.00062832789088716593534772458795601 1:-1.1237289 2:0.57894737 3:19 4:0 #
-0.00062832789088716593534772458795601 1:3.4818523 2:0.64285713 3:1 4:40 #
0.00062832789088716593534772458795601 1:1.146746 2:0.75999999 3:10 4:30 #
-0.00062832789088716593534772458795601 1:-3.3073235 2:0.48809522 3:1 4:13 #
0.00062832789088716593534772458795601 1:0.97588581 2:0.53061223 3:37 4:20 #
0.00062832789088716593534772458795601 1:-2.3978086 2:0.53061223 3:32 4:29 #
0.00062832789088716593534772458795601 1:-3.3635576 2:0.71428573 3:1 4:15 #
-0.00062832789088716593534772458795601 1:0.64628869 2:0.4852941 3:3 4:10 #
0.00062832789088716593534772458795601 1:-2.4887016 2:0.3255814 3:35 4:15 #
-0.00062832789088716593534772458795601 1:1.3177484 2:0.60355031 3:1 4:13 #
-0.00062832789088716593534772458795601 1:-0.68356025 2:0.47147146 3:1 4:12 #
-0.00062832789088716593534772458795601 1:-2.4073143 2:0.55305469 3:1 4:13 #
0.00062832789088716593534772458795601 1:0.057313461 2:0.8125 3:1 4:26 #
0.00062832789088716593534772458795601 1:1.3986508 2:0.71428573 3:14 4:0 #
0.00062832789088716593534772458795601 1:0.42247683 2:0.68181819 3:4 4:30 #
-0.00062832789088716593534772458795601 1:-2.1555767 2:0.57327586 3:3 4:10 #
-0.00062832789088716593534772458795601 1:2.1412461 2:1 3:1 4:35 #
0.00062832789088716593534772458795601 1:-3.9849694 2:0.35714287 3:20 4:16 #
0.00062832789088716593534772458795601 1:0.59106314 2:0.65625 3:6 4:25 #
0.00062832789088716593534772458795601 1:0.65744758 2:0.5869565 3:32 4:29 #
-0.00062832789088716593534772458795601 1:-2.2032285 2:0.53703701 3:2 4:11 #
-0.00062832789088716593534772458795601 1:-0.41712922 2:0.68421054 3:1 4:13 #
-0.00062832789088716593534772458795601 1:0.48849615 2:0.67647058 3:1 4:222 #
-0.00062832789088716593534772458795601 1:-0.38594967 2:0.47619048 3:21 4:0 #
-0.00062832789088716593534772458795601 1:-1.4033438 2:0.5029586 3:10 4:19 #
0.00062832789088716593534772458795601 1:-0.98964459 2:0.60465115 3:1 4:11 #
-0.00062832789088716593534772458795601 1:0.44718069 2:0.46218488 3:1 4:12 #
0.00062832789088716593534772458795601 1:1.2506586 2:0.47916666 3:36 4:21 #
0.00062832789088716593534772458795601 1:-2.5716023 2:0.63999999 3:7 4:37 #
0.00062832789088716593534772458795601 1:-1.097458 2:0.5777778 3:30 4:30 #
-0.00062832789088716593534772458795601 1:-1.1433984 2:0.52328765 3:2 4:11 #
0.00062832789088716593534772458795601 1:0.40308687 2:0.75 3:3 4:28 #
-0.00062832789088716593534772458795601 1:0.069369681 2:0.51999998 3:25 4:0 #
0.00062832789088716593534772458795601 1:0.43718222 2:0.85714287 3:5 4:41 #
0.00062832789088716593534772458795601 1:0.17531176 2:0.75 3:3 4:36 #
-0.00062832789088716593534772458795601 1:0.15735781 2:0.60927153 3:13 4:52 #
0.00062832789088716593534772458795601 1:-3.6763518 2:0.66666669 3:1 4:17 #
-0.00062832789088716593534772458795601 1:2.2236795 2:0.61825728 3:1 4:14 #
0.00062832789088716593534772458795601 1:-2.7452314 2:0.59090906 3:35 4:19 #
-0.00062832789088716593534772458795601 1:-3.7485566 2:0.85714287 3:1 4:18 #
0.00062832789088716593534772458795601 1:-1.9085933 2:0.84210527 3:1 4:38 #
0.00062832789088716593534772458795601 1:0.14197603 2:0.44444445 3:33 4:22 #
0.00062832789088716593534772458795601 1:-0.82562417 2:0.60000002 3:35 4:0 #
0.00062832789088716593534772458795601 1:-1.7732922 2:0.53658539 3:23 4:33 #
0.00062832789088716593534772458795601 1:-2.104763 2:0.5714286 3:28 4:30 #
-0.00062832789088716593534772458795601 1:-4.5359907 2:0.51481479 3:1 4:15 #
0.00062832789088716593534772458795601 1:1.380403 2:0.56818181 3:29 4:30 #
-0.00062832789088716593534772458795601 1:1.564881 2:0.6226415 3:3 4:11 #
-0.00062832789088716593534772458795601 1:-2.2294085 2:0.72619045 3:12 4:39 #
0.00062832789088716593534772458795601 1:-4.4001536 2:0.51428574 3:24 4:29 #
0.00062832789088716593534772458795601 1:0.52509302 2:0.45714286 3:35 4:0 #
-0.00062832789088716593534772458795601 1:-3.4782672 2:0.66666669 3:6 4:174 #
0.00062832789088716593534772458795601 1:3.6426177 2:0.5 3:30 4:0 #
0.00062832789088716593534772458795601 1:-0.77150661 2:0.78571427 3:2 4:24 #
0.00062832789088716593534772458795601 1:-1.8232491 2:0.56097561 3:33 4:21 #
-0.00062832789088716593534772458795601 1:0.32518056 2:0.6025641 3:1 4:13 #
0.00062832789088716593534772458795601 1:-1.4894891 2:0.51219511 3:32 4:22 #
0.00062832789088716593534772458795601 1:0.55800676 2:0.51162791 3:31 4:23 #
0.00062832789088716593534772458795601 1:1.2029432 2:0.57692307 3:6 4:30 #
0.00062832789088716593534772458795601 1:-0.1524566 2:0.51851851 3:1 4:17 #
0.00062832789088716593534772458795601 1:0.190451 2:0.77272725 3:4 4:38 #
-0.00062832789088716593534772458795601 1:0.34590349 2:0.58333331 3:1 4:13 #
0.00062832789088716593534772458795601 1:-0.84489298 2:0.54545456 3:29 4:29 #
0.00062832789088716593534772458795601 1:1.4561244 2:0.64999998 3:8 4:23 #
-0.00062832789088716593534772458795601 1:-1.6920002 2:0.5535714 3:1 4:13 #
-0.00062832789088716593534772458795601 1:0.21064296 2:0.81818181 3:1 4:15 #
-0.00062832789088716593534772458795601 1:1.85733 2:0.60557771 3:1 4:14 #
0.00062832789088716593534772458795601 1:-2.4071949 2:0.47619048 3:30 4:26 #
-0.00062832789088716593534772458795601 1:-3.3004603 2:0.62422359 3:2 4:12 #
-0.00062832789088716593534772458795601 1:-2.3844714 2:0.50980395 3:1 4:13 #
-0.00062832789088716593534772458795601 1:0.79426867 2:0.44117647 3:5 4:10 #
0.00062832789088716593534772458795601 1:-1.7488612 2:0.72000003 3:9 4:37 #
0.00062832789088716593534772458795601 1:1.1212635 2:0.70833331 3:9 4:37 #
0.00062832789088716593534772458795601 1:1.0539255 2:0.61904764 3:26 4:32 #
-0.00062832789088716593534772458795601 1:-1.1109333 2:0.75135136 3:5 4:182 #
-0.00062832789088716593534772458795601 1:-3.1384983 2:0.50660795 3:5 4:27 #
-0.00062832789088716593534772458795601 1:1.8180451 2:0.5960452 3:1 4:14 #
0.00062832789088716593534772458795601 1:-2.5716023 2:0.54761904 3:31 4:23 #
0.00062832789088716593534772458795601 1:0.85710424 2:0.77777779 3:8 4:28 #
-0.00062832789088716593534772458795601 1:-0.025564652 2:0.68663597 3:33 4:449 #
0.00062832789088716593534772458795601 1:1.4112828 2:0.69230771 3:9 4:29 #
0.00062832789088716593534772458795601 1:0.063266218 2:0.8125 3:2 4:31 #
-0.00062832789088716593534772458795601 1:3.0948427 2:0.59740257 3:1 4:16 #
0.00062832789088716593534772458795601 1:-1.9549756 2:0.56410259 3:29 4:28 #
-0.00062832789088716593534772458795601 1:0.055874616 2:0.55648535 3:1 4:13 #
0.00062832789088716593534772458795601 1:-2.6176686 2:0.58620691 3:10 4:36 #
0.00062832789088716593534772458795601 1:0.84702033 2:0.58139533 3:28 4:30 #
-0.00062832789088716593534772458795601 1:0.68280762 2:0.51421189 3:1 4:13 #
0.00062832789088716593534772458795601 1:-2.7159412 2:0.88235295 3:2 4:38 #
-0.00062832789088716593534772458795601 1:2.0384707 2:0.51273882 3:1 4:14 #
0.00062832789088716593534772458795601 1:-3.6904874 2:0.88235295 3:1 4:37 #
-0.00062832789088716593534772458795601 1:1.2371305 2:0.57851237 3:2 4:12 #
0.00062832789088716593534772458795601 1:-3.6402423 2:0.57499999 3:27 4:30 #
-0.00062832789088716593534772458795601 1:-2.9937487 2:0.49137932 3:2 4:12 #
-0.00062832789088716593534772458795601 1:-2.6413333 2:0.54487181 3:6 4:20 #
-0.00062832789088716593534772458795601 1:-4.1339626 2:0.64285713 3:1 4:58 #
-0.00062832789088716593534772458795601 1:0.30915055 2:0.55063289 3:1 4:13 #
0.00062832789088716593534772458795601 1:-0.36444157 2:0.59090906 3:26 4:32 #
-0.00062832789088716593534772458795601 1:-2.3596015 2:0.5025773 3:5 4:9 #
0.00062832789088716593534772458795601 1:-0.72532612 2:0.5151515 3:33 4:0 #
0.00062832789088716593534772458795601 1:1.2349458 2:0.65217394 3:8 4:31 #
0.00062832789088716593534772458795601 1:-0.26760387 2:0.52499998 3:29 4:27 #
0.00062832789088716593534772458795601 1:-2.5321412 2:0.84210527 3:2 4:38 #
-0.00062832789088716593534772458795601 1:2.0609801 2:0.80000001 3:1 4:17 #
0.00062832789088716593534772458795601 1:-2.2688437 2:0.80000001 3:3 4:38 #
0.00062832789088716593534772458795601 1:-0.61859214 2:0.53488374 3:26 4:31 #
-0.00062832789088716593534772458795601 1:-1.520698 2:0.52702701 3:2 4:12 #
0.00062832789088716593534772458795601 1:-0.030719329 2:0.72222221 3:3 4:31 #
-0.00062832789088716593534772458795601 1:-2.3344157 2:0.67948717 3:9 4:17 #
0.00062832789088716593534772458795601 1:-0.88056356 2:0.65853661 3:26 4:31 #
-0.00062832789088716593534772458795601 1:-2.1972899 2:0.50887573 3:1 4:13 #
0.00062832789088716593534772458795601 1:-1.1857487 2:0.5 3:26 4:30 #
-0.00062832789088716593534772458795601 1:-0.65484887 2:0.45278451 3:12 4:42 #
0.00062832789088716593534772458795601 1:-0.063533232 2:0.73076922 3:1 4:38 #
-0.00062832789088716593534772458795601 1:-1.1357365 2:0.5414201 3:1 4:13 #
0.00062832789088716593534772458795601 1:-0.35223922 2:0.84210527 3:1 4:35 #
-0.00062832789088716593534772458795601 1:-1.1310773 2:0.62576687 3:1 4:84 #
0.00062832789088716593534772458795601 1:-1.2353753 2:0.73076922 3:2 4:38 #
-0.00062832789088716593534772458795601 1:-0.47571158 2:0.55172414 3:1 4:13 #
-0.00062832789088716593534772458795601 1:1.7834003 2:0.72670805 3:1 4:80 #
0.00062832789088716593534772458795601 1:-0.46103325 2:0.46875 3:32 4:0 #
0.00062832789088716593534772458795601 1:-0.43793061 2:0.67500001 3:24 4:32 #
0.00062832789088716593534772458795601 1:-3.0175219 2:0.72727275 3:11 4:0 #
-0.00062832789088716593534772458795601 1:3.3244731 2:0.64473683 3:1 4:52 #
-0.00062832789088716593534772458795601 1:0.64973927 2:0.44723618 3:7 4:9 #
-0.00062832789088716593534772458795601 1:-0.98551226 2:0.57589287 3:4 4:156 #
-0.00062832789088716593534772458795601 1:-0.68002874 2:0.539267 3:17 4:31 #
-0.00062832789088716593534772458795601 1:0.57561308 2:0.51190478 3:1 4:13 #
-0.00062832789088716593534772458795601 1:2.7482858 2:0.79411763 3:1 4:55 #
0.00062832789088716593534772458795601 1:-2.7401717 2:0.66666669 3:7 4:31 #
-0.00062832789088716593534772458795601 1:-4.1965909 2:0.54721028 3:1 4:15 #
-0.00062832789088716593534772458795601 1:0.92474788 2:0.64705884 3:1 4:14 #
0.00062832789088716593534772458795601 1:-1.0238888 2:0.74074072 3:3 4:42 #
-0.00062832789088716593534772458795601 1:-0.1974799 2:0.55223882 3:1 4:13 #
-0.00062832789088716593534772458795601 1:-1.585436 2:0.53091687 3:14 4:15 #
-0.00062832789088716593534772458795601 1:-3.5947812 2:0.51479292 3:7 4:20 #
-0.00062832789088716593534772458795601 1:0.50190258 2:0.47674417 3:1 4:13 #
-0.00062832789088716593534772458795601 1:-1.6469646 2:0.5053305 3:13 4:42 #
-0.00062832789088716593534772458795601 1:2.2695017 2:0.4755784 3:3 4:13 #
-0.00062832789088716593534772458795601 1:2.3902221 2:0.78947371 3:1 4:63 #
0.00062832789088716593534772458795601 1:-2.0860963 2:0.47826087 3:29 4:13 #
0.00062832789088716593534772458795601 1:-1.1126758 2:0.75 3:9 4:77 #
0.00062832789088716593534772458795601 1:-0.27520001 2:0.67391306 3:26 4:48 #
0.00062832789088716593534772458795601 1:-3.6763518 2:0.68000001 3:1 4:19 #
-0.00062832789088716593534772458795601 1:-2.7872958 2:0.64356434 3:11 4:18 #
-0.00062832789088716593534772458795601 1:-0.21641849 2:0.51748252 3:1 4:13 #
0.00062832789088716593534772458795601 1:-0.19481917 2:0.43478259 3:31 4:34 #
0.00062832789088716593534772458795601 1:-2.4001501 2:0.84615386 3:6 4:79 #
-0.00062832789088716593534772458795601 1:-0.33882207 2:0.51801801 3:19 4:21 #
-0.00062832789088716593534772458795601 1:-1.0769564 2:0.51139241 3:1 4:13 #
0.00062832789088716593534772458795601 1:0.97588581 2:0.7647059 3:6 4:25 #
0.00062832789088716593534772458795601 1:-0.5389396 2:0.85714287 3:5 4:79 #
-0.00062832789088716593534772458795601 1:-0.34099805 2:0.50986844 3:1 4:13 #
0.00062832789088716593534772458795601 1:0.066636756 2:0.69565219 3:2 4:19 #
-0.00062832789088716593534772458795601 1:2.8470743 2:0.85714287 3:1 4:25 #
-0.00062832789088716593534772458795601 1:3.854404 2:0.73333335 3:13 4:32 #
0.00062832789088716593534772458795601 1:-4.4792218 2:0.62790698 3:19 4:46 #
0.00062832789088716593534772458795601 1:-4.4937773 2:0.65217394 3:9 4:26 #
0.00062832789088716593534772458795601 1:0.31963074 2:0.60606062 3:5 4:28 #
-0.00062832789088716593534772458795601 1:-4.5717258 2:0.50574714 3:2 4:13 #
0.00062832789088716593534772458795601 1:0.75378042 2:0.69999999 3:7 4:38 #
-0.00062832789088716593534772458795601 1:-4.5717258 2:0.50574714 3:2 4:13 #
0.00062832789088716593534772458795601 1:0.49600586 2:0.82352942 3:4 4:34 #
-0.00062832789088716593534772458795601 1:-3.3198352 2:0.54952079 3:8 4:19 #
0.00062832789088716593534772458795601 1:-3.8462713 2:0.74358976 3:2 4:60 #
0.00062832789088716593534772458795601 1:-0.26719892 2:0.63829786 3:27 4:45 #
-0.00062832789088716593534772458795601 1:-1.3207011 2:0.54761904 3:17 4:35 #
0.00062832789088716593534772458795601 1:-1.753713 2:0.61702126 3:27 4:38 #
-0.00062832789088716593534772458795601 1:-1.3264107 2:1 3:1 4:46 #
0.00062832789088716593534772458795601 1:-1.0940384 2:0.66666669 3:26 4:46 #
0.00062832789088716593534772458795601 1:-2.6673443 2:0.55555558 3:25 4:31 #
0.00062832789088716593534772458795601 1:-1.3852329 2:0.5945946 3:25 4:31 #
-0.00062832789088716593534772458795601 1:-0.76639795 2:0.50967741 3:1 4:13 #
0.00062832789088716593534772458795601 1:2.130115 2:0.64444447 3:27 4:41 #
0.00062832789088716593534772458795601 1:-1.4333146 2:0.69767439 3:27 4:38 #
0.00062832789088716593534772458795601 1:-1.1709625 2:0.73170733 3:18 4:62 #
0.00062832789088716593534772458795601 1:0.4431549 2:0.72222221 3:5 4:23 #
-0.00062832789088716593534772458795601 1:-1.6721506 2:0.57009345 3:14 4:7 #
0.00062832789088716593534772458795601 1:-1.9741718 2:0.56097561 3:26 4:40 #
-0.00062832789088716593534772458795601 1:-0.5240106 2:0.49785408 3:1 4:13 #
-0.00062832789088716593534772458795601 1:0.19610485 2:0.55414015 3:4 4:11 #
-0.00062832789088716593534772458795601 1:-2.0326512 2:0.58536583 3:16 4:49 #
-0.00062832789088716593534772458795601 1:2.7717297 2:0.81818181 3:1 4:39 #
0.00062832789088716593534772458795601 1:-0.40334201 2:0.86666667 3:2 4:33 #
0.00062832789088716593534772458795601 1:-0.81766325 2:0.83333331 3:1 4:44 #
0.00062832789088716593534772458795601 1:0.080424652 2:0.72340423 3:19 4:60 #
0.00062832789088716593534772458795601 1:-1.3373512 2:0.51282054 3:24 4:36 #
-0.00062832789088716593534772458795601 1:-0.52860296 2:0.47368422 3:1 4:13 #
0.00062832789088716593534772458795601 1:1.2619507 2:0.72222221 3:8 4:28 #
0.00062832789088716593534772458795601 1:0.42295435 2:0.8125 3:3 4:32 #
-0.00062832789088716593534772458795601 1:0.58656216 2:0.89999998 3:1 4:22 #
0.00062832789088716593534772458795601 1:1.560994 2:0.62790698 3:26 4:34 #
-0.00062832789088716593534772458795601 1:-0.73849195 2:0.47499999 3:1 4:13 #
-0.00062832789088716593534772458795601 1:2.3797917 2:0.83333331 3:1 4:20 #
-0.00062832789088716593534772458795601 1:1.9137663 2:0.84848487 3:1 4:58 #
0.00062832789088716593534772458795601 1:-0.8194949 2:0.58139533 3:26 4:36 #
-0.00062832789088716593534772458795601 1:-1.4792132 2:0.45406824 3:1 4:13 #
-0.00062832789088716593534772458795601 1:-3.5474477 2:0.55485892 3:2 4:13 #
0.00062832789088716593534772458795601 1:-1.4340088 2:0.6122449 3:18 4:60 #
0.00062832789088716593534772458795601 1:1.1601833 2:0.68181819 3:8 4:25 #
-0.00062832789088716593534772458795601 1:-1.0494437 2:0.47328246 3:1 4:13 #
-0.00062832789088716593534772458795601 1:2.530803 2:0.74800003 3:1 4:18 #
0.00062832789088716593534772458795601 1:-0.19126406 2:0.58333331 3:25 4:45 #
-0.00062832789088716593534772458795601 1:-2.7539661 2:0.53888887 3:1 4:14 #
0.00062832789088716593534772458795601 1:-0.74299234 2:0.66666669 3:23 4:51 #
0.00062832789088716593534772458795601 1:0.66291356 2:0.7647059 3:5 4:27 #
-0.00062832789088716593534772458795601 1:-3.4249592 2:0.49756098 3:3 4:28 #
-0.00062832789088716593534772458795601 1:2.6020083 2:0.83333331 3:1 4:30 #
0.00062832789088716593534772458795601 1:0.43123662 2:0.75 3:7 4:35 #
0.00062832789088716593534772458795601 1:3.1381259 2:0.66666669 3:19 4:28 #
-0.00062832789088716593534772458795601 1:-3.9961338 2:0.56629837 3:1 4:15 #
0.00062832789088716593534772458795601 1:0.93705785 2:0.64102566 3:19 4:57 #
-0.00062832789088716593534772458795601 1:1.3165386 2:0.60204083 3:1 4:14 #
0.00062832789088716593534772458795601 1:-1.0275973 2:0.56818181 3:25 4:34 #
-0.00062832789088716593534772458795601 1:0.9863863 2:0.50347221 3:3 4:12 #
0.00062832789088716593534772458795601 1:-3.4552634 2:0.51999998 3:13 4:25 #
0.00062832789088716593534772458795601 1:0.68464917 2:0.68000001 3:5 4:30 #
0.00062832789088716593534772458795601 1:-3.751456 2:0.71794873 3:13 4:64 #
-0.00062832789088716593534772458795601 1:-4.5359907 2:0.80000001 3:1 4:22 #
0.00062832789088716593534772458795601 1:3.0677004 2:0.60465115 3:24 4:40 #
0.00062832789088716593534772458795601 1:-1.4720421 2:0.5945946 3:24 4:31 #
-0.00062832789088716593534772458795601 1:3.0948427 2:0.48728815 3:1 4:46 #
0.00062832789088716593534772458795601 1:-0.18426056 2:0.78947371 3:1 4:29 #
0.00062832789088716593534772458795601 1:-0.47504646 2:0.64705884 3:1 4:19 #
0.00062832789088716593534772458795601 1:0.53774452 2:0.78260869 3:5 4:37 #
0.00062832789088716593534772458795601 1:-0.98780584 2:0.72000003 3:1 4:19 #
-0.00062832789088716593534772458795601 1:2.4301527 2:0.52941179 3:1 4:15 #
0.00062832789088716593534772458795601 1:-1.7054083 2:0.79487181 3:5 4:74 #
0.00062832789088716593534772458795601 1:1.0726686 2:0.72222221 3:7 4:27 #
-0.00062832789088716593534772458795601 1:-1.6705896 2:0.61581922 3:2 4:13 #
0.00062832789088716593534772458795601 1:-0.94739532 2:0.65853661 3:9 4:63 #
-0.00062832789088716593534772458795601 1:-1.2817812 2:0.7119565 3:1 4:15 #
0.00062832789088716593534772458795601 1:-0.041366279 2:0.625 3:25 4:44 #
0.00062832789088716593534772458795601 1:-3.274184 2:0.66666669 3:2 4:22 #
0.00062832789088716593534772458795601 1:-1.3583796 2:0.66666669 3:24 4:46 #
0.00062832789088716593534772458795601 1:2.1049304 2:0.71428573 3:26 4:35 #
-0.00062832789088716593534772458795601 1:-2.4918456 2:0.54391891 3:4 4:11 #
-0.00062832789088716593534772458795601 1:-1.6947901 2:1 3:1 4:39 #
0.00062832789088716593534772458795601 1:-0.8767606 2:0.5 3:24 4:36 #
0.00062832789088716593534772458795601 1:-0.16876681 2:0.8888889 3:1 4:35 #
-0.00062832789088716593534772458795601 1:0.49676487 2:0.56626505 3:1 4:14 #
0.00062832789088716593534772458795601 1:-0.75021851 2:0.66666669 3:18 4:58 #
0.00062832789088716593534772458795601 1:0.16009818 2:0.73076922 3:3 4:35 #
-0.00062832789088716593534772458795601 1:0.61676019 2:0.54625553 3:1 4:14 #
-0.00062832789088716593534772458795601 1:0.70659518 2:0.50549453 3:1 4:71 #
0.00062832789088716593534772458795601 1:-4.0032105 2:0.63157892 3:7 4:24 #
0.00062832789088716593534772458795601 1:-0.48508927 2:0.65306121 3:22 4:50 #
-0.00062832789088716593534772458795601 1:1.9320774 2:0.73333335 3:1 4:17 #
-0.00062832789088716593534772458795601 1:1.9824386 2:0.79166669 3:1 4:41 #
0.00062832789088716593534772458795601 1:1.049261 2:0.63414633 3:26 4:37 #
0.00062832789088716593534772458795601 1:-1.7633575 2:0.5625 3:21 4:29 #
-0.00062832789088716593534772458795601 1:0.61676019 2:0.54625553 3:1 4:14 #
0.00062832789088716593534772458795601 1:-0.36680523 2:0.72500002 3:12 4:65 #
-0.00062832789088716593534772458795601 1:0.72431606 2:0.78947371 3:1 4:17 #
0.00062832789088716593534772458795601 1:-1.1951514 2:0.51282054 3:22 4:30 #
-0.00062832789088716593534772458795601 1:-0.13500936 2:0.63360882 3:1 4:70 #
0.00062832789088716593534772458795601 1:-2.0809855 2:0.63636363 3:4 4:20 #
-0.00062832789088716593534772458795601 1:0.091142923 2:0.57456142 3:5 4:11 #
-0.00062832789088716593534772458795601 1:3.4471102 2:0.64814812 3:1 4:20 #
0.00062832789088716593534772458795601 1:0.77000308 2:0.60000002 3:4 4:17 #
-0.00062832789088716593534772458795601 1:0.9086563 2:0.9285714 3:1 4:30 #
0.00062832789088716593534772458795601 1:1.3249534 2:0.65909094 3:25 4:35 #
-0.00062832789088716593534772458795601 1:-2.6638794 2:0.49783549 3:1 4:14 #
-0.00062832789088716593534772458795601 1:-2.1151712 2:0.66666669 3:1 4:15 #
0.00062832789088716593534772458795601 1:-1.3030082 2:0.68181819 3:22 4:48 #
-0.00062832789088716593534772458795601 1:-1.8052171 2:0.58333331 3:14 4:34 #
0.00062832789088716593534772458795601 1:-0.9038083 2:0.85714287 3:2 4:76 #
-0.00062832789088716593534772458795601 1:-3.0007675 2:0.46172249 3:1 4:75 #
-0.00062832789088716593534772458795601 1:-0.47571158 2:0.85714287 3:1 4:54 #
0.00062832789088716593534772458795601 1:-1.1824982 2:0.58139533 3:24 4:34 #
-0.00062832789088716593534772458795601 1:-3.3004603 2:0.62248999 3:9 4:18 #
0.00062832789088716593534772458795601 1:-2.7452314 2:0.66666669 3:6 4:21 #
-0.00062832789088716593534772458795601 1:1.2876027 2:0.66891891 3:1 4:60 #
-0.00062832789088716593534772458795601 1:-0.29141971 2:0.54196644 3:3 4:12 #
-0.00062832789088716593534772458795601 1:-0.5179584 2:0.62068963 3:18 4:17 #
-0.00062832789088716593534772458795601 1:-0.29340583 2:0.68067229 3:2 4:77 #
0.00062832789088716593534772458795601 1:-0.23421431 2:0.69047618 3:24 4:35 #
0.00062832789088716593534772458795601 1:-3.2621078 2:0.75999999 3:1 4:21 #
0.00062832789088716593534772458795601 1:1.2506586 2:0.70833331 3:7 4:27 #
0.00062832789088716593534772458795601 1:-2.5064621 2:0.70588237 3:2 4:20 #
0.00062832789088716593534772458795601 1:-2.7604918 2:0.88571429 3:4 4:73 #
-0.00062832789088716593534772458795601 1:-3.1902173 2:0.53389829 3:3 4:76 #
-0.00062832789088716593534772458795601 1:-0.17290479 2:0.57627118 3:1 4:14 #
-0.00062832789088716593534772458795601 1:0.24310254 2:0.49629629 3:1 4:14 #
-0.00062832789088716593534772458795601 1:3.2097721 2:0.61261261 3:1 4:20 #
0.00062832789088716593534772458795601 1:-2.3052378 2:0.58974361 3:22 4:42 #
0.00062832789088716593534772458795601 1:0.88255155 2:0.68421054 3:6 4:20 #
-0.00062832789088716593534772458795601 1:-4.2729025 2:0.80952382 3:5 4:74 #
-0.00062832789088716593534772458795601 1:3.414943 2:0.62531018 3:1 4:24 #
0.00062832789088716593534772458795601 1:-2.7998362 2:0.58333331 3:20 4:37 #
0.00062832789088716593534772458795601 1:1.1075292 2:0.70588237 3:8 4:20 #
0.00062832789088716593534772458795601 1:-2.3770483 2:0.60869563 3:12 4:24 #
0.00062832789088716593534772458795601 1:0.8413403 2:0.7368421 3:6 4:34 #
-0.00062832789088716593534772458795601 1:-1.4012928 2:0.648 3:2 4:75 #
-0.00062832789088716593534772458795601 1:2.2714775 2:0.85714287 3:1 4:24 #
0.00062832789088716593534772458795601 1:-0.28389472 2:0.85714287 3:2 4:42 #
0.00062832789088716593534772458795601 1:1.788085 2:0.69047618 3:16 4:60 #
-0.00062832789088716593534772458795601 1:-0.98088199 2:0.68518519 3:1 4:15 #
0.00062832789088716593534772458795601 1:1.1112043 2:0.67567569 3:24 4:38 #
-0.00062832789088716593534772458795601 1:0.4691734 2:0.68181819 3:1 4:15 #
0.00062832789088716593534772458795601 1:-0.46215424 2:0.68181819 3:23 4:40 #
-0.00062832789088716593534772458795601 1:-3.632838 2:0.55345911 3:1 4:72 #
-0.00062832789088716593534772458795601 1:0.95731717 2:0.65432101 3:1 4:63 #
0.00062832789088716593534772458795601 1:-0.51860881 2:0.54347825 3:22 4:30 #
-0.00062832789088716593534772458795601 1:3.3930545 2:0.75 3:5 4:24 #
0.00062832789088716593534772458795601 1:-3.7358272 2:0.65789473 3:12 4:53 #
-0.00062832789088716593534772458795601 1:-3.3198352 2:0.60869563 3:1 4:15 #
-0.00062832789088716593534772458795601 1:-3.3635576 2:0.52249134 3:1 4:15 #
0.00062832789088716593534772458795601 1:0.31277797 2:0.68421054 3:4 4:24 #
0.00062832789088716593534772458795601 1:-0.21372198 2:0.73913044 3:4 4:35 #
0.00062832789088716593534772458795601 1:-0.61511225 2:0.6388889 3:22 4:30 #
-0.00062832789088716593534772458795601 1:-1.9049258 2:0.53551912 3:12 4:20 #
0.00062832789088716593534772458795601 1:0.14171718 2:0.5714286 3:23 4:37 #
0.00062832789088716593534772458795601 1:1.2947232 2:0.71794873 3:24 4:34 #
-0.00062832789088716593534772458795601 1:-0.26980734 2:0.54871798 3:4 4:71 #
0.00062832789088716593534772458795601 1:0.27466202 2:0.75 3:2 4:19 #
0.00062832789088716593534772458795601 1:0.8611455 2:0.84615386 3:7 4:72 #
0.00062832789088716593534772458795601 1:-0.20910397 2:0.63157892 3:23 4:39 #
-0.00062832789088716593534772458795601 1:-1.3544464 2:0.56578946 3:2 4:69 #
-0.00062832789088716593534772458795601 1:1.6266737 2:0.5147059 3:1 4:15 #
-0.00062832789088716593534772458795601 1:-1.2817003 2:0.75609756 3:5 4:69 #
-0.00062832789088716593534772458795601 1:1.564881 2:0.54603177 3:1 4:58 #
0.00062832789088716593534772458795601 1:0.47088498 2:0.69047618 3:15 4:60 #
-0.00062832789088716593534772458795601 1:-1.611148 2:0.68656719 3:3 4:68 #
0.00062832789088716593534772458795601 1:-1.3230988 2:0.5625 3:4 4:20 #
-0.00062832789088716593534772458795601 1:1.8461541 2:0.84210527 3:1 4:38 #
0.00062832789088716593534772458795601 1:-2.0632622 2:0.55263156 3:20 4:30 #
-0.00062832789088716593534772458795601 1:-3.6050973 2:0.54370999 3:2 4:13 #
-0.00062832789088716593534772458795601 1:-1.1179454 2:0.64999998 3:1 4:66 #
0.00062832789088716593534772458795601 1:1.6205271 2:0.66666669 3:20 4:29 #
-0.00062832789088716593534772458795601 1:-0.3731451 2:0.61403507 3:1 4:62 #
0.00062832789088716593534772458795601 1:0.43146428 2:0.58139533 3:23 4:36 #
-0.00062832789088716593534772458795601 1:0.74688762 2:0.52517986 3:13 4:9 #
-0.00062832789088716593534772458795601 1:1.387575 2:0.50700933 3:1 4:15 #
-0.00062832789088716593534772458795601 1:1.3035545 2:0.69090909 3:1 4:16 #
0.00062832789088716593534772458795601 1:-0.61345387 2:0.75 3:22 4:44 #
0.00062832789088716593534772458795601 1:0.2780484 2:0.63414633 3:23 4:38 #
-0.00062832789088716593534772458795601 1:-0.42210847 2:0.83870965 3:1 4:54 #
-0.00062832789088716593534772458795601 1:-0.39382493 2:0.52499998 3:4 4:24 #
-0.00062832789088716593534772458795601 1:-0.19024883 2:0.77083331 3:2 4:67 #
-0.00062832789088716593534772458795601 1:-0.75700814 2:0.61654133 3:3 4:68 #
0.00062832789088716593534772458795601 1:-0.97914386 2:0.72222221 3:1 4:19 #
0.00062832789088716593534772458795601 1:1.6450596 2:0.65517241 3:19 4:28 #
-0.00062832789088716593534772458795601 1:2.6199369 2:0.55681819 3:1 4:17 #
0.00062832789088716593534772458795601 1:-1.112391 2:0.5714286 3:21 4:43 #
-0.00062832789088716593534772458795601 1:-1.9961458 2:0.56997454 3:16 4:30 #
0.00062832789088716593534772458795601 1:-1.0989739 2:0.66666669 3:21 4:31 #
0.00062832789088716593534772458795601 1:-0.25689936 2:0.56410259 3:21 4:45 #
-0.00062832789088716593534772458795601 1:-0.73580068 2:0.93333334 3:1 4:37 #
0.00062832789088716593534772458795601 1:-0.59641856 2:0.5945946 3:22 4:39 #
-0.00062832789088716593534772458795601 1:-0.36722463 2:0.54941863 3:2 4:13 #
0.00062832789088716593534772458795601 1:0.35268506 2:0.75 3:3 4:33 #
-0.00062832789088716593534772458795601 1:-1.7468789 2:0.56347442 3:5 4:68 #
-0.00062832789088716593534772458795601 1:-0.013319052 2:0.56201553 3:25 4:28 #
0.00062832789088716593534772458795601 1:-2.0131762 2:0.64864862 3:21 4:34 #
-0.00062832789088716593534772458795601 1:1.1528193 2:0.6885246 3:1 4:16 #
0.00062832789088716593534772458795601 1:2.6321995 2:0.69767439 3:23 4:41 #
0.00062832789088716593534772458795601 1:-0.80029321 2:0.71428573 3:1 4:19 #
0.00062832789088716593534772458795601 1:-0.058081064 2:0.79069769 3:10 4:67 #
-0.00062832789088716593534772458795601 1:0.12431497 2:0.83333331 3:8 4:66 #
-0.00062832789088716593534772458795601 1:0.92087579 2:0.57735848 3:1 4:15 #
0.00062832789088716593534772458795601 1:-1.514149 2:0.70454544 3:20 4:48 #
-0.00062832789088716593534772458795601 1:-2.1447101 2:0.50632912 3:5 4:66 #
-0.00062832789088716593534772458795601 1:0.39840791 2:0.57599998 3:28 4:24 #
-0.00062832789088716593534772458795601 1:-2.7432187 2:0.50753766 3:8 4:66 #
-0.00062832789088716593534772458795601 1:-2.1886232 2:0.58771932 3:13 4:18 #
-0.00062832789088716593534772458795601 1:3.0493183 2:0.72131145 3:1 4:30 #
0.00062832789088716593534772458795601 1:2.3127849 2:0.6111111 3:22 4:34 #
0.00062832789088716593534772458795601 1:0.56481361 2:0.5 3:19 4:30 #
-0.00062832789088716593534772458795601 1:-3.4404411 2:0.8108108 3:2 4:63 #
-0.00062832789088716593534772458795601 1:1.1408112 2:0.64516127 3:5 4:65 #
0.00062832789088716593534772458795601 1:-0.067364231 2:0.66666669 3:1 4:19 #
-0.00062832789088716593534772458795601 1:-3.1057966 2:0.9285714 3:1 4:31 #
0.00062832789088716593534772458795601 1:0.57035553 2:0.8125 3:4 4:31 #
-0.00062832789088716593534772458795601 1:1.2785004 2:0.51937985 3:1 4:15 #
-0.00062832789088716593534772458795601 1:0.7598896 2:0.60676533 3:6 4:11 #
0.00062832789088716593534772458795601 1:0.31339526 2:0.76190478 3:3 4:37 #
0.00062832789088716593534772458795601 1:-1.1978508 2:0.81818181 3:1 4:19 #
0.00062832789088716593534772458795601 1:-2.6129813 2:0.54761904 3:19 4:30 #
0.00062832789088716593534772458795601 1:-2.1953387 2:0.65217394 3:19 4:49 #
0.00062832789088716593534772458795601 1:-0.65342909 2:0.80000001 3:1 4:19 #
0.00062832789088716593534772458795601 1:1.3411591 2:0.83333331 3:9 4:69 #
0.00062832789088716593534772458795601 1:-1.1670566 2:0.62068963 3:14 4:25 #
0.00062832789088716593534772458795601 1:-1.8743362 2:0.67741936 3:21 4:32 #
0.00062832789088716593534772458795601 1:-2.2593975 2:0.65853661 3:12 4:24 #
0.00062832789088716593534772458795601 1:-1.2027388 2:0.62162161 3:4 4:20 #
0.00062832789088716593534772458795601 1:-0.065253459 2:0.76923078 3:1 4:19 #
0.00062832789088716593534772458795601 1:-0.52048719 2:0.80952382 3:1 4:19 #
0.00062832789088716593534772458795601 1:-0.37191367 2:0.80000001 3:1 4:19 #
0.00062832789088716593534772458795601 1:1.2767235 2:0.61904764 3:7 4:23 #
0.00062832789088716593534772458795601 1:-1.5749004 2:0.80000001 3:4 4:20 #
0.00062832789088716593534772458795601 1:-3.2055645 2:0.5945946 3:19 4:42 #
-0.00062832789088716593534772458795601 1:3.5447338 2:0.55837566 3:1 4:22 #
-0.00062832789088716593534772458795601 1:-0.65342909 2:0.56043959 3:14 4:35 #
0.00062832789088716593534772458795601 1:-4.287776 2:0.69444442 3:11 4:44 #
0.00062832789088716593534772458795601 1:-0.67157561 2:0.5 3:22 4:0 #
-0.00062832789088716593534772458795601 1:1.3193154 2:0.57843137 3:2 4:14 #
0.00062832789088716593534772458795601 1:-2.6752248 2:0.86666667 3:1 4:29 #
-0.00062832789088716593534772458795601 1:-3.9117379 2:0.54464287 3:5 4:28 #
-0.00062832789088716593534772458795601 1:-0.75038862 2:0.5741325 3:2 4:13 #
-0.00062832789088716593534772458795601 1:0.73017806 2:0.58461541 3:1 4:15 #
-0.00062832789088716593534772458795601 1:0.38845071 2:0.60919541 3:1 4:15 #
0.00062832789088716593534772458795601 1:-0.12947825 2:0.69999999 3:20 4:48 #
-0.00062832789088716593534772458795601 1:0.34480739 2:0.60355031 3:1 4:15 #
-0.00062832789088716593534772458795601 1:1.1057023 2:0.67330676 3:1 4:114 #
-0.00062832789088716593534772458795601 1:-3.7251995 2:0.545977 3:2 4:28 #
-0.00062832789088716593534772458795601 1:-1.9125006 2:0.60493827 3:15 4:50 #
-0.00062832789088716593534772458795601 1:-0.96944755 2:0.57393485 3:2 4:13 #
-0.00062832789088716593534772458795601 1:0.79827237 2:0.66666669 3:3 4:13 #
-0.00062832789088716593534772458795601 1:-2.0126352 2:0.48412699 3:4 4:11 #
-0.00062832789088716593534772458795601 1:-2.731921 2:0.57798165 3:2 4:13 #
0.00062832789088716593534772458795601 1:-2.736448 2:0.64864862 3:17 4:49 #
0.00062832789088716593534772458795601 1:-0.42254025 2:0.5 3:8 4:22 #
0.00062832789088716593534772458795601 1:0.62292051 2:0.70588237 3:5 4:26 #
0.00062832789088716593534772458795601 1:0.69584721 2:0.69047618 3:22 4:36 #
-0.00062832789088716593534772458795601 1:-1.1357365 2:0.65306121 3:1 4:15 #
0.00062832789088716593534772458795601 1:0.45212886 2:0.66666669 3:21 4:44 #
-0.00062832789088716593534772458795601 1:1.9425077 2:0.54857141 3:1 4:18 #
-0.00062832789088716593534772458795601 1:0.70659518 2:0.81818181 3:1 4:19 #
0.00062832789088716593534772458795601 1:-0.15305373 2:0.64999998 3:21 4:41 #
0.00062832789088716593534772458795601 1:-1.9351333 2:0.55263156 3:20 4:34 #
0.00062832789088716593534772458795601 1:-0.2245573 2:0.7647059 3:2 4:31 #
-0.00062832789088716593534772458795601 1:-1.1661974 2:0.52396166 3:16 4:29 #
0.00062832789088716593534772458795601 1:-1.6791559 2:0.69696969 3:17 4:49 #
0.00062832789088716593534772458795601 1:0.84201378 2:0.75 3:7 4:26 #
0.00062832789088716593534772458795601 1:0.85370159 2:0.6511628 3:20 4:45 #
0.00062832789088716593534772458795601 1:0.090787224 2:0.58064514 3:8 4:46 #
0.00062832789088716593534772458795601 1:0.45340723 2:0.62790698 3:19 4:46 #
-0.00062832789088716593534772458795601 1:-1.6766634 2:0.52941179 3:16 4:38 #
0.00062832789088716593534772458795601 1:-0.30275393 2:0.86666667 3:1 4:28 #
0.00062832789088716593534772458795601 1:-2.9936583 2:0.64705884 3:17 4:0 #
-0.00062832789088716593534772458795601 1:-2.7895703 2:0.51626015 3:2 4:13 #
-0.00062832789088716593534772458795601 1:-1.9393067 2:0.64529914 3:1 4:104 #
-0.00062832789088716593534772458795601 1:-3.9811714 2:0.74468082 3:5 4:13 #
0.00062832789088716593534772458795601 1:0.10396837 2:0.63636363 3:11 4:0 #
0.00062832789088716593534772458795601 1:-1.3859572 2:0.60465115 3:17 4:47 #
0.00062832789088716593534772458795601 1:0.17264105 2:0.33333334 3:12 4:0 #
-0.00062832789088716593534772458795601 1:-3.3851643 2:0.65019011 3:6 4:144 #
0.00062832789088716593534772458795601 1:-0.34959093 2:0.54838711 3:31 4:0 #
-0.00062832789088716593534772458795601 1:-1.8122065 2:0.57522124 3:10 4:19 #
-0.00062832789088716593534772458795601 1:0.92474788 2:0.92307693 3:1 4:29 #
0.00062832789088716593534772458795601 1:-1.2740757 2:0.51162791 3:32 4:16 #
0.00062832789088716593534772458795601 1:1.0303234 2:0.63636363 3:11 4:0 #
0.00062832789088716593534772458795601 1:-2.9190695 2:0.83999997 3:1 4:47 #
0.00062832789088716593534772458795601 1:2.1183758 2:0.54838711 3:31 4:0 #
-0.00062832789088716593534772458795601 1:-1.3999102 2:0.55162239 3:2 4:13 #
-0.00062832789088716593534772458795601 1:-0.5830844 2:0.74509805 3:3 4:13 #
-0.00062832789088716593534772458795601 1:0.71010131 2:0.56013745 3:1 4:15 #
-0.00062832789088716593534772458795601 1:-0.3466199 2:0.54374999 3:6 4:11 #
0.00062832789088716593534772458795601 1:-1.074646 2:0.68965518 3:10 4:48 #
-0.00062832789088716593534772458795601 1:0.97247618 2:0.69999999 3:1 4:16 #
0.00062832789088716593534772458795601 1:-0.60311568 2:0.85000002 3:4 4:34 #
-0.00062832789088716593534772458795601 1:1.6896415 2:0.85714287 3:1 4:28 #
0.00062832789088716593534772458795601 1:-1.066345 2:0.40000001 3:30 4:0 #
0.00062832789088716593534772458795601 1:0.39949346 2:0.7647059 3:3 4:26 #
-0.00062832789088716593534772458795601 1:-3.5812192 2:0.92307693 3:1 4:28 #
0.00062832789088716593534772458795601 1:-1.1055548 2:0.55000001 3:32 4:18 #
-0.00062832789088716593534772458795601 1:3.743268 2:0.55741626 3:1 4:109 #
0.00062832789088716593534772458795601 1:0.43097034 2:0.69230771 3:21 4:43 #
-0.00062832789088716593534772458795601 1:-1.9058897 2:0.63636363 3:1 4:15 #
-0.00062832789088716593534772458795601 1:0.5992077 2:0.49740931 3:15 4:13 #
-0.00062832789088716593534772458795601 1:-1.1352084 2:0.91666669 3:1 4:26 #
-0.00062832789088716593534772458795601 1:-0.28339243 2:0.52564102 3:6 4:11 #
-0.00062832789088716593534772458795601 1:-4.3643355 2:0.81818181 3:1 4:22 #
-0.00062832789088716593534772458795601 1:-1.4822789 2:0.64705884 3:1 4:15 #
0.00062832789088716593534772458795601 1:-2.0616989 2:0.72727275 3:11 4:0 #
0.00062832789088716593534772458795601 1:-0.40451151 2:0.56521738 3:23 4:0 #
-0.00062832789088716593534772458795601 1:1.412735 2:0.86666667 3:1 4:29 #
0.00062832789088716593534772458795601 1:-1.173126 2:0.40000001 3:20 4:0 #
0.00062832789088716593534772458795601 1:1.3292887 2:0.43478259 3:23 4:0 #
-0.00062832789088716593534772458795601 1:3.3689768 2:0.4893617 3:3 4:16 #
-0.00062832789088716593534772458795601 1:-3.1365528 2:0.55895197 3:1 4:15 #
0.00062832789088716593534772458795601 1:0.64973927 2:0.7647059 3:4 4:31 #
0.00062832789088716593534772458795601 1:-2.006537 2:0.59090906 3:22 4:0 #
-0.00062832789088716593534772458795601 1:1.577037 2:0.54736841 3:4 4:13 #
-0.00062832789088716593534772458795601 1:1.0676425 2:0.53092784 3:1 4:15 #
-0.00062832789088716593534772458795601 1:-1.6537994 2:0.51842749 3:2 4:13 #
-0.00062832789088716593534772458795601 1:1.0325295 2:0.8888889 3:1 4:38 #
0.00062832789088716593534772458795601 1:0.62636244 2:0.47826087 3:23 4:0 #
0.00062832789088716593534772458795601 1:-2.5878942 2:0.46666667 3:15 4:0 #
-0.00062832789088716593534772458795601 1:-0.73244643 2:0.40609136 3:2 4:13 #
-0.00062832789088716593534772458795601 1:2.1630425 2:0.75 3:1 4:20 #
0.00062832789088716593534772458795601 1:-1.0831323 2:0.45454547 3:22 4:0 #
-0.00062832789088716593534772458795601 1:-3.4127898 2:0.81818181 3:1 4:22 #
0.00062832789088716593534772458795601 1:0.098173454 2:0.40909091 3:22 4:0 #
-0.00062832789088716593534772458795601 1:2.9892671 2:0.51999998 3:1 4:18 #
0.00062832789088716593534772458795601 1:1.2163996 2:0.52173913 3:23 4:0 #
0.00062832789088716593534772458795601 1:1.7976971 2:0.52173913 3:23 4:0 #
0.00062832789088716593534772458795601 1:-0.87210554 2:0.42857143 3:21 4:0 #
0.00062832789088716593534772458795601 1:-2.116152 2:0.5 3:20 4:0 #
0.00062832789088716593534772458795601 1:1.2000632 2:0.60869563 3:23 4:0 #
-0.00062832789088716593534772458795601 1:1.2376984 2:0.51073986 3:5 4:12 #
-0.00062832789088716593534772458795601 1:2.1612225 2:0.64353311 3:3 4:108 #
-0.00062832789088716593534772458795601 1:-1.7749788 2:0.51200002 3:8 4:48 #
-0.00062832789088716593534772458795601 1:3.2933769 2:0.52010721 3:1 4:21 #
-0.00062832789088716593534772458795601 1:2.9892671 2:0.55128205 3:8 4:13 #
-0.00062832789088716593534772458795601 1:1.0874994 2:0.69230771 3:1 4:16 #
-0.00062832789088716593534772458795601 1:-2.6129813 2:0.47941175 3:5 4:43 #
-0.00062832789088716593534772458795601 1:0.4348025 2:0.80000001 3:1 4:18 #
-0.00062832789088716593534772458795601 1:2.6446056 2:0.66666669 3:1 4:23 #
-0.00062832789088716593534772458795601 1:-1.0760576 2:0.61538464 3:1 4:15 #
-0.00062832789088716593534772458795601 1:1.0040363 2:0.55214721 3:2 4:14 #
-0.00062832789088716593534772458795601 1:1.1245748 2:0.45708156 3:5 4:12 #
-0.00062832789088716593534772458795601 1:-1.5064857 2:0.875 3:1 4:32 #
-0.00062832789088716593534772458795601 1:-2.8614769 2:0.49668875 3:2 4:13 #
-0.00062832789088716593534772458795601 1:-0.10814203 2:0.59668511 3:1 4:15 #
-0.00062832789088716593534772458795601 1:0.94584602 2:0.52424943 3:1 4:15 #
-0.00062832789088716593534772458795601 1:2.3914018 2:0.78260869 3:1 4:35 #
-0.00062832789088716593534772458795601 1:-1.3544464 2:0.44471154 3:2 4:13 #
-0.00062832789088716593534772458795601 1:1.1599662 2:0.50980395 3:1 4:15 #
0.00062832789088716593534772458795601 1:1.5576631 2:0.55555558 3:9 4:23 #
-0.00062832789088716593534772458795601 1:-0.83420742 2:0.55747128 3:13 4:27 #
-0.00062832789088716593534772458795601 1:3.1276956 2:0.62962961 3:1 4:28 #
0.00062832789088716593534772458795601 1:-4.5717258 2:0.5714286 3:17 4:25 #
-0.00062832789088716593534772458795601 1:1.0626661 2:0.48351648 3:28 4:24 #
-0.00062832789088716593534772458795601 1:-4.3643355 2:0.56766915 3:1 4:19 #
0.00062832789088716593534772458795601 1:1.0364882 2:0.54166669 3:35 4:32 #
0.00062832789088716593534772458795601 1:0.5952785 2:0.6875 3:6 4:24 #
0.00062832789088716593534772458795601 1:-0.45443597 2:0.46666667 3:30 4:0 #
0.00062832789088716593534772458795601 1:-1.1055548 2:0.55000001 3:32 4:18 #
-0.00062832789088716593534772458795601 1:-0.77801293 2:0.66666669 3:3 4:13 #
0.00062832789088716593534772458795601 1:-1.5799092 2:0.71794873 3:11 4:63 #
-0.00062832789088716593534772458795601 1:1.4033283 2:0.60736197 3:1 4:16 #
-0.00062832789088716593534772458795601 1:0.86006999 2:0.52147239 3:1 4:15 #
-0.00062832789088716593534772458795601 1:0.34590349 2:0.5598886 3:1 4:15 #
-0.00062832789088716593534772458795601 1:1.1614131 2:0.83999997 3:1 4:41 #
-0.00062832789088716593534772458795601 1:-1.4187651 2:0.4807198 3:11 4:27 #
-0.00062832789088716593534772458795601 1:2.7812419 2:0.6122449 3:1 4:21 #
-0.00062832789088716593534772458795601 1:3.4364548 2:0.70833331 3:8 4:34 #
-0.00062832789088716593534772458795601 1:3.6728954 2:0.66666669 3:11 4:19 #
0.00062832789088716593534772458795601 1:-3.8619928 2:0.51851851 3:17 4:22 #
0.00062832789088716593534772458795601 1:-3.4767041 2:0.5 3:9 4:20 #
-0.00062832789088716593534772458795601 1:-0.5698666 2:0.5621469 3:21 4:30 #
-0.00062832789088716593534772458795601 1:-0.5204494 2:0.57425743 3:19 4:25 #
0.00062832789088716593534772458795601 1:2.1200643 2:0.72727275 3:11 4:0 #
-0.00062832789088716593534772458795601 1:-1.0095116 2:0.34196892 3:16 4:25 #
0.00062832789088716593534772458795601 1:-0.21784927 2:0.69999999 3:17 4:54 #
0.00062832789088716593534772458795601 1:0.35819006 2:0.63636363 3:11 4:0 #
-0.00062832789088716593534772458795601 1:-1.8599981 2:0.5874126 3:1 4:15 #
0.00062832789088716593534772458795601 1:1.1695037 2:0.85000002 3:7 4:34 #
0.00062832789088716593534772458795601 1:-0.50413698 2:0.5 3:12 4:0 #
-0.00062832789088716593534772458795601 1:-0.88056356 2:0.71739131 3:8 4:11 #
0.00062832789088716593534772458795601 1:0.69545227 2:0.53333336 3:30 4:0 #
0.00062832789088716593534772458795601 1:-1.9549756 2:0.42307693 3:26 4:0 #
0.00062832789088716593534772458795601 1:-0.28252578 2:0.94999999 3:1 4:47 #
0.00062832789088716593534772458795601 1:-2.1500773 2:0.47058824 3:17 4:0 #
0.00062832789088716593534772458795601 1:-1.2173117 2:0.84848487 3:2 4:72 #
0.00062832789088716593534772458795601 1:-2.5863991 2:0.60465115 3:29 4:32 #
0.00062832789088716593534772458795601 1:0.2780484 2:0.78947371 3:5 4:35 #
0.00062832789088716593534772458795601 1:0.94267184 2:0.48275861 3:29 4:0 #
0.00062832789088716593534772458795601 1:0.14785355 2:0.36363637 3:10 4:17 #
0.00062832789088716593534772458795601 1:-1.8728918 2:0.68292683 3:16 4:54 #
0.00062832789088716593534772458795601 1:0.5681619 2:0.77777779 3:4 4:32 #
0.00062832789088716593534772458795601 1:0.84859955 2:0.40000001 3:20 4:0 #
0.00062832789088716593534772458795601 1:0.31791052 2:0.48275861 3:29 4:0 #
0.00062832789088716593534772458795601 1:0.16064204 2:0.875 3:2 4:31 #
-0.00062832789088716593534772458795601 1:-2.191376 2:0.52380955 3:10 4:27 #
0.00062832789088716593534772458795601 1:3.1548939 2:0.5714286 3:28 4:0 #
0.00062832789088716593534772458795601 1:3.4045129 2:0.55555558 3:27 4:0 #
0.00062832789088716593534772458795601 1:2.5161541 2:0.44444445 3:18 4:0 #
0.00062832789088716593534772458795601 1:0.48817325 2:0.61702126 3:31 4:20 #
0.00062832789088716593534772458795601 1:-4.287776 2:0.75999999 3:8 4:51 #
0.00062832789088716593534772458795601 1:2.0355656 2:0.5 3:12 4:0 #
0.00062832789088716593534772458795601 1:0.9618057 2:0.5714286 3:28 4:0 #
-0.00062832789088716593534772458795601 1:0.44140065 2:0.64406782 3:25 4:20 #
0.00062832789088716593534772458795601 1:1.0659223 2:0.52777779 3:31 4:13 #
0.00062832789088716593534772458795601 1:0.17829899 2:0.44 3:25 4:0 #
0.00062832789088716593534772458795601 1:-0.40354562 2:0.86666667 3:1 4:29 #
-0.00062832789088716593534772458795601 1:-2.2043746 2:0.39183673 3:2 4:13 #
-0.00062832789088716593534772458795601 1:0.93705785 2:0.58713138 3:2 4:116 #
-0.00062832789088716593534772458795601 1:0.19495261 2:0.52394366 3:14 4:17 #
-0.00062832789088716593534772458795601 1:0.21282479 2:0.89999998 3:1 4:22 #
0.00062832789088716593534772458795601 1:-1.4292845 2:0.47826087 3:30 4:14 #
-0.00062832789088716593534772458795601 1:-2.0475836 2:0.56 3:1 4:15 #
0.00062832789088716593534772458795601 1:0.77428299 2:0.78947371 3:9 4:66 #
-0.00062832789088716593534772458795601 1:-2.1181257 2:0.5562914 3:4 4:12 #
-0.00062832789088716593534772458795601 1:0.3524338 2:0.5247525 3:1 4:15 #
-0.00062832789088716593534772458795601 1:0.60223943 2:0.92307693 3:2 4:30 #
-0.00062832789088716593534772458795601 1:1.216899 2:0.8888889 3:2 4:37 #
0.00062832789088716593534772458795601 1:-1.9524359 2:0.375 3:26 4:16 #
0.00062832789088716593534772458795601 1:-1.8568764 2:0.48717949 3:29 4:21 #
-0.00062832789088716593534772458795601 1:-2.4866414 2:0.51535839 3:1 4:15 #
0.00062832789088716593534772458795601 1:1.3136907 2:0.63999999 3:8 4:28 #
-0.00062832789088716593534772458795601 1:0.59855944 2:0.58562368 3:2 4:14 #
-0.00062832789088716593534772458795601 1:-1.1800296 2:0.61538464 3:7 4:11 #
0.00062832789088716593534772458795601 1:0.36350244 2:0.59523809 3:31 4:18 #
0.00062832789088716593534772458795601 1:-1.6312859 2:0.69999999 3:1 4:13 #
0.00062832789088716593534772458795601 1:-1.2620815 2:0.60975611 3:30 4:20 #
-0.00062832789088716593534772458795601 1:-0.94905275 2:0.51412427 3:21 4:35 #
0.00062832789088716593534772458795601 1:-1.7973046 2:0.55000001 3:2 4:11 #
0.00062832789088716593534772458795601 1:-0.83412737 2:0.88571429 3:2 4:73 #
0.00062832789088716593534772458795601 1:-0.68631005 2:0.79487181 3:4 4:71 #
0.00062832789088716593534772458795601 1:-1.9195191 2:0.70731705 3:10 4:62 #
-0.00062832789088716593534772458795601 1:1.1599662 2:0.60606062 3:1 4:16 #
0.00062832789088716593534772458795601 1:1.064896 2:0.58823532 3:8 4:18 #
-0.00062832789088716593534772458795601 1:1.0196458 2:0.51756442 3:2 4:14 #
-0.00062832789088716593534772458795601 1:0.86257881 2:0.62910795 3:1 4:81 #
-0.00062832789088716593534772458795601 1:-2.362638 2:0.58064514 3:10 4:43 #
-0.00062832789088716593534772458795601 1:3.2933769 2:0.54798764 3:1 4:24 #
0.00062832789088716593534772458795601 1:-2.4623482 2:0.60526317 3:26 4:25 #
-0.00062832789088716593534772458795601 1:-1.7688216 2:0.82857144 3:1 4:20 #
0.00062832789088716593534772458795601 1:1.2371305 2:0.65217394 3:29 4:25 #
-0.00062832789088716593534772458795601 1:0.71937978 2:0.4763158 3:1 4:15 #
-0.00062832789088716593534772458795601 1:-0.13128752 2:0.61904764 3:2 4:14 #
-0.00062832789088716593534772458795601 1:-1.3556795 2:0.62650603 3:1 4:88 #
-0.00062832789088716593534772458795601 1:2.1010323 2:0.76136363 3:1 4:27 #
0.00062832789088716593534772458795601 1:-1.1210059 2:0.5 3:2 4:14 #
-0.00062832789088716593534772458795601 1:-1.4641536 2:0.58860761 3:1 4:15 #
-0.00062832789088716593534772458795601 1:-3.5565898 2:0.56659144 3:4 4:12 #
-0.00062832789088716593534772458795601 1:3.5175917 2:0.61320752 3:8 4:15 #
-0.00062832789088716593534772458795601 1:0.078578845 2:0.52959502 3:1 4:15 #
-0.00062832789088716593534772458795601 1:2.535182 2:0.73913044 3:1 4:36 #
0.00062832789088716593534772458795601 1:-3.9177034 2:0.57894737 3:9 4:18 #
-0.00062832789088716593534772458795601 1:-3.1677046 2:0.70454544 3:2 4:15 #
-0.00062832789088716593534772458795601 1:0.39008531 2:0.51999998 3:21 4:30 #
0.00062832789088716593534772458795601 1:-0.44502455 2:0.9130435 3:1 4:54 #
-0.00062832789088716593534772458795601 1:-0.055978604 2:0.59012347 3:1 4:83 #
0.00062832789088716593534772458795601 1:0.25519997 2:0.89473683 3:3 4:43 #
-0.00062832789088716593534772458795601 1:-2.6867416 2:0.66666669 3:1 4:17 #
-0.00062832789088716593534772458795601 1:-3.5535109 2:0.86666667 3:1 4:30 #
0.00062832789088716593534772458795601 1:1.4353665 2:0.7368421 3:9 4:18 #
-0.00062832789088716593534772458795601 1:3.0677004 2:0.55411255 3:5 4:16 #
0.00062832789088716593534772458795601 1:-3.9932942 2:0.7631579 3:1 4:46 #
-0.00062832789088716593534772458795601 1:-2.7894483 2:0.63218391 3:3 4:13 #
-0.00062832789088716593534772458795601 1:-3.5434644 2:0.64606744 3:5 4:120 #
-0.00062832789088716593534772458795601 1:0.94584602 2:0.72727275 3:1 4:17 #
-0.00062832789088716593534772458795601 1:0.14009812 2:0.68421054 3:1 4:16 #
0.00062832789088716593534772458795601 1:-0.93625766 2:0.9130435 3:1 4:53 #
0.00062832789088716593534772458795601 1:0.13877183 2:0.75 3:3 4:24 #
0.00062832789088716593534772458795601 1:-0.35165861 2:0.91666669 3:1 4:53 #
-0.00062832789088716593534772458795601 1:0.56413949 2:0.5714286 3:2 4:14 #
-0.00062832789088716593534772458795601 1:-1.3796586 2:0.49279538 3:9 4:10 #
0.00062832789088716593534772458795601 1:-1.389444 2:0.65625 3:1 4:49 #
-0.00062832789088716593534772458795601 1:0.5508067 2:0.83333331 3:1 4:21 #
0.00062832789088716593534772458795601 1:-3.1794436 2:0.53333336 3:10 4:13 #
0.00062832789088716593534772458795601 1:0.063686833 2:0.6875 3:3 4:26 #
-0.00062832789088716593534772458795601 1:-1.9340928 2:0.55862069 3:1 4:15 #
-0.00062832789088716593534772458795601 1:-2.0037208 2:0.55502391 3:16 4:39 #
-0.00062832789088716593534772458795601 1:-0.0059576659 2:0.83333331 3:1 4:19 #
0.00062832789088716593534772458795601 1:-2.9136782 2:0.86956519 3:2 4:50 #
-0.00062832789088716593534772458795601 1:-1.8019291 2:0.57246375 3:1 4:15 #
-0.00062832789088716593534772458795601 1:1.9331874 2:0.55555558 3:14 4:11 #
0.00062832789088716593534772458795601 1:-1.6179143 2:0.85185188 3:1 4:52 #
0.00062832789088716593534772458795601 1:-0.20876503 2:0.86363637 3:1 4:47 #
-0.00062832789088716593534772458795601 1:-1.4376163 2:0.5714286 3:1 4:15 #
0.00062832789088716593534772458795601 1:-0.77511001 2:0.75 3:2 4:50 #
-0.00062832789088716593534772458795601 1:1.1972983 2:0.46551725 3:10 4:11 #
-0.00062832789088716593534772458795601 1:0.7444576 2:0.51960784 3:11 4:11 #
-0.00062832789088716593534772458795601 1:-3.6824782 2:0.57068062 3:7 4:16 #
-0.00062832789088716593534772458795601 1:2.4402728 2:0.62637365 3:7 4:14 #
0.00062832789088716593534772458795601 1:0.43732971 2:0.5 3:12 4:0 #
0.00062832789088716593534772458795601 1:0.37398782 2:0.68421054 3:3 4:25 #
-0.00062832789088716593534772458795601 1:-0.24517937 2:0.65934068 3:1 4:16 #
0.00062832789088716593534772458795601 1:-0.099301584 2:0.875 3:2 4:34 #
0.00062832789088716593534772458795601 1:-0.17263125 2:0.66666669 3:12 4:0 #
0.00062832789088716593534772458795601 1:-1.7371038 2:0.72727275 3:11 4:0 #
0.00062832789088716593534772458795601 1:-3.6904874 2:0.77777779 3:1 4:33 #
0.00062832789088716593534772458795601 1:-2.9136782 2:0.86956519 3:2 4:50 #
0.00062832789088716593534772458795601 1:1.4273177 2:0.72222221 3:8 4:25 #
0.00062832789088716593534772458795601 1:0.21887121 2:0.66666669 3:12 4:0 #
0.00062832789088716593534772458795601 1:-4.0973468 2:0.74074072 3:4 4:41 #
0.00062832789088716593534772458795601 1:-0.28252578 2:0.75 3:12 4:0 #
-0.00062832789088716593534772458795601 1:1.9353509 2:0.66176468 3:1 4:19 #
-0.00062832789088716593534772458795601 1:2.3651218 2:0.59090906 3:1 4:19 #
0.00062832789088716593534772458795601 1:-3.147016 2:0.57575756 3:9 4:15 #
0.00062832789088716593534772458795601 1:-1.7825445 2:0.64705884 3:10 4:13 #
-0.00062832789088716593534772458795601 1:0.10508252 2:0.49622166 3:19 4:20 #
-0.00062832789088716593534772458795601 1:-2.7752841 2:0.56756759 3:4 4:22 #
-0.00062832789088716593534772458795601 1:-0.3545391 2:0.46962616 3:17 4:32 #
-0.00062832789088716593534772458795601 1:0.96950537 2:0.75 3:9 4:143 #
-0.00062832789088716593534772458795601 1:-0.63087803 2:0.52631581 3:16 4:23 #
0.00062832789088716593534772458795601 1:-0.086504988 2:0.88235295 3:3 4:37 #
-0.00062832789088716593534772458795601 1:0.077559717 2:0.52093023 3:24 4:17 #
-0.00062832789088716593534772458795601 1:-3.9356449 2:0.85000002 3:1 4:42 #
-0.00062832789088716593534772458795601 1:0.1656978 2:0.52205884 3:1 4:15 #
-0.00062832789088716593534772458795601 1:-1.9431007 2:0.68965518 3:10 4:38 #
-0.00062832789088716593534772458795601 1:3.1336479 2:0.77999997 3:20 4:68 #
0.00062832789088716593534772458795601 1:-3.8791015 2:0.64999998 3:5 4:24 #
-0.00062832789088716593534772458795601 1:-0.5696125 2:0.57028115 3:2 4:91 #
-0.00062832789088716593534772458795601 1:0.90275311 2:0.51485151 3:27 4:20 #
-0.00062832789088716593534772458795601 1:0.69995958 2:0.54656863 3:2 4:14 #
0.00062832789088716593534772458795601 1:-1.4625385 2:0.83333331 3:2 4:50 #
0.00062832789088716593534772458795601 1:-1.5828847 2:0.88 3:1 4:51 #
-0.00062832789088716593534772458795601 1:0.85084063 2:0.62857145 3:1 4:80 #
-0.00062832789088716593534772458795601 1:0.064016715 2:0.89999998 3:1 4:24 #
0.00062832789088716593534772458795601 1:-2.1500773 2:0.52941179 3:8 4:20 #
0.00062832789088716593534772458795601 1:0.70956904 2:0.75 3:6 4:29 #
-0.00062832789088716593534772458795601 1:-1.5514184 2:0.5673759 3:1 4:15 #
-0.00062832789088716593534772458795601 1:-1.3259417 2:0.56493509 3:10 4:28 #
0.00062832789088716593534772458795601 1:0.049874332 2:0.71428573 3:2 4:23 #
-0.00062832789088716593534772458795601 1:-0.8453182 2:0.58256882 3:18 4:153 #
-0.00062832789088716593534772458795601 1:0.37500536 2:0.89473683 3:1 4:39 #
0.00062832789088716593534772458795601 1:-2.2192001 2:0.5714286 3:10 4:9 #
-0.00062832789088716593534772458795601 1:-0.7964648 2:0.46268657 3:20 4:14 #
0.00062832789088716593534772458795601 1:0.75378042 2:0.66666669 3:12 4:0 #
0.00062832789088716593534772458795601 1:-1.7241873 2:0.58823532 3:9 4:17 #
0.00062832789088716593534772458795601 1:-0.46765593 2:0.52941179 3:9 4:16 #
-0.00062832789088716593534772458795601 1:-0.75729746 2:0.61702126 3:20 4:33 #
0.00062832789088716593534772458795601 1:-3.566242 2:0.66666669 3:7 4:20 #
0.00062832789088716593534772458795601 1:0.69128722 2:0.69565219 3:7 4:33 #
0.00062832789088716593534772458795601 1:-2.6703734 2:0.80000001 3:3 4:46 #
0.00062832789088716593534772458795601 1:-2.1177552 2:0.55882353 3:8 4:20 #
0.00062832789088716593534772458795601 1:0.044395439 2:0.83333331 3:1 4:31 #
-0.00062832789088716593534772458795601 1:-0.22476691 2:0.53045684 3:1 4:15 #
0.00062832789088716593534772458795601 1:-0.16339712 2:0.69565219 3:5 4:30 #
-0.00062832789088716593534772458795601 1:0.55773717 2:0.59214503 3:1 4:80 #
-0.00062832789088716593534772458795601 1:3.1373279 2:0.69565219 3:13 4:20 #
0.00062832789088716593534772458795601 1:-3.4748635 2:0.64999998 3:4 4:28 #
0.00062832789088716593534772458795601 1:1.1887286 2:0.69999999 3:7 4:32 #
0.00062832789088716593534772458795601 1:-0.43153277 2:0.83333331 3:1 4:41 #
0.00062832789088716593534772458795601 1:0.81147361 2:0.66666669 3:12 4:0 #
-0.00062832789088716593534772458795601 1:0.092829466 2:0.47263682 3:1 4:15 #
-0.00062832789088716593534772458795601 1:-0.98479128 2:0.63760215 3:21 4:52 #
-0.00062832789088716593534772458795601 1:2.9430499 2:0.61978024 3:1 4:27 #
-0.00062832789088716593534772458795601 1:0.69372076 2:0.54022986 3:10 4:11 #
-0.00062832789088716593534772458795601 1:1.9258603 2:0.7647059 3:1 4:29 #
-0.00062832789088716593534772458795601 1:0.35170475 2:0.80645162 3:2 4:17 #
0.00062832789088716593534772458795601 1:1.0754398 2:0.66666669 3:12 4:0 #
-0.00062832789088716593534772458795601 1:0.83147043 2:0.46014494 3:2 4:14 #
-0.00062832789088716593534772458795601 1:-0.35349354 2:0.5258621 3:1 4:15 #
0.00062832789088716593534772458795601 1:-0.084746204 2:0.8888889 3:2 4:39 #
0.00062832789088716593534772458795601 1:-2.0142038 2:0.89999998 3:2 4:49 #
-0.00062832789088716593534772458795601 1:-0.37250492 2:0.51310861 3:1 4:15 #
0.00062832789088716593534772458795601 1:-0.74160671 2:0.75675678 3:2 4:49 #
-0.00062832789088716593534772458795601 1:-1.0895717 2:0.53915662 3:1 4:15 #
0.00062832789088716593534772458795601 1:-0.359597 2:0.77419353 3:2 4:49 #
-0.00062832789088716593534772458795601 1:0.39949346 2:0.60406089 3:1 4:16 #
0.00062832789088716593534772458795601 1:-1.4277158 2:0.68421054 3:8 4:23 #
-0.00062832789088716593534772458795601 1:-1.4051932 2:0.54883718 3:1 4:15 #
-0.00062832789088716593534772458795601 1:-0.37974709 2:0.492163 3:1 4:15 #
0.00062832789088716593534772458795601 1:-0.61903793 2:0.6111111 3:8 4:22 #
-0.00062832789088716593534772458795601 1:-0.88904387 2:0.6100629 3:2 4:14 #
0.00062832789088716593534772458795601 1:1.827135 2:0.66666669 3:12 4:0 #
0.00062832789088716593534772458795601 1:0.34890339 2:0.63157892 3:8 4:22 #
-0.00062832789088716593534772458795601 1:-1.2475709 2:0.54591835 3:1 4:15 #
0.00062832789088716593534772458795601 1:0.51857507 2:0.5 3:8 4:21 #
-0.00062832789088716593534772458795601 1:-2.4866414 2:0.60869563 3:1 4:32 #
-0.00062832789088716593534772458795601 1:0.16376343 2:0.59659094 3:1 4:16 #
0.00062832789088716593534772458795601 1:-0.68397844 2:0.6111111 3:9 4:18 #
-0.00062832789088716593534772458795601 1:0.61159194 2:0.69444442 3:1 4:17 #
-0.00062832789088716593534772458795601 1:0.82990342 2:0.67500001 3:1 4:17 #
0.00062832789088716593534772458795601 1:-0.092547596 2:0.58823532 3:10 4:13 #
0.00062832789088716593534772458795601 1:-0.66591853 2:0.61538464 3:9 4:18 #
-0.00062832789088716593534772458795601 1:-1.9680588 2:0.619403 3:1 4:16 #
-0.00062832789088716593534772458795601 1:0.69312292 2:0.44973546 3:3 4:13 #
-0.00062832789088716593534772458795601 1:2.3797917 2:0.69230771 3:1 4:25 #
-0.00062832789088716593534772458795601 1:0.72779882 2:0.66037738 3:1 4:17 #
-0.00062832789088716593534772458795601 1:-1.1388253 2:0.5138889 3:1 4:15 #
0.00062832789088716593534772458795601 1:-0.25239408 2:0.61904764 3:9 4:18 #
-0.00062832789088716593534772458795601 1:2.1324089 2:0.68627453 3:1 4:21 #
0.00062832789088716593534772458795601 1:1.6800169 2:0.66666669 3:12 4:0 #
0.00062832789088716593534772458795601 1:-2.5719826 2:0.625 3:5 4:22 #
0.00062832789088716593534772458795601 1:-2.2087154 2:0.53846157 3:4 4:11 #
0.00062832789088716593534772458795601 1:1.5143356 2:0.75 3:12 4:0 #
-0.00062832789088716593534772458795601 1:1.1154256 2:0.78571427 3:1 4:23 #
-0.00062832789088716593534772458795601 1:0.5069443 2:0.5366379 3:1 4:16 #
0.00062832789088716593534772458795601 1:-1.5473748 2:0.6111111 3:8 4:21 #
-0.00062832789088716593534772458795601 1:-1.5708827 2:0.5724138 3:3 4:13 #
0.00062832789088716593534772458795601 1:-0.86564702 2:0.57894737 3:7 4:23 #
0.00062832789088716593534772458795601 1:-1.381073 2:0.63157892 3:7 4:23 #
-0.00062832789088716593534772458795601 1:-0.84380692 2:0.89999998 3:1 4:24 #
0.00062832789088716593534772458795601 1:-0.75635052 2:0.58620691 3:5 4:22 #
-0.00062832789088716593534772458795601 1:-1.1661974 2:0.50819671 3:1 4:15 #
-0.00062832789088716593534772458795601 1:-0.34349233 2:0.52401745 3:1 4:81 #
0.00062832789088716593534772458795601 1:1.5256411 2:0.75 3:12 4:0 #
-0.00062832789088716593534772458795601 1:-1.3190101 2:0.47505939 3:9 4:11 #
0.00062832789088716593534772458795601 1:-2.9067543 2:0.625 3:7 4:19 #
-0.00062832789088716593534772458795601 1:-1.6586567 2:0.48863637 3:1 4:15 #
-0.00062832789088716593534772458795601 1:-0.94963199 2:0.53731346 3:2 4:89 #
0.00062832789088716593534772458795601 1:0.87616336 2:0.75 3:6 4:24 #
0.00062832789088716593534772458795601 1:1.560994 2:0.75 3:12 4:0 #
-0.00062832789088716593534772458795601 1:0.84752303 2:0.85000002 3:1 4:37 #
0.00062832789088716593534772458795601 1:-1.4187243 2:0.53333336 3:8 4:18 #
-0.00062832789088716593534772458795601 1:-1.4955212 2:0.619403 3:6 4:124 #
-0.00062832789088716593534772458795601 1:-0.87850535 2:0.78787881 3:1 4:57 #
-0.00062832789088716593534772458795601 1:0.86531216 2:0.64285713 3:5 4:13 #
-0.00062832789088716593534772458795601 1:1.3085541 2:0.81481481 3:2 4:44 #
0.00062832789088716593534772458795601 1:0.032892913 2:0.72727275 3:11 4:0 #
0.00062832789088716593534772458795601 1:-1.7388624 2:0.55555558 3:8 4:20 #
0.00062832789088716593534772458795601 1:0.51040882 2:0.65217394 3:5 4:23 #
0.00062832789088716593534772458795601 1:1.5897765 2:0.75 3:12 4:0 #
-0.00062832789088716593534772458795601 1:-0.99774152 2:0.53781515 3:3 4:13 #
0.00062832789088716593534772458795601 1:-2.5126712 2:0.75 3:7 4:22 #
0.00062832789088716593534772458795601 1:1.749051 2:0.75 3:12 4:0 #
0.00062832789088716593534772458795601 1:0.59077322 2:0.66666669 3:8 4:22 #
0.00062832789088716593534772458795601 1:-2.4284441 2:0.61904764 3:5 4:22 #
0.00062832789088716593534772458795601 1:-0.66078013 2:0.70588237 3:8 4:22 #
0.00062832789088716593534772458795601 1:0.502379 2:0.5925926 3:7 4:22 #
0.00062832789088716593534772458795601 1:0.044316202 2:0.75 3:8 4:22 #
0.00062832789088716593534772458795601 1:-1.456045 2:0.62068963 3:8 4:21 #
-0.00062832789088716593534772458795601 1:-2.990721 2:0.58791208 3:2 4:37 #
-0.00062832789088716593534772458795601 1:-1.1661974 2:0.49871466 3:1 4:15 #
-0.00062832789088716593534772458795601 1:-0.067593165 2:0.55163044 3:16 4:25 #
-0.00062832789088716593534772458795601 1:-2.1283276 2:0.92307693 3:2 4:29 #
0.00062832789088716593534772458795601 1:0.40111148 2:0.68421054 3:3 4:22 #
-0.00062832789088716593534772458795601 1:2.4783251 2:0.60714287 3:1 4:20 #
-0.00062832789088716593534772458795601 1:2.4155354 2:0.52955085 3:6 4:13 #
0.00062832789088716593534772458795601 1:0.49854124 2:0.72727275 3:3 4:32 #
-0.00062832789088716593534772458795601 1:-3.2092664 2:0.56287426 3:3 4:13 #
0.00062832789088716593534772458795601 1:1.1518648 2:0.60000002 3:7 4:22 #
0.00062832789088716593534772458795601 1:0.078578845 2:0.72727275 3:11 4:0 #
-0.00062832789088716593534772458795601 1:1.3049806 2:0.56603771 3:1 4:17 #
-0.00062832789088716593534772458795601 1:2.0774226 2:0.76136363 3:18 4:124 #
0.00062832789088716593534772458795601 1:-0.79413527 2:0.58823532 3:9 4:17 #
-0.00062832789088716593534772458795601 1:-0.44482556 2:0.64615387 3:5 4:13 #
0.00062832789088716593534772458795601 1:0.36910895 2:0.55000001 3:8 4:21 #
-0.00062832789088716593534772458795601 1:-0.30812815 2:0.59090906 3:1 4:16 #
0.00062832789088716593534772458795601 1:-1.9966797 2:0.64705884 3:6 4:22 #
-0.00062832789088716593534772458795601 1:0.31361973 2:0.69999999 3:1 4:18 #
0.00062832789088716593534772458795601 1:0.46751747 2:0.64285713 3:3 4:18 #
-0.00062832789088716593534772458795601 1:-1.3276414 2:0.59200001 3:3 4:86 #
-0.00062832789088716593534772458795601 1:-4.1965909 2:0.56410259 3:1 4:23 #
-0.00062832789088716593534772458795601 1:0.035430819 2:0.86666667 3:1 4:28 #
-0.00062832789088716593534772458795601 1:0.46690235 2:0.73913044 3:2 4:17 #
0.00062832789088716593534772458795601 1:-1.1165537 2:0.6111111 3:8 4:21 #
-0.00062832789088716593534772458795601 1:-3.0836844 2:0.54676259 3:3 4:13 #
0.00062832789088716593534772458795601 1:0.49142411 2:0.5625 3:8 4:21 #
0.00062832789088716593534772458795601 1:-1.8452808 2:0.73333335 3:5 4:22 #
0.00062832789088716593534772458795601 1:-1.4755038 2:0.66666669 3:6 4:22 #
-0.00062832789088716593534772458795601 1:2.045177 2:0.51904762 3:5 4:13 #
0.00062832789088716593534772458795601 1:-1.5537018 2:0.64999998 3:8 4:21 #
-0.00062832789088716593534772458795601 1:-1.8463919 2:0.49633253 3:14 4:16 #
-0.00062832789088716593534772458795601 1:-3.9074826 2:0.64757711 3:5 4:13 #
-0.00062832789088716593534772458795601 1:-0.30982491 2:0.49586776 3:15 4:10 #
-0.00062832789088716593534772458795601 1:2.480442 2:0.66666669 3:1 4:30 #
-0.00062832789088716593534772458795601 1:0.30996871 2:0.53672314 3:4 4:13 #
-0.00062832789088716593534772458795601 1:-0.97204 2:0.5 3:1 4:15 #
-0.00062832789088716593534772458795601 1:-1.3149581 2:0.59183675 3:4 4:13 #
-0.00062832789088716593534772458795601 1:0.12931266 2:0.50251257 3:11 4:11 #
-0.00062832789088716593534772458795601 1:2.1196847 2:0.65760869 3:1 4:21 #
-0.00062832789088716593534772458795601 1:0.30927193 2:0.58461541 3:2 4:15 #
-0.00062832789088716593534772458795601 1:-1.4277158 2:0.48837209 3:3 4:13 #
-0.00062832789088716593534772458795601 1:0.67076147 2:0.81818181 3:1 4:39 #
-0.00062832789088716593534772458795601 1:1.2377024 2:0.47874719 3:5 4:13 #
-0.00062832789088716593534772458795601 1:2.6539433 2:0.45530728 3:1 4:18 #
-0.00062832789088716593534772458795601 1:3.1981771 2:0.5648855 3:1 4:29 #
-0.00062832789088716593534772458795601 1:-0.017116522 2:0.90909094 3:2 4:27 #
0.00062832789088716593534772458795601 1:-1.6236939 2:0.44444445 3:26 4:26 #
0.00062832789088716593534772458795601 1:-1.8018882 2:0.61538464 3:1 4:15 #
0.00062832789088716593534772458795601 1:-2.3133845 2:0.7027027 3:28 4:26 #
0.00062832789088716593534772458795601 1:-0.44710922 2:0.54054052 3:29 4:20 #
0.00062832789088716593534772458795601 1:0.1855547 2:0.69230771 3:3 4:35 #
0.00062832789088716593534772458795601 1:0.43732971 2:0.82608694 3:4 4:45 #
0.00062832789088716593534772458795601 1:2.4639452 2:0.57692307 3:26 4:0 #
0.00062832789088716593534772458795601 1:-1.6236939 2:0.47999999 3:25 4:0 #
0.00062832789088716593534772458795601 1:2.669919 2:0.44736841 3:29 4:13 #
0.00062832789088716593534772458795601 1:-0.21784927 2:0.83333331 3:1 4:47 #
0.00062832789088716593534772458795601 1:-0.41307446 2:0.60714287 3:20 4:19 #
0.00062832789088716593534772458795601 1:-1.6938465 2:0.75 3:8 4:65 #
0.00062832789088716593534772458795601 1:-1.1748449 2:0.5 3:14 4:0 #
0.00062832789088716593534772458795601 1:2.2514322 2:0.69230771 3:26 4:0 #
0.00062832789088716593534772458795601 1:1.0137317 2:0.75 3:6 4:27 #
0.00062832789088716593534772458795601 1:-1.3017942 2:0.47999999 3:25 4:0 #
0.00062832789088716593534772458795601 1:2.2521589 2:0.61538464 3:26 4:0 #
-0.00062832789088716593534772458795601 1:1.3976021 2:0.54804271 3:1 4:17 #
-0.00062832789088716593534772458795601 1:-2.2825007 2:0.44493392 3:3 4:13 #
-0.00062832789088716593534772458795601 1:-0.63830495 2:0.83333331 3:1 4:46 #
-0.00062832789088716593534772458795601 1:2.3747542 2:0.54022986 3:1 4:20 #
-0.00062832789088716593534772458795601 1:-0.66653407 2:0.55365855 3:10 4:18 #
-0.00062832789088716593534772458795601 1:0.8056376 2:0.47079039 3:3 4:14 #
0.00062832789088716593534772458795601 1:0.080908976 2:0.82352942 3:4 4:36 #
0.00062832789088716593534772458795601 1:-1.5174907 2:0.60000002 3:25 4:0 #
0.00062832789088716593534772458795601 1:-2.9567847 2:0.58823532 3:17 4:0 #
-0.00062832789088716593534772458795601 1:1.5095484 2:0.50121063 3:1 4:17 #
0.00062832789088716593534772458795601 1:-1.3942139 2:0.56097561 3:27 4:27 #
0.00062832789088716593534772458795601 1:1.2147605 2:0.73333335 3:20 4:21 #
-0.00062832789088716593534772458795601 1:1.3525841 2:0.61728394 3:1 4:20 #
0.00062832789088716593534772458795601 1:-2.75334 2:0.66666669 3:3 4:11 #
-0.00062832789088716593534772458795601 1:-1.8630058 2:0.53503186 3:2 4:14 #
0.00062832789088716593534772458795601 1:-0.62918466 2:0.58974361 3:26 4:28 #
-0.00062832789088716593534772458795601 1:-1.3947551 2:0.55974841 3:13 4:14 #
0.00062832789088716593534772458795601 1:-1.0549411 2:0.5 3:24 4:0 #
-0.00062832789088716593534772458795601 1:-1.281449 2:0.4989059 3:16 4:25 #
0.00062832789088716593534772458795601 1:-1.7011517 2:0.5714286 3:25 4:29 #
-0.00062832789088716593534772458795601 1:-2.7440853 2:0.75 3:2 4:19 #
0.00062832789088716593534772458795601 1:1.2099483 2:0.41176471 3:28 4:16 #
0.00062832789088716593534772458795601 1:-0.38968304 2:0.45454547 3:27 4:25 #
0.00062832789088716593534772458795601 1:0.71040428 2:0.56756759 3:29 4:16 #
0.00062832789088716593534772458795601 1:-0.65108055 2:0.62857145 3:29 4:19 #
-0.00062832789088716593534772458795601 1:-3.4049447 2:0.59887004 3:1 4:17 #
0.00062832789088716593534772458795601 1:-0.86296827 2:0.60465115 3:28 4:24 #
-0.00062832789088716593534772458795601 1:2.2939167 2:0.54323727 3:1 4:20 #
0.00062832789088716593534772458795601 1:-1.3180789 2:0.60000002 3:25 4:0 #
0.00062832789088716593534772458795601 1:1.1112043 2:0.68421054 3:8 4:22 #
-0.00062832789088716593534772458795601 1:-0.88952643 2:0.47404844 3:1 4:15 #
0.00062832789088716593534772458795601 1:2.4036372 2:0.4375 3:16 4:0 #
-0.00062832789088716593534772458795601 1:0.076572478 2:0.56441718 3:24 4:38 #
0.00062832789088716593534772458795601 1:-0.36722463 2:0.60975611 3:25 4:28 #
-0.00062832789088716593534772458795601 1:-0.57785577 2:0.74242425 3:2 4:21 #
-0.00062832789088716593534772458795601 1:3.5343034 2:0.54484308 3:8 4:15 #
0.00062832789088716593534772458795601 1:0.94419116 2:0.60000002 3:25 4:0 #
-0.00062832789088716593534772458795601 1:-0.36496469 2:0.49638554 3:20 4:10 #
0.00062832789088716593534772458795601 1:0.53401744 2:0.52380955 3:25 4:27 #
0.00062832789088716593534772458795601 1:0.32718539 2:0.72727275 3:11 4:0 #
-0.00062832789088716593534772458795601 1:1.3177693 2:0.78571427 3:3 4:20 #
0.00062832789088716593534772458795601 1:-0.41577175 2:0.40000001 3:15 4:0 #
-0.00062832789088716593534772458795601 1:-1.3152454 2:0.39449543 3:13 4:28 #
0.00062832789088716593534772458795601 1:1.6967579 2:0.60526317 3:25 4:27 #
-0.00062832789088716593534772458795601 1:2.308027 2:0.52319586 3:1 4:20 #
-0.00062832789088716593534772458795601 1:0.73896599 2:0.66666669 3:5 4:15 #
0.00062832789088716593534772458795601 1:-1.173126 2:0.5 3:22 4:25 #
0.00062832789088716593534772458795601 1:1.7009125 2:0.60000002 3:25 4:0 #
0.00062832789088716593534772458795601 1:1.7884625 2:0.47619048 3:21 4:0 #
-0.00062832789088716593534772458795601 1:-1.1398203 2:0.63614458 3:17 4:11 #
0.00062832789088716593534772458795601 1:-0.55233365 2:0.80000001 3:1 4:26 #
0.00062832789088716593534772458795601 1:1.227191 2:0.53846157 3:25 4:26 #
0.00062832789088716593534772458795601 1:1.2619507 2:0.56756759 3:27 4:26 #
0.00062832789088716593534772458795601 1:-3.1031322 2:0.66666669 3:15 4:0 #
0.00062832789088716593534772458795601 1:-1.0630982 2:0.69696969 3:2 4:26 #
0.00062832789088716593534772458795601 1:-0.38444799 2:0.5 3:24 4:0 #
-0.00062832789088716593534772458795601 1:2.535182 2:0.50256413 3:1 4:19 #
0.00062832789088716593534772458795601 1:-1.0914423 2:0.56756759 3:28 4:22 #
-0.00062832789088716593534772458795601 1:2.5609813 2:0.48318043 3:1 4:19 #
-0.00062832789088716593534772458795601 1:1.6505613 2:0.58203125 3:1 4:18 #
0.00062832789088716593534772458795601 1:-2.5267279 2:0.60526317 3:25 4:23 #
0.00062832789088716593534772458795601 1:0.6283716 2:0.48571429 3:24 4:25 #
-0.00062832789088716593534772458795601 1:-0.69384724 2:0.65333331 3:1 4:17 #
-0.00062832789088716593534772458795601 1:-0.41737336 2:0.5754717 3:1 4:16 #
0.00062832789088716593534772458795601 1:0.93693835 2:0.57499999 3:27 4:25 #
-0.00062832789088716593534772458795601 1:2.3301623 2:0.52066118 3:1 4:20 #
-0.00062832789088716593534772458795601 1:0.045861118 2:0.67567569 3:1 4:20 #
0.00062832789088716593534772458795601 1:-0.78452677 2:0.52083331 3:27 4:15 #
-0.00062832789088716593534772458795601 1:1.4200732 2:0.60245901 3:1 4:18 #
0.00062832789088716593534772458795601 1:1.4452242 2:0.51428574 3:27 4:16 #
0.00062832789088716593534772458795601 1:2.2291987 2:0.51219511 3:27 4:23 #
-0.00062832789088716593534772458795601 1:0.096653171 2:0.51875001 3:1 4:16 #
0.00062832789088716593534772458795601 1:-1.9294436 2:0.47058824 3:17 4:0 #
-0.00062832789088716593534772458795601 1:2.7554426 2:0.53600001 3:25 4:11 #
0.00062832789088716593534772458795601 1:-0.90479356 2:0.60000002 3:25 4:25 #
-0.00062832789088716593534772458795601 1:-1.4726795 2:0.66666669 3:2 4:15 #
-0.00062832789088716593534772458795601 1:-1.2967337 2:0.56 3:4 4:13 #
0.00062832789088716593534772458795601 1:0.14430919 2:0.51351351 3:25 4:25 #
-0.00062832789088716593534772458795601 1:-0.41737336 2:0.63749999 3:1 4:17 #
0.00062832789088716593534772458795601 1:0.051500134 2:0.54285717 3:27 4:21 #
0.00062832789088716593534772458795601 1:1.3090034 2:0.5 3:21 4:19 #
-0.00062832789088716593534772458795601 1:1.8745019 2:0.54081631 3:1 4:20 #
-0.00062832789088716593534772458795601 1:-3.044034 2:0.60000002 3:3 4:23 #
-0.00062832789088716593534772458795601 1:1.5796475 2:0.72566372 3:5 4:23 #
0.00062832789088716593534772458795601 1:0.26982892 2:0.54166669 3:24 4:0 #
0.00062832789088716593534772458795601 1:0.27164847 2:0.52777779 3:25 4:25 #
-0.00062832789088716593534772458795601 1:-1.3854189 2:0.65306121 3:2 4:15 #
-0.00062832789088716593534772458795601 1:0.82702708 2:0.703125 3:2 4:17 #
0.00062832789088716593534772458795601 1:-0.092512839 2:0.58333331 3:25 4:25 #
-0.00062832789088716593534772458795601 1:-1.9536194 2:0.7647059 3:2 4:16 #
-0.00062832789088716593534772458795601 1:1.5457437 2:0.51937985 3:3 4:15 #
0.00062832789088716593534772458795601 1:-1.2666734 2:0.54054052 3:23 4:24 #
-0.00062832789088716593534772458795601 1:0.99450004 2:0.60000002 3:1 4:20 #
0.00062832789088716593534772458795601 1:-0.63701457 2:0.54838711 3:21 4:18 #
-0.00062832789088716593534772458795601 1:-0.80291456 2:0.47232473 3:1 4:15 #
0.00062832789088716593534772458795601 1:0.32338044 2:0.5 3:26 4:15 #
0.00062832789088716593534772458795601 1:0.34480739 2:0.60526317 3:25 4:22 #
-0.00062832789088716593534772458795601 1:0.25394124 2:0.541502 3:2 4:15 #
0.00062832789088716593534772458795601 1:0.30382147 2:0.57575756 3:23 4:25 #
0.00062832789088716593534772458795601 1:1.5008029 2:0.63999999 3:25 4:0 #
0.00062832789088716593534772458795601 1:1.1006708 2:0.67567569 3:24 4:24 #
0.00062832789088716593534772458795601 1:-1.0123835 2:0.86666667 3:2 4:32 #
0.00062832789088716593534772458795601 1:-2.4617386 2:0.54545456 3:21 4:24 #
-0.00062832789088716593534772458795601 1:-0.11720096 2:0.53282827 3:1 4:16 #
-0.00062832789088716593534772458795601 1:-2.8443334 2:0.47344109 3:4 4:18 #
-0.00062832789088716593534772458795601 1:0.42314231 2:0.71428573 3:2 4:17 #
-0.00062832789088716593534772458795601 1:-1.6271442 2:0.65957445 3:2 4:15 #
0.00062832789088716593534772458795601 1:0.23108068 2:0.41176471 3:17 4:0 #
0.00062832789088716593534772458795601 1:0.41546375 2:0.54285717 3:22 4:24 #
-0.00062832789088716593534772458795601 1:-0.97442323 2:0.65822786 3:1 4:17 #
0.00062832789088716593534772458795601 1:0.87019104 2:0.46875 3:25 4:17 #
0.00062832789088716593534772458795601 1:-1.8710026 2:0.57575756 3:21 4:24 #
-0.00062832789088716593534772458795601 1:-1.1698219 2:0.6270023 3:1 4:20 #
-0.00062832789088716593534772458795601 1:-1.7093401 2:0.51602566 3:9 4:18 #
0.00062832789088716593534772458795601 1:0.43757349 2:0.65517241 3:20 4:20 #
0.00062832789088716593534772458795601 1:-0.20323397 2:0.40625 3:23 4:14 #
0.00062832789088716593534772458795601 1:0.43333921 2:0.62790698 3:24 4:23 #
-0.00062832789088716593534772458795601 1:1.922757 2:0.51239669 3:1 4:20 #
0.00062832789088716593534772458795601 1:1.9361742 2:0.63999999 3:25 4:0 #
-0.00062832789088716593534772458795601 1:2.9274976 2:0.71428573 3:8 4:22 #
0.00062832789088716593534772458795601 1:-3.0882871 2:0.5714286 3:21 4:17 #
-0.00062832789088716593534772458795601 1:-4.2214026 2:0.54251009 3:3 4:14 #
-0.00062832789088716593534772458795601 1:-3.9682813 2:0.58515286 3:1 4:18 #
0.00062832789088716593534772458795601 1:1.6028465 2:0.55263156 3:25 4:15 #
0.00062832789088716593534772458795601 1:1.0040363 2:0.60000002 3:24 4:22 #
0.00062832789088716593534772458795601 1:-0.63059783 2:0.625 3:24 4:0 #
-0.00062832789088716593534772458795601 1:3.0844123 2:0.51162791 3:40 4:11 #
-0.00062832789088716593534772458795601 1:1.1068162 2:0.59533072 3:1 4:19 #
0.00062832789088716593534772458795601 1:-0.46821755 2:0.47222221 3:24 4:14 #
0.00062832789088716593534772458795601 1:1.4970624 2:0.625 3:24 4:0 #
-0.00062832789088716593534772458795601 1:0.32687405 2:0.52362204 3:3 4:14 #
0.00062832789088716593534772458795601 1:-1.1356767 2:0.55882353 3:24 4:15 #
-0.00062832789088716593534772458795601 1:-3.3224638 2:0.5 3:1 4:16 #
-0.00062832789088716593534772458795601 1:-2.0475836 2:0.52249134 3:1 4:16 #
-0.00062832789088716593534772458795601 1:0.32672304 2:0.57670456 3:1 4:17 #
-0.00062832789088716593534772458795601 1:0.71660638 2:0.54929578 3:1 4:17 #
-0.00062832789088716593534772458795601 1:-3.2141109 2:0.5370844 3:1 4:27 #
0.00062832789088716593534772458795601 1:-1.1847301 2:0.5151515 3:19 4:21 #
0.00062832789088716593534772458795601 1:-0.90290332 2:0.47368422 3:19 4:0 #
-0.00062832789088716593534772458795601 1:-1.2075506 2:0.43509614 3:9 4:11 #
0.00062832789088716593534772458795601 1:-0.48508927 2:0.62790698 3:22 4:24 #
-0.00062832789088716593534772458795601 1:-2.2694697 2:0.69999999 3:13 4:29 #
-0.00062832789088716593534772458795601 1:-0.44303629 2:0.58823532 3:17 4:11 #
0.00062832789088716593534772458795601 1:0.58753306 2:0.60000002 3:22 4:23 #
0.00062832789088716593534772458795601 1:0.2780484 2:0.54838711 3:22 4:22 #
-0.00062832789088716593534772458795601 1:1.719331 2:0.51960784 3:1 4:18 #
0.00062832789088716593534772458795601 1:-1.4250513 2:0.57499999 3:20 4:15 #
0.00062832789088716593534772458795601 1:-2.6176686 2:0.56097561 3:18 4:18 #
0.00062832789088716593534772458795601 1:-0.026914738 2:0.85000002 3:3 4:32 #
-0.00062832789088716593534772458795601 1:-3.6763518 2:0.54950494 3:1 4:20 #
0.00062832789088716593534772458795601 1:2.9313107 2:0.46666667 3:15 4:0 #
0.00062832789088716593534772458795601 1:-0.17143102 2:0.56756759 3:21 4:17 #
0.00062832789088716593534772458795601 1:0.66628581 2:0.53571427 3:20 4:22 #
-0.00062832789088716593534772458795601 1:-1.6805971 2:0.54411763 3:7 4:24 #
0.00062832789088716593534772458795601 1:3.3689768 2:0.57692307 3:20 4:19 #
-0.00062832789088716593534772458795601 1:1.77297 2:0.48497853 3:1 4:20 #
-0.00062832789088716593534772458795601 1:1.542199 2:0.72000003 3:4 4:22 #
-0.00062832789088716593534772458795601 1:1.045481 2:0.58974361 3:30 4:11 #
0.00062832789088716593534772458795601 1:0.48504904 2:0.54545456 3:21 4:22 #
0.00062832789088716593534772458795601 1:0.93693835 2:0.53333336 3:23 4:18 #
0.00062832789088716593534772458795601 1:-0.68631005 2:0.53333336 3:22 4:20 #
-0.00062832789088716593534772458795601 1:-1.3065699 2:0.61206895 3:1 4:19 #
0.00062832789088716593534772458795601 1:0.32736161 2:0.625 3:24 4:0 #
-0.00062832789088716593534772458795601 1:0.87878674 2:0.58208954 3:1 4:19 #
0.00062832789088716593534772458795601 1:0.39714435 2:0.625 3:24 4:0 #
-0.00062832789088716593534772458795601 1:0.52438456 2:0.59836066 3:1 4:19 #
0.00062832789088716593534772458795601 1:-0.56948161 2:0.64516127 3:22 4:22 #
-0.00062832789088716593534772458795601 1:-0.13197863 2:0.52866244 3:1 4:16 #
-0.00062832789088716593534772458795601 1:-1.5645161 2:0.72500002 3:2 4:16 #
0.00062832789088716593534772458795601 1:-0.41602707 2:0.52777779 3:22 4:20 #
-0.00062832789088716593534772458795601 1:-0.046060678 2:0.63043481 3:4 4:14 #
0.00062832789088716593534772458795601 1:-1.1048595 2:0.5625 3:21 4:21 #
0.00062832789088716593534772458795601 1:0.58673906 2:0.47619048 3:21 4:0 #
0.00062832789088716593534772458795601 1:-0.053343929 2:0.64285713 3:20 4:22 #
0.00062832789088716593534772458795601 1:0.59041697 2:0.58536583 3:23 4:17 #
0.00062832789088716593534772458795601 1:0.32729548 2:0.68965518 3:23 4:19 #
0.00062832789088716593534772458795601 1:-0.29686746 2:0.51612902 3:20 4:21 #
0.00062832789088716593534772458795601 1:1.51691 2:0.45454547 3:16 4:15 #
0.00062832789088716593534772458795601 1:2.0016634 2:0.5 3:22 4:0 #
0.00062832789088716593534772458795601 1:1.2510699 2:0.75 3:24 4:0 #
0.00062832789088716593534772458795601 1:-0.41577175 2:0.64516127 3:21 4:21 #
0.00062832789088716593534772458795601 1:-1.0071003 2:0.55172414 3:20 4:20 #
0.00062832789088716593534772458795601 1:-0.90361053 2:0.47826087 3:17 4:15 #
0.00062832789088716593534772458795601 1:-1.001037 2:0.5 3:22 4:14 #
0.00062832789088716593534772458795601 1:-0.4921639 2:0.56666666 3:22 4:18 #
0.00062832789088716593534772458795601 1:-1.8807898 2:0.55882353 3:18 4:19 #
-0.00062832789088716593534772458795601 1:-2.2744384 2:0.52369666 3:7 4:24 #
0.00062832789088716593534772458795601 1:2.7094963 2:0.5 3:20 4:0 #
-0.00062832789088716593534772458795601 1:0.27337408 2:0.56481481 3:22 4:37 #
0.00062832789088716593534772458795601 1:-0.60029113 2:0.73913044 3:3 4:30 #
-0.00062832789088716593534772458795601 1:-1.5212388 2:0.47453704 3:9 4:22 #
0.00062832789088716593534772458795601 1:-1.0680197 2:0.78947371 3:3 4:36 #
0.00062832789088716593534772458795601 1:-0.80029321 2:0.77777779 3:1 4:32 #
-0.00062832789088716593534772458795601 1:-1.6643207 2:0.58673471 3:10 4:21 #
0.00062832789088716593534772458795601 1:-1.9307015 2:0.78947371 3:3 4:33 #
0.00062832789088716593534772458795601 1:3.2031567 2:0.66666669 3:24 4:0 #
0.00062832789088716593534772458795601 1:-2.1581264 2:0.56 3:19 4:15 #
0.00062832789088716593534772458795601 1:2.9828963 2:0.69999999 3:21 4:21 #
-0.00062832789088716593534772458795601 1:-0.92541111 2:0.6111111 3:13 4:18 #
-0.00062832789088716593534772458795601 1:-1.8786356 2:0.51558071 3:10 4:25 #
0.00062832789088716593534772458795601 1:-0.85309792 2:0.51851851 3:18 4:19 #
0.00062832789088716593534772458795601 1:0.45212886 2:0.54054052 3:22 4:15 #
0.00062832789088716593534772458795601 1:0.81003165 2:0.6785714 3:22 4:19 #
0.00062832789088716593534772458795601 1:0.52961224 2:0.64285713 3:5 4:16 #
0.00062832789088716593534772458795601 1:-0.63701457 2:0.54838711 3:21 4:18 #
0.00062832789088716593534772458795601 1:-0.2152914 2:0.73333335 3:3 4:19 #
0.00062832789088716593534772458795601 1:0.39535552 2:0.68000001 3:5 4:16 #
0.00062832789088716593534772458795601 1:-1.8807898 2:0.55882353 3:18 4:19 #
-0.00062832789088716593534772458795601 1:-1.5568913 2:0.57936507 3:10 4:23 #
0.00062832789088716593534772458795601 1:0.16009818 2:0.59090906 3:22 4:0 #
0.00062832789088716593534772458795601 1:-1.611148 2:0.66666669 3:21 4:0 #
0.00062832789088716593534772458795601 1:0.47168705 2:0.5625 3:21 4:19 #
-0.00062832789088716593534772458795601 1:0.25519997 2:0.53521127 3:17 4:26 #
-0.00062832789088716593534772458795601 1:-1.514149 2:0.50731707 3:16 4:48 #
-0.00062832789088716593534772458795601 1:-1.3218274 2:0.49430525 3:10 4:17 #
-0.00062832789088716593534772458795601 1:1.9044862 2:0.465 3:1 4:18 #
-0.00062832789088716593534772458795601 1:1.1690663 2:0.49197862 3:1 4:17 #
-0.00062832789088716593534772458795601 1:2.6199369 2:0.57512951 3:1 4:21 #
-0.00062832789088716593534772458795601 1:0.028234186 2:0.45877379 3:1 4:16 #
-0.00062832789088716593534772458795601 1:1.5351821 2:0.5109489 3:3 4:15 #
-0.00062832789088716593534772458795601 1:3.1548939 2:0.56036448 3:1 4:33 #
-0.00062832789088716593534772458795601 1:0.54826802 2:0.51506025 3:1 4:17 #
-0.00062832789088716593534772458795601 1:-0.21592605 2:0.55650318 3:2 4:15 #
-0.00062832789088716593534772458795601 1:2.1642802 2:0.64347827 3:1 4:21 #
-0.00062832789088716593534772458795601 1:0.54992473 2:0.83333331 3:2 4:22 #
-0.00062832789088716593534772458795601 1:-1.8590722 2:0.50387597 3:1 4:16 #
-0.00062832789088716593534772458795601 1:1.7766672 2:0.58955222 3:15 4:12 #
-0.00062832789088716593534772458795601 1:0.55578762 2:0.45789474 3:24 4:23 #
-0.00062832789088716593534772458795601 1:-3.2405639 2:0.89473683 3:3 4:45 #
-0.00062832789088716593534772458795601 1:0.25394124 2:0.49714285 3:2 4:15 #
-0.00062832789088716593534772458795601 1:2.4579556 2:0.60790277 3:1 4:22 #
-0.00062832789088716593534772458795601 1:3.4052796 2:0.61363637 3:22 4:17 #
-0.00062832789088716593534772458795601 1:-2.0037208 2:0.40246913 3:3 4:13 #
-0.00062832789088716593534772458795601 1:-4.5359907 2:0.61061949 3:1 4:21 #
-0.00062832789088716593534772458795601 1:1.1571764 2:0.66060609 3:2 4:18 #
-0.00062832789088716593534772458795601 1:-0.58439445 2:0.69696969 3:2 4:17 #
-0.00062832789088716593534772458795601 1:3.3638582 2:0.63636363 3:12 4:22 #
0.00062832789088716593534772458795601 1:1.2277472 2:0.71428573 3:9 4:27 #
-0.00062832789088716593534772458795601 1:1.6133565 2:0.68965518 3:2 4:20 #
-0.00062832789088716593534772458795601 1:1.361913 2:0.57857144 3:2 4:17 #
-0.00062832789088716593534772458795601 1:-0.45473525 2:0.4566474 3:13 4:11 #
0.00062832789088716593534772458795601 1:2.8133168 2:0.63636363 3:22 4:0 #
0.00062832789088716593534772458795601 1:-3.1614466 2:0.5 3:16 4:17 #
0.00062832789088716593534772458795601 1:-0.082268514 2:0.85000002 3:2 4:40 #
0.00062832789088716593534772458795601 1:-1.0556767 2:0.61904764 3:21 4:0 #
-0.00062832789088716593534772458795601 1:-0.081807911 2:0.5 3:3 4:14 #
0.00062832789088716593534772458795601 1:0.66291356 2:0.73333335 3:6 4:44 #
-0.00062832789088716593534772458795601 1:0.9643895 2:0.49777779 3:6 4:13 #
0.00062832789088716593534772458795601 1:-0.055049747 2:0.63636363 3:22 4:0 #
0.00062832789088716593534772458795601 1:-0.02948752 2:0.78947371 3:11 4:62 #
0.00062832789088716593534772458795601 1:-2.4773242 2:0.60000002 3:15 4:0 #
0.00062832789088716593534772458795601 1:1.1189413 2:0.60000002 3:7 4:20 #
-0.00062832789088716593534772458795601 1:1.355523 2:0.51612902 3:1 4:18 #
0.00062832789088716593534772458795601 1:-0.35966143 2:0.63414633 3:18 4:50 #
0.00062832789088716593534772458795601 1:0.89274538 2:0.72727275 3:11 4:0 #
-0.00062832789088716593534772458795601 1:-0.20062491 2:0.59302324 3:1 4:17 #
0.00062832789088716593534772458795601 1:0.7773807 2:0.53571427 3:22 4:11 #
0.00062832789088716593534772458795601 1:-3.3172538 2:0.71428573 3:5 4:32 #
0.00062832789088716593534772458795601 1:-2.4878423 2:0.6875 3:1 4:17 #
-0.00062832789088716593534772458795601 1:2.2862394 2:0.57738096 3:1 4:21 #
-0.00062832789088716593534772458795601 1:-2.0236833 2:0.5 3:13 4:26 #
0.00062832789088716593534772458795601 1:-1.6837285 2:0.52631581 3:19 4:0 #
-0.00062832789088716593534772458795601 1:-1.0733652 2:0.5338164 3:4 4:13 #
0.00062832789088716593534772458795601 1:-0.0047784676 2:0.80769229 3:1 4:41 #
-0.00062832789088716593534772458795601 1:0.21989301 2:0.70588237 3:1 4:22 #
0.00062832789088716593534772458795601 1:2.233063 2:0.60869563 3:23 4:0 #
-0.00062832789088716593534772458795601 1:3.0087676 2:0.55350554 3:7 4:15 #
0.00062832789088716593534772458795601 1:-2.1779029 2:0.58064514 3:18 4:15 #
-0.00062832789088716593534772458795601 1:-1.6217612 2:0.55476189 3:13 4:16 #
-0.00062832789088716593534772458795601 1:-3.1377439 2:0.625 3:1 4:21 #
-0.00062832789088716593534772458795601 1:0.69702238 2:0.54461539 3:27 4:26 #
-0.00062832789088716593534772458795601 1:-1.8355283 2:0.57915056 3:13 4:30 #
0.00062832789088716593534772458795601 1:-2.0068569 2:0.64999998 3:20 4:0 #
-0.00062832789088716593534772458795601 1:1.0884355 2:0.5 3:2 4:16 #
0.00062832789088716593534772458795601 1:0.43381262 2:0.45833334 3:20 4:15 #
-0.00062832789088716593534772458795601 1:-3.8083937 2:0.50133336 3:2 4:15 #
0.00062832789088716593534772458795601 1:1.0596912 2:0.70588237 3:6 4:22 #
0.00062832789088716593534772458795601 1:-3.4286778 2:0.72222221 3:3 4:19 #
-0.00062832789088716593534772458795601 1:0.23108068 2:0.54151624 3:1 4:17 #
-0.00062832789088716593534772458795601 1:1.8896886 2:0.46256685 3:28 4:11 #
-0.00062832789088716593534772458795601 1:3.1276956 2:0.66666669 3:10 4:23 #
0.00062832789088716593534772458795601 1:-3.9932942 2:0.70588237 3:10 4:18 #
-0.00062832789088716593534772458795601 1:2.6446056 2:0.56284153 3:1 4:22 #
0.00062832789088716593534772458795601 1:-2.8739109 2:0.54545456 3:12 4:15 #
-0.00062832789088716593534772458795601 1:3.7635338 2:0.55913979 3:14 4:18 #
-0.00062832789088716593534772458795601 1:-3.5890598 2:0.60909092 3:5 4:13 #
0.00062832789088716593534772458795601 1:0.53339827 2:0.5 3:18 4:16 #
0.00062832789088716593534772458795601 1:1.6622872 2:0.65217394 3:23 4:0 #
-0.00062832789088716593534772458795601 1:-0.38117164 2:0.5527426 3:2 4:15 #
0.00062832789088716593534772458795601 1:1.1819946 2:0.62222224 3:21 4:14 #
0.00062832789088716593534772458795601 1:-1.2800778 2:0.75 3:1 4:20 #
-0.00062832789088716593534772458795601 1:-0.67402929 2:0.48672566 3:1 4:16 #
0.00062832789088716593534772458795601 1:-2.2277012 2:0.52941179 3:17 4:0 #
-0.00062832789088716593534772458795601 1:2.6446056 2:0.63013697 3:9 4:16 #
0.00062832789088716593534772458795601 1:-2.5405431 2:0.58823532 3:6 4:18 #
0.00062832789088716593534772458795601 1:2.5007079 2:0.65217394 3:23 4:0 #
-0.00062832789088716593534772458795601 1:-3.9593315 2:0.47956404 3:4 4:13 #
0.00062832789088716593534772458795601 1:-0.15433973 2:0.40909091 3:16 4:16 #
-0.00062832789088716593534772458795601 1:-0.004450188 2:0.57317072 3:1 4:17 #
0.00062832789088716593534772458795601 1:-1.9497714 2:0.56756759 3:19 4:13 #
0.00062832789088716593534772458795601 1:0.42025816 2:0.41176471 3:17 4:0 #
0.00062832789088716593534772458795601 1:0.5103451 2:0.60000002 3:19 4:15 #
-0.00062832789088716593534772458795601 1:0.20594797 2:0.66666669 3:2 4:17 #
0.00062832789088716593534772458795601 1:-1.6255345 2:0.51999998 3:17 4:14 #
0.00062832789088716593534772458795601 1:0.73559779 2:0.7368421 3:7 4:24 #
0.00062832789088716593534772458795601 1:0.42688718 2:0.61538464 3:3 4:20 #
-0.00062832789088716593534772458795601 1:-0.73433959 2:0.52668214 3:7 4:12 #
0.00062832789088716593534772458795601 1:0.58312625 2:0.47619048 3:10 4:18 #
0.00062832789088716593534772458795601 1:-0.10294274 2:0.53846157 3:13 4:0 #
-0.00062832789088716593534772458795601 1:0.83460033 2:0.67199999 3:17 4:12 #
-0.00062832789088716593534772458795601 1:1.7219075 2:0.71428573 3:5 4:20 #
-0.00062832789088716593534772458795601 1:-3.7552822 2:0.72839504 3:6 4:17 #
0.00062832789088716593534772458795601 1:2.8206537 2:0.51851851 3:19 4:14 #
-0.00062832789088716593534772458795601 1:1.6896415 2:0.43243244 3:1 4:18 #
0.00062832789088716593534772458795601 1:-1.9370185 2:0.60000002 3:6 4:19 #
0.00062832789088716593534772458795601 1:0.43333921 2:0.5869565 3:19 4:14 #
-0.00062832789088716593534772458795601 1:-1.0529822 2:0.59103644 3:2 4:15 #
-0.00062832789088716593534772458795601 1:-0.87935585 2:0.63571429 3:12 4:38 #
0.00062832789088716593534772458795601 1:-0.67966241 2:0.44444445 3:18 4:0 #
0.00062832789088716593534772458795601 1:-1.2917026 2:0.64285713 3:3 4:20 #
-0.00062832789088716593534772458795601 1:1.0303234 2:0.64406782 3:1 4:22 #
-0.00062832789088716593534772458795601 1:0.90025169 2:0.71428573 3:10 4:15 #
-0.00062832789088716593534772458795601 1:-2.3912919 2:0.48275861 3:10 4:11 #
-0.00062832789088716593534772458795601 1:-0.60828114 2:0.5 3:2 4:15 #
-0.00062832789088716593534772458795601 1:-2.9093177 2:0.54906541 3:2 4:15 #
-0.00062832789088716593534772458795601 1:-1.0297968 2:0.44897959 3:12 4:11 #
-0.00062832789088716593534772458795601 1:-0.17250599 2:0.89473683 3:2 4:42 #
0.00062832789088716593534772458795601 1:-1.1210059 2:0.75 3:2 4:11 #
0.00062832789088716593534772458795601 1:0.20936762 2:0.44444445 3:22 4:26 #
0.00062832789088716593534772458795601 1:-1.4033748 2:0.5 3:16 4:0 #
0.00062832789088716593534772458795601 1:0.95822364 2:0.73913044 3:7 4:32 #
0.00062832789088716593534772458795601 1:-0.085235521 2:0.68292683 3:17 4:51 #
0.00062832789088716593534772458795601 1:1.7834003 2:0.65217394 3:23 4:0 #
-0.00062832789088716593534772458795601 1:0.87818724 2:0.54421771 3:28 4:20 #
0.00062832789088716593534772458795601 1:2.4579556 2:0.74358976 3:14 4:57 #
-0.00062832789088716593534772458795601 1:-0.10750148 2:0.56273764 3:1 4:17 #
0.00062832789088716593534772458795601 1:-1.025008 2:0.67500001 3:20 4:42 #
