SVM-light Version V6.02
0 # kernel type
3 # kernel parameter -d 
1 # kernel parameter -g 
1 # kernel parameter -s 
1 # kernel parameter -r 
empty# kernel parameter -u 
4 # highest feature index 
16298 # number of training documents 
8189 # number of support vectors plus 1 
-0.37966299 # threshold b, each following line is a SV (starting with alpha*y)
0.00064630798599593468345414493114731 1:2.2662756 2:0.72727275 3:15 4:18 #
0.00064630798599593468345414493114731 1:-1.2243663 2:0.76923078 3:1 4:45 #
0.00064630798599593468345414493114731 1:-1.6136177 2:0.51162791 3:43 4:0 #
0.00064630798599593468345414493114731 1:0.95394492 2:0.54166669 3:48 4:0 #
-0.00064630798599593468345414493114731 1:1.5988941 2:0.53043479 3:1 4:10 #
-0.00064630798599593468345414493114731 1:-0.26919276 2:0.53105593 3:16 4:16 #
-0.00064630798599593468345414493114731 1:-0.55992442 2:0.52499998 3:20 4:27 #
0.00064630798599593468345414493114731 1:-1.5452068 2:0.82608694 3:10 4:93 #
-0.00064630798599593468345414493114731 1:-0.95121747 2:0.60000002 3:10 4:0 #
-0.00064630798599593468345414493114731 1:0.44342452 2:0.56544501 3:1 4:11 #
0.00064630798599593468345414493114731 1:-1.6136177 2:0.51162791 3:43 4:0 #
-0.00064630798599593468345414493114731 1:0.20847809 2:0.63636363 3:11 4:0 #
0.00064630798599593468345414493114731 1:-0.10118654 2:0.85000002 3:1 4:30 #
0.00064630798599593468345414493114731 1:-1.5534025 2:0.40425533 3:47 4:0 #
0.00064630798599593468345414493114731 1:1.1791919 2:0.5 3:12 4:0 #
-0.00064630798599593468345414493114731 1:0.074501038 2:0.58217269 3:19 4:25 #
0.00064630798599593468345414493114731 1:-2.1987329 2:0.54545456 3:11 4:0 #
-0.00064630798599593468345414493114731 1:-0.22723718 2:0.5 3:1 4:11 #
0.00064630798599593468345414493114731 1:-1.4338032 2:0.47826087 3:46 4:0 #
-0.00064630798599593468345414493114731 1:-1.1066036 2:0.54098362 3:1 4:11 #
0.00064630798599593468345414493114731 1:1.5658145 2:0.44444445 3:45 4:0 #
-0.00064630798599593468345414493114731 1:2.4746027 2:0.66666669 3:15 4:0 #
-0.00064630798599593468345414493114731 1:4.2111368 2:0.70731705 3:1 4:19 #
0.00064630798599593468345414493114731 1:1.211639 2:0.8125 3:6 4:24 #
-0.00064630798599593468345414493114731 1:1.8526162 2:0.51851851 3:1 4:12 #
0.00064630798599593468345414493114731 1:-0.36653173 2:0.59523809 3:42 4:0 #
-0.00064630798599593468345414493114731 1:-2.7392175 2:0.50442475 3:9 4:13 #
0.00064630798599593468345414493114731 1:-2.6184545 2:0.51428574 3:35 4:0 #
-0.00064630798599593468345414493114731 1:-0.39244813 2:0.61016947 3:18 4:29 #
-0.00064630798599593468345414493114731 1:-2.5054042 2:0.54632586 3:9 4:17 #
0.00064630798599593468345414493114731 1:1.0288045 2:0.6785714 3:8 4:29 #
0.00064630798599593468345414493114731 1:-0.80338895 2:0.72727275 3:11 4:0 #
-0.00064630798599593468345414493114731 1:0.33837163 2:0.53813559 3:1 4:12 #
0.00064630798599593468345414493114731 1:1.6829005 2:0.71428573 3:9 4:25 #
0.00064630798599593468345414493114731 1:-0.49266669 2:0.57894737 3:38 4:0 #
-0.00064630798599593468345414493114731 1:0.58680248 2:0.47697368 3:2 4:10 #
0.00064630798599593468345414493114731 1:0.55072641 2:0.72727275 3:11 4:0 #
-0.00064630798599593468345414493114731 1:4.1216345 2:0.65822786 3:1 4:21 #
0.00064630798599593468345414493114731 1:0.97184646 2:0.65217394 3:8 4:26 #
-0.00064630798599593468345414493114731 1:-1.7599872 2:0.5350877 3:17 4:40 #
0.00064630798599593468345414493114731 1:-2.1493006 2:0.52941179 3:34 4:0 #
0.00064630798599593468345414493114731 1:-4.00876 2:0.52173913 3:23 4:0 #
-0.00064630798599593468345414493114731 1:-1.0895115 2:0.61290324 3:17 4:34 #
0.00064630798599593468345414493114731 1:1.9679878 2:0.63636363 3:11 4:0 #
-0.00064630798599593468345414493114731 1:1.5130396 2:0.56726456 3:1 4:15 #
0.00064630798599593468345414493114731 1:0.74733549 2:0.45454547 3:11 4:0 #
0.00064630798599593468345414493114731 1:2.668987 2:0.58333331 3:12 4:0 #
0.00064630798599593468345414493114731 1:0.097992793 2:0.85714287 3:4 4:28 #
0.00064630798599593468345414493114731 1:0.96592939 2:0.73913044 3:8 4:39 #
-0.00064630798599593468345414493114731 1:4.0887322 2:0.68122274 3:1 4:16 #
0.00064630798599593468345414493114731 1:-0.53707081 2:0.86363637 3:1 4:45 #
0.00064630798599593468345414493114731 1:-0.45456758 2:0.63636363 3:11 4:0 #
0.00064630798599593468345414493114731 1:-0.49586749 2:0.47058824 3:34 4:0 #
0.00064630798599593468345414493114731 1:0.54129446 2:0.76190478 3:3 4:33 #
-0.00064630798599593468345414493114731 1:-1.321311 2:0.58774376 3:14 4:20 #
0.00064630798599593468345414493114731 1:0.81832957 2:0.57575756 3:33 4:0 #
0.00064630798599593468345414493114731 1:-0.52122933 2:0.72727275 3:11 4:0 #
-0.00064630798599593468345414493114731 1:-2.5053005 2:0.52284265 3:14 4:43 #
-0.00064630798599593468345414493114731 1:3.7511261 2:0.73809522 3:1 4:19 #
0.00064630798599593468345414493114731 1:-0.47730991 2:0.5151515 3:33 4:0 #
-0.00064630798599593468345414493114731 1:-1.0670207 2:0.40000001 3:15 4:0 #
-0.00064630798599593468345414493114731 1:-3.1099503 2:0.48018649 3:4 4:27 #
0.00064630798599593468345414493114731 1:0.17262764 2:0.4848485 3:33 4:0 #
-0.00064630798599593468345414493114731 1:-1.4527835 2:0.55405408 3:13 4:19 #
0.00064630798599593468345414493114731 1:-0.28109232 2:0.72727275 3:11 4:0 #
0.00064630798599593468345414493114731 1:-0.3662079 2:0.88235295 3:2 4:38 #
0.00064630798599593468345414493114731 1:-1.2722914 2:0.51612902 3:31 4:0 #
0.00064630798599593468345414493114731 1:-0.99441838 2:0.66666669 3:12 4:0 #
-0.00064630798599593468345414493114731 1:-2.3416657 2:0.60093898 3:9 4:18 #
-0.00064630798599593468345414493114731 1:-1.60045 2:0.57857144 3:14 4:28 #
-0.00064630798599593468345414493114731 1:-1.0794462 2:0.55000001 3:17 4:34 #
-0.00064630798599593468345414493114731 1:2.441597 2:0.43181819 3:1 4:13 #
0.00064630798599593468345414493114731 1:0.82079542 2:0.46875 3:32 4:0 #
0.00064630798599593468345414493114731 1:1.0022699 2:0.73913044 3:9 4:26 #
-0.00064630798599593468345414493114731 1:2.9864309 2:0.60323888 3:35 4:10 #
0.00064630798599593468345414493114731 1:-0.25559512 2:0.5 3:12 4:0 #
0.00064630798599593468345414493114731 1:-0.24105573 2:0.75 3:12 4:0 #
0.00064630798599593468345414493114731 1:2.5388048 2:0.64516127 3:31 4:0 #
-0.00064630798599593468345414493114731 1:-1.9229872 2:0.64238411 3:13 4:17 #
0.00064630798599593468345414493114731 1:-1.638815 2:0.43333334 3:30 4:0 #
-0.00064630798599593468345414493114731 1:1.2969767 2:0.59090906 3:22 4:0 #
0.00064630798599593468345414493114731 1:-0.92599881 2:0.53846157 3:13 4:0 #
-0.00064630798599593468345414493114731 1:0.081163064 2:0.60000002 3:20 4:0 #
0.00064630798599593468345414493114731 1:-0.99286169 2:0.62068963 3:29 4:0 #
0.00064630798599593468345414493114731 1:0.01830129 2:0.66666669 3:12 4:0 #
0.00064630798599593468345414493114731 1:0.38696924 2:0.72222221 3:7 4:34 #
0.00064630798599593468345414493114731 1:-0.14398062 2:0.55172414 3:29 4:0 #
-0.00064630798599593468345414493114731 1:-2.2523155 2:0.58620691 3:2 4:24 #
0.00064630798599593468345414493114731 1:-2.1086543 2:0.60000002 3:15 4:0 #
-0.00064630798599593468345414493114731 1:-0.70262307 2:0.55000001 3:20 4:0 #
0.00064630798599593468345414493114731 1:-2.204905 2:0.57692307 3:26 4:0 #
-0.00064630798599593468345414493114731 1:-0.58421814 2:0.53333336 3:17 4:25 #
0.00064630798599593468345414493114731 1:-0.63437331 2:0.61538464 3:13 4:0 #
-0.00064630798599593468345414493114731 1:-1.4185938 2:0.55905509 3:15 4:7 #
0.00064630798599593468345414493114731 1:-1.5889156 2:0.44444445 3:27 4:0 #
0.00064630798599593468345414493114731 1:-0.4484677 2:0.80000001 3:1 4:43 #
0.00064630798599593468345414493114731 1:-2.789788 2:0.64705884 3:17 4:0 #
-0.00064630798599593468345414493114731 1:0.68740147 2:0.57692307 3:9 4:9 #
0.00064630798599593468345414493114731 1:-3.0205109 2:0.65217394 3:23 4:0 #
-0.00064630798599593468345414493114731 1:-0.8818658 2:0.52380955 3:21 4:29 #
0.00064630798599593468345414493114731 1:0.56851786 2:0.66666669 3:12 4:0 #
0.00064630798599593468345414493114731 1:1.7610852 2:0.53333336 3:30 4:0 #
-0.00064630798599593468345414493114731 1:-2.2387486 2:0.41711229 3:12 4:22 #
0.00064630798599593468345414493114731 1:0.65175694 2:0.75 3:12 4:0 #
-0.00064630798599593468345414493114731 1:0.56950897 2:0.50542301 3:10 4:9 #
0.00064630798599593468345414493114731 1:-3.5225301 2:0.52631581 3:19 4:0 #
-0.00064630798599593468345414493114731 1:-1.9619286 2:0.65714288 3:10 4:19 #
0.00064630798599593468345414493114731 1:0.90608019 2:0.66666669 3:12 4:0 #
-0.00064630798599593468345414493114731 1:0.49339572 2:0.39104477 3:11 4:9 #
0.00064630798599593468345414493114731 1:-3.2421756 2:0.63157892 3:19 4:0 #
-0.00064630798599593468345414493114731 1:0.88653374 2:0.55131263 3:27 4:10 #
0.00064630798599593468345414493114731 1:-0.28505245 2:0.61538464 3:13 4:0 #
-0.00064630798599593468345414493114731 1:-1.2102264 2:0.53636366 3:15 4:9 #
0.00064630798599593468345414493114731 1:-0.51014268 2:0.5714286 3:28 4:0 #
-0.00064630798599593468345414493114731 1:-0.41804489 2:0.48774511 3:2 4:10 #
0.00064630798599593468345414493114731 1:-2.2010734 2:0.54166669 3:24 4:0 #
0.00064630798599593468345414493114731 1:1.1408559 2:0.65625 3:10 4:36 #
0.00064630798599593468345414493114731 1:0.10911188 2:0.46153846 3:13 4:0 #
-0.00064630798599593468345414493114731 1:-0.750085 2:0.45405406 3:3 4:10 #
0.00064630798599593468345414493114731 1:-1.4181309 2:0.44 3:25 4:0 #
-0.00064630798599593468345414493114731 1:-0.51401788 2:0.39853302 3:12 4:10 #
0.00064630798599593468345414493114731 1:0.4085983 2:0.55172414 3:29 4:0 #
-0.00064630798599593468345414493114731 1:3.7403779 2:0.61000001 3:1 4:21 #
0.00064630798599593468345414493114731 1:0.19913279 2:0.7037037 3:6 4:38 #
-0.00064630798599593468345414493114731 1:-0.74787205 2:0.58823532 3:18 4:20 #
-0.00064630798599593468345414493114731 1:-0.48468116 2:0.52248394 3:25 4:44 #
0.00064630798599593468345414493114731 1:-1.8908775 2:0.42857143 3:40 4:20 #
-0.00064630798599593468345414493114731 1:-1.3584419 2:0.50318474 3:14 4:18 #
0.00064630798599593468345414493114731 1:-2.5118754 2:0.47826087 3:37 4:15 #
0.00064630798599593468345414493114731 1:0.56212658 2:0.60000002 3:15 4:0 #
0.00064630798599593468345414493114731 1:0.55416322 2:0.55172414 3:29 4:0 #
0.00064630798599593468345414493114731 1:-2.6521177 2:0.88571429 3:1 4:75 #
-0.00064630798599593468345414493114731 1:1.8338177 2:0.40140846 3:10 4:11 #
0.00064630798599593468345414493114731 1:0.62175488 2:0.54545456 3:38 4:15 #
-0.00064630798599593468345414493114731 1:-1.4290187 2:0.60344827 3:8 4:11 #
-0.00064630798599593468345414493114731 1:2.2295575 2:0.58419245 3:16 4:11 #
0.00064630798599593468345414493114731 1:-1.85736 2:0.5625 3:16 4:0 #
-0.00064630798599593468345414493114731 1:3.1831059 2:0.4229075 3:35 4:13 #
0.00064630798599593468345414493114731 1:-1.3159912 2:0.4375 3:16 4:0 #
0.00064630798599593468345414493114731 1:-0.90583831 2:0.42857143 3:14 4:0 #
-0.00064630798599593468345414493114731 1:-1.6174304 2:0.548926 3:8 4:11 #
0.00064630798599593468345414493114731 1:0.18494833 2:0.3125 3:16 4:0 #
-0.00064630798599593468345414493114731 1:-0.97374415 2:0.58823532 3:9 4:11 #
-0.00064630798599593468345414493114731 1:-2.7041452 2:0.4521158 3:8 4:16 #
0.00064630798599593468345414493114731 1:-1.5346005 2:0.53333336 3:15 4:0 #
0.00064630798599593468345414493114731 1:-0.46122754 2:0.5625 3:16 4:0 #
-0.00064630798599593468345414493114731 1:-1.1875366 2:0.56666666 3:9 4:11 #
0.00064630798599593468345414493114731 1:-0.72695088 2:0.33333334 3:15 4:0 #
0.00064630798599593468345414493114731 1:0.66100943 2:0.46153846 3:13 4:0 #
-0.00064630798599593468345414493114731 1:-1.4183517 2:0.52760738 3:9 4:11 #
0.00064630798599593468345414493114731 1:-0.82344931 2:0.5625 3:16 4:0 #
-0.00064630798599593468345414493114731 1:-0.095941678 2:0.48258707 3:10 4:11 #
0.00064630798599593468345414493114731 1:-0.61532569 2:0.625 3:16 4:0 #
-0.00064630798599593468345414493114731 1:-2.0718157 2:0.44036698 3:11 4:11 #
-0.00064630798599593468345414493114731 1:2.0369875 2:0.5945946 3:37 4:13 #
-0.00064630798599593468345414493114731 1:-0.28042692 2:0.62331837 3:18 4:18 #
0.00064630798599593468345414493114731 1:0.38417408 2:0.70588237 3:4 4:28 #
-0.00064630798599593468345414493114731 1:1.0631447 2:0.59210527 3:12 4:11 #
0.00064630798599593468345414493114731 1:-2.8506453 2:0.83999997 3:1 4:51 #
0.00064630798599593468345414493114731 1:-1.0726968 2:0.6875 3:16 4:0 #
-0.00064630798599593468345414493114731 1:-1.5076956 2:0.46945336 3:13 4:11 #
-0.00064630798599593468345414493114731 1:0.39532852 2:0.54651165 3:15 4:11 #
0.00064630798599593468345414493114731 1:-0.99754238 2:0.60000002 3:15 4:0 #
0.00064630798599593468345414493114731 1:-0.94143683 2:0.66666669 3:15 4:0 #
-0.00064630798599593468345414493114731 1:-1.0754305 2:0.56277055 3:24 4:37 #
0.00064630798599593468345414493114731 1:-1.2938488 2:0.9130435 3:1 4:49 #
0.00064630798599593468345414493114731 1:0.55753195 2:0.75 3:4 4:31 #
-0.00064630798599593468345414493114731 1:-1.898744 2:0.49520767 3:17 4:28 #
0.00064630798599593468345414493114731 1:-0.96958429 2:0.73333335 3:15 4:0 #
-0.00064630798599593468345414493114731 1:0.048998937 2:0.56153846 3:18 4:11 #
0.00064630798599593468345414493114731 1:-0.70851892 2:0.66666669 3:15 4:0 #
-0.00064630798599593468345414493114731 1:-0.83394295 2:0.56048387 3:24 4:39 #
0.00064630798599593468345414493114731 1:-0.34350222 2:0.53333336 3:15 4:0 #
-0.00064630798599593468345414493114731 1:-1.0257434 2:0.5 3:18 4:11 #
0.00064630798599593468345414493114731 1:-0.99062514 2:0.86956519 3:1 4:49 #
-0.00064630798599593468345414493114731 1:-1.0581479 2:0.44736841 3:18 4:11 #
0.00064630798599593468345414493114731 1:-0.41439015 2:0.60000002 3:15 4:0 #
0.00064630798599593468345414493114731 1:-0.4168216 2:0.80000001 3:15 4:0 #
-0.00064630798599593468345414493114731 1:-1.2749597 2:0.58620691 3:20 4:22 #
0.00064630798599593468345414493114731 1:-0.15803218 2:0.60000002 3:15 4:0 #
-0.00064630798599593468345414493114731 1:-2.9008682 2:0.4977169 3:9 4:24 #
0.00064630798599593468345414493114731 1:-3.2078397 2:0.61363637 3:11 4:19 #
-0.00064630798599593468345414493114731 1:-2.3619685 2:0.52527475 3:12 4:20 #
0.00064630798599593468345414493114731 1:-0.22617885 2:0.73333335 3:15 4:0 #
-0.00064630798599593468345414493114731 1:-0.02755232 2:0.50510204 3:21 4:11 #
0.00064630798599593468345414493114731 1:-2.740653 2:0.5 3:10 4:22 #
-0.00064630798599593468345414493114731 1:0.80960935 2:0.566787 3:32 4:27 #
0.00064630798599593468345414493114731 1:-0.11383423 2:0.73333335 3:15 4:0 #
-0.00064630798599593468345414493114731 1:-1.2176257 2:0.56310678 3:18 4:25 #
0.00064630798599593468345414493114731 1:-0.0027438561 2:0.60000002 3:15 4:0 #
-0.00064630798599593468345414493114731 1:1.6412859 2:0.56543207 3:23 4:10 #
-0.00064630798599593468345414493114731 1:-0.53202766 2:0.54545456 3:22 4:12 #
0.00064630798599593468345414493114731 1:-2.5237844 2:0.80000001 3:7 4:31 #
0.00064630798599593468345414493114731 1:-2.3239901 2:0.5925926 3:7 4:31 #
-0.00064630798599593468345414493114731 1:-2.2751236 2:0.53174603 3:13 4:35 #
0.00064630798599593468345414493114731 1:0.16025342 2:0.53333336 3:15 4:0 #
-0.00064630798599593468345414493114731 1:-0.41578022 2:0.55555558 3:24 4:12 #
0.00064630798599593468345414493114731 1:0.35308203 2:0.66666669 3:15 4:0 #
0.00064630798599593468345414493114731 1:0.35153309 2:0.79166669 3:5 4:39 #
0.00064630798599593468345414493114731 1:0.46731338 2:0.66666669 3:15 4:0 #
-0.00064630798599593468345414493114731 1:0.88653374 2:0.52218431 3:26 4:12 #
0.00064630798599593468345414493114731 1:-3.6591694 2:0.76190478 3:7 4:30 #
-0.00064630798599593468345414493114731 1:2.1067948 2:0.42857143 3:1 4:13 #
-0.00064630798599593468345414493114731 1:-2.9623194 2:0.53546101 3:3 4:20 #
-0.00064630798599593468345414493114731 1:-3.450361 2:0.54988915 3:5 4:15 #
-0.00064630798599593468345414493114731 1:-2.571928 2:0.59633029 3:5 4:132 #
-0.00064630798599593468345414493114731 1:-0.6229713 2:0.60579067 3:10 4:127 #
0.00064630798599593468345414493114731 1:-1.0234572 2:0.83333331 3:11 4:80 #
0.00064630798599593468345414493114731 1:0.89911163 2:0.6785714 3:28 4:0 #
-0.00064630798599593468345414493114731 1:0.15054536 2:0.625 3:2 4:11 #
-0.00064630798599593468345414493114731 1:2.613519 2:0.65367967 3:1 4:117 #
0.00064630798599593468345414493114731 1:-2.3526804 2:0.45833334 3:35 4:25 #
0.00064630798599593468345414493114731 1:-0.56237173 2:0.79166669 3:10 4:81 #
-0.00064630798599593468345414493114731 1:0.29448286 2:0.51508623 3:1 4:12 #
0.00064630798599593468345414493114731 1:-0.069808327 2:0.51020408 3:37 4:15 #
0.00064630798599593468345414493114731 1:-1.8586699 2:0.52173913 3:23 4:0 #
-0.00064630798599593468345414493114731 1:2.9515746 2:0.51385391 3:1 4:14 #
0.00064630798599593468345414493114731 1:0.24339226 2:0.79069769 3:9 4:78 #
0.00064630798599593468345414493114731 1:0.50292552 2:0.81818181 3:1 4:19 #
0.00064630798599593468345414493114731 1:-3.5536132 2:0.54347825 3:31 4:38 #
-0.00064630798599593468345414493114731 1:4.2061014 2:0.69117647 3:1 4:24 #
0.00064630798599593468345414493114731 1:-4.1551704 2:0.86666667 3:1 4:32 #
-0.00064630798599593468345414493114731 1:-1.1076744 2:0.54982817 3:2 4:11 #
0.00064630798599593468345414493114731 1:-0.28831604 2:0.70833331 3:16 4:70 #
-0.00064630798599593468345414493114731 1:-2.1918659 2:0.71794873 3:5 4:120 #
0.00064630798599593468345414493114731 1:2.1389747 2:0.66666669 3:12 4:0 #
0.00064630798599593468345414493114731 1:-0.59440345 2:0.8108108 3:10 4:69 #
-0.00064630798599593468345414493114731 1:-0.1638831 2:0.55757576 3:5 4:11 #
-0.00064630798599593468345414493114731 1:0.88653374 2:0.5846774 3:27 4:11 #
0.00064630798599593468345414493114731 1:0.22548996 2:0.78260869 3:13 4:70 #
0.00064630798599593468345414493114731 1:3.2702489 2:0.62068963 3:29 4:0 #
-0.00064630798599593468345414493114731 1:3.1906369 2:0.54526317 3:11 4:12 #
-0.00064630798599593468345414493114731 1:-4.451632 2:0.89583331 3:2 4:111 #
-0.00064630798599593468345414493114731 1:-2.5032313 2:0.48266667 3:6 4:19 #
0.00064630798599593468345414493114731 1:-1.5973163 2:0.73913044 3:13 4:65 #
-0.00064630798599593468345414493114731 1:1.7860416 2:0.52577317 3:1 4:13 #
0.00064630798599593468345414493114731 1:-1.2888708 2:0.75510204 3:19 4:62 #
-0.00064630798599593468345414493114731 1:1.6105291 2:0.60278744 3:11 4:97 #
-0.00064630798599593468345414493114731 1:2.9864309 2:0.53363228 3:32 4:13 #
-0.00064630798599593468345414493114731 1:-1.8942051 2:0.44339624 3:15 4:16 #
-0.00064630798599593468345414493114731 1:2.0678782 2:0.61428571 3:1 4:98 #
0.00064630798599593468345414493114731 1:0.57434583 2:0.5925926 3:27 4:0 #
-0.00064630798599593468345414493114731 1:-2.1338148 2:0.55063289 3:17 4:41 #
0.00064630798599593468345414493114731 1:-0.033110853 2:0.78571427 3:13 4:61 #
0.00064630798599593468345414493114731 1:1.5999187 2:0.6785714 3:28 4:0 #
-0.00064630798599593468345414493114731 1:1.6388528 2:0.48492461 3:32 4:13 #
0.00064630798599593468345414493114731 1:-1.3121394 2:0.7368421 3:14 4:61 #
-0.00064630798599593468345414493114731 1:-2.7891498 2:0.63333333 3:5 4:95 #
-0.00064630798599593468345414493114731 1:-0.017436499 2:0.55408973 3:1 4:12 #
0.00064630798599593468345414493114731 1:0.61763656 2:0.58536583 3:18 4:58 #
0.00064630798599593468345414493114731 1:2.2712848 2:0.66666669 3:12 4:0 #
-0.00064630798599593468345414493114731 1:1.0516969 2:0.60784316 3:32 4:13 #
0.00064630798599593468345414493114731 1:-0.87335247 2:0.69565219 3:12 4:59 #
-0.00064630798599593468345414493114731 1:-1.6342841 2:0.53658539 3:12 4:23 #
0.00064630798599593468345414493114731 1:-2.1226375 2:0.68292683 3:12 4:57 #
-0.00064630798599593468345414493114731 1:-3.7096014 2:0.59851301 3:1 4:91 #
0.00064630798599593468345414493114731 1:-4.6008706 2:0.69444442 3:12 4:56 #
-0.00064630798599593468345414493114731 1:-2.4888034 2:0.60303688 3:10 4:92 #
-0.00064630798599593468345414493114731 1:-2.5693009 2:0.4526749 3:13 4:34 #
0.00064630798599593468345414493114731 1:-0.13565926 2:0.8888889 3:3 4:38 #
0.00064630798599593468345414493114731 1:1.0037669 2:0.66666669 3:27 4:0 #
-0.00064630798599593468345414493114731 1:-0.40345046 2:0.69230771 3:5 4:11 #
0.00064630798599593468345414493114731 1:0.47139943 2:0.80000001 3:2 4:24 #
-0.00064630798599593468345414493114731 1:-0.76410937 2:0.65957445 3:11 4:90 #
-0.00064630798599593468345414493114731 1:-1.4850105 2:0.73563218 3:16 4:87 #
0.00064630798599593468345414493114731 1:-3.8205154 2:0.6875 3:1 4:13 #
-0.00064630798599593468345414493114731 1:-0.55242223 2:0.43877551 3:4 4:11 #
0.00064630798599593468345414493114731 1:-3.6418753 2:0.55000001 3:31 4:25 #
-0.00064630798599593468345414493114731 1:2.5579026 2:0.51886791 3:32 4:16 #
-0.00064630798599593468345414493114731 1:2.9397309 2:0.89999998 3:1 4:19 #
0.00064630798599593468345414493114731 1:2.0987833 2:0.66666669 3:10 4:20 #
-0.00064630798599593468345414493114731 1:-0.27355155 2:0.50149256 3:21 4:28 #
0.00064630798599593468345414493114731 1:0.12028711 2:0.875 3:1 4:32 #
-0.00064630798599593468345414493114731 1:0.13044974 2:0.94117647 3:1 4:84 #
0.00064630798599593468345414493114731 1:-0.6229713 2:1 3:1 4:47 #
0.00064630798599593468345414493114731 1:0.22817907 2:0.69696969 3:12 4:55 #
-0.00064630798599593468345414493114731 1:2.1759052 2:0.60408163 3:5 4:89 #
0.00064630798599593468345414493114731 1:0.78605998 2:0.7368421 3:7 4:26 #
0.00064630798599593468345414493114731 1:0.50912046 2:0.67391306 3:20 4:55 #
-0.00064630798599593468345414493114731 1:0.98038739 2:0.50649351 3:32 4:14 #
0.00064630798599593468345414493114731 1:-1.8852521 2:0.9130435 3:1 4:48 #
0.00064630798599593468345414493114731 1:-0.90181404 2:0.47999999 3:25 4:0 #
-0.00064630798599593468345414493114731 1:-2.7321229 2:0.6122449 3:2 4:11 #
0.00064630798599593468345414493114731 1:-3.5261183 2:0.65217394 3:15 4:54 #
0.00064630798599593468345414493114731 1:-2.2235188 2:0.74193549 3:3 4:11 #
0.00064630798599593468345414493114731 1:-0.35355571 2:1 3:1 4:35 #
0.00064630798599593468345414493114731 1:-0.88103807 2:0.68888891 3:20 4:54 #
0.00064630798599593468345414493114731 1:2.5777566 2:0.75 3:12 4:0 #
-0.00064630798599593468345414493114731 1:-0.81504267 2:0.35371178 3:15 4:16 #
0.00064630798599593468345414493114731 1:-2.1493006 2:0.72222221 3:14 4:54 #
0.00064630798599593468345414493114731 1:1.4054301 2:0.69696969 3:14 4:54 #
-0.00064630798599593468345414493114731 1:2.695266 2:0.71428573 3:1 4:15 #
0.00064630798599593468345414493114731 1:-0.65827495 2:0.61702126 3:28 4:48 #
0.00064630798599593468345414493114731 1:-0.75795329 2:0.5 3:14 4:0 #
-0.00064630798599593468345414493114731 1:0.1456998 2:0.70129871 3:9 4:89 #
-0.00064630798599593468345414493114731 1:-2.1701496 2:0.65957445 3:13 4:32 #
-0.00064630798599593468345414493114731 1:-0.79690266 2:0.5181818 3:5 4:11 #
-0.00064630798599593468345414493114731 1:0.050332058 2:0.53383458 3:21 4:12 #
0.00064630798599593468345414493114731 1:-1.5085896 2:0.60000002 3:18 4:53 #
0.00064630798599593468345414493114731 1:-1.6126014 2:0.54166669 3:24 4:0 #
0.00064630798599593468345414493114731 1:-0.073320694 2:0.80000001 3:1 4:31 #
0.00064630798599593468345414493114731 1:-0.28224415 2:0.7027027 3:15 4:53 #
-0.00064630798599593468345414493114731 1:-0.20698488 2:0.57719713 3:2 4:85 #
0.00064630798599593468345414493114731 1:0.95169747 2:0.51999998 3:25 4:0 #
0.00064630798599593468345414493114731 1:-0.087354966 2:0.68181819 3:16 4:53 #
-0.00064630798599593468345414493114731 1:1.1855491 2:0.53260869 3:3 4:12 #
0.00064630798599593468345414493114731 1:1.2853681 2:0.73170733 3:20 4:53 #
-0.00064630798599593468345414493114731 1:-4.2448921 2:0.56521738 3:12 4:89 #
-0.00064630798599593468345414493114731 1:-2.1779156 2:0.54853272 3:17 4:83 #
-0.00064630798599593468345414493114731 1:0.62976962 2:0.63157892 3:30 4:13 #
0.00064630798599593468345414493114731 1:-1.5436465 2:0.56818181 3:36 4:20 #
-0.00064630798599593468345414493114731 1:4.0415096 2:0.57534248 3:28 4:16 #
0.00064630798599593468345414493114731 1:-4.2492743 2:0.70212764 3:15 4:46 #
0.00064630798599593468345414493114731 1:2.6001821 2:0.5 3:26 4:0 #
-0.00064630798599593468345414493114731 1:-2.7966063 2:0.5657143 3:2 4:11 #
-0.00064630798599593468345414493114731 1:0.39739326 2:0.63028955 3:1 4:84 #
-0.00064630798599593468345414493114731 1:-2.0476193 2:0.53571427 3:12 4:23 #
0.00064630798599593468345414493114731 1:0.1083352 2:0.75 3:13 4:52 #
0.00064630798599593468345414493114731 1:-1.705367 2:0.55319148 3:34 4:13 #
-0.00064630798599593468345414493114731 1:-2.5664196 2:0.62857145 3:13 4:36 #
0.00064630798599593468345414493114731 1:-0.54045981 2:0.81481481 3:1 4:48 #
-0.00064630798599593468345414493114731 1:-1.5069253 2:0.75 3:1 4:13 #
-0.00064630798599593468345414493114731 1:-2.1939509 2:0.64539009 3:2 4:11 #
0.00064630798599593468345414493114731 1:0.89126736 2:0.58536583 3:20 4:51 #
0.00064630798599593468345414493114731 1:-1.8586699 2:0.52173913 3:23 4:0 #
0.00064630798599593468345414493114731 1:-1.5080503 2:0.80769229 3:1 4:48 #
-0.00064630798599593468345414493114731 1:1.6110667 2:0.46067417 3:1 4:13 #
0.00064630798599593468345414493114731 1:0.22548996 2:0.65217394 3:31 4:44 #
-0.00064630798599593468345414493114731 1:-1.1836993 2:0.58333331 3:14 4:85 #
-0.00064630798599593468345414493114731 1:2.4851856 2:0.57815844 3:31 4:22 #
0.00064630798599593468345414493114731 1:-1.8768388 2:0.58823532 3:3 4:13 #
-0.00064630798599593468345414493114731 1:-4.120986 2:0.55056179 3:1 4:13 #
0.00064630798599593468345414493114731 1:3.7111917 2:0.625 3:33 4:36 #
0.00064630798599593468345414493114731 1:0.10206712 2:0.47999999 3:4 4:11 #
0.00064630798599593468345414493114731 1:-2.1918027 2:0.67567569 3:3 4:13 #
-0.00064630798599593468345414493114731 1:-0.77590019 2:0.55128205 3:6 4:11 #
-0.00064630798599593468345414493114731 1:4.2111368 2:0.71739131 3:10 4:29 #
0.00064630798599593468345414493114731 1:-4.0591917 2:0.51612902 3:20 4:25 #
-0.00064630798599593468345414493114731 1:-1.7077866 2:0.56281406 3:13 4:32 #
0.00064630798599593468345414493114731 1:-0.0018142213 2:0.63333333 3:4 4:35 #
-0.00064630798599593468345414493114731 1:1.9633399 2:0.54411763 3:1 4:14 #
0.00064630798599593468345414493114731 1:-1.4921962 2:0.66666669 3:26 4:48 #
0.00064630798599593468345414493114731 1:0.10051402 2:0.61538464 3:13 4:0 #
0.00064630798599593468345414493114731 1:1.3459029 2:0.71428573 3:8 4:25 #
-0.00064630798599593468345414493114731 1:1.2459594 2:0.50107992 3:29 4:13 #
0.00064630798599593468345414493114731 1:-0.44260401 2:0.67647058 3:15 4:52 #
-0.00064630798599593468345414493114731 1:1.2087178 2:0.73913044 3:1 4:83 #
-0.00064630798599593468345414493114731 1:-2.5741539 2:0.5535714 3:11 4:33 #
-0.00064630798599593468345414493114731 1:-0.77681696 2:0.73076922 3:21 4:69 #
0.00064630798599593468345414493114731 1:-0.16279675 2:0.63414633 3:17 4:51 #
0.00064630798599593468345414493114731 1:-0.42363641 2:0.90909094 3:1 4:48 #
-0.00064630798599593468345414493114731 1:3.2198231 2:0.9285714 3:1 4:28 #
-0.00064630798599593468345414493114731 1:2.8925083 2:0.5595668 3:1 4:15 #
0.00064630798599593468345414493114731 1:-1.4921962 2:0.66666669 3:26 4:48 #
0.00064630798599593468345414493114731 1:1.0534629 2:0.75 3:5 4:24 #
-0.00064630798599593468345414493114731 1:-2.3578689 2:0.50641024 3:11 4:16 #
0.00064630798599593468345414493114731 1:-1.0055872 2:0.60000002 3:3 4:13 #
-0.00064630798599593468345414493114731 1:-1.8532528 2:0.59302324 3:3 4:11 #
0.00064630798599593468345414493114731 1:-2.5989981 2:0.60000002 3:13 4:51 #
-0.00064630798599593468345414493114731 1:-0.28810319 2:0.59150326 3:23 4:19 #
0.00064630798599593468345414493114731 1:0.532058 2:0.53846157 3:13 4:0 #
-0.00064630798599593468345414493114731 1:-1.1554286 2:0.62601626 3:5 4:11 #
-0.00064630798599593468345414493114731 1:-1.0646712 2:0.51381218 3:16 4:15 #
0.00064630798599593468345414493114731 1:0.19997077 2:0.8125 3:1 4:30 #
0.00064630798599593468345414493114731 1:-0.29837906 2:0.625 3:22 4:50 #
0.00064630798599593468345414493114731 1:0.5561052 2:0.76923078 3:13 4:51 #
-0.00064630798599593468345414493114731 1:3.4698324 2:0.51937985 3:29 4:22 #
0.00064630798599593468345414493114731 1:-3.6256282 2:0.60606062 3:2 4:21 #
-0.00064630798599593468345414493114731 1:-1.8290473 2:0.61807579 3:15 4:17 #
-0.00064630798599593468345414493114731 1:-2.9619062 2:0.54347825 3:7 4:17 #
0.00064630798599593468345414493114731 1:1.8948073 2:0.56818181 3:35 4:24 #
-0.00064630798599593468345414493114731 1:1.4235327 2:0.54816514 3:28 4:13 #
0.00064630798599593468345414493114731 1:-0.36045897 2:0.95238096 3:1 4:48 #
-0.00064630798599593468345414493114731 1:-0.45592391 2:0.59941518 3:4 4:84 #
-0.00064630798599593468345414493114731 1:1.173858 2:0.5718475 3:1 4:13 #
0.00064630798599593468345414493114731 1:-1.4921962 2:0.66666669 3:26 4:48 #
-0.00064630798599593468345414493114731 1:-3.1434915 2:0.58128077 3:6 4:84 #
-0.00064630798599593468345414493114731 1:0.80815583 2:0.56589144 3:31 4:14 #
0.00064630798599593468345414493114731 1:1.4376265 2:0.71428573 3:6 4:18 #
-0.00064630798599593468345414493114731 1:1.5999187 2:0.61146498 3:1 4:82 #
0.00064630798599593468345414493114731 1:1.752702 2:0.47999999 3:25 4:0 #
-0.00064630798599593468345414493114731 1:-1.2183084 2:0.54950494 3:4 4:11 #
0.00064630798599593468345414493114731 1:0.92162544 2:0.66666669 3:7 4:25 #
-0.00064630798599593468345414493114731 1:1.3505183 2:0.45454547 3:28 4:13 #
0.00064630798599593468345414493114731 1:-0.30241844 2:0.80769229 3:1 4:47 #
0.00064630798599593468345414493114731 1:-0.31534407 2:0.83333331 3:1 4:47 #
0.00064630798599593468345414493114731 1:0.31281698 2:0.61538464 3:13 4:0 #
-0.00064630798599593468345414493114731 1:0.59445131 2:0.54046243 3:1 4:13 #
0.00064630798599593468345414493114731 1:-1.4921962 2:0.66666669 3:26 4:48 #
0.00064630798599593468345414493114731 1:1.3265477 2:0.53846157 3:13 4:0 #
-0.00064630798599593468345414493114731 1:-0.35485595 2:0.55291003 3:2 4:83 #
0.00064630798599593468345414493114731 1:-3.0941584 2:0.83333331 3:2 4:26 #
-0.00064630798599593468345414493114731 1:-0.20769484 2:0.52808988 3:20 4:12 #
0.00064630798599593468345414493114731 1:1.5784223 2:0.61538464 3:8 4:24 #
0.00064630798599593468345414493114731 1:-1.0066992 2:0.56410259 3:2 4:26 #
0.00064630798599593468345414493114731 1:1.3507224 2:0.83333331 3:9 4:24 #
0.00064630798599593468345414493114731 1:2.0058098 2:0.52499998 3:32 4:13 #
0.00064630798599593468345414493114731 1:-3.6170948 2:0.59090906 3:3 4:26 #
0.00064630798599593468345414493114731 1:-0.14669278 2:0.64999998 3:2 4:26 #
0.00064630798599593468345414493114731 1:0.29964721 2:0.3611111 3:29 4:14 #
0.00064630798599593468345414493114731 1:-2.1122932 2:0.68965518 3:2 4:22 #
0.00064630798599593468345414493114731 1:-2.1237316 2:0.69696969 3:2 4:26 #
-0.00064630798599593468345414493114731 1:-0.71762341 2:0.52830189 3:15 4:26 #
-0.00064630798599593468345414493114731 1:-0.48115146 2:0.45566502 3:16 4:30 #
-0.00064630798599593468345414493114731 1:-1.3690344 2:0.87878788 3:1 4:73 #
0.00064630798599593468345414493114731 1:2.4161572 2:0.56 3:25 4:0 #
-0.00064630798599593468345414493114731 1:-0.76506984 2:0.54670328 3:22 4:41 #
-0.00064630798599593468345414493114731 1:2.4239075 2:0.55882353 3:1 4:71 #
0.00064630798599593468345414493114731 1:-1.6928313 2:0.45652175 3:32 4:33 #
0.00064630798599593468345414493114731 1:0.93412066 2:0.625 3:6 4:21 #
-0.00064630798599593468345414493114731 1:2.0678782 2:0.60621762 3:1 4:70 #
0.00064630798599593468345414493114731 1:0.1456998 2:0.52173913 3:32 4:32 #
-0.00064630798599593468345414493114731 1:-1.9645132 2:0.54932737 3:2 4:73 #
-0.00064630798599593468345414493114731 1:-3.7571194 2:0.53289473 3:3 4:11 #
0.00064630798599593468345414493114731 1:2.5777566 2:0.60000002 3:25 4:0 #
0.00064630798599593468345414493114731 1:0.54834139 2:0.7368421 3:7 4:27 #
-0.00064630798599593468345414493114731 1:-2.0612667 2:0.52816904 3:4 4:11 #
-0.00064630798599593468345414493114731 1:0.63590801 2:0.57575756 3:5 4:73 #
-0.00064630798599593468345414493114731 1:3.7111917 2:0.58205688 3:1 4:51 #
0.00064630798599593468345414493114731 1:-3.5725956 2:0.51162791 3:29 4:33 #
-0.00064630798599593468345414493114731 1:2.6700919 2:0.68508285 3:1 4:64 #
0.00064630798599593468345414493114731 1:-0.86793709 2:0.84210527 3:2 4:36 #
-0.00064630798599593468345414493114731 1:-3.0066671 2:0.71249998 3:1 4:13 #
0.00064630798599593468345414493114731 1:0.30783555 2:0.64999998 3:9 4:21 #
-0.00064630798599593468345414493114731 1:1.860842 2:0.69696969 3:1 4:15 #
0.00064630798599593468345414493114731 1:1.5228553 2:0.5777778 3:32 4:35 #
-0.00064630798599593468345414493114731 1:0.43092343 2:0.5625 3:1 4:13 #
-0.00064630798599593468345414493114731 1:1.3356776 2:0.63636363 3:1 4:14 #
0.00064630798599593468345414493114731 1:0.98203307 2:0.54545456 3:32 4:32 #
0.00064630798599593468345414493114731 1:3.2245193 2:0.63999999 3:25 4:0 #
-0.00064630798599593468345414493114731 1:-0.26795688 2:0.60869563 3:16 4:19 #
-0.00064630798599593468345414493114731 1:0.72201544 2:0.57179487 3:1 4:68 #
-0.00064630798599593468345414493114731 1:1.7302333 2:0.76363635 3:10 4:72 #
0.00064630798599593468345414493114731 1:-0.42919287 2:0.5714286 3:14 4:0 #
-0.00064630798599593468345414493114731 1:-2.0725541 2:0.66666669 3:2 4:12 #
-0.00064630798599593468345414493114731 1:-1.1813906 2:0.46875 3:15 4:18 #
-0.00064630798599593468345414493114731 1:-1.6573225 2:0.55757576 3:3 4:71 #
-0.00064630798599593468345414493114731 1:0.45928636 2:0.54400003 3:21 4:24 #
-0.00064630798599593468345414493114731 1:2.0007744 2:0.51156068 3:2 4:13 #
0.00064630798599593468345414493114731 1:-1.638815 2:0.60869563 3:23 4:0 #
0.00064630798599593468345414493114731 1:0.88570607 2:0.55813956 3:32 4:32 #
0.00064630798599593468345414493114731 1:-0.37824088 2:0.85714287 3:5 4:41 #
-0.00064630798599593468345414493114731 1:0.29909834 2:0.56561089 3:1 4:13 #
-0.00064630798599593468345414493114731 1:-1.9996678 2:0.56043959 3:17 4:35 #
-0.00064630798599593468345414493114731 1:-1.6037095 2:0.6875 3:13 4:72 #
-0.00064630798599593468345414493114731 1:0.63290298 2:0.48985508 3:1 4:13 #
-0.00064630798599593468345414493114731 1:1.5188768 2:0.57399106 3:6 4:12 #
0.00064630798599593468345414493114731 1:-0.54329938 2:0.58333331 3:24 4:0 #
0.00064630798599593468345414493114731 1:0.14045392 2:0.68000001 3:6 4:38 #
-0.00064630798599593468345414493114731 1:-1.4583621 2:0.55932206 3:3 4:70 #
0.00064630798599593468345414493114731 1:1.6829005 2:0.58333331 3:24 4:0 #
0.00064630798599593468345414493114731 1:-0.028046133 2:0.7647059 3:3 4:28 #
-0.00064630798599593468345414493114731 1:0.63290298 2:0.42128602 3:1 4:13 #
0.00064630798599593468345414493114731 1:-0.2673322 2:0.60869563 3:23 4:0 #
-0.00064630798599593468345414493114731 1:2.5296087 2:0.47395834 3:1 4:15 #
0.00064630798599593468345414493114731 1:-1.4921962 2:0.66666669 3:26 4:48 #
-0.00064630798599593468345414493114731 1:-2.0955439 2:0.53086418 3:5 4:69 #
0.00064630798599593468345414493114731 1:4.131012 2:0.60000002 3:25 4:0 #
-0.00064630798599593468345414493114731 1:1.0826491 2:0.52150536 3:5 4:12 #
0.00064630798599593468345414493114731 1:-2.9262571 2:0.55882353 3:28 4:15 #
-0.00064630798599593468345414493114731 1:-0.57655954 2:0.59154928 3:24 4:35 #
0.00064630798599593468345414493114731 1:1.9944053 2:0.625 3:24 4:0 #
0.00064630798599593468345414493114731 1:-2.8838916 2:0.62222224 3:4 4:13 #
0.00064630798599593468345414493114731 1:-0.056096874 2:0.55882353 3:29 4:13 #
0.00064630798599593468345414493114731 1:-2.3159115 2:0.65909094 3:4 4:12 #
0.00064630798599593468345414493114731 1:-0.078232147 2:0.56521738 3:23 4:0 #
-0.00064630798599593468345414493114731 1:-0.9125188 2:0.578125 3:22 4:21 #
-0.00064630798599593468345414493114731 1:-3.0953608 2:0.56639564 3:2 4:31 #
-0.00064630798599593468345414493114731 1:2.4872253 2:0.50505048 3:1 4:15 #
0.00064630798599593468345414493114731 1:-1.4921962 2:0.66666669 3:26 4:48 #
0.00064630798599593468345414493114731 1:-2.4331863 2:0.53488374 3:26 4:37 #
-0.00064630798599593468345414493114731 1:-3.6013031 2:0.5106383 3:3 4:38 #
-0.00064630798599593468345414493114731 1:0.33574048 2:0.53695655 3:1 4:13 #
-0.00064630798599593468345414493114731 1:2.7732329 2:0.88235295 3:1 4:30 #
0.00064630798599593468345414493114731 1:2.4679329 2:0.66666669 3:24 4:0 #
-0.00064630798599593468345414493114731 1:0.046133339 2:0.57664233 3:1 4:13 #
0.00064630798599593468345414493114731 1:1.5164602 2:0.34999999 3:28 4:11 #
0.00064630798599593468345414493114731 1:4.6585031 2:0.625 3:24 4:0 #
0.00064630798599593468345414493114731 1:-0.54236263 2:0.72222221 3:4 4:24 #
0.00064630798599593468345414493114731 1:-3.4176691 2:0.63333333 3:4 4:15 #
-0.00064630798599593468345414493114731 1:0.36555988 2:0.53401363 3:3 4:12 #
-0.00064630798599593468345414493114731 1:3.1859889 2:0.65217394 3:1 4:17 #
0.00064630798599593468345414493114731 1:-3.23469 2:0.5625 3:21 4:15 #
0.00064630798599593468345414493114731 1:-2.874995 2:0.82857144 3:9 4:65 #
-0.00064630798599593468345414493114731 1:-3.8436828 2:0.52380955 3:1 4:13 #
0.00064630798599593468345414493114731 1:2.115279 2:0.51724136 3:24 4:13 #
-0.00064630798599593468345414493114731 1:-0.95138478 2:0.76335877 3:1 4:343 #
0.00064630798599593468345414493114731 1:-2.3474956 2:0.53658539 3:23 4:10 #
-0.00064630798599593468345414493114731 1:-1.5590216 2:0.63333333 3:1 4:13 #
-0.00064630798599593468345414493114731 1:-2.1613171 2:0.49443206 3:4 4:22 #
-0.00064630798599593468345414493114731 1:0.74560499 2:1 3:1 4:26 #
-0.00064630798599593468345414493114731 1:1.8053051 2:0.7241379 3:2 4:14 #
-0.00064630798599593468345414493114731 1:-2.7942467 2:0.58167332 3:1 4:13 #
0.00064630798599593468345414493114731 1:-1.0054151 2:0.53333336 3:23 4:13 #
-0.00064630798599593468345414493114731 1:-0.85612005 2:0.58776593 3:1 4:13 #
-0.00064630798599593468345414493114731 1:-1.5514753 2:0.5539906 3:5 4:11 #
0.00064630798599593468345414493114731 1:1.0230973 2:0.47826087 3:23 4:0 #
0.00064630798599593468345414493114731 1:-2.3474956 2:0.53658539 3:23 4:10 #
-0.00064630798599593468345414493114731 1:1.4657043 2:1 3:1 4:27 #
-0.00064630798599593468345414493114731 1:-0.056912817 2:0.54824561 3:1 4:13 #
-0.00064630798599593468345414493114731 1:-2.8326461 2:0.54545456 3:8 4:17 #
-0.00064630798599593468345414493114731 1:-1.0132048 2:0.52380955 3:19 4:14 #
0.00064630798599593468345414493114731 1:-2.1829004 2:0.5 3:10 4:20 #
0.00064630798599593468345414493114731 1:-0.7324658 2:0.77777779 3:1 4:24 #
0.00064630798599593468345414493114731 1:-1.5882869 2:0.71875 3:2 4:25 #
-0.00064630798599593468345414493114731 1:2.0449567 2:0.5869565 3:1 4:15 #
0.00064630798599593468345414493114731 1:2.357563 2:0.4642857 3:21 4:13 #
-0.00064630798599593468345414493114731 1:-0.32695618 2:0.55681819 3:1 4:13 #
0.00064630798599593468345414493114731 1:-3.6121211 2:0.5 3:7 4:14 #
-0.00064630798599593468345414493114731 1:0.97804916 2:0.63385826 3:2 4:13 #
0.00064630798599593468345414493114731 1:-2.2269273 2:0.60714287 3:8 4:22 #
0.00064630798599593468345414493114731 1:2.2853172 2:0.42857143 3:14 4:0 #
0.00064630798599593468345414493114731 1:-2.0308247 2:0.83333331 3:2 4:25 #
-0.00064630798599593468345414493114731 1:-0.60404652 2:0.42105263 3:11 4:23 #
0.00064630798599593468345414493114731 1:-4.0599456 2:0.57446808 3:9 4:15 #
-0.00064630798599593468345414493114731 1:1.103032 2:0.76190478 3:1 4:17 #
0.00064630798599593468345414493114731 1:-2.3724718 2:0.63157892 3:4 4:24 #
-0.00064630798599593468345414493114731 1:0.082313262 2:0.71428573 3:1 4:15 #
0.00064630798599593468345414493114731 1:-1.958177 2:0.5 3:4 4:19 #
0.00064630798599593468345414493114731 1:1.0569315 2:0.47826087 3:23 4:0 #
0.00064630798599593468345414493114731 1:-1.0363116 2:0.55000001 3:10 4:20 #
0.00064630798599593468345414493114731 1:1.6316497 2:0.73333335 3:7 4:17 #
-0.00064630798599593468345414493114731 1:-1.9506005 2:0.51373625 3:6 4:11 #
-0.00064630798599593468345414493114731 1:-1.5514753 2:0.50585479 3:5 4:11 #
0.00064630798599593468345414493114731 1:-2.2212961 2:0.60000002 3:5 4:23 #
-0.00064630798599593468345414493114731 1:1.1113806 2:0.69230771 3:1 4:16 #
0.00064630798599593468345414493114731 1:-1.4642053 2:0.59090906 3:9 4:21 #
-0.00064630798599593468345414493114731 1:-2.1584616 2:0.58333331 3:1 4:13 #
0.00064630798599593468345414493114731 1:0.97060508 2:0.40000001 3:15 4:0 #
-0.00064630798599593468345414493114731 1:0.99200183 2:0.64150941 3:1 4:15 #
0.00064630798599593468345414493114731 1:-1.171774 2:0.52631581 3:10 4:19 #
-0.00064630798599593468345414493114731 1:-1.757764 2:0.56140351 3:1 4:13 #
-0.00064630798599593468345414493114731 1:-1.4529916 2:0.56310678 3:1 4:13 #
0.00064630798599593468345414493114731 1:1.1528749 2:0.47826087 3:23 4:0 #
0.00064630798599593468345414493114731 1:-1.3302115 2:0.6511628 3:10 4:20 #
0.00064630798599593468345414493114731 1:-2.6655698 2:0.75 3:2 4:24 #
-0.00064630798599593468345414493114731 1:3.5789258 2:0.53260869 3:1 4:18 #
-0.00064630798599593468345414493114731 1:3.3010149 2:0.52336448 3:1 4:17 #
0.00064630798599593468345414493114731 1:-4.0973043 2:0.61904764 3:6 4:22 #
0.00064630798599593468345414493114731 1:1.9977077 2:0.60869563 3:23 4:0 #
0.00064630798599593468345414493114731 1:-0.44234079 2:0.85000002 3:1 4:38 #
0.00064630798599593468345414493114731 1:1.7298681 2:0.73913044 3:10 4:23 #
-0.00064630798599593468345414493114731 1:-2.9599802 2:0.5520581 3:10 4:35 #
-0.00064630798599593468345414493114731 1:-0.47790688 2:0.55555558 3:1 4:13 #
0.00064630798599593468345414493114731 1:-2.2331359 2:0.71428573 3:3 4:24 #
0.00064630798599593468345414493114731 1:0.22126418 2:0.59523809 3:7 4:31 #
0.00064630798599593468345414493114731 1:-1.1794871 2:0.66666669 3:3 4:24 #
0.00064630798599593468345414493114731 1:0.64517444 2:0.65217394 3:23 4:0 #
-0.00064630798599593468345414493114731 1:2.8365898 2:0.83673471 3:1 4:25 #
-0.00064630798599593468345414493114731 1:-2.7309592 2:0.50243902 3:1 4:13 #
0.00064630798599593468345414493114731 1:0.8697871 2:0.66666669 3:5 4:29 #
0.00064630798599593468345414493114731 1:-0.2572374 2:0.70833331 3:2 4:24 #
0.00064630798599593468345414493114731 1:1.5898314 2:0.60869563 3:23 4:0 #
-0.00064630798599593468345414493114731 1:0.26312101 2:0.53947371 3:21 4:28 #
-0.00064630798599593468345414493114731 1:1.9828562 2:0.50915754 3:1 4:15 #
0.00064630798599593468345414493114731 1:-1.9038324 2:0.64864862 3:9 4:21 #
0.00064630798599593468345414493114731 1:1.3265477 2:0.60869563 3:23 4:0 #
0.00064630798599593468345414493114731 1:2.3644207 2:0.53846157 3:13 4:0 #
0.00064630798599593468345414493114731 1:0.97859114 2:0.65217394 3:23 4:0 #
-0.00064630798599593468345414493114731 1:0.09259177 2:0.49082568 3:1 4:13 #
-0.00064630798599593468345414493114731 1:2.5124943 2:0.6958763 3:1 4:19 #
0.00064630798599593468345414493114731 1:-1.9777827 2:0.55555558 3:9 4:20 #
0.00064630798599593468345414493114731 1:1.3752072 2:0.65217394 3:23 4:0 #
-0.00064630798599593468345414493114731 1:-3.1694894 2:0.48502994 3:1 4:13 #
-0.00064630798599593468345414493114731 1:-0.42219675 2:0.49826989 3:1 4:13 #
0.00064630798599593468345414493114731 1:-0.92928612 2:0.66666669 3:9 4:21 #
-0.00064630798599593468345414493114731 1:0.0076990384 2:0.41833812 3:1 4:13 #
0.00064630798599593468345414493114731 1:-0.069590449 2:0.63157892 3:9 4:21 #
-0.00064630798599593468345414493114731 1:-0.78873855 2:0.51612902 3:1 4:13 #
-0.00064630798599593468345414493114731 1:2.1306658 2:0.64516127 3:5 4:13 #
-0.00064630798599593468345414493114731 1:-1.0392215 2:0.53472221 3:1 4:13 #
-0.00064630798599593468345414493114731 1:-0.045307059 2:0.58974361 3:1 4:14 #
-0.00064630798599593468345414493114731 1:-0.091654733 2:0.66233766 3:1 4:15 #
0.00064630798599593468345414493114731 1:1.2103244 2:0.69565219 3:23 4:0 #
-0.00064630798599593468345414493114731 1:3.2987244 2:0.73333335 3:5 4:18 #
0.00064630798599593468345414493114731 1:1.0050478 2:0.70588237 3:4 4:19 #
0.00064630798599593468345414493114731 1:2.4393952 2:0.46666667 3:15 4:0 #
0.00064630798599593468345414493114731 1:0.64000553 2:0.71428573 3:1 4:19 #
0.00064630798599593468345414493114731 1:-1.3758374 2:0.64705884 3:5 4:23 #
0.00064630798599593468345414493114731 1:-1.8054112 2:0.69696969 3:3 4:24 #
0.00064630798599593468345414493114731 1:0.21415849 2:0.82352942 3:1 4:31 #
0.00064630798599593468345414493114731 1:0.489061 2:0.62222224 3:9 4:21 #
0.00064630798599593468345414493114731 1:1.4085983 2:0.63636363 3:7 4:21 #
0.00064630798599593468345414493114731 1:-1.2561616 2:0.73333335 3:3 4:24 #
-0.00064630798599593468345414493114731 1:-0.59042305 2:0.47852761 3:1 4:13 #
0.00064630798599593468345414493114731 1:0.60522908 2:0.70454544 3:28 4:43 #
-0.00064630798599593468345414493114731 1:-0.5488736 2:0.4852941 3:22 4:25 #
0.00064630798599593468345414493114731 1:-0.42630997 2:0.80769229 3:1 4:21 #
0.00064630798599593468345414493114731 1:1.5753214 2:0.47826087 3:35 4:20 #
-0.00064630798599593468345414493114731 1:0.01552771 2:0.40143371 3:1 4:13 #
0.00064630798599593468345414493114731 1:0.77389616 2:0.85714287 3:6 4:37 #
-0.00064630798599593468345414493114731 1:0.47650132 2:0.60330576 3:2 4:13 #
0.00064630798599593468345414493114731 1:-1.4225049 2:0.55555558 3:33 4:16 #
0.00064630798599593468345414493114731 1:0.06884291 2:0.66666669 3:2 4:34 #
0.00064630798599593468345414493114731 1:-0.88923657 2:0.46511629 3:34 4:19 #
-0.00064630798599593468345414493114731 1:2.229439 2:0.43312103 3:1 4:15 #
0.00064630798599593468345414493114731 1:-2.0394397 2:0.48888889 3:33 4:24 #
-0.00064630798599593468345414493114731 1:-1.1382028 2:0.53365386 3:1 4:13 #
0.00064630798599593468345414493114731 1:0.60347188 2:0.65217394 3:4 4:24 #
-0.00064630798599593468345414493114731 1:-0.67234254 2:0.7735849 3:9 4:135 #
-0.00064630798599593468345414493114731 1:-1.5514753 2:0.59880239 3:5 4:12 #
-0.00064630798599593468345414493114731 1:2.9515746 2:0.81818181 3:1 4:35 #
-0.00064630798599593468345414493114731 1:-1.8610654 2:0.51999998 3:1 4:13 #
-0.00064630798599593468345414493114731 1:-0.61080062 2:0.47311828 3:1 4:13 #
-0.00064630798599593468345414493114731 1:2.4721045 2:0.59315592 3:1 4:17 #
0.00064630798599593468345414493114731 1:-0.65757596 2:0.5 3:29 4:39 #
-0.00064630798599593468345414493114731 1:0.36548758 2:0.62051284 3:2 4:13 #
-0.00064630798599593468345414493114731 1:0.078474008 2:0.48221344 3:26 4:23 #
-0.00064630798599593468345414493114731 1:0.42099196 2:0.55434781 3:37 4:138 #
-0.00064630798599593468345414493114731 1:-0.21499068 2:0.4217687 3:1 4:13 #
0.00064630798599593468345414493114731 1:-0.71462148 2:0.80555558 3:7 4:77 #
-0.00064630798599593468345414493114731 1:-2.1913524 2:0.63235295 3:17 4:132 #
-0.00064630798599593468345414493114731 1:0.95554113 2:0.49214661 3:1 4:14 #
0.00064630798599593468345414493114731 1:-0.37984651 2:0.56521738 3:33 4:28 #
-0.00064630798599593468345414493114731 1:-2.3619685 2:0.42744064 3:4 4:12 #
-0.00064630798599593468345414493114731 1:0.51620787 2:1 3:1 4:35 #
0.00064630798599593468345414493114731 1:-0.055823043 2:0.47727272 3:33 4:26 #
0.00064630798599593468345414493114731 1:0.59124273 2:0.73333335 3:5 4:24 #
-0.00064630798599593468345414493114731 1:-1.5025269 2:0.49685535 3:1 4:13 #
0.00064630798599593468345414493114731 1:1.1992344 2:0.66666669 3:33 4:28 #
-0.00064630798599593468345414493114731 1:2.5124943 2:0.83333331 3:1 4:53 #
-0.00064630798599593468345414493114731 1:-1.1908289 2:0.52409637 3:14 4:30 #
0.00064630798599593468345414493114731 1:-1.0689802 2:0.37777779 3:32 4:27 #
0.00064630798599593468345414493114731 1:-2.0254171 2:0.46153846 3:30 4:16 #
-0.00064630798599593468345414493114731 1:0.84950191 2:0.56024098 3:8 4:12 #
-0.00064630798599593468345414493114731 1:1.7960639 2:0.56451613 3:4 4:13 #
-0.00064630798599593468345414493114731 1:-0.84717959 2:0.60283691 3:20 4:28 #
-0.00064630798599593468345414493114731 1:0.4340511 2:0.53521127 3:1 4:14 #
-0.00064630798599593468345414493114731 1:1.9629284 2:0.53543305 3:1 4:16 #
-0.00064630798599593468345414493114731 1:-1.4770041 2:0.70731705 3:1 4:15 #
-0.00064630798599593468345414493114731 1:1.4085983 2:0.70992368 3:1 4:75 #
0.00064630798599593468345414493114731 1:0.21771085 2:0.78947371 3:2 4:35 #
0.00064630798599593468345414493114731 1:1.3902143 2:0.46341464 3:33 4:17 #
-0.00064630798599593468345414493114731 1:-0.9376362 2:0.47745359 3:1 4:13 #
0.00064630798599593468345414493114731 1:0.074880473 2:0.69999999 3:4 4:30 #
-0.00064630798599593468345414493114731 1:0.50313932 2:0.49414518 3:27 4:16 #
-0.00064630798599593468345414493114731 1:3.6893582 2:0.56551725 3:1 4:27 #
-0.00064630798599593468345414493114731 1:3.2975795 2:0.75438595 3:12 4:16 #
0.00064630798599593468345414493114731 1:-4.6723704 2:0.79411763 3:6 4:64 #
0.00064630798599593468345414493114731 1:0.12279316 2:0.7368421 3:3 4:35 #
0.00064630798599593468345414493114731 1:0.0013249211 2:0.59090906 3:33 4:24 #
-0.00064630798599593468345414493114731 1:2.796562 2:0.71848738 3:1 4:22 #
0.00064630798599593468345414493114731 1:-2.3474956 2:0.51111114 3:25 4:45 #
0.00064630798599593468345414493114731 1:0.71091652 2:0.68421054 3:7 4:27 #
-0.00064630798599593468345414493114731 1:-3.4176531 2:0.44518271 3:1 4:13 #
-0.00064630798599593468345414493114731 1:-4.823904 2:1 3:1 4:29 #
-0.00064630798599593468345414493114731 1:3.4124277 2:0.62666667 3:1 4:22 #
-0.00064630798599593468345414493114731 1:1.5866872 2:0.91666669 3:1 4:27 #
0.00064630798599593468345414493114731 1:-0.90077657 2:0.55813956 3:32 4:24 #
-0.00064630798599593468345414493114731 1:-0.8096177 2:0.68725866 3:24 4:33 #
0.00064630798599593468345414493114731 1:-0.52513123 2:0.58536583 3:32 4:19 #
0.00064630798599593468345414493114731 1:0.97190642 2:0.61363637 3:32 4:23 #
0.00064630798599593468345414493114731 1:1.966231 2:0.59090906 3:30 4:36 #
0.00064630798599593468345414493114731 1:0.60342646 2:0.51351351 3:31 4:15 #
0.00064630798599593468345414493114731 1:-0.34618747 2:0.63829786 3:29 4:39 #
0.00064630798599593468345414493114731 1:-0.45045975 2:0.86956519 3:3 4:49 #
0.00064630798599593468345414493114731 1:0.63013041 2:0.75 3:5 4:37 #
0.00064630798599593468345414493114731 1:0.67716962 2:0.64285713 3:25 4:47 #
0.00064630798599593468345414493114731 1:-2.6567414 2:0.53488374 3:30 4:20 #
0.00064630798599593468345414493114731 1:-1.1527113 2:0.34210527 3:30 4:20 #
0.00064630798599593468345414493114731 1:-2.3368683 2:0.57575756 3:26 4:14 #
0.00064630798599593468345414493114731 1:0.72425544 2:0.80000001 3:5 4:25 #
0.00064630798599593468345414493114731 1:0.99810022 2:0.75 3:8 4:26 #
0.00064630798599593468345414493114731 1:-0.097995117 2:0.81818181 3:1 4:36 #
0.00064630798599593468345414493114731 1:-2.4445143 2:0.54545456 3:30 4:30 #
-0.00064630798599593468345414493114731 1:-0.28496894 2:0.49444443 3:21 4:19 #
-0.00064630798599593468345414493114731 1:-4.3413181 2:0.58064514 3:1 4:19 #
0.00064630798599593468345414493114731 1:0.24625763 2:0.65853661 3:28 4:40 #
0.00064630798599593468345414493114731 1:-3.079206 2:0.58139533 3:25 4:42 #
-0.00064630798599593468345414493114731 1:-2.6330462 2:0.59006214 3:5 4:18 #
0.00064630798599593468345414493114731 1:-0.06706962 2:0.77777779 3:4 4:32 #
0.00064630798599593468345414493114731 1:-1.0610738 2:0.62222224 3:30 4:32 #
-0.00064630798599593468345414493114731 1:0.34879431 2:0.5767442 3:26 4:17 #
-0.00064630798599593468345414493114731 1:-2.5259809 2:0.52173913 3:5 4:15 #
0.00064630798599593468345414493114731 1:0.14249058 2:0.76190478 3:2 4:34 #
0.00064630798599593468345414493114731 1:-3.5600083 2:0.60975611 3:29 4:22 #
0.00064630798599593468345414493114731 1:0.10573808 2:0.73333335 3:2 4:24 #
0.00064630798599593468345414493114731 1:-4.1206613 2:0.62857145 3:17 4:42 #
0.00064630798599593468345414493114731 1:0.24625763 2:0.65853661 3:28 4:40 #
0.00064630798599593468345414493114731 1:0.63937026 2:0.68181819 3:6 4:29 #
0.00064630798599593468345414493114731 1:1.141912 2:0.63043481 3:24 4:47 #
0.00064630798599593468345414493114731 1:1.0157108 2:0.64285713 3:9 4:33 #
-0.00064630798599593468345414493114731 1:-2.0361149 2:0.54545456 3:10 4:17 #
-0.00064630798599593468345414493114731 1:-2.1913524 2:0.58045977 3:9 4:21 #
-0.00064630798599593468345414493114731 1:0.45746624 2:0.51295334 3:28 4:31 #
0.00064630798599593468345414493114731 1:-0.75016481 2:1 3:1 4:35 #
-0.00064630798599593468345414493114731 1:0.96115518 2:0.52985072 3:26 4:17 #
0.00064630798599593468345414493114731 1:0.24625763 2:0.65853661 3:28 4:40 #
0.00064630798599593468345414493114731 1:1.0828618 2:0.51020408 3:27 4:41 #
0.00064630798599593468345414493114731 1:0.75659633 2:0.65217394 3:4 4:18 #
-0.00064630798599593468345414493114731 1:-1.0754305 2:0.53205127 3:17 4:27 #
0.00064630798599593468345414493114731 1:-2.3634582 2:0.63043481 3:26 4:40 #
-0.00064630798599593468345414493114731 1:-1.9619286 2:0.51724136 3:8 4:18 #
-0.00064630798599593468345414493114731 1:-2.0700965 2:0.58433735 3:10 4:16 #
0.00064630798599593468345414493114731 1:-0.33088508 2:0.61904764 3:31 4:19 #
0.00064630798599593468345414493114731 1:-1.0560246 2:0.47727272 3:28 4:36 #
0.00035956767387293399763220635989569 1:0.16414768 2:0.76923078 3:7 4:71 #
-0.00064630798599593468345414493114731 1:0.39739326 2:0.52980131 3:1 4:14 #
-0.00064630798599593468345414493114731 1:1.0766535 2:0.58494622 3:4 4:83 #
0.00064630798599593468345414493114731 1:-0.81256211 2:0.5945946 3:30 4:17 #
-0.00064630798599593468345414493114731 1:1.7889346 2:0.62903225 3:3 4:14 #
0.00064630798599593468345414493114731 1:-2.1199598 2:0.84375 3:4 4:72 #
0.00064630798599593468345414493114731 1:0.96755821 2:0.5 3:27 4:14 #
0.00064630798599593468345414493114731 1:1.343287 2:0.77777779 3:8 4:24 #
-0.00064630798599593468345414493114731 1:-1.2347965 2:0.47826087 3:1 4:13 #
-0.00064630798599593468345414493114731 1:2.796562 2:0.72881359 3:1 4:33 #
0.00064630798599593468345414493114731 1:-0.018377582 2:0.71428573 3:3 4:15 #
-0.00064630798599593468345414493114731 1:1.9364632 2:0.63961041 3:1 4:17 #
0.00064630798599593468345414493114731 1:-1.1878866 2:0.5625 3:30 4:29 #
-0.00064630798599593468345414493114731 1:-0.63994503 2:0.68888891 3:2 4:13 #
-0.00064630798599593468345414493114731 1:-0.057578851 2:0.8611111 3:1 4:75 #
-0.00064630798599593468345414493114731 1:-2.5660622 2:0.53558052 3:3 4:19 #
-0.00064630798599593468345414493114731 1:-0.38407961 2:0.60891092 3:16 4:16 #
0.00064630798599593468345414493114731 1:0.030229611 2:0.64285713 3:29 4:34 #
-0.00064630798599593468345414493114731 1:2.6760464 2:0.70161289 3:1 4:27 #
0.00064630798599593468345414493114731 1:-1.2724155 2:0.55000001 3:30 4:26 #
-0.00064630798599593468345414493114731 1:-1.7715784 2:0.5284974 3:1 4:78 #
-0.00064630798599593468345414493114731 1:-1.5265461 2:0.46857142 3:1 4:13 #
-0.00064630798599593468345414493114731 1:-1.83143 2:1 3:1 4:29 #
0.00064630798599593468345414493114731 1:-0.60981441 2:0.53658539 3:30 4:24 #
0.00064630798599593468345414493114731 1:1.0685792 2:0.56756759 3:29 4:15 #
0.00064630798599593468345414493114731 1:-1.3514463 2:0.61363637 3:26 4:39 #
-0.00064630798599593468345414493114731 1:-2.3743513 2:0.42857143 3:1 4:13 #
-0.00064630798599593468345414493114731 1:1.0703479 2:0.95238096 3:1 4:44 #
-0.00064630798599593468345414493114731 1:0.56374872 2:0.92307693 3:1 4:32 #
0.00064630798599593468345414493114731 1:-1.5547405 2:0.60975611 3:30 4:22 #
0.00064630798599593468345414493114731 1:-0.036944456 2:0.61538464 3:30 4:22 #
0.00064630798599593468345414493114731 1:-0.15014906 2:0.7631579 3:1 4:23 #
-0.00064630798599593468345414493114731 1:-1.921867 2:0.5350877 3:7 4:26 #
0.00064630798599593468345414493114731 1:2.6147056 2:0.71428573 3:23 4:47 #
0.00064630798599593468345414493114731 1:-2.4329455 2:0.90625 3:1 4:71 #
0.00064630798599593468345414493114731 1:-0.92599881 2:0.52499998 3:29 4:31 #
-0.00064630798599593468345414493114731 1:0.49487019 2:0.61038959 3:1 4:15 #
-0.00064630798599593468345414493114731 1:-1.02459 2:0.54466861 3:16 4:27 #
-0.00064630798599593468345414493114731 1:-0.99728179 2:0.47679326 3:5 4:12 #
0.00064630798599593468345414493114731 1:-1.9319144 2:0.53658539 3:29 4:27 #
-0.00064630798599593468345414493114731 1:1.6968559 2:0.80000001 3:1 4:26 #
-0.00064630798599593468345414493114731 1:-2.8451431 2:0.5726496 3:5 4:12 #
-0.00064630798599593468345414493114731 1:-1.3068541 2:0.76923078 3:1 4:40 #
-0.00064630798599593468345414493114731 1:0.78519934 2:0.61267608 3:3 4:13 #
-0.00064630798599593468345414493114731 1:0.75443351 2:0.52760738 3:34 4:29 #
0.00064630798599593468345414493114731 1:-2.9951663 2:0.39473686 3:23 4:16 #
-0.00064630798599593468345414493114731 1:3.1277373 2:0.62068963 3:1 4:28 #
0.00064630798599593468345414493114731 1:-2.0009167 2:0.55263156 3:29 4:23 #
0.00064630798599593468345414493114731 1:-0.74515069 2:0.7647059 3:1 4:34 #
0.00064630798599593468345414493114731 1:-0.37703794 2:0.6785714 3:4 4:26 #
-0.00064630798599593468345414493114731 1:-3.0126874 2:0.60759491 3:1 4:14 #
0.00064630798599593468345414493114731 1:0.31094012 2:0.71794873 3:20 4:50 #
-0.00064630798599593468345414493114731 1:-2.1879079 2:1 3:1 4:28 #
-0.00064630798599593468345414493114731 1:-1.512345 2:1 3:1 4:34 #
0.00064630798599593468345414493114731 1:0.67283523 2:0.60000002 3:30 4:26 #
0.00064630798599593468345414493114731 1:-0.33245704 2:0.4054054 3:29 4:21 #
0.00064630798599593468345414493114731 1:-3.079206 2:0.89999998 3:1 4:63 #
0.00064630798599593468345414493114731 1:-0.077124625 2:0.5 3:28 4:16 #
-0.00064630798599593468345414493114731 1:-0.7397517 2:0.50315791 3:1 4:14 #
-0.00064630798599593468345414493114731 1:-0.31795281 2:0.69999999 3:1 4:76 #
0.00064630798599593468345414493114731 1:-0.90181404 2:0.52631581 3:29 4:18 #
-0.00064630798599593468345414493114731 1:2.5913765 2:0.59124088 3:1 4:18 #
0.00064630798599593468345414493114731 1:-0.35438836 2:0.5 3:26 4:38 #
-0.00064630798599593468345414493114731 1:-2.1901231 2:0.63580245 3:3 4:80 #
-0.00064630798599593468345414493114731 1:3.2577922 2:0.60538119 3:1 4:31 #
0.00064630798599593468345414493114731 1:-2.8150575 2:0.64864862 3:28 4:27 #
0.00064630798599593468345414493114731 1:-0.44381392 2:0.77272725 3:6 4:34 #
0.00064630798599593468345414493114731 1:0.14249122 2:0.8125 3:3 4:31 #
0.00064630798599593468345414493114731 1:1.3392342 2:0.71428573 3:7 4:29 #
0.00064630798599593468345414493114731 1:-0.26795688 2:0.58333331 3:29 4:18 #
-0.00064630798599593468345414493114731 1:-3.4367404 2:0.48051947 3:1 4:14 #
0.00064630798599593468345414493114731 1:1.535051 2:0.67567569 3:11 4:39 #
0.00064630798599593468345414493114731 1:-0.67726296 2:0.61764705 3:24 4:15 #
0.00064630798599593468345414493114731 1:-0.56901395 2:0.51282054 3:27 4:16 #
0.00064630798599593468345414493114731 1:-1.2663062 2:0.53488374 3:29 4:23 #
-0.00064630798599593468345414493114731 1:0.78260785 2:0.60490465 3:2 4:75 #
-0.00064630798599593468345414493114731 1:-1.6123914 2:0.58749998 3:16 4:18 #
-0.00064630798599593468345414493114731 1:-0.14603627 2:0.63636363 3:23 4:91 #
-0.00064630798599593468345414493114731 1:-2.616385 2:0.62903225 3:10 4:36 #
-0.00064630798599593468345414493114731 1:0.32930318 2:0.90909094 3:1 4:21 #
0.00064630798599593468345414493114731 1:-0.83969426 2:0.53658539 3:29 4:24 #
0.00064630798599593468345414493114731 1:-0.18664701 2:0.83333331 3:4 4:45 #
-0.00064630798599593468345414493114731 1:0.60342646 2:0.68674701 3:32 4:90 #
-0.00064630798599593468345414493114731 1:1.0940028 2:0.84615386 3:1 4:24 #
-0.00064630798599593468345414493114731 1:1.4085983 2:0.73214287 3:1 4:18 #
0.00064630798599593468345414493114731 1:-2.8760481 2:0.52499998 3:25 4:32 #
-0.00064630798599593468345414493114731 1:-2.9039416 2:0.46793351 3:2 4:19 #
-0.00064630798599593468345414493114731 1:-3.0254071 2:0.66666669 3:1 4:15 #
0.00064630798599593468345414493114731 1:-0.042560756 2:0.60000002 3:29 4:25 #
-0.00064630798599593468345414493114731 1:-1.7801236 2:0.60204083 3:2 4:13 #
-0.00064630798599593468345414493114731 1:-3.5327942 2:1 3:1 4:29 #
0.00064630798599593468345414493114731 1:0.95169747 2:0.56756759 3:29 4:22 #
-0.00064630798599593468345414493114731 1:-0.41885427 2:0.55223882 3:2 4:13 #
0.00064630798599593468345414493114731 1:0.055463087 2:0.80000001 3:1 4:34 #
0.00064630798599593468345414493114731 1:-1.8461168 2:0.4893617 3:27 4:17 #
-0.00064630798599593468345414493114731 1:-2.3131247 2:0.80952382 3:4 4:81 #
-0.00064630798599593468345414493114731 1:-1.7801236 2:0.54581672 3:13 4:39 #
-0.00064630798599593468345414493114731 1:1.7569526 2:0.64705884 3:1 4:17 #
0.00064630798599593468345414493114731 1:-0.6889075 2:0.64102566 3:29 4:20 #
-0.00064630798599593468345414493114731 1:-1.7599872 2:0.52087915 3:1 4:14 #
0.00064630798599593468345414493114731 1:-0.27205408 2:0.82352942 3:6 4:71 #
-0.00064630798599593468345414493114731 1:0.7937417 2:0.56857854 3:1 4:15 #
0.00064630798599593468345414493114731 1:-1.7811188 2:0.59523809 3:27 4:34 #
0.00064630798599593468345414493114731 1:0.64882302 2:0.63999999 3:8 4:35 #
-0.00064630798599593468345414493114731 1:-3.9080045 2:0.42960289 3:1 4:14 #
-0.00064630798599593468345414493114731 1:-4.1551704 2:1 3:1 4:34 #
0.00064630798599593468345414493114731 1:-1.1517614 2:0.80952382 3:1 4:38 #
-0.00064630798599593468345414493114731 1:-0.99076504 2:0.82352942 3:4 4:61 #
0.00064630798599593468345414493114731 1:-0.096391968 2:0.66666669 3:23 4:16 #
0.00064630798599593468345414493114731 1:0.68274319 2:0.75 3:4 4:30 #
0.00064630798599593468345414493114731 1:0.71111876 2:0.72222221 3:4 4:26 #
0.00064630798599593468345414493114731 1:-0.91628915 2:0.5 3:28 4:20 #
0.00064630798599593468345414493114731 1:1.4344349 2:0.51020408 3:28 4:18 #
0.00064630798599593468345414493114731 1:-0.16942444 2:0.54545456 3:27 4:17 #
0.00064630798599593468345414493114731 1:-1.5700932 2:0.64444447 3:22 4:45 #
0.00064630798599593468345414493114731 1:-3.3562574 2:0.51351351 3:21 4:17 #
0.00064630798599593468345414493114731 1:-2.4241049 2:0.45714286 3:25 4:18 #
-0.00064630798599593468345414493114731 1:-2.6846886 2:0.78048778 3:4 4:74 #
-0.00064630798599593468345414493114731 1:3.5719934 2:0.51385927 3:1 4:63 #
0.00064630798599593468345414493114731 1:-1.9838744 2:0.60975611 3:27 4:32 #
0.00064630798599593468345414493114731 1:-2.9571223 2:0.56410259 3:17 4:48 #
0.00064630798599593468345414493114731 1:0.532511 2:0.66666669 3:25 4:40 #
0.00064630798599593468345414493114731 1:-0.064087361 2:0.66666669 3:28 4:28 #
-0.00064630798599593468345414493114731 1:-0.65938669 2:0.60465115 3:21 4:28 #
-0.00064630798599593468345414493114731 1:-1.2764649 2:0.61842108 3:1 4:65 #
0.00064630798599593468345414493114731 1:-1.0134194 2:0.54347825 3:27 4:32 #
-0.00064630798599593468345414493114731 1:0.66883481 2:0.60986549 3:5 4:74 #
-0.00064630798599593468345414493114731 1:1.0775748 2:0.54337901 3:1 4:58 #
0.00064630798599593468345414493114731 1:-2.0974853 2:0.63043481 3:23 4:42 #
-0.00064630798599593468345414493114731 1:-0.13468446 2:0.58418369 3:1 4:60 #
-0.00064630798599593468345414493114731 1:0.52022791 2:0.69623655 3:1 4:61 #
0.00064630798599593468345414493114731 1:-0.70714194 2:0.77551019 3:4 4:72 #
0.00064630798599593468345414493114731 1:-0.62166029 2:0.63157892 3:23 4:43 #
-0.00064630798599593468345414493114731 1:-0.22007939 2:0.58974361 3:1 4:60 #
0.00064630798599593468345414493114731 1:-1.9652729 2:0.75 3:10 4:63 #
-0.00064630798599593468345414493114731 1:-2.911716 2:0.23636363 3:1 4:58 #
0.00064630798599593468345414493114731 1:0.75344175 2:0.75 3:6 4:36 #
-0.00064630798599593468345414493114731 1:0.83305335 2:0.60851061 3:4 4:60 #
-0.00064630798599593468345414493114731 1:-3.7378545 2:0.50733137 3:2 4:16 #
0.00064630798599593468345414493114731 1:-2.4244585 2:0.40000001 3:26 4:22 #
-0.00064630798599593468345414493114731 1:-1.5231413 2:0.5899772 3:2 4:60 #
-0.00064630798599593468345414493114731 1:-1.8610654 2:0.55140185 3:14 4:18 #
-0.00064630798599593468345414493114731 1:-0.18369353 2:0.52715653 3:1 4:64 #
0.00064630798599593468345414493114731 1:-2.1149271 2:0.69230771 3:23 4:42 #
-0.00064630798599593468345414493114731 1:-0.99441838 2:0.59030837 3:1 4:62 #
-0.00064630798599593468345414493114731 1:-0.33742991 2:0.73809522 3:5 4:60 #
-0.00064630798599593468345414493114731 1:-0.12146086 2:0.84848487 3:4 4:62 #
0.00064630798599593468345414493114731 1:1.1795044 2:0.5625 3:3 4:15 #
0.00064630798599593468345414493114731 1:0.18010505 2:0.71428573 3:4 4:30 #
-0.00064630798599593468345414493114731 1:0.46112019 2:0.53550297 3:3 4:62 #
-0.00064630798599593468345414493114731 1:0.79123628 2:0.55172414 3:35 4:34 #
-0.00064630798599593468345414493114731 1:2.7167227 2:0.55196303 3:10 4:62 #
0.00064630798599593468345414493114731 1:0.31430903 2:0.7037037 3:6 4:37 #
0.00064630798599593468345414493114731 1:-0.61621344 2:0.5945946 3:27 4:19 #
0.00064630798599593468345414493114731 1:0.63590801 2:0.74193549 3:9 4:39 #
-0.00064630798599593468345414493114731 1:-0.57897764 2:0.54265404 3:1 4:64 #
0.00064630798599593468345414493114731 1:-1.1926302 2:0.51111114 3:27 4:30 #
-0.00064630798599593468345414493114731 1:0.39775175 2:0.53937006 3:28 4:72 #
0.00064630798599593468345414493114731 1:1.6316497 2:0.73333335 3:7 4:17 #
-0.00064630798599593468345414493114731 1:-0.070412114 2:0.66250002 3:11 4:63 #
0.00064630798599593468345414493114731 1:-1.0764359 2:0.44117647 3:27 4:22 #
-0.00064630798599593468345414493114731 1:-4.2361364 2:0.55792683 3:1 4:61 #
0.00064630798599593468345414493114731 1:0.046133339 2:0.84848487 3:7 4:68 #
-0.00064630798599593468345414493114731 1:-0.54087156 2:0.68674701 3:2 4:66 #
-0.00064630798599593468345414493114731 1:-0.48249879 2:0.60919541 3:4 4:65 #
0.00064630798599593468345414493114731 1:-2.4920549 2:0.83783782 3:5 4:67 #
0.00064630798599593468345414493114731 1:-2.6231668 2:0.8125 3:5 4:66 #
-0.00064630798599593468345414493114731 1:2.9726331 2:0.63157892 3:30 4:76 #
-0.00064630798599593468345414493114731 1:-4.2361364 2:0.49337748 3:1 4:61 #
0.00064630798599593468345414493114731 1:-0.86114842 2:0.84375 3:1 4:61 #
0.00064630798599593468345414493114731 1:-0.49180028 2:0.77272725 3:2 4:38 #
-0.00064630798599593468345414493114731 1:-1.6802647 2:0.69098711 3:2 4:64 #
0.00064630798599593468345414493114731 1:0.89276439 2:0.75 3:7 4:28 #
0.00064630798599593468345414493114731 1:-3.5428767 2:0.53846157 3:24 4:30 #
-0.00064630798599593468345414493114731 1:0.93923694 2:0.61023623 3:12 4:64 #
-0.00064630798599593468345414493114731 1:-1.4789273 2:0.53720933 3:4 4:64 #
0.00064630798599593468345414493114731 1:1.1259211 2:0.81818181 3:8 4:35 #
-0.00064630798599593468345414493114731 1:-2.4326954 2:0.56570154 3:4 4:64 #
0.00064630798599593468345414493114731 1:-0.24837391 2:0.88235295 3:1 4:35 #
-0.00064630798599593468345414493114731 1:-1.6965547 2:0.60859191 3:8 4:63 #
0.00064630798599593468345414493114731 1:-1.8812788 2:0.75 3:6 4:63 #
-0.00064630798599593468345414493114731 1:-1.1382028 2:0.55350554 3:8 4:65 #
-0.00064630798599593468345414493114731 1:1.9163076 2:0.55072463 3:15 4:70 #
0.00064630798599593468345414493114731 1:-1.2561616 2:0.58139533 3:27 4:29 #
-0.00064630798599593468345414493114731 1:-0.78688586 2:0.59023356 3:14 4:67 #
-0.00064630798599593468345414493114731 1:0.88653374 2:0.57456142 3:34 4:80 #
0.00064630798599593468345414493114731 1:-2.3141034 2:0.78571427 3:2 4:62 #
-0.00064630798599593468345414493114731 1:-1.3426843 2:0.65384614 3:12 4:67 #
-0.00064630798599593468345414493114731 1:-1.0570048 2:0.52331609 3:6 4:77 #
0.00064630798599593468345414493114731 1:0.14184244 2:0.68421054 3:3 4:29 #
0.00064630798599593468345414493114731 1:0.18421757 2:0.67441863 3:26 4:37 #
0.00064630798599593468345414493114731 1:-0.12722875 2:0.6511628 3:23 4:43 #
0.00064630798599593468345414493114731 1:1.6548401 2:0.7096774 3:11 4:35 #
-0.00064630798599593468345414493114731 1:0.97686982 2:0.51807231 3:1 4:15 #
-0.00064630798599593468345414493114731 1:2.2806621 2:0.57746476 3:1 4:17 #
0.00064630798599593468345414493114731 1:-1.7295722 2:0.60526317 3:25 4:34 #
0.00064630798599593468345414493114731 1:-0.24604654 2:0.8888889 3:2 4:38 #
0.00064630798599593468345414493114731 1:-0.13565926 2:0.8888889 3:3 4:38 #
-0.00064630798599593468345414493114731 1:2.2887523 2:0.55696201 3:9 4:13 #
-0.00064630798599593468345414493114731 1:3.5719934 2:0.44999999 3:1 4:22 #
-0.00064630798599593468345414493114731 1:-2.1122932 2:0.50274724 3:2 4:13 #
-0.00064630798599593468345414493114731 1:-1.5127904 2:0.58508158 3:2 4:13 #
-0.00064630798599593468345414493114731 1:-2.8900018 2:0.54883718 3:4 4:17 #
0.00064630798599593468345414493114731 1:0.62736738 2:0.5 3:25 4:17 #
-0.00064630798599593468345414493114731 1:-0.2636672 2:0.7096774 3:3 4:13 #
0.00064630798599593468345414493114731 1:0.10528091 2:0.82608694 3:6 4:46 #
-0.00064630798599593468345414493114731 1:1.2687502 2:0.57564574 3:2 4:14 #
0.00064630798599593468345414493114731 1:1.7428105 2:0.71428573 3:11 4:31 #
0.00064630798599593468345414493114731 1:0.92941535 2:0.63157892 3:6 4:24 #
-0.00064630798599593468345414493114731 1:-0.63675356 2:0.50400001 3:2 4:13 #
-0.00064630798599593468345414493114731 1:-0.54323244 2:0.48369566 3:1 4:53 #
-0.00064630798599593468345414493114731 1:1.354035 2:0.67010307 3:2 4:15 #
-0.00064630798599593468345414493114731 1:2.796562 2:0.55987054 3:1 4:19 #
0.00064630798599593468345414493114731 1:0.30426294 2:0.54761904 3:27 4:31 #
-0.00064630798599593468345414493114731 1:1.615482 2:0.78571427 3:1 4:24 #
0.00064630798599593468345414493114731 1:2.5600774 2:0.51282054 3:28 4:27 #
-0.00064630798599593468345414493114731 1:0.75150019 2:0.60204083 3:1 4:57 #
0.00064630798599593468345414493114731 1:-0.42364094 2:0.5 3:27 4:20 #
-0.00064630798599593468345414493114731 1:-0.6469326 2:0.73134327 3:2 4:14 #
0.00064630798599593468345414493114731 1:0.25219485 2:0.77777779 3:3 4:32 #
0.00064630798599593468345414493114731 1:-0.212163 2:0.51428574 3:24 4:17 #
-0.00064630798599593468345414493114731 1:2.6277444 2:0.66666669 3:1 4:29 #
0.00064630798599593468345414493114731 1:-2.7894871 2:0.57894737 3:21 4:40 #
-0.00064630798599593468345414493114731 1:-1.8610654 2:1 3:1 4:36 #
0.00064630798599593468345414493114731 1:-2.1613171 2:0.38235295 3:20 4:33 #
-0.00064630798599593468345414493114731 1:-1.8260576 2:0.5511111 3:8 4:22 #
-0.00064630798599593468345414493114731 1:-1.898561 2:0.89999998 3:1 4:22 #
0.00064630798599593468345414493114731 1:1.5519506 2:0.63829786 3:27 4:33 #
0.00064630798599593468345414493114731 1:1.146793 2:0.78947371 3:7 4:29 #
-0.00064630798599593468345414493114731 1:1.6968559 2:0.4890511 3:1 4:16 #
-0.00064630798599593468345414493114731 1:-0.9487536 2:0.47797358 3:19 4:23 #
-0.00064630798599593468345414493114731 1:3.832732 2:0.578125 3:24 4:14 #
0.00064630798599593468345414493114731 1:-2.9117217 2:0.74285716 3:7 4:59 #
-0.00064630798599593468345414493114731 1:-1.6550319 2:0.56474823 3:14 4:21 #
-0.00064630798599593468345414493114731 1:-0.33119237 2:0.44720498 3:1 4:14 #
-0.00064630798599593468345414493114731 1:-0.7315886 2:0.54205608 3:22 4:14 #
-0.00064630798599593468345414493114731 1:-0.13333969 2:0.51054853 3:15 4:20 #
-0.00064630798599593468345414493114731 1:-0.85896009 2:0.47719297 3:1 4:14 #
-0.00064630798599593468345414493114731 1:-0.45875549 2:0.70454544 3:1 4:16 #
-0.00064630798599593468345414493114731 1:0.047171786 2:0.52255636 3:1 4:57 #
-0.00064630798599593468345414493114731 1:-2.4751973 2:0.59793812 3:6 4:12 #
-0.00064630798599593468345414493114731 1:0.86694127 2:0.88235295 3:1 4:31 #
0.00064630798599593468345414493114731 1:-1.5816258 2:0.85714287 3:2 4:66 #
0.00064630798599593468345414493114731 1:-0.13468446 2:0.67441863 3:27 4:32 #
0.00064630798599593468345414493114731 1:-0.31892493 2:0.77777779 3:3 4:42 #
-0.00064630798599593468345414493114731 1:-0.024780234 2:0.55319148 3:9 4:77 #
0.00064630798599593468345414493114731 1:0.26166278 2:0.82352942 3:5 4:30 #
0.00064630798599593468345414493114731 1:-1.7757809 2:0.53846157 3:21 4:18 #
0.00064630798599593468345414493114731 1:-3.766958 2:0.5 3:17 4:32 #
0.00064630798599593468345414493114731 1:-1.0560162 2:0.45714286 3:26 4:21 #
-0.00064630798599593468345414493114731 1:-1.5514753 2:0.67774934 3:17 4:31 #
0.00064630798599593468345414493114731 1:-1.2336079 2:0.56666666 3:22 4:19 #
0.00064630798599593468345414493114731 1:1.0562428 2:0.7647059 3:7 4:28 #
0.00064630798599593468345414493114731 1:-1.4457935 2:0.66666669 3:20 4:46 #
0.00064630798599593468345414493114731 1:-0.84849048 2:0.75 3:7 4:65 #
0.00064630798599593468345414493114731 1:1.4152592 2:0.63636363 3:23 4:18 #
0.00064630798599593468345414493114731 1:0.61372781 2:0.54347825 3:26 4:19 #
0.00064630798599593468345414493114731 1:-1.6461298 2:0.41176471 3:23 4:24 #
0.00064630798599593468345414493114731 1:-0.032688953 2:0.64999998 3:20 4:47 #
0.00064630798599593468345414493114731 1:0.33391678 2:0.57894737 3:26 4:36 #
0.00064630798599593468345414493114731 1:-0.97235465 2:0.8611111 3:3 4:68 #
0.00064630798599593468345414493114731 1:-3.6256282 2:0.78571427 3:9 4:51 #
0.00064630798599593468345414493114731 1:2.0600924 2:0.5945946 3:27 4:21 #
-0.00064630798599593468345414493114731 1:1.4276826 2:0.43589744 3:2 4:14 #
-0.00064630798599593468345414493114731 1:2.9440954 2:0.58823532 3:1 4:22 #
-0.00064630798599593468345414493114731 1:3.5107727 2:0.53591162 3:1 4:47 #
-0.00064630798599593468345414493114731 1:0.24753404 2:0.58181816 3:1 4:15 #
-0.00064630798599593468345414493114731 1:0.97393715 2:0.56329113 3:5 4:13 #
0.00064630798599593468345414493114731 1:-0.56065708 2:0.80000001 3:3 4:27 #
-0.00064630798599593468345414493114731 1:2.4746027 2:0.55555558 3:1 4:18 #
0.00064630798599593468345414493114731 1:0.27069834 2:0.61702126 3:24 4:40 #
0.00064630798599593468345414493114731 1:1.7428105 2:0.64285713 3:14 4:0 #
-0.00064630798599593468345414493114731 1:0.23171815 2:0.60606062 3:9 4:76 #
-0.00064630798599593468345414493114731 1:3.3280318 2:0.57428569 3:23 4:14 #
-0.00064630798599593468345414493114731 1:0.18179804 2:0.56 3:8 4:12 #
-0.00064630798599593468345414493114731 1:-0.13235937 2:0.75 3:12 4:77 #
0.00064630798599593468345414493114731 1:0.1456998 2:0.69565219 3:6 4:29 #
-0.00064630798599593468345414493114731 1:1.9364632 2:0.7027027 3:1 4:47 #
-0.00064630798599593468345414493114731 1:-1.5706913 2:0.67816091 3:1 4:15 #
-0.00064630798599593468345414493114731 1:-4.3751526 2:0.80645162 3:1 4:54 #
0.00064630798599593468345414493114731 1:2.6689327 2:0.59090906 3:24 4:39 #
-0.00064630798599593468345414493114731 1:1.9221761 2:0.58749998 3:1 4:17 #
0.00064630798599593468345414493114731 1:-3.7065008 2:0.71428573 3:7 4:47 #
-0.00064630798599593468345414493114731 1:0.90515178 2:0.55342466 3:1 4:53 #
0.00064630798599593468345414493114731 1:0.16938324 2:0.6511628 3:24 4:40 #
-0.00064630798599593468345414493114731 1:3.6170416 2:0.64210528 3:11 4:46 #
0.00064630798599593468345414493114731 1:-3.1445901 2:0.62162161 3:20 4:40 #
-0.00064630798599593468345414493114731 1:-2.9628716 2:0.90909094 3:1 4:25 #
0.00064630798599593468345414493114731 1:0.27874374 2:0.60000002 3:23 4:40 #
-0.00064630798599593468345414493114731 1:-1.6573155 2:0.71232879 3:2 4:57 #
0.00064630798599593468345414493114731 1:1.1623524 2:0.68292683 3:23 4:40 #
-0.00064630798599593468345414493114731 1:-0.32350409 2:0.8888889 3:1 4:51 #
-0.00064630798599593468345414493114731 1:1.5695937 2:0.74468082 3:9 4:15 #
-0.00064630798599593468345414493114731 1:-0.5687232 2:0.8214286 3:1 4:53 #
0.00064630798599593468345414493114731 1:-0.42720339 2:0.85714287 3:4 4:41 #
0.00064630798599593468345414493114731 1:-0.97374415 2:0.64999998 3:22 4:38 #
-0.00064630798599593468345414493114731 1:2.6147056 2:0.51260507 3:1 4:18 #
0.00064630798599593468345414493114731 1:-1.3601555 2:0.63043481 3:20 4:39 #
-0.00064630798599593468345414493114731 1:2.0369875 2:0.59117645 3:1 4:18 #
-0.00064630798599593468345414493114731 1:-0.42363641 2:0.81481481 3:1 4:51 #
0.00064630798599593468345414493114731 1:0.1076569 2:0.68181819 3:21 4:42 #
-0.00064630798599593468345414493114731 1:2.4614558 2:0.66042781 3:1 4:23 #
-0.00064630798599593468345414493114731 1:0.99557531 2:0.79374999 3:1 4:48 #
0.00064630798599593468345414493114731 1:-1.1951689 2:0.67500001 3:20 4:39 #
-0.00064630798599593468345414493114731 1:0.46399167 2:0.55752212 3:11 4:74 #
0.00064630798599593468345414493114731 1:-1.7046758 2:0.6857143 3:19 4:38 #
-0.00064630798599593468345414493114731 1:-2.0394397 2:0.49867374 3:6 4:12 #
-0.00064630798599593468345414493114731 1:-0.34572607 2:0.57258064 3:15 4:77 #
0.00064630798599593468345414493114731 1:-0.79874933 2:0.65909094 3:19 4:48 #
0.00064630798599593468345414493114731 1:-0.097995117 2:0.58139533 3:20 4:45 #
-0.00064630798599593468345414493114731 1:-2.4232316 2:0.51200002 3:1 4:26 #
0.00064630798599593468345414493114731 1:0.083827756 2:0.76923078 3:3 4:48 #
0.00064630798599593468345414493114731 1:-1.6823771 2:0.60000002 3:18 4:39 #
-0.00064630798599593468345414493114731 1:0.035631213 2:0.55102038 3:11 4:70 #
-0.00064630798599593468345414493114731 1:0.083274163 2:0.5411765 3:9 4:12 #
0.00064630798599593468345414493114731 1:2.0373673 2:0.55000001 3:9 4:20 #
-0.00064630798599593468345414493114731 1:-2.1089487 2:0.70454544 3:15 4:77 #
0.00064630798599593468345414493114731 1:-0.45045975 2:0.7368421 3:3 4:31 #
0.00064630798599593468345414493114731 1:-2.3526804 2:0.53125 3:11 4:40 #
-0.00064630798599593468345414493114731 1:3.5719934 2:0.48863637 3:1 4:39 #
0.00064630798599593468345414493114731 1:-0.83542418 2:0.60975611 3:20 4:44 #
0.00064630798599593468345414493114731 1:-1.4934628 2:0.47368422 3:17 4:40 #
0.00064630798599593468345414493114731 1:0.33118284 2:0.61904764 3:6 4:22 #
-0.00064630798599593468345414493114731 1:-1.1976652 2:0.61627907 3:15 4:75 #
-0.00064630798599593468345414493114731 1:0.61143732 2:0.58295965 3:1 4:50 #
-0.00064630798599593468345414493114731 1:0.685085 2:0.70547944 3:1 4:47 #
0.00064630798599593468345414493114731 1:-2.2178445 2:0.625 3:19 4:42 #
0.00064630798599593468345414493114731 1:-0.85497391 2:0.61904764 3:19 4:40 #
0.00064630798599593468345414493114731 1:0.32830968 2:0.64705884 3:15 4:34 #
0.00064630798599593468345414493114731 1:-1.11027 2:1 3:1 4:28 #
0.00064630798599593468345414493114731 1:-0.45013532 2:0.66666669 3:20 4:44 #
-0.00064630798599593468345414493114731 1:-0.45775104 2:0.83333331 3:1 4:22 #
0.00064630798599593468345414493114731 1:0.45746624 2:0.66666669 3:19 4:42 #
-0.00064630798599593468345414493114731 1:-0.18398322 2:0.94444442 3:1 4:43 #
-0.00064630798599593468345414493114731 1:-0.40261814 2:0.86363637 3:1 4:47 #
0.00064630798599593468345414493114731 1:2.0163982 2:0.67567569 3:20 4:40 #
0.00064630798599593468345414493114731 1:-1.3954432 2:0.64444447 3:19 4:43 #
-0.00064630798599593468345414493114731 1:3.6470788 2:0.68965518 3:8 4:33 #
0.00064630798599593468345414493114731 1:0.046133339 2:0.72727275 3:18 4:39 #
-0.00064630798599593468345414493114731 1:-2.8664372 2:1 3:1 4:36 #
-0.00064630798599593468345414493114731 1:-0.36107531 2:0.56862748 3:29 4:44 #
0.00064630798599593468345414493114731 1:-1.8679552 2:0.64864862 3:14 4:39 #
-0.00064630798599593468345414493114731 1:-2.4046638 2:0.59061831 3:10 4:70 #
0.00064630798599593468345414493114731 1:-1.9266753 2:0.7096774 3:16 4:39 #
-0.00064630798599593468345414493114731 1:-0.021183096 2:0.54447442 3:28 4:22 #
-0.00064630798599593468345414493114731 1:-0.37505886 2:0.57174885 3:1 4:52 #
-0.00064630798599593468345414493114731 1:0.16917127 2:0.89473683 3:1 4:43 #
0.00064630798599593468345414493114731 1:-2.4603684 2:0.64864862 3:18 4:43 #
0.00064630798599593468345414493114731 1:-0.04528223 2:0.77419353 3:2 4:31 #
-0.00064630798599593468345414493114731 1:0.0076990384 2:0.46774194 3:3 4:58 #
0.00064630798599593468345414493114731 1:-0.16031444 2:0.66666669 3:18 4:40 #
-0.00064630798599593468345414493114731 1:-4.159462 2:0.82608694 3:1 4:49 #
-0.00064630798599593468345414493114731 1:-1.9384238 2:0.59677422 3:1 4:53 #
0.00064630798599593468345414493114731 1:-1.327835 2:0.58536583 3:18 4:44 #
-0.00064630798599593468345414493114731 1:-1.4041933 2:0.69791669 3:1 4:16 #
0.00064630798599593468345414493114731 1:-1.8682543 2:0.58974361 3:18 4:45 #
-0.00064630798599593468345414493114731 1:-0.75177842 2:0.71153843 3:13 4:70 #
-0.00064630798599593468345414493114731 1:0.56393898 2:0.54000002 3:3 4:57 #
0.00064630798599593468345414493114731 1:-1.0902265 2:0.5869565 3:17 4:41 #
-0.00064630798599593468345414493114731 1:-2.8774073 2:0.64912283 3:1 4:15 #
0.00064630798599593468345414493114731 1:-0.37338799 2:0.81818181 3:5 4:39 #
-0.00064630798599593468345414493114731 1:-4.3413181 2:0.53056771 3:1 4:54 #
0.00064630798599593468345414493114731 1:1.9872191 2:0.61538464 3:17 4:40 #
-0.00064630798599593468345414493114731 1:0.34790686 2:0.52884614 3:1 4:15 #
-0.00064630798599593468345414493114731 1:0.23915356 2:0.65957445 3:1 4:49 #
-0.00064630798599593468345414493114731 1:0.56374872 2:0.72000003 3:1 4:47 #
0.00064630798599593468345414493114731 1:-0.39015761 2:0.58974361 3:17 4:41 #
-0.00064630798599593468345414493114731 1:2.8313806 2:0.59736842 3:1 4:39 #
0.00064630798599593468345414493114731 1:0.52775216 2:0.74418604 3:18 4:50 #
0.00064630798599593468345414493114731 1:-0.78873855 2:0.69444442 3:17 4:41 #
-0.00064630798599593468345414493114731 1:-0.95867324 2:0.63333333 3:1 4:15 #
0.00064630798599593468345414493114731 1:-0.50974953 2:0.75675678 3:17 4:50 #
0.00064630798599593468345414493114731 1:0.090471141 2:1 3:1 4:27 #
0.00064630798599593468345414493114731 1:-1.0787487 2:0.69696969 3:15 4:39 #
-0.00064630798599593468345414493114731 1:-1.7031047 2:0.48666668 3:2 4:13 #
0.00064630798599593468345414493114731 1:0.59023768 2:0.7368421 3:3 4:28 #
0.00064630798599593468345414493114731 1:-0.33443284 2:0.64705884 3:13 4:40 #
0.00064630798599593468345414493114731 1:-0.16851863 2:0.85714287 3:1 4:39 #
-0.00064630798599593468345414493114731 1:2.1067948 2:0.59585494 3:1 4:42 #
0.00064630798599593468345414493114731 1:-1.4593549 2:0.70588237 3:17 4:44 #
0.00064630798599593468345414493114731 1:-2.7315569 2:0.65517241 3:9 4:44 #
0.00064630798599593468345414493114731 1:0.70384985 2:0.63414633 3:17 4:47 #
0.00064630798599593468345414493114731 1:-0.95182729 2:0.71428573 3:16 4:40 #
-0.00064630798599593468345414493114731 1:-0.94863588 2:0.42857143 3:2 4:13 #
-0.00064630798599593468345414493114731 1:0.8136999 2:0.79310346 3:1 4:44 #
0.00064630798599593468345414493114731 1:-0.81473327 2:0.66666669 3:16 4:41 #
0.00064630798599593468345414493114731 1:0.43938643 2:0.77777779 3:6 4:37 #
0.00064630798599593468345414493114731 1:-0.55242223 2:0.69999999 3:15 4:40 #
-0.00064630798599593468345414493114731 1:-0.13667658 2:0.66197181 3:2 4:14 #
-0.00064630798599593468345414493114731 1:-1.9288201 2:0.6964286 3:24 4:75 #
0.00064630798599593468345414493114731 1:-0.78618139 2:0.66666669 3:14 4:40 #
-0.00064630798599593468345414493114731 1:-1.9619286 2:0.64705884 3:13 4:70 #
0.00064630798599593468345414493114731 1:-0.5488736 2:0.61904764 3:16 4:49 #
0.00064630798599593468345414493114731 1:1.3714767 2:0.69565219 3:9 4:32 #
0.00064630798599593468345414493114731 1:0.42099196 2:0.63636363 3:13 4:40 #
-0.00064630798599593468345414493114731 1:-0.85349143 2:0.60402685 3:1 4:15 #
0.00064630798599593468345414493114731 1:-1.2126527 2:0.63636363 3:15 4:41 #
0.00064630798599593468345414493114731 1:-0.53138161 2:0.7096774 3:9 4:44 #
-0.00064630798599593468345414493114731 1:-3.1765838 2:0.58013546 3:1 4:53 #
0.00064630798599593468345414493114731 1:0.27069834 2:0.72972971 3:17 4:48 #
-0.00064630798599593468345414493114731 1:-0.44188556 2:0.50485438 3:26 4:30 #
0.00064630798599593468345414493114731 1:-2.3634582 2:0.65714288 3:15 4:42 #
-0.00064630798599593468345414493114731 1:-2.8774073 2:0.6141907 3:1 4:52 #
0.00064630798599593468345414493114731 1:-1.971884 2:0.62162161 3:14 4:42 #
0.00064630798599593468345414493114731 1:1.659098 2:0.80000001 3:9 4:24 #
-0.00064630798599593468345414493114731 1:0.68342322 2:0.86666667 3:1 4:32 #
-0.00064630798599593468345414493114731 1:2.4872253 2:0.55056179 3:7 4:58 #
0.00064630798599593468345414493114731 1:0.95368594 2:0.75 3:8 4:42 #
0.00064630798599593468345414493114731 1:0.15212168 2:0.84210527 3:2 4:36 #
-0.00064630798599593468345414493114731 1:0.68851483 2:0.49563318 3:30 4:21 #
-0.00064630798599593468345414493114731 1:-0.92492646 2:0.66292137 3:1 4:50 #
0.00064630798599593468345414493114731 1:-0.42528784 2:0.67500001 3:15 4:41 #
-0.00064630798599593468345414493114731 1:1.2731972 2:0.71929824 3:2 4:16 #
0.00064630798599593468345414493114731 1:-0.35779107 2:0.68421054 3:15 4:41 #
-0.00064630798599593468345414493114731 1:1.0307316 2:0.83333331 3:2 4:40 #
0.00064630798599593468345414493114731 1:-3.0042572 2:0.74193549 3:14 4:47 #
0.00064630798599593468345414493114731 1:-0.75177807 2:0.68965518 3:10 4:42 #
-0.00064630798599593468345414493114731 1:-3.3734777 2:0.90909094 3:2 4:23 #
0.00064630798599593468345414493114731 1:-0.46547288 2:0.66666669 3:10 4:59 #
0.00064630798599593468345414493114731 1:0.01942371 2:0.65625 3:11 4:41 #
-0.00064630798599593468345414493114731 1:1.1710554 2:0.59154928 3:36 4:72 #
0.00064630798599593468345414493114731 1:-2.5739224 2:0.65909094 3:6 4:53 #
-0.00064630798599593468345414493114731 1:0.65975314 2:0.60305345 3:1 4:48 #
0.00064630798599593468345414493114731 1:0.66353941 2:0.72727275 3:16 4:44 #
-0.00064630798599593468345414493114731 1:-0.57203692 2:0.51923078 3:1 4:50 #
0.00064630798599593468345414493114731 1:0.14814872 2:0.75 3:1 4:29 #
0.00064630798599593468345414493114731 1:0.01942371 2:0.65625 3:11 4:41 #
-0.00064630798599593468345414493114731 1:-0.86384612 2:0.53719008 3:27 4:74 #
-0.00064630798599593468345414493114731 1:0.61590266 2:0.60714287 3:1 4:16 #
0.00064630798599593468345414493114731 1:-1.8758374 2:0.76744187 3:11 4:57 #
0.00064630798599593468345414493114731 1:1.4431236 2:0.74074072 3:11 4:41 #
0.00064630798599593468345414493114731 1:1.8793572 2:0.71875 3:14 4:41 #
-0.00064630798599593468345414493114731 1:-2.6683767 2:0.57024795 3:18 4:70 #
0.00064630798599593468345414493114731 1:-1.0176063 2:0.7352941 3:14 4:42 #
0.00064630798599593468345414493114731 1:-1.6671168 2:0.71428573 3:15 4:47 #
0.00064630798599593468345414493114731 1:-2.2853823 2:0.74193549 3:11 4:42 #
-0.00064630798599593468345414493114731 1:-1.7757809 2:0.56734693 3:4 4:58 #
-0.00064630798599593468345414493114731 1:0.68749666 2:0.65745854 3:1 4:44 #
0.00064630798599593468345414493114731 1:-0.78697121 2:0.73170733 3:15 4:44 #
0.00064630798599593468345414493114731 1:-0.90002859 2:0.64999998 3:15 4:47 #
-0.00064630798599593468345414493114731 1:-0.83392006 2:0.64150941 3:20 4:18 #
-0.00064630798599593468345414493114731 1:-3.5327942 2:0.50934577 3:1 4:52 #
-0.00064630798599593468345414493114731 1:2.1747112 2:0.56666666 3:1 4:18 #
-0.00064630798599593468345414493114731 1:-2.0974853 2:0.67213112 3:5 4:57 #
-0.00064630798599593468345414493114731 1:0.47060141 2:0.58775508 3:1 4:46 #
0.00064630798599593468345414493114731 1:0.35153309 2:0.63157892 3:15 4:44 #
0.00064630798599593468345414493114731 1:-1.6355932 2:0.93333334 3:1 4:66 #
0.00064630798599593468345414493114731 1:1.8810846 2:0.75 3:15 4:43 #
-0.00064630798599593468345414493114731 1:3.6786101 2:0.51495016 3:6 4:17 #
-0.00064630798599593468345414493114731 1:-1.4393613 2:0.46691176 3:15 4:13 #
-0.00064630798599593468345414493114731 1:1.6829005 2:0.59444445 3:20 4:67 #
-0.00064630798599593468345414493114731 1:2.3525615 2:0.55944055 3:1 4:41 #
0.00064630798599593468345414493114731 1:-3.0069451 2:0.66666669 3:10 4:50 #
-0.00064630798599593468345414493114731 1:2.6776228 2:0.6287263 3:1 4:25 #
0.00064630798599593468345414493114731 1:-1.1081918 2:0.75 3:14 4:47 #
0.00064630798599593468345414493114731 1:-0.3187491 2:0.85000002 3:1 4:37 #
-0.00064630798599593468345414493114731 1:2.2842956 2:0.70175439 3:20 4:66 #
-0.00064630798599593468345414493114731 1:-3.2893426 2:0.49615383 3:2 4:13 #
0.00064630798599593468345414493114731 1:0.30695203 2:0.73333335 3:4 4:29 #
-0.00064630798599593468345414493114731 1:0.40761739 2:0.56038648 3:8 4:60 #
-0.00064630798599593468345414493114731 1:-0.0017511989 2:0.65714288 3:31 4:70 #
-0.00064630798599593468345414493114731 1:0.80960935 2:0.58490568 3:1 4:45 #
0.00064630798599593468345414493114731 1:-2.9488008 2:0.6785714 3:10 4:47 #
0.00064630798599593468345414493114731 1:-1.8780289 2:0.77777779 3:8 4:60 #
0.00064630798599593468345414493114731 1:-0.25559512 2:0.69230771 3:11 4:42 #
-0.00064630798599593468345414493114731 1:-0.64939576 2:0.35849056 3:21 4:24 #
0.00064630798599593468345414493114731 1:1.4682773 2:0.6875 3:13 4:42 #
-0.00064630798599593468345414493114731 1:3.310925 2:0.53125 3:9 4:15 #
0.00064630798599593468345414493114731 1:-0.94124472 2:0.80555558 3:4 4:66 #
-0.00064630798599593468345414493114731 1:-1.8709652 2:0.56304348 3:21 4:68 #
-0.00064630798599593468345414493114731 1:-1.9302412 2:0.5986079 3:12 4:18 #
0.00064630798599593468345414493114731 1:-0.73508638 2:0.65625 3:10 4:43 #
0.00064630798599593468345414493114731 1:0.4569445 2:0.77777779 3:5 4:30 #
-0.00064630798599593468345414493114731 1:1.1479739 2:0.65079367 3:26 4:68 #
0.00064630798599593468345414493114731 1:-0.30671424 2:0.66666669 3:12 4:43 #
0.00064630798599593468345414493114731 1:1.4433268 2:0.76190478 3:15 4:46 #
-0.00064630798599593468345414493114731 1:1.1112716 2:0.61386138 3:3 4:49 #
0.00064630798599593468345414493114731 1:-1.0383188 2:0.65853661 3:13 4:45 #
0.00064630798599593468345414493114731 1:-0.61727011 2:0.76666665 3:11 4:44 #
0.00064630798599593468345414493114731 1:-0.53893584 2:0.67647058 3:13 4:44 #
-0.00064630798599593468345414493114731 1:-0.65785211 2:0.75384617 3:1 4:44 #
0.00064630798599593468345414493114731 1:1.0316054 2:0.69444442 3:14 4:44 #
0.00064630798599593468345414493114731 1:-2.4037464 2:0.67647058 3:7 4:48 #
-0.00064630798599593468345414493114731 1:-3.7096014 2:0.4852547 3:1 4:52 #
-0.00064630798599593468345414493114731 1:-1.8621747 2:0.42446044 3:15 4:23 #
-0.00064630798599593468345414493114731 1:2.1010635 2:0.53759396 3:1 4:42 #
0.00064630798599593468345414493114731 1:-0.48024067 2:0.7096774 3:13 4:44 #
-0.00064630798599593468345414493114731 1:2.759613 2:0.64999998 3:18 4:63 #
0.00064630798599593468345414493114731 1:-2.1085474 2:0.65789473 3:11 4:44 #
0.00064630798599593468345414493114731 1:1.4108888 2:0.75 3:13 4:43 #
-0.00064630798599593468345414493114731 1:3.0287104 2:0.57107842 3:31 4:62 #
-0.00064630798599593468345414493114731 1:-1.7077866 2:0.61538464 3:15 4:22 #
-0.00064630798599593468345414493114731 1:-1.5183282 2:0.52840906 3:20 4:67 #
-0.00064630798599593468345414493114731 1:0.62454122 2:0.63333333 3:12 4:62 #
0.00064630798599593468345414493114731 1:-0.48024067 2:0.7096774 3:13 4:44 #
-0.00064630798599593468345414493114731 1:-2.5642898 2:0.58638746 3:11 4:17 #
-0.00064630798599593468345414493114731 1:1.7383835 2:0.57175928 3:18 4:65 #
-0.00064630798599593468345414493114731 1:0.97686982 2:0.8125 3:1 4:25 #
0.00064630798599593468345414493114731 1:-0.40716907 2:0.6785714 3:1 4:36 #
0.00064630798599593468345414493114731 1:-1.3443358 2:0.7096774 3:12 4:52 #
0.00064630798599593468345414493114731 1:1.4054301 2:0.6785714 3:10 4:43 #
0.00064630798599593468345414493114731 1:-2.3993635 2:0.69444442 3:11 4:45 #
0.00064630798599593468345414493114731 1:-1.3633249 2:0.64102566 3:12 4:49 #
0.00064630798599593468345414493114731 1:-2.2387393 2:0.66666669 3:10 4:45 #
0.00064630798599593468345414493114731 1:0.40728477 2:0.74285716 3:13 4:48 #
0.00064630798599593468345414493114731 1:-1.6855581 2:0.69696969 3:11 4:45 #
-0.00064630798599593468345414493114731 1:-3.7695336 2:0.66666669 3:4 4:22 #
0.00064630798599593468345414493114731 1:1.5164025 2:0.62857145 3:24 4:21 #
0.00064630798599593468345414493114731 1:-2.7757478 2:0.5 3:18 4:0 #
-0.00064630798599593468345414493114731 1:2.6146872 2:0.56140351 3:5 4:15 #
0.00064630798599593468345414493114731 1:-1.2985243 2:0.2857143 3:21 4:0 #
-0.00064630798599593468345414493114731 1:1.8687345 2:0.49076518 3:3 4:14 #
-0.00064630798599593468345414493114731 1:-3.4839766 2:0.56451613 3:6 4:28 #
-0.00064630798599593468345414493114731 1:-0.66382921 2:0.58333331 3:2 4:14 #
-0.00064630798599593468345414493114731 1:0.63768208 2:0.6015625 3:2 4:15 #
0.00064630798599593468345414493114731 1:0.65975314 2:0.85000002 3:6 4:36 #
-0.00064630798599593468345414493114731 1:0.0039336635 2:0.62573099 3:1 4:16 #
0.00064630798599593468345414493114731 1:-1.518521 2:0.69999999 3:25 4:35 #
-0.00064630798599593468345414493114731 1:1.4085983 2:0.48541114 3:1 4:21 #
0.00064630798599593468345414493114731 1:0.22481532 2:0.81818181 3:4 4:41 #
-0.00064630798599593468345414493114731 1:-2.282336 2:0.55868542 3:1 4:49 #
-0.00064630798599593468345414493114731 1:-0.14641508 2:0.68292683 3:1 4:17 #
0.00064630798599593468345414493114731 1:-1.4417332 2:0.55000001 3:25 4:33 #
0.00064630798599593468345414493114731 1:2.5235839 2:0.56521738 3:23 4:0 #
-0.00064630798599593468345414493114731 1:-0.90651923 2:0.55892253 3:1 4:15 #
-0.00064630798599593468345414493114731 1:-2.2722898 2:0.67910451 3:1 4:16 #
-0.00064630798599593468345414493114731 1:-1.972314 2:0.90909094 3:1 4:25 #
0.00064630798599593468345414493114731 1:1.0773515 2:0.60000002 3:27 4:27 #
0.00064630798599593468345414493114731 1:-3.0066671 2:0.66666669 3:1 4:13 #
0.00064630798599593468345414493114731 1:1.5042535 2:0.61904764 3:27 4:28 #
-0.00064630798599593468345414493114731 1:1.354035 2:0.51807231 3:4 4:14 #
-0.00064630798599593468345414493114731 1:-0.18369353 2:0.51428574 3:1 4:15 #
-0.00064630798599593468345414493114731 1:1.3507224 2:0.58545452 3:1 4:17 #
0.00064630798599593468345414493114731 1:1.9153713 2:0.75 3:12 4:25 #
-0.00064630798599593468345414493114731 1:-2.5949538 2:0.85714287 3:1 4:26 #
-0.00064630798599593468345414493114731 1:2.1739709 2:0.52118641 3:3 4:15 #
-0.00064630798599593468345414493114731 1:-0.0082921814 2:0.60451978 3:1 4:16 #
-0.00064630798599593468345414493114731 1:-2.9628716 2:0.57272726 3:1 4:15 #
-0.00064630798599593468345414493114731 1:-1.4412589 2:0.54054052 3:1 4:15 #
-0.00064630798599593468345414493114731 1:-2.0333395 2:0.6875 3:2 4:15 #
0.00064630798599593468345414493114731 1:0.025642024 2:0.58974361 3:1 4:42 #
0.00064630798599593468345414493114731 1:1.3200493 2:0.64705884 3:5 4:19 #
-0.00064630798599593468345414493114731 1:-0.5687232 2:0.50259066 3:1 4:15 #
-0.00064630798599593468345414493114731 1:0.29987687 2:0.84615386 3:1 4:28 #
-0.00064630798599593468345414493114731 1:1.7394191 2:0.63440859 3:4 4:15 #
0.00064630798599593468345414493114731 1:-0.144214 2:0.89473683 3:1 4:42 #
0.00064630798599593468345414493114731 1:-0.57185012 2:0.64285713 3:1 4:11 #
-0.00064630798599593468345414493114731 1:-2.5163369 2:0.80000001 3:3 4:53 #
0.00064630798599593468345414493114731 1:-1.1835558 2:0.7241379 3:2 4:43 #
0.00064630798599593468345414493114731 1:0.32830968 2:0.53125 3:5 4:11 #
-0.00064630798599593468345414493114731 1:-1.8322775 2:0.53503186 3:2 4:14 #
-0.00064630798599593468345414493114731 1:2.791337 2:0.68041235 3:26 4:15 #
0.00064630798599593468345414493114731 1:-1.3521554 2:0.75 3:2 4:43 #
0.00064630798599593468345414493114731 1:1.0149096 2:0.64705884 3:6 4:21 #
0.00064630798599593468345414493114731 1:-1.7167159 2:0.80952382 3:2 4:43 #
-0.00064630798599593468345414493114731 1:-3.2571442 2:0.71875 3:1 4:17 #
0.00064630798599593468345414493114731 1:-1.8025818 2:0.73076922 3:1 4:42 #
-0.00064630798599593468345414493114731 1:-3.7544308 2:0.74468082 3:3 4:15 #
-0.00064630798599593468345414493114731 1:-0.9304145 2:0.61864406 3:17 4:22 #
-0.00064630798599593468345414493114731 1:1.3956447 2:0.57936507 3:1 4:17 #
-0.00064630798599593468345414493114731 1:-0.91018087 2:0.51838237 3:20 4:19 #
0.00064630798599593468345414493114731 1:-3.1430426 2:0.70833331 3:2 4:39 #
-0.00064630798599593468345414493114731 1:-1.2774016 2:0.64102566 3:1 4:16 #
0.00064630798599593468345414493114731 1:-3.0213394 2:0.73913044 3:3 4:37 #
0.00064630798599593468345414493114731 1:-1.7336191 2:0.55555558 3:5 4:16 #
-0.00064630798599593468345414493114731 1:0.18421757 2:0.63513511 3:1 4:17 #
0.00064630798599593468345414493114731 1:-3.9694362 2:0.64999998 3:4 4:28 #
-0.00064630798599593468345414493114731 1:-4.1551704 2:0.59677422 3:1 4:16 #
0.00064630798599593468345414493114731 1:-0.41225317 2:0.86956519 3:1 4:43 #
-0.00064630798599593468345414493114731 1:2.3878081 2:0.66666669 3:1 4:28 #
0.00064630798599593468345414493114731 1:-2.1332042 2:0.56410259 3:5 4:13 #
-0.00064630798599593468345414493114731 1:-4.0735631 2:0.54037267 3:1 4:15 #
-0.00064630798599593468345414493114731 1:-3.8098485 2:0.81818181 3:1 4:43 #
0.00064630798599593468345414493114731 1:-1.9619286 2:0.57894737 3:5 4:15 #
0.00064630798599593468345414493114731 1:-4.1553016 2:0.55555558 3:4 4:25 #
0.00064630798599593468345414493114731 1:-1.9316157 2:0.73076922 3:2 4:42 #
-0.00064630798599593468345414493114731 1:0.35029626 2:0.46070459 3:27 4:20 #
0.00064630798599593468345414493114731 1:0.18555287 2:0.85714287 3:1 4:29 #
0.00064630798599593468345414493114731 1:-1.0234572 2:0.75862068 3:2 4:42 #
0.00064630798599593468345414493114731 1:-2.2010734 2:0.66666669 3:5 4:14 #
0.00064630798599593468345414493114731 1:-0.81460178 2:0.60869563 3:4 4:25 #
0.00064630798599593468345414493114731 1:-0.44140846 2:0.42857143 3:4 4:17 #
0.00064630798599593468345414493114731 1:1.059222 2:0.53333336 3:4 4:13 #
-0.00064630798599593468345414493114731 1:-3.1765838 2:0.53689569 3:1 4:15 #
-0.00064630798599593468345414493114731 1:0.87326241 2:0.78571427 3:1 4:24 #
-0.00064630798599593468345414493114731 1:2.0177398 2:0.62637365 3:1 4:20 #
0.00064630798599593468345414493114731 1:-4.0900307 2:0.6875 3:4 4:25 #
0.00064630798599593468345414493114731 1:-3.4523673 2:0.66666669 3:4 4:21 #
0.00064630798599593468345414493114731 1:1.3656089 2:0.63636363 3:7 4:25 #
-0.00064630798599593468345414493114731 1:-0.26941139 2:0.51941746 3:23 4:13 #
0.00064630798599593468345414493114731 1:1.5164602 2:0.64285713 3:6 4:18 #
0.00064630798599593468345414493114731 1:1.0577433 2:0.69999999 3:6 4:22 #
-0.00064630798599593468345414493114731 1:-0.81849104 2:0.85714287 3:1 4:40 #
-0.00064630798599593468345414493114731 1:-2.4846935 2:0.84615386 3:1 4:24 #
-0.00064630798599593468345414493114731 1:-1.5558679 2:0.61555076 3:1 4:16 #
0.00064630798599593468345414493114731 1:0.1076569 2:0.75 3:2 4:42 #
-0.00064630798599593468345414493114731 1:0.057747442 2:0.51639342 3:3 4:13 #
0.00064630798599593468345414493114731 1:-2.1089487 2:0.5714286 3:4 4:13 #
0.00064630798599593468345414493114731 1:-1.1856402 2:0.78260869 3:2 4:42 #
-0.00064630798599593468345414493114731 1:-0.7504974 2:0.58333331 3:1 4:16 #
-0.00064630798599593468345414493114731 1:-3.7046666 2:0.62371135 3:1 4:48 #
-0.00064630798599593468345414493114731 1:0.36405486 2:0.50980395 3:4 4:13 #
-0.00064630798599593468345414493114731 1:1.7141342 2:0.72121215 3:1 4:27 #
-0.00064630798599593468345414493114731 1:2.4239075 2:0.59390861 3:1 4:37 #
0.00064630798599593468345414493114731 1:-3.6561182 2:0.69565219 3:4 4:17 #
0.00064630798599593468345414493114731 1:-2.8838916 2:0.62222224 3:4 4:13 #
-0.00064630798599593468345414493114731 1:-2.5240548 2:0.49657536 3:8 4:15 #
0.00064630798599593468345414493114731 1:-0.41225317 2:0.86956519 3:1 4:43 #
0.00064630798599593468345414493114731 1:-0.16942444 2:0.71428573 3:2 4:22 #
-0.00064630798599593468345414493114731 1:1.4085983 2:0.57352942 3:3 4:15 #
0.00064630798599593468345414493114731 1:-2.4416561 2:0.60000002 3:4 4:13 #
-0.00064630798599593468345414493114731 1:0.4349089 2:0.55952382 3:1 4:16 #
-0.00064630798599593468345414493114731 1:-0.39581469 2:0.47651008 3:1 4:15 #
0.00064630798599593468345414493114731 1:-0.22338283 2:0.79166669 3:2 4:42 #
0.00064630798599593468345414493114731 1:-1.4660325 2:0.75 3:2 4:41 #
-0.00064630798599593468345414493114731 1:-0.15014906 2:0.6885246 3:1 4:18 #
-0.00064630798599593468345414493114731 1:-1.6118084 2:0.69325155 3:3 4:52 #
-0.00064630798599593468345414493114731 1:-3.3749461 2:0.53300732 3:3 4:13 #
0.00064630798599593468345414493114731 1:-1.9039289 2:0.5714286 3:4 4:16 #
0.00064630798599593468345414493114731 1:-0.35752416 2:0.6111111 3:4 4:23 #
-0.00064630798599593468345414493114731 1:0.025642024 2:0.84615386 3:1 4:26 #
-0.00064630798599593468345414493114731 1:-1.9463464 2:0.68000001 3:2 4:15 #
-0.00064630798599593468345414493114731 1:-3.9377861 2:0.60909092 3:2 4:14 #
0.00064630798599593468345414493114731 1:-1.4337248 2:0.84210527 3:2 4:42 #
-0.00064630798599593468345414493114731 1:1.0539806 2:0.67307693 3:1 4:19 #
0.00064630798599593468345414493114731 1:-2.4915998 2:0.7368421 3:3 4:34 #
0.00064630798599593468345414493114731 1:0.90790236 2:0.64444447 3:3 4:11 #
