SVM-light Version V6.02
0 # kernel type
3 # kernel parameter -d 
1 # kernel parameter -g 
1 # kernel parameter -s 
1 # kernel parameter -r 
empty# kernel parameter -u 
4 # highest feature index 
16298 # number of training documents 
8139 # number of support vectors plus 1 
-0.71915838 # threshold b, each following line is a SV (starting with alpha*y)
-0.00063557137623540700937380121260389 1:0.91583538 2:0.47109208 3:1 4:24 #
0.00063557137623540700937380121260389 1:-0.20835222 2:0.60714287 3:14 4:27 #
-0.00063557137623540700937380121260389 1:-0.37467179 2:0.47945204 3:1 4:11 #
0.00063557137623540700937380121260389 1:0.99887264 2:0.60714287 3:8 4:28 #
-0.00063557137623540700937380121260389 1:-0.79584783 2:0.48433736 3:2 4:8 #
0.00063557137623540700937380121260389 1:-1.4937613 2:0.54347825 3:46 4:0 #
-0.00063557137623540700937380121260389 1:-0.79584783 2:0.42316785 3:2 4:7 #
0.00063557137623540700937380121260389 1:-0.48370442 2:0.89361703 3:6 4:105 #
0.00063557137623540700937380121260389 1:1.4950494 2:0.65714288 3:8 4:33 #
0.00063557137623540700937380121260389 1:-1.6409051 2:0.88235295 3:2 4:35 #
-0.00063557137623540700937380121260389 1:-1.4264481 2:0.52590674 3:15 4:31 #
-0.00063557137623540700937380121260389 1:1.0504788 2:0.63636363 3:1 4:9 #
-0.00063557137623540700937380121260389 1:1.9413233 2:0.63636363 3:11 4:0 #
-0.00063557137623540700937380121260389 1:2.1092415 2:0.63068181 3:3 4:9 #
-0.00063557137623540700937380121260389 1:3.3967304 2:0.875 3:1 4:30 #
-0.00063557137623540700937380121260389 1:3.6246362 2:0.75 3:12 4:23 #
0.00063557137623540700937380121260389 1:-4.4114289 2:0.375 3:16 4:0 #
0.00063557137623540700937380121260389 1:-3.1628156 2:0.64705884 3:17 4:0 #
-0.00063557137623540700937380121260389 1:-0.98479819 2:0.44881889 3:20 4:17 #
0.00063557137623540700937380121260389 1:0.85635567 2:0.76923078 3:5 4:24 #
0.00063557137623540700937380121260389 1:1.4600085 2:0.5 3:38 4:0 #
-0.00063557137623540700937380121260389 1:-3.6222429 2:0.45918366 3:1 4:31 #
0.00063557137623540700937380121260389 1:0.11919855 2:0.72000003 3:1 4:36 #
-0.00063557137623540700937380121260389 1:-0.67868167 2:0.63636363 3:11 4:0 #
-0.00063557137623540700937380121260389 1:3.931195 2:0.50950569 3:1 4:28 #
0.00063557137623540700937380121260389 1:-0.84058404 2:0.46666667 3:45 4:0 #
0.00063557137623540700937380121260389 1:-0.76939005 2:0.48888889 3:45 4:0 #
-0.00063557137623540700937380121260389 1:-2.1202075 2:0.60000002 3:1 4:10 #
0.00063557137623540700937380121260389 1:-0.76939005 2:0.48888889 3:45 4:0 #
-0.00063557137623540700937380121260389 1:0.20743942 2:0.53750002 3:1 4:10 #
0.00063557137623540700937380121260389 1:-1.4209489 2:0.52272725 3:44 4:0 #
0.00063557137623540700937380121260389 1:0.18994102 2:0.5 3:44 4:0 #
-0.00063557137623540700937380121260389 1:2.4010856 2:0.4954955 3:1 4:11 #
0.00063557137623540700937380121260389 1:-2.8690205 2:0.60000002 3:10 4:0 #
0.00063557137623540700937380121260389 1:-0.98527068 2:0.47222221 3:36 4:0 #
0.00063557137623540700937380121260389 1:-2.7209332 2:0.58333331 3:12 4:0 #
-0.00063557137623540700937380121260389 1:-4.4349775 2:0.45303866 3:1 4:16 #
0.00063557137623540700937380121260389 1:0.98679817 2:0.52777779 3:36 4:0 #
-0.00063557137623540700937380121260389 1:-1.9235053 2:0.40909091 3:4 4:7 #
-0.00063557137623540700937380121260389 1:3.1854479 2:0.5168919 3:1 4:13 #
0.00063557137623540700937380121260389 1:-1.2782422 2:0.42857143 3:35 4:0 #
-0.00063557137623540700937380121260389 1:-4.123879 2:0.76923078 3:3 4:46 #
0.00063557137623540700937380121260389 1:-0.83816361 2:0.60606062 3:33 4:0 #
0.00063557137623540700937380121260389 1:1.2889109 2:0.60000002 3:10 4:0 #
-0.00063557137623540700937380121260389 1:-1.2567087 2:0.50410956 3:1 4:11 #
0.00063557137623540700937380121260389 1:0.89488345 2:0.77272725 3:8 4:34 #
0.00063557137623540700937380121260389 1:0.52028131 2:0.72727275 3:5 4:34 #
-0.00063557137623540700937380121260389 1:0.063747786 2:0.53439152 3:1 4:11 #
0.00063557137623540700937380121260389 1:3.5042708 2:0.48148149 3:27 4:0 #
0.00063557137623540700937380121260389 1:-0.65673119 2:0.4848485 3:33 4:0 #
0.00063557137623540700937380121260389 1:-0.99240202 2:0.36363637 3:11 4:0 #
-0.00063557137623540700937380121260389 1:2.2948253 2:0.58874458 3:1 4:13 #
0.00063557137623540700937380121260389 1:0.55865854 2:0.63636363 3:33 4:0 #
0.00063557137623540700937380121260389 1:0.11908669 2:0.71428573 3:4 4:34 #
0.00063557137623540700937380121260389 1:-2.3111265 2:0.47058824 3:17 4:0 #
0.00063557137623540700937380121260389 1:0.93306184 2:0.63999999 3:5 4:20 #
0.00063557137623540700937380121260389 1:-0.40852624 2:0.5 3:32 4:0 #
-0.00063557137623540700937380121260389 1:-0.25004029 2:0.51366121 3:1 4:11 #
-0.00063557137623540700937380121260389 1:-2.056251 2:0.69230771 3:13 4:0 #
0.00063557137623540700937380121260389 1:0.43022171 2:0.58064514 3:31 4:0 #
-0.00063557137623540700937380121260389 1:-0.20802833 2:0.61538464 3:13 4:0 #
0.00063557137623540700937380121260389 1:-0.19551039 2:0.51612902 3:31 4:0 #
-0.00063557137623540700937380121260389 1:-0.85144001 2:0.46153846 3:13 4:0 #
0.00063557137623540700937380121260389 1:-0.43187004 2:0.43333334 3:30 4:0 #
0.00063557137623540700937380121260389 1:-2.603256 2:0.72727275 3:11 4:0 #
0.00063557137623540700937380121260389 1:-1.5842865 2:0.55172414 3:29 4:0 #
0.00063557137623540700937380121260389 1:1.6466463 2:0.53333336 3:30 4:0 #
-0.00063557137623540700937380121260389 1:0.78625393 2:0.45816734 3:2 4:10 #
0.00063557137623540700937380121260389 1:-0.56068915 2:0.60000002 3:10 4:0 #
-0.00063557137623540700937380121260389 1:-1.430397 2:0.546875 3:14 4:21 #
-0.00063557137623540700937380121260389 1:0.23840193 2:0.63157892 3:19 4:0 #
-0.00063557137623540700937380121260389 1:-0.12249147 2:0.5 3:18 4:0 #
0.00063557137623540700937380121260389 1:0.060230285 2:0.62068963 3:29 4:0 #
-0.00063557137623540700937380121260389 1:-0.44273806 2:0.55555558 3:18 4:0 #
0.00063557137623540700937380121260389 1:0.70410347 2:0.55172414 3:29 4:0 #
-0.00063557137623540700937380121260389 1:-0.96779454 2:0.55555558 3:18 4:0 #
0.00063557137623540700937380121260389 1:0.48423275 2:0.60714287 3:28 4:0 #
-0.00063557137623540700937380121260389 1:-0.11787817 2:0.52631581 3:19 4:0 #
-0.00063557137623540700937380121260389 1:-0.88154089 2:0.57894737 3:19 4:0 #
-0.00063557137623540700937380121260389 1:-2.1104832 2:0.50955415 3:6 4:7 #
-0.00063557137623540700937380121260389 1:2.3565104 2:0.60869563 3:23 4:0 #
-0.00063557137623540700937380121260389 1:1.3723533 2:0.54166669 3:24 4:0 #
-0.00063557137623540700937380121260389 1:-0.96061456 2:0.52549887 3:16 4:20 #
0.00063557137623540700937380121260389 1:-0.062165678 2:0.78947371 3:3 4:35 #
-0.00063557137623540700937380121260389 1:0.4713124 2:0.70085472 3:1 4:104 #
0.00063557137623540700937380121260389 1:-0.84138244 2:0.4074074 3:27 4:0 #
-0.00063557137623540700937380121260389 1:1.4251292 2:0.46808511 3:1 4:12 #
0.00063557137623540700937380121260389 1:0.57019246 2:0.7647059 3:4 4:30 #
-0.00063557137623540700937380121260389 1:-3.685858 2:0.60233921 3:2 4:104 #
0.00063557137623540700937380121260389 1:-0.48978734 2:0.55555558 3:27 4:0 #
-0.00063557137623540700937380121260389 1:-0.45225844 2:0.48706895 3:2 4:10 #
0.00063557137623540700937380121260389 1:-0.16095124 2:0.7647059 3:1 4:26 #
-0.00063557137623540700937380121260389 1:3.2148294 2:0.47761193 3:1 4:14 #
0.00063557137623540700937380121260389 1:-0.25724366 2:0.65306121 3:25 4:63 #
-0.00063557137623540700937380121260389 1:1.2820777 2:0.39473686 3:1 4:12 #
0.00063557137623540700937380121260389 1:-0.53543311 2:0.69999999 3:10 4:0 #
0.00063557137623540700937380121260389 1:0.17210567 2:0.92500001 3:4 4:99 #
-0.00063557137623540700937380121260389 1:-1.7206676 2:0.56074768 3:3 4:35 #
0.00063557137623540700937380121260389 1:-1.7750378 2:0.72727275 3:11 4:0 #
-0.00063557137623540700937380121260389 1:2.3160915 2:0.55503511 3:1 4:100 #
0.00063557137623540700937380121260389 1:0.99966466 2:0.53571427 3:28 4:0 #
-0.00063557137623540700937380121260389 1:-1.5627021 2:0.44176707 3:15 4:17 #
0.00063557137623540700937380121260389 1:-2.538928 2:0.58823532 3:17 4:0 #
-0.00063557137623540700937380121260389 1:0.44228911 2:0.53887397 3:6 4:95 #
-0.00063557137623540700937380121260389 1:-3.6728911 2:0.67346936 3:1 4:94 #
0.00063557137623540700937380121260389 1:-2.4341855 2:0.48979592 3:42 4:13 #
-0.00063557137623540700937380121260389 1:-0.59055907 2:0.55102038 3:20 4:19 #
-0.00063557137623540700937380121260389 1:-1.3906313 2:0.45833334 3:7 4:7 #
0.00063557137623540700937380121260389 1:0.36538345 2:0.7647059 3:3 4:31 #
0.00063557137623540700937380121260389 1:0.79872072 2:0.83333331 3:7 4:97 #
0.00063557137623540700937380121260389 1:-0.35237688 2:0.84210527 3:1 4:34 #
-0.00063557137623540700937380121260389 1:-0.37104315 2:0.68000001 3:1 4:12 #
-0.00063557137623540700937380121260389 1:2.3776033 2:0.50709218 3:1 4:13 #
0.00063557137623540700937380121260389 1:-1.7101334 2:0.40816328 3:41 4:23 #
-0.00063557137623540700937380121260389 1:-2.6821249 2:0.5191257 3:11 4:17 #
-0.00063557137623540700937380121260389 1:0.32689747 2:0.52531648 3:1 4:89 #
0.00063557137623540700937380121260389 1:-0.88944501 2:0.51020408 3:41 4:22 #
0.00063557137623540700937380121260389 1:0.34892294 2:0.79545456 3:18 4:76 #
0.00063557137623540700937380121260389 1:0.05560546 2:0.75 3:3 4:24 #
-0.00063557137623540700937380121260389 1:-2.0045938 2:0.55414015 3:2 4:10 #
-0.00063557137623540700937380121260389 1:-2.8934171 2:0.70940173 3:1 4:85 #
-0.00063557137623540700937380121260389 1:-0.40863466 2:0.75757575 3:1 4:13 #
0.00063557137623540700937380121260389 1:0.35444263 2:0.75 3:3 4:29 #
0.00063557137623540700937380121260389 1:-0.43676218 2:0.63999999 3:25 4:0 #
-0.00063557137623540700937380121260389 1:-1.7236409 2:0.56404495 3:1 4:86 #
-0.00063557137623540700937380121260389 1:2.085202 2:0.56444442 3:3 4:89 #
-0.00063557137623540700937380121260389 1:-0.32692847 2:0.76404494 3:5 4:87 #
0.00063557137623540700937380121260389 1:0.0029309527 2:0.82352942 3:1 4:34 #
0.00063557137623540700937380121260389 1:-0.46511984 2:0.82352942 3:1 4:34 #
0.00063557137623540700937380121260389 1:-0.53543311 2:0.88235295 3:1 4:34 #
-0.00028172212440600544625796120001837 1:1.2063788 2:0.64705884 3:34 4:51 #
0.00063557137623540700937380121260389 1:-0.10783447 2:0.63636363 3:6 4:28 #
0.00063557137623540700937380121260389 1:-3.2033057 2:0.93333334 3:1 4:35 #
0.00063557137623540700937380121260389 1:-1.7998686 2:0.58536583 3:22 4:44 #
0.00063557137623540700937380121260389 1:-0.55137974 2:0.9285714 3:1 4:34 #
0.00063557137623540700937380121260389 1:-3.8097262 2:0.71428573 3:5 4:36 #
0.00063557137623540700937380121260389 1:-0.57770616 2:1 3:1 4:34 #
0.00063557137623540700937380121260389 1:-0.37991053 2:0.60869563 3:26 4:46 #
0.00063557137623540700937380121260389 1:-0.4856303 2:0.93333334 3:1 4:34 #
0.00063557137623540700937380121260389 1:-0.20619608 2:0.84210527 3:1 4:34 #
0.00063557137623540700937380121260389 1:-1.9856192 2:0.84210527 3:3 4:35 #
-0.00063557137623540700937380121260389 1:-0.57483 2:0.55078125 3:8 4:73 #
-0.00063557137623540700937380121260389 1:1.076331 2:0.53956836 3:1 4:12 #
-0.00063557137623540700937380121260389 1:2.3203576 2:0.46179402 3:1 4:13 #
0.00063557137623540700937380121260389 1:0.185472 2:0.80000001 3:3 4:44 #
-0.00063557137623540700937380121260389 1:-0.92571437 2:0.54098362 3:8 4:7 #
-0.00063557137623540700937380121260389 1:3.1112299 2:0.93333334 3:1 4:34 #
-0.00063557137623540700937380121260389 1:-0.41901836 2:0.50697672 3:20 4:19 #
-0.00063557137623540700937380121260389 1:-3.5080349 2:0.56444442 3:1 4:13 #
0.00063557137623540700937380121260389 1:-3.7775517 2:0.65384614 3:1 4:15 #
0.00063557137623540700937380121260389 1:1.1443632 2:0.64444447 3:39 4:20 #
0.00063557137623540700937380121260389 1:-0.35105637 2:0.91111112 3:1 4:97 #
0.00063557137623540700937380121260389 1:2.9865983 2:0.60714287 3:28 4:0 #
-0.00063557137623540700937380121260389 1:-0.11202738 2:0.5900383 3:3 4:10 #
0.00063557137623540700937380121260389 1:-3.1932633 2:0.77083331 3:14 4:78 #
-0.00063557137623540700937380121260389 1:-0.65487731 2:0.53174603 3:22 4:25 #
0.00063557137623540700937380121260389 1:0.65021217 2:0.75862068 3:7 4:46 #
-0.00063557137623540700937380121260389 1:-0.3006289 2:0.66000003 3:1 4:12 #
0.00063557137623540700937380121260389 1:1.5837756 2:0.83333331 3:14 4:79 #
0.00063557137623540700937380121260389 1:0.5139972 2:0.5 3:10 4:0 #
-0.00063557137623540700937380121260389 1:-1.1316334 2:0.67391306 3:2 4:11 #
-0.00063557137623540700937380121260389 1:0.81567085 2:0.62068963 3:29 4:0 #
-0.00063557137623540700937380121260389 1:0.91321379 2:0.53361344 3:1 4:12 #
-0.00063557137623540700937380121260389 1:1.0135409 2:0.51282054 3:1 4:12 #
0.00063557137623540700937380121260389 1:-4.300787 2:0.76744187 3:8 4:82 #
-0.00063557137623540700937380121260389 1:-2.8690205 2:0.42857143 3:10 4:15 #
0.00063557137623540700937380121260389 1:0.91877669 2:0.7352941 3:6 4:25 #
0.00063557137623540700937380121260389 1:-0.63227707 2:0.70833331 3:15 4:74 #
-0.00063557137623540700937380121260389 1:-2.4616416 2:0.44444445 3:8 4:7 #
0.00063557137623540700937380121260389 1:0.0078914212 2:0.8918919 3:4 4:86 #
-0.00063557137623540700937380121260389 1:2.6860483 2:0.5724138 3:12 4:34 #
-0.00063557137623540700937380121260389 1:-2.191582 2:0.57489878 3:12 4:28 #
-0.00063557137623540700937380121260389 1:2.1847928 2:1 3:1 4:28 #
0.00063557137623540700937380121260389 1:0.79062176 2:0.80000001 3:7 4:36 #
-0.00063557137623540700937380121260389 1:-0.20735623 2:0.55555558 3:1 4:12 #
0.00063557137623540700937380121260389 1:0.905738 2:0.64583331 3:31 4:43 #
-0.00063557137623540700937380121260389 1:2.2353656 2:1 3:1 4:30 #
0.00063557137623540700937380121260389 1:-1.3161957 2:0.5 3:37 4:19 #
-0.00063557137623540700937380121260389 1:0.12251126 2:0.49618322 3:10 4:19 #
0.00063557137623540700937380121260389 1:1.0392702 2:0.4375 3:36 4:21 #
0.00063557137623540700937380121260389 1:0.36762533 2:0.77777779 3:5 4:47 #
0.00063557137623540700937380121260389 1:-0.61485165 2:0.53333336 3:37 4:18 #
0.00063557137623540700937380121260389 1:-0.71866924 2:0.55319148 3:33 4:36 #
0.00063557137623540700937380121260389 1:3.3309238 2:0.55555558 3:27 4:0 #
0.00063557137623540700937380121260389 1:0.56253892 2:0.80952382 3:9 4:79 #
0.00063557137623540700937380121260389 1:-0.46792141 2:0.7368421 3:4 4:32 #
-0.00063557137623540700937380121260389 1:2.7190764 2:0.54395604 3:31 4:11 #
0.00063557137623540700937380121260389 1:-0.3364746 2:0.85714287 3:1 4:41 #
-0.00063557137623540700937380121260389 1:-1.5573719 2:0.65625 3:14 4:39 #
0.00063557137623540700937380121260389 1:0.09940622 2:0.75 3:1 4:25 #
0.00063557137623540700937380121260389 1:-2.1791201 2:0.46666667 3:15 4:0 #
-0.00063557137623540700937380121260389 1:-2.3758841 2:0.55219781 3:10 4:16 #
-0.00063557137623540700937380121260389 1:-2.4316614 2:0.53072625 3:10 4:17 #
-0.00063557137623540700937380121260389 1:-2.8534455 2:0.6785714 3:7 4:24 #
0.00063557137623540700937380121260389 1:-1.7645733 2:0.47826087 3:23 4:0 #
0.00063557137623540700937380121260389 1:-4.0970511 2:0.37037036 3:19 4:16 #
0.00063557137623540700937380121260389 1:0.32751057 2:0.80000001 3:4 4:32 #
0.00063557137623540700937380121260389 1:2.2338731 2:0.55555558 3:27 4:0 #
0.00063557137623540700937380121260389 1:0.97897136 2:0.60869563 3:36 4:22 #
0.00063557137623540700937380121260389 1:0.39675167 2:0.75 3:3 4:35 #
0.00063557137623540700937380121260389 1:-1.7897009 2:0.57446808 3:32 4:34 #
-0.00063557137623540700937380121260389 1:1.6237605 2:0.55487806 3:31 4:13 #
0.00063557137623540700937380121260389 1:1.6709114 2:0.55555558 3:35 4:20 #
-0.00063557137623540700937380121260389 1:-1.6959007 2:0.53580904 3:12 4:36 #
0.00063557137623540700937380121260389 1:2.3793492 2:0.53846157 3:26 4:0 #
-0.00063557137623540700937380121260389 1:-1.1718436 2:0.55228758 3:19 4:15 #
0.00063557137623540700937380121260389 1:-1.280053 2:0.41304347 3:33 4:31 #
-0.00063557137623540700937380121260389 1:2.1593134 2:0.58448756 3:32 4:12 #
0.00063557137623540700937380121260389 1:-2.7380545 2:0.45652175 3:31 4:27 #
0.00063557137623540700937380121260389 1:-0.52998042 2:0.89999998 3:1 4:45 #
0.00063557137623540700937380121260389 1:1.4580867 2:0.60465115 3:34 4:22 #
0.00063557137623540700937380121260389 1:-0.69448709 2:0.63999999 3:25 4:0 #
-0.00063557137623540700937380121260389 1:-1.1344767 2:0.68333334 3:15 4:27 #
0.00063557137623540700937380121260389 1:-0.21658243 2:0.78260869 3:1 4:42 #
-0.00063557137623540700937380121260389 1:-0.8119275 2:0.55824178 3:17 4:25 #
0.00063557137623540700937380121260389 1:-1.3555925 2:0.42553192 3:32 4:31 #
0.00063557137623540700937380121260389 1:0.028349333 2:0.82352942 3:2 4:34 #
0.00063557137623540700937380121260389 1:-0.033987518 2:0.80000001 3:3 4:36 #
0.00063557137623540700937380121260389 1:0.54486352 2:0.7647059 3:7 4:24 #
0.00063557137623540700937380121260389 1:-1.7254441 2:0.63636363 3:11 4:0 #
0.00063557137623540700937380121260389 1:-1.7042431 2:0.53658539 3:33 4:21 #
-0.00063557137623540700937380121260389 1:-1.035872 2:0.61068702 3:15 4:30 #
-0.00063557137623540700937380121260389 1:-1.7655216 2:0.58333331 3:14 4:33 #
0.00063557137623540700937380121260389 1:-0.27422014 2:0.77777779 3:2 4:32 #
0.00063557137623540700937380121260389 1:0.44661212 2:0.625 3:33 4:17 #
-0.00063557137623540700937380121260389 1:2.4312162 2:0.51999998 3:35 4:25 #
0.00063557137623540700937380121260389 1:-2.3153501 2:0.38095239 3:32 4:17 #
0.00063557137623540700937380121260389 1:0.1301685 2:0.48888889 3:33 4:28 #
-0.00063557137623540700937380121260389 1:-1.3287616 2:0.62162161 3:13 4:43 #
0.00063557137623540700937380121260389 1:0.17235392 2:0.44 3:25 4:0 #
-0.00063557137623540700937380121260389 1:2.2349632 2:0.50632912 3:32 4:13 #
0.00063557137623540700937380121260389 1:-1.6628449 2:0.48888889 3:33 4:22 #
0.00063557137623540700937380121260389 1:1.8031089 2:0.79545456 3:13 4:73 #
0.00063557137623540700937380121260389 1:0.29627913 2:0.55319148 3:33 4:20 #
0.00063557137623540700937380121260389 1:-2.731735 2:0.60000002 3:27 4:38 #
0.00063557137623540700937380121260389 1:0.81111497 2:0.56521738 3:32 4:24 #
-0.00063557137623540700937380121260389 1:1.8049924 2:0.56220096 3:1 4:13 #
0.00063557137623540700937380121260389 1:-0.17450549 2:0.73076922 3:4 4:41 #
-0.00063557137623540700937380121260389 1:3.2629685 2:0.75 3:1 4:25 #
0.00063557137623540700937380121260389 1:-4.4939203 2:0.51428574 3:27 4:20 #
0.00063557137623540700937380121260389 1:1.2418326 2:0.72222221 3:8 4:21 #
-0.00063557137623540700937380121260389 1:-3.7534978 2:0.5543071 3:3 4:11 #
0.00063557137623540700937380121260389 1:0.71567357 2:0.70588237 3:5 4:23 #
0.00063557137623540700937380121260389 1:-0.65038252 2:0.85714287 3:1 4:47 #
-0.00063557137623540700937380121260389 1:2.4567032 2:0.68235296 3:1 4:15 #
0.00063557137623540700937380121260389 1:0.13083857 2:0.73076922 3:2 4:33 #
-0.00063557137623540700937380121260389 1:-0.81902212 2:0.59354836 3:2 4:11 #
-0.00063557137623540700937380121260389 1:-3.3864222 2:0.56149733 3:1 4:13 #
0.00063557137623540700937380121260389 1:0.25922507 2:0.6875 3:24 4:47 #
-0.00063557137623540700937380121260389 1:-3.1048074 2:0.54269975 3:9 4:16 #
-0.00063557137623540700937380121260389 1:2.6377957 2:0.59012878 3:1 4:14 #
-0.00063557137623540700937380121260389 1:1.913259 2:0.66738659 3:1 4:192 #
-0.00063557137623540700937380121260389 1:0.68985999 2:1 3:1 4:28 #
0.00063557137623540700937380121260389 1:0.93850774 2:0.47619048 3:32 4:22 #
-0.00063557137623540700937380121260389 1:0.96636122 2:0.54368931 3:31 4:38 #
0.00063557137623540700937380121260389 1:-0.61122364 2:0.51162791 3:32 4:17 #
-0.00063557137623540700937380121260389 1:-0.45813826 2:0.47692308 3:23 4:23 #
-0.00063557137623540700937380121260389 1:1.9555055 2:0.9375 3:1 4:38 #
-0.00063557137623540700937380121260389 1:1.8233755 2:0.78260869 3:1 4:36 #
0.00063557137623540700937380121260389 1:-1.8573678 2:0.72727275 3:19 4:57 #
-0.00063557137623540700937380121260389 1:-1.3988284 2:0.62419009 3:19 4:208 #
-0.00063557137623540700937380121260389 1:-3.0777919 2:0.64583331 3:1 4:36 #
0.00063557137623540700937380121260389 1:-0.024033673 2:0.80000001 3:3 4:40 #
0.00063557137623540700937380121260389 1:-1.4196212 2:0.63636363 3:11 4:0 #
-0.00063557137623540700937380121260389 1:3.6363504 2:0.55637252 3:1 4:37 #
0.00063557137623540700937380121260389 1:-2.6982896 2:0.53658539 3:30 4:23 #
-0.00063557137623540700937380121260389 1:-3.6728911 2:0.53025937 3:1 4:36 #
0.00063557137623540700937380121260389 1:0.11640727 2:0.89999998 3:4 4:44 #
-0.00063557137623540700937380121260389 1:2.8830829 2:0.6759907 3:1 4:36 #
-0.00063557137623540700937380121260389 1:2.5460587 2:0.57714283 3:1 4:36 #
0.00063557137623540700937380121260389 1:-1.5997784 2:0.42500001 3:31 4:19 #
0.00063557137623540700937380121260389 1:-1.3860867 2:0.5777778 3:30 4:28 #
-0.00063557137623540700937380121260389 1:0.44630647 2:0.46511629 3:21 4:15 #
-0.00063557137623540700937380121260389 1:-0.99371397 2:0.51536644 3:14 4:15 #
-0.00063557137623540700937380121260389 1:-1.2229915 2:0.54166669 3:1 4:36 #
-0.00063557137623540700937380121260389 1:-3.1730435 2:0.77272725 3:1 4:38 #
0.00063557137623540700937380121260389 1:-0.21790871 2:0.78947371 3:1 4:11 #
-0.00063557137623540700937380121260389 1:0.21485481 2:0.53846157 3:1 4:36 #
0.00063557137623540700937380121260389 1:-1.4557418 2:0.80555558 3:7 4:74 #
0.00063557137623540700937380121260389 1:3.189714 2:0.63999999 3:25 4:0 #
0.00063557137623540700937380121260389 1:-1.4227468 2:0.56097561 3:30 4:25 #
-0.00063557137623540700937380121260389 1:-4.1739955 2:0.63194442 3:1 4:30 #
0.00063557137623540700937380121260389 1:0.27686647 2:0.67500001 3:22 4:48 #
0.00063557137623540700937380121260389 1:0.21957366 2:0.73913044 3:2 4:28 #
0.00063557137623540700937380121260389 1:-4.3512177 2:0.71794873 3:13 4:65 #
0.00063557137623540700937380121260389 1:-4.6353087 2:0.54838711 3:25 4:20 #
-0.00063557137623540700937380121260389 1:-0.28106454 2:0.56410259 3:1 4:36 #
-0.00063557137623540700937380121260389 1:-4.0902781 2:0.58385092 3:2 4:36 #
-0.00063557137623540700937380121260389 1:2.66225 2:0.83999997 3:1 4:45 #
0.00063557137623540700937380121260389 1:2.5612056 2:0.39473686 3:29 4:13 #
0.00063557137623540700937380121260389 1:0.38602182 2:0.56756759 3:29 4:16 #
-0.00063557137623540700937380121260389 1:-0.85801065 2:0.51724136 3:2 4:11 #
-0.00063557137623540700937380121260389 1:2.7799072 2:0.86666667 3:1 4:27 #
-0.00063557137623540700937380121260389 1:-2.8446054 2:0.63636363 3:6 4:42 #
0.00063557137623540700937380121260389 1:2.3143013 2:0.45454547 3:27 4:16 #
0.00063557137623540700937380121260389 1:-3.7415216 2:0.68000001 3:1 4:20 #
-0.00063557137623540700937380121260389 1:1.828951 2:0.5411765 3:1 4:13 #
-0.00063557137623540700937380121260389 1:1.8620164 2:0.46107784 3:1 4:13 #
-0.00063557137623540700937380121260389 1:-2.083174 2:0.54646015 3:15 4:23 #
0.00063557137623540700937380121260389 1:2.0017457 2:0.42105263 3:19 4:0 #
-0.00063557137623540700937380121260389 1:-3.3980486 2:0.52985072 3:1 4:13 #
-0.00063557137623540700937380121260389 1:-1.0718063 2:0.38762215 3:12 4:17 #
-0.00063557137623540700937380121260389 1:-2.1244643 2:0.57438016 3:14 4:16 #
-0.00063557137623540700937380121260389 1:1.9736768 2:0.43181819 3:1 4:13 #
-0.00063557137623540700937380121260389 1:3.1252365 2:0.74509805 3:1 4:20 #
-0.00063557137623540700937380121260389 1:-1.3560041 2:0.55033559 3:3 4:11 #
-0.00063557137623540700937380121260389 1:0.28297681 2:0.61827958 3:1 4:13 #
-0.00063557137623540700937380121260389 1:-1.219707 2:0.7631579 3:1 4:14 #
0.00063557137623540700937380121260389 1:1.1554449 2:0.60000002 3:25 4:0 #
0.00063557137623540700937380121260389 1:-1.4557418 2:0.80555558 3:7 4:74 #
0.00063557137623540700937380121260389 1:1.9390308 2:0.69999999 3:10 4:0 #
-0.00063557137623540700937380121260389 1:-0.017402275 2:0.54107648 3:19 4:20 #
0.00063557137623540700937380121260389 1:-0.12303642 2:0.77272725 3:2 4:38 #
0.00063557137623540700937380121260389 1:1.3935528 2:0.60000002 3:25 4:0 #
0.00063557137623540700937380121260389 1:-3.3070354 2:0.63043481 3:21 4:51 #
0.00063557137623540700937380121260389 1:0.11640403 2:0.69999999 3:10 4:0 #
0.00063557137623540700937380121260389 1:1.8584179 2:0.6785714 3:12 4:28 #
0.00063557137623540700937380121260389 1:1.0495973 2:0.58139533 3:30 4:27 #
0.00063557137623540700937380121260389 1:-0.86844116 2:0.80000001 3:2 4:41 #
0.00063557137623540700937380121260389 1:-0.23818809 2:0.80000001 3:5 4:76 #
-0.00063557137623540700937380121260389 1:-3.0424721 2:0.71428573 3:2 4:43 #
0.00063557137623540700937380121260389 1:-3.4976113 2:0.57499999 3:27 4:31 #
0.00063557137623540700937380121260389 1:-1.3915499 2:0.78571427 3:4 4:27 #
-0.00063557137623540700937380121260389 1:-2.1688449 2:0.56733525 3:4 4:40 #
-0.00063557137623540700937380121260389 1:0.80905598 2:0.50947869 3:13 4:30 #
0.00063557137623540700937380121260389 1:0.41139755 2:0.41176471 3:17 4:0 #
0.00063557137623540700937380121260389 1:0.090597622 2:0.56756759 3:29 4:20 #
-0.00063557137623540700937380121260389 1:1.3459352 2:0.54374999 3:1 4:13 #
-0.00063557137623540700937380121260389 1:0.65830255 2:0.60344827 3:30 4:45 #
-0.00063557137623540700937380121260389 1:0.56926835 2:0.63793105 3:30 4:182 #
0.00063557137623540700937380121260389 1:0.49010789 2:0.66666669 3:25 4:29 #
-0.00063557137623540700937380121260389 1:0.52765143 2:0.67039108 3:3 4:164 #
-0.00063557137623540700937380121260389 1:-0.79584783 2:0.56331879 3:14 4:7 #
-0.00063557137623540700937380121260389 1:2.7502291 2:0.83333331 3:1 4:22 #
0.00063557137623540700937380121260389 1:-1.518845 2:0.56410259 3:29 4:24 #
0.00063557137623540700937380121260389 1:0.72147626 2:0.7037037 3:8 4:35 #
-0.00063557137623540700937380121260389 1:-3.2614579 2:0.50354612 3:1 4:13 #
0.00063557137623540700937380121260389 1:-0.79904622 2:0.45833334 3:24 4:0 #
-0.00063557137623540700937380121260389 1:-1.6695625 2:0.5 3:3 4:11 #
-0.00063557137623540700937380121260389 1:3.0850365 2:0.75675678 3:1 4:23 #
0.00063557137623540700937380121260389 1:-1.0104867 2:0.55000001 3:2 4:11 #
0.00063557137623540700937380121260389 1:-1.5835276 2:0.59574467 3:27 4:37 #
0.00063557137623540700937380121260389 1:-0.064335525 2:0.78571427 3:1 4:22 #
-0.00063557137623540700937380121260389 1:-2.001368 2:0.54910713 3:8 4:33 #
-0.00063557137623540700937380121260389 1:-3.8645713 2:0.71794873 3:1 4:15 #
0.00063557137623540700937380121260389 1:1.3888861 2:0.56818181 3:29 4:29 #
-0.00063557137623540700937380121260389 1:0.99470544 2:0.53744495 3:1 4:13 #
-0.00063557137623540700937380121260389 1:2.8175175 2:0.56923079 3:1 4:15 #
0.00063557137623540700937380121260389 1:-1.1344461 2:0.60416669 3:17 4:57 #
-0.00063557137623540700937380121260389 1:2.3203576 2:0.80000001 3:1 4:18 #
0.00063557137623540700937380121260389 1:-1.0068405 2:0.56818181 3:29 4:29 #
0.00063557137623540700937380121260389 1:0.67889899 2:0.6511628 3:28 4:35 #
0.00063557137623540700937380121260389 1:3.165236 2:0.44999999 3:20 4:0 #
-0.00063557137623540700937380121260389 1:-3.3864222 2:0.80000001 3:1 4:17 #
0.00063557137623540700937380121260389 1:1.3464961 2:0.66666669 3:29 4:24 #
-0.00063557137623540700937380121260389 1:2.8457491 2:0.70454544 3:1 4:17 #
-0.00063557137623540700937380121260389 1:-1.4381623 2:0.63076925 3:1 4:13 #
-0.00063557137623540700937380121260389 1:0.19371462 2:0.5883978 3:1 4:13 #
-0.00063557137623540700937380121260389 1:2.0137265 2:0.68316829 3:1 4:15 #
-0.00063557137623540700937380121260389 1:3.6447995 2:0.56562501 3:3 4:14 #
-0.00063557137623540700937380121260389 1:0.011253004 2:0.59210527 3:1 4:13 #
-0.00063557137623540700937380121260389 1:1.9929255 2:0.52668214 3:1 4:14 #
0.00063557137623540700937380121260389 1:-4.390521 2:0.52631581 3:19 4:13 #
0.00063557137623540700937380121260389 1:-4.1249599 2:0.5 3:17 4:35 #
0.00063557137623540700937380121260389 1:0.14111954 2:0.69999999 3:10 4:0 #
0.00063557137623540700937380121260389 1:-1.9819641 2:0.54545456 3:22 4:0 #
0.00063557137623540700937380121260389 1:-1.8613747 2:0.56097561 3:26 4:39 #
0.00063557137623540700937380121260389 1:1.2049098 2:0.60000002 3:25 4:0 #
0.00063557137623540700937380121260389 1:-0.43349406 2:0.83720928 3:2 4:77 #
0.00063557137623540700937380121260389 1:-0.009704506 2:0.6875 3:1 4:23 #
0.00063557137623540700937380121260389 1:-1.1175832 2:0.78571427 3:7 4:73 #
0.00063557137623540700937380121260389 1:-2.4161532 2:0.5 3:28 4:26 #
0.00063557137623540700937380121260389 1:-2.1922064 2:0.60000002 3:15 4:0 #
0.00063557137623540700937380121260389 1:-4.5846601 2:0.64705884 3:10 4:50 #
-0.00063557137623540700937380121260389 1:0.18387309 2:0.66086954 3:22 4:70 #
-0.00063557137623540700937380121260389 1:0.59974772 2:0.45594713 3:1 4:13 #
0.00063557137623540700937380121260389 1:0.48054469 2:0.875 3:5 4:75 #
-0.00063557137623540700937380121260389 1:0.15602322 2:0.51881719 3:2 4:12 #
0.00063557137623540700937380121260389 1:-1.8357501 2:0.5 3:22 4:0 #
-0.00063557137623540700937380121260389 1:2.66225 2:0.53631288 3:9 4:10 #
-0.00063557137623540700937380121260389 1:-1.5038388 2:0.49794239 3:15 4:15 #
-0.00063557137623540700937380121260389 1:0.26916811 2:0.54178673 3:1 4:13 #
0.00063557137623540700937380121260389 1:-0.99182665 2:0.83783782 3:7 4:71 #
0.00063557137623540700937380121260389 1:1.3101611 2:0.63999999 3:25 4:0 #
-0.00063557137623540700937380121260389 1:0.40029559 2:0.49103943 3:4 4:11 #
0.00063557137623540700937380121260389 1:0.74726194 2:0.64999998 3:6 4:27 #
-0.00063557137623540700937380121260389 1:2.0138376 2:0.46296296 3:1 4:14 #
0.00063557137623540700937380121260389 1:-0.3069928 2:0.875 3:5 4:73 #
-0.00063557137623540700937380121260389 1:-1.5946848 2:0.50138503 3:4 4:11 #
-0.00063557137623540700937380121260389 1:1.6237605 2:0.54166669 3:1 4:14 #
0.00063557137623540700937380121260389 1:-1.2155221 2:0.90625 3:3 4:74 #
0.00063557137623540700937380121260389 1:3.5042708 2:0.54545456 3:22 4:0 #
-0.00063557137623540700937380121260389 1:-0.79584783 2:0.53903347 3:16 4:7 #
0.00063557137623540700937380121260389 1:1.0392702 2:0.70833331 3:8 4:29 #
-0.00063557137623540700937380121260389 1:2.6792123 2:0.75 3:1 4:23 #
-0.00063557137623540700937380121260389 1:2.9079032 2:0.68141592 3:1 4:21 #
0.00063557137623540700937380121260389 1:-2.3887236 2:0.55555558 3:28 4:26 #
0.00063557137623540700937380121260389 1:0.090756156 2:0.6875 3:3 4:26 #
-0.00063557137623540700937380121260389 1:-4.003376 2:0.54048139 3:1 4:14 #
0.00063557137623540700937380121260389 1:0.83617717 2:0.72222221 3:5 4:29 #
0.00063557137623540700937380121260389 1:3.1229439 2:0.60869563 3:23 4:0 #
0.00063557137623540700937380121260389 1:-0.20141698 2:0.85714287 3:2 4:27 #
-0.00063557137623540700937380121260389 1:-3.1048074 2:0.56 3:9 4:9 #
-0.00063557137623540700937380121260389 1:-3.7774858 2:0.91666669 3:1 4:27 #
0.00063557137623540700937380121260389 1:2.3143098 2:0.65789473 3:28 4:23 #
-0.00063557137623540700937380121260389 1:1.555643 2:0.52601159 3:1 4:14 #
-0.00063557137623540700937380121260389 1:3.189714 2:0.53095239 3:1 4:16 #
0.00063557137623540700937380121260389 1:-1.7446718 2:0.48979592 3:28 4:25 #
-0.00063557137623540700937380121260389 1:-1.3422425 2:0.57939917 3:1 4:13 #
-0.00063557137623540700937380121260389 1:-2.738822 2:0.70212764 3:1 4:139 #
0.00063557137623540700937380121260389 1:0.44228911 2:0.51219511 3:28 4:17 #
-0.00063557137623540700937380121260389 1:0.029707136 2:0.54337901 3:18 4:22 #
-0.00063557137623540700937380121260389 1:1.1511788 2:0.79166669 3:1 4:16 #
0.00063557137623540700937380121260389 1:-2.3626263 2:0.47222221 3:27 4:29 #
-0.00063557137623540700937380121260389 1:-2.603703 2:0.50925928 3:1 4:13 #
-0.00063557137623540700937380121260389 1:-4.0091391 2:0.57798165 3:1 4:15 #
0.00063557137623540700937380121260389 1:2.0105262 2:0.60000002 3:27 4:35 #
0.00063557137623540700937380121260389 1:-1.3917921 2:0.69999999 3:1 4:13 #
-0.00063557137623540700937380121260389 1:-0.21658243 2:0.54871798 3:1 4:13 #
-0.00063557137623540700937380121260389 1:0.4713124 2:0.67151165 3:1 4:115 #
-0.00063557137623540700937380121260389 1:2.6633646 2:0.53097343 3:1 4:15 #
-0.00063557137623540700937380121260389 1:2.1172514 2:0.86666667 3:1 4:26 #
-0.00063557137623540700937380121260389 1:-2.4019461 2:0.47083333 3:12 4:8 #
-0.00063557137623540700937380121260389 1:3.1184006 2:0.72602737 3:11 4:19 #
-0.00063557137623540700937380121260389 1:-1.8973762 2:0.5170843 3:1 4:13 #
-0.00063557137623540700937380121260389 1:-4.3756852 2:0.54112554 3:1 4:16 #
-0.00063557137623540700937380121260389 1:-0.45250323 2:0.54945058 3:14 4:23 #
0.00063557137623540700937380121260389 1:-0.94287318 2:0.75 3:1 4:17 #
0.00063557137623540700937380121260389 1:-1.0618545 2:0.88235295 3:3 4:39 #
0.00063557137623540700937380121260389 1:-1.9875654 2:0.58333331 3:28 4:20 #
0.00063557137623540700937380121260389 1:-0.083981231 2:0.80952382 3:3 4:39 #
0.00063557137623540700937380121260389 1:-0.71412289 2:0.56521738 3:23 4:0 #
0.00063557137623540700937380121260389 1:-1.360833 2:0.58139533 3:26 4:36 #
0.00063557137623540700937380121260389 1:-1.3015585 2:0.58333331 3:12 4:0 #
0.00063557137623540700937380121260389 1:0.4087249 2:0.69999999 3:10 4:0 #
0.00063557137623540700937380121260389 1:-1.7880926 2:0.58139533 3:26 4:35 #
0.00063557137623540700937380121260389 1:-1.4591664 2:0.52272725 3:27 4:13 #
0.00063557137623540700937380121260389 1:-2.1090853 2:0.68292683 3:16 4:56 #
0.00063557137623540700937380121260389 1:-0.70652801 2:0.6511628 3:20 4:49 #
-0.00063557137623540700937380121260389 1:-0.0530525 2:0.48178136 3:1 4:13 #
0.00063557137623540700937380121260389 1:2.3280766 2:0.72093022 3:14 4:59 #
-0.00063557137623540700937380121260389 1:2.2751281 2:0.56349206 3:1 4:15 #
-0.00063557137623540700937380121260389 1:3.2190955 2:0.50375938 3:1 4:16 #
0.00063557137623540700937380121260389 1:-1.5686466 2:0.65853661 3:26 4:35 #
-0.00063557137623540700937380121260389 1:-0.80001992 2:0.56944442 3:1 4:13 #
0.00063557137623540700937380121260389 1:2.5518696 2:0.70731705 3:20 4:50 #
-0.00063557137623540700937380121260389 1:1.3047638 2:0.5702247 3:1 4:14 #
0.00063557137623540700937380121260389 1:-1.1310574 2:0.58536583 3:24 4:40 #
-0.00063557137623540700937380121260389 1:0.98176575 2:0.60784316 3:1 4:14 #
0.00063557137623540700937380121260389 1:-1.0861305 2:0.66666669 3:26 4:34 #
-0.00063557137623540700937380121260389 1:-0.80515081 2:0.56316918 3:1 4:13 #
0.00063557137623540700937380121260389 1:2.5391877 2:0.60465115 3:24 4:40 #
-0.00063557137623540700937380121260389 1:0.71488768 2:0.60869563 3:1 4:14 #
0.00063557137623540700937380121260389 1:-2.087023 2:0.56521738 3:26 4:33 #
-0.00063557137623540700937380121260389 1:-1.7821271 2:0.53763443 3:1 4:13 #
0.00063557137623540700937380121260389 1:1.7172725 2:0.59523809 3:26 4:34 #
-0.00063557137623540700937380121260389 1:2.6160593 2:0.58391607 3:1 4:16 #
0.00063557137623540700937380121260389 1:-1.2469941 2:0.5 3:27 4:30 #
-0.00063557137623540700937380121260389 1:-0.79311812 2:0.52173913 3:1 4:13 #
0.00063557137623540700937380121260389 1:-2.0582776 2:0.72500002 3:15 4:55 #
0.00063557137623540700937380121260389 1:-2.6390591 2:0.65789473 3:17 4:51 #
-0.00063557137623540700937380121260389 1:-1.4438598 2:0.69230771 3:1 4:14 #
-0.00063557137623540700937380121260389 1:0.57502002 2:0.54298645 3:22 4:18 #
0.00063557137623540700937380121260389 1:-0.51387107 2:0.67567569 3:18 4:50 #
-0.00063557137623540700937380121260389 1:-1.3087744 2:0.62666667 3:3 4:148 #
-0.00063557137623540700937380121260389 1:-2.9548879 2:0.55000001 3:4 4:11 #
-0.00063557137623540700937380121260389 1:-1.6536545 2:0.55645162 3:14 4:15 #
0.00063557137623540700937380121260389 1:-1.7940819 2:0.71428573 3:20 4:48 #
-0.00063557137623540700937380121260389 1:-0.63507193 2:0.48737374 3:1 4:13 #
-0.00063557137623540700937380121260389 1:-2.0183058 2:0.91379309 3:2 4:131 #
-0.00063557137623540700937380121260389 1:0.9356705 2:0.51690823 3:1 4:14 #
0.00063557137623540700937380121260389 1:-0.91066152 2:0.69230771 3:17 4:50 #
0.00063557137623540700937380121260389 1:2.4312162 2:0.69999999 3:23 4:42 #
0.00063557137623540700937380121260389 1:-1.874221 2:0.75609756 3:20 4:47 #
-0.00063557137623540700937380121260389 1:0.67463046 2:0.60344827 3:2 4:13 #
0.00063557137623540700937380121260389 1:-0.85847163 2:0.64444447 3:18 4:50 #
-0.00063557137623540700937380121260389 1:-1.875469 2:0.54646838 3:9 4:28 #
-0.00063557137623540700937380121260389 1:-0.60915834 2:0.59340662 3:1 4:14 #
0.00063557137623540700937380121260389 1:1.4580867 2:0.62222224 3:20 4:46 #
-0.00063557137623540700937380121260389 1:1.6786929 2:0.57894737 3:3 4:13 #
0.00063557137623540700937380121260389 1:-3.8085358 2:0.60465115 3:17 4:49 #
-0.00063557137623540700937380121260389 1:-2.747824 2:0.60321099 3:4 4:27 #
-0.00063557137623540700937380121260389 1:-4.0684876 2:0.75675678 3:1 4:24 #
0.00063557137623540700937380121260389 1:1.079596 2:0.55263156 3:28 4:21 #
-0.00063557137623540700937380121260389 1:0.71136564 2:0.59126985 3:1 4:14 #
-0.00063557137623540700937380121260389 1:-3.435946 2:0.93333334 3:1 4:33 #
0.00063557137623540700937380121260389 1:1.1221254 2:0.5945946 3:28 4:19 #
-0.00063557137623540700937380121260389 1:2.8794897 2:0.7037037 3:1 4:24 #
0.00063557137623540700937380121260389 1:-1.827495 2:0.54054052 3:28 4:22 #
0.00063557137623540700937380121260389 1:0.054375973 2:0.62162161 3:17 4:49 #
-0.00063557137623540700937380121260389 1:-1.7821271 2:0.50952381 3:1 4:14 #
0.00063557137623540700937380121260389 1:0.3814998 2:0.63636363 3:23 4:41 #
-0.00063557137623540700937380121260389 1:-1.365231 2:0.72000003 3:2 4:13 #
-0.00063557137623540700937380121260389 1:-1.1887146 2:0.51264369 3:7 4:10 #
-0.00063557137623540700937380121260389 1:1.7867475 2:0.92307693 3:1 4:28 #
-0.00063557137623540700937380121260389 1:-3.8009229 2:0.56284153 3:1 4:15 #
0.00063557137623540700937380121260389 1:2.4420226 2:0.64285713 3:21 4:42 #
-0.00063557137623540700937380121260389 1:0.95001227 2:0.53091687 3:23 4:21 #
-0.00063557137623540700937380121260389 1:3.093266 2:0.55020082 3:1 4:17 #
0.00063557137623540700937380121260389 1:-1.9049512 2:0.51282054 3:27 4:24 #
0.00063557137623540700937380121260389 1:-1.8830074 2:0.56756759 3:19 4:39 #
-0.00063557137623540700937380121260389 1:-3.4147406 2:0.62 3:1 4:15 #
0.00063557137623540700937380121260389 1:0.79247671 2:0.5714286 3:23 4:39 #
0.00063557137623540700937380121260389 1:-1.1939845 2:0.85000002 3:3 4:47 #
-0.00063557137623540700937380121260389 1:3.0650823 2:0.55140185 3:13 4:11 #
0.00063557137623540700937380121260389 1:-2.1688449 2:0.59523809 3:19 4:45 #
0.00063557137623540700937380121260389 1:-0.13776772 2:0.5625 3:27 4:15 #
-0.00063557137623540700937380121260389 1:-1.6294992 2:0.51990634 3:1 4:14 #
0.00063557137623540700937380121260389 1:-0.54519349 2:0.625 3:18 4:48 #
-0.00063557137623540700937380121260389 1:-3.7415216 2:0.75065619 3:1 4:19 #
-0.00063557137623540700937380121260389 1:-1.0460174 2:0.65333331 3:8 4:141 #
-0.00063557137623540700937380121260389 1:-0.37375292 2:0.48407644 3:15 4:23 #
-0.00063557137623540700937380121260389 1:-2.3541112 2:0.5258621 3:7 4:10 #
-0.00063557137623540700937380121260389 1:-0.22461806 2:0.90909094 3:1 4:24 #
0.00063557137623540700937380121260389 1:0.30025247 2:0.77499998 3:17 4:49 #
-0.00063557137623540700937380121260389 1:-1.2813439 2:0.55789477 3:15 4:24 #
0.00063557137623540700937380121260389 1:0.30045784 2:0.6511628 3:19 4:44 #
-0.00063557137623540700937380121260389 1:1.4251292 2:0.70886075 3:1 4:16 #
0.00063557137623540700937380121260389 1:-0.63534391 2:0.69230771 3:27 4:29 #
0.00063557137623540700937380121260389 1:-0.11908445 2:0.56818181 3:27 4:15 #
-0.00063557137623540700937380121260389 1:1.2861764 2:0.92307693 3:1 4:26 #
-0.00063557137623540700937380121260389 1:0.23840193 2:0.74074072 3:1 4:15 #
0.00063557137623540700937380121260389 1:-1.3208535 2:0.5 3:24 4:37 #
0.00063557137623540700937380121260389 1:0.65021217 2:0.8125 3:4 4:27 #
0.00063557137623540700937380121260389 1:-0.080574401 2:0.45454547 3:27 4:26 #
-0.00063557137623540700937380121260389 1:3.1854479 2:0.61473089 3:1 4:22 #
-0.00063557137623540700937380121260389 1:1.6139352 2:0.92307693 3:1 4:31 #
0.00063557137623540700937380121260389 1:-0.60313582 2:0.58536583 3:27 4:27 #
0.00063557137623540700937380121260389 1:0.45475593 2:0.71052629 3:19 4:43 #
-0.00063557137623540700937380121260389 1:-0.97281694 2:0.63786006 3:1 4:15 #
0.00063557137623540700937380121260389 1:-0.63534391 2:0.69230771 3:27 4:29 #
0.00063557137623540700937380121260389 1:-1.3155276 2:0.55882353 3:25 4:20 #
0.00063557137623540700937380121260389 1:-0.988675 2:0.6388889 3:23 4:39 #
0.00063557137623540700937380121260389 1:-0.28146228 2:0.3888889 3:26 4:25 #
-0.00063557137623540700937380121260389 1:-0.084991567 2:0.53061223 3:1 4:14 #
0.00063557137623540700937380121260389 1:-0.63534391 2:0.69230771 3:27 4:29 #
-0.00063557137623540700937380121260389 1:1.8695604 2:0.51522845 3:7 4:39 #
-0.00063557137623540700937380121260389 1:-0.88591373 2:0.54212457 3:1 4:14 #
0.00063557137623540700937380121260389 1:-0.84051299 2:0.60465115 3:26 4:31 #
-0.00063557137623540700937380121260389 1:0.54670119 2:0.81818181 3:1 4:19 #
0.00063557137623540700937380121260389 1:0.35366932 2:0.62162161 3:20 4:42 #
0.00063557137623540700937380121260389 1:-0.39697352 2:0.66666669 3:21 4:42 #
-0.00063557137623540700937380121260389 1:1.1167794 2:0.91666669 3:1 4:26 #
0.00063557137623540700937380121260389 1:-2.3317745 2:0.60526317 3:26 4:25 #
0.00063557137623540700937380121260389 1:1.6749786 2:0.51219511 3:27 4:23 #
0.00063557137623540700937380121260389 1:0.20272252 2:0.75 3:3 4:33 #
0.00063557137623540700937380121260389 1:-1.5516709 2:0.5945946 3:25 4:23 #
-0.00063557137623540700937380121260389 1:1.7102814 2:0.61661345 3:1 4:16 #
0.00063557137623540700937380121260389 1:-0.19759323 2:0.59523809 3:25 4:35 #
0.00063557137623540700937380121260389 1:-0.48155364 2:0.60975611 3:25 4:23 #
0.00063557137623540700937380121260389 1:0.63467586 2:0.62162161 3:19 4:41 #
-0.00063557137623540700937380121260389 1:-1.0612018 2:0.49147728 3:9 4:25 #
-0.00063557137623540700937380121260389 1:-2.6060479 2:0.9285714 3:1 4:34 #
-0.00063557137623540700937380121260389 1:-1.1744156 2:0.67272729 3:2 4:13 #
0.00063557137623540700937380121260389 1:-0.071261548 2:0.65789473 3:23 4:39 #
-0.00063557137623540700937380121260389 1:2.8830829 2:0.74193549 3:24 4:18 #
0.00063557137623540700937380121260389 1:-2.3760757 2:0.60526317 3:21 4:38 #
-0.00063557137623540700937380121260389 1:-3.7775517 2:0.54639173 3:1 4:15 #
-0.00063557137623540700937380121260389 1:-0.90639448 2:0.46633416 3:1 4:14 #
-0.00063557137623540700937380121260389 1:1.0382804 2:0.91666669 3:1 4:27 #
0.00063557137623540700937380121260389 1:1.8249259 2:0.51351351 3:27 4:24 #
0.00063557137623540700937380121260389 1:-1.5863234 2:0.65789473 3:23 4:38 #
-0.00063557137623540700937380121260389 1:0.78054708 2:0.90909094 3:1 4:25 #
0.00063557137623540700937380121260389 1:-1.2181573 2:0.55555558 3:26 4:29 #
0.00063557137623540700937380121260389 1:0.76982224 2:0.61904764 3:26 4:31 #
-0.00063557137623540700937380121260389 1:1.4884274 2:0.5151515 3:1 4:15 #
0.00063557137623540700937380121260389 1:-1.5653397 2:0.51282054 3:24 4:36 #
0.00063557137623540700937380121260389 1:-0.19181173 2:0.6388889 3:22 4:30 #
-0.00063557137623540700937380121260389 1:-1.701975 2:0.55963302 3:2 4:13 #
0.00063557137623540700937380121260389 1:0.8751933 2:0.73170733 3:24 4:36 #
-0.00063557137623540700937380121260389 1:-1.6342596 2:0.47430831 3:3 4:39 #
-0.00063557137623540700937380121260389 1:1.2063788 2:0.5032258 3:1 4:15 #
-0.00063557137623540700937380121260389 1:1.9335343 2:0.66187048 3:1 4:17 #
0.00063557137623540700937380121260389 1:0.63643777 2:0.5 3:26 4:30 #
-0.00063557137623540700937380121260389 1:0.32637835 2:0.6134454 3:13 4:133 #
-0.00063557137623540700937380121260389 1:0.020458389 2:0.55555558 3:9 4:20 #
-0.00063557137623540700937380121260389 1:-1.7345415 2:0.50943398 3:12 4:21 #
0.00063557137623540700937380121260389 1:-0.80515081 2:0.70731705 3:21 4:40 #
-0.00063557137623540700937380121260389 1:-0.76482266 2:0.53281856 3:5 4:11 #
0.00063557137623540700937380121260389 1:-1.0310205 2:0.65853661 3:20 4:41 #
-0.00063557137623540700937380121260389 1:-0.94833726 2:0.62995595 3:4 4:126 #
-0.00063557137623540700937380121260389 1:1.8072572 2:0.64999998 3:6 4:13 #
0.00063557137623540700937380121260389 1:-2.4370275 2:0.60526317 3:25 4:24 #
-0.00063557137623540700937380121260389 1:1.079596 2:0.65402842 3:1 4:16 #
0.00063557137623540700937380121260389 1:-1.0982271 2:0.58974361 3:26 4:28 #
0.00063557137623540700937380121260389 1:1.0304483 2:0.68421054 3:19 4:41 #
0.00063557137623540700937380121260389 1:-0.3660191 2:0.83333331 3:5 4:46 #
-0.00063557137623540700937380121260389 1:-0.96762443 2:0.60714287 3:2 4:13 #
-0.00063557137623540700937380121260389 1:-3.1130383 2:0.53684211 3:1 4:15 #
0.00063557137623540700937380121260389 1:1.0528133 2:0.46666667 3:25 4:32 #
0.00063557137623540700937380121260389 1:-2.6633103 2:0.6111111 3:21 4:32 #
0.00063557137623540700937380121260389 1:-0.72987032 2:0.77419353 3:2 4:49 #
-0.00063557137623540700937380121260389 1:0.064907245 2:0.5695793 3:3 4:119 #
-0.00063557137623540700937380121260389 1:1.9410191 2:0.495114 3:6 4:12 #
0.00063557137623540700937380121260389 1:1.2173239 2:0.71428573 3:20 4:41 #
0.00063557137623540700937380121260389 1:-0.79584783 2:0.6857143 3:26 4:24 #
0.00063557137623540700937380121260389 1:-0.25143641 2:0.6111111 3:25 4:33 #
-0.00063557137623540700937380121260389 1:-1.6506296 2:0.70512819 3:1 4:84 #
0.00063557137623540700937380121260389 1:0.7384035 2:0.61904764 3:26 4:24 #
0.00063557137623540700937380121260389 1:-1.8305429 2:0.60526317 3:19 4:39 #
0.00063557137623540700937380121260389 1:-1.5340344 2:0.72727275 3:3 4:35 #
0.00063557137623540700937380121260389 1:-0.9470759 2:0.5945946 3:25 4:31 #
0.00063557137623540700937380121260389 1:-1.0051452 2:0.60526317 3:24 4:34 #
0.00063557137623540700937380121260389 1:0.0078914212 2:0.54054052 3:25 4:25 #
0.00063557137623540700937380121260389 1:-0.61342442 2:0.56818181 3:22 4:37 #
0.00063557137623540700937380121260389 1:0.91063756 2:0.60000002 3:22 4:31 #
0.00063557137623540700937380121260389 1:1.5864806 2:0.64285713 3:25 4:30 #
0.00063557137623540700937380121260389 1:-2.287375 2:0.66666669 3:20 4:37 #
0.00063557137623540700937380121260389 1:-1.4914334 2:0.59090906 3:23 4:35 #
0.00063557137623540700937380121260389 1:-0.41220754 2:0.78947371 3:7 4:29 #
0.00063557137623540700937380121260389 1:-0.17466681 2:0.56756759 3:25 4:28 #
0.00063557137623540700937380121260389 1:-0.15158702 2:0.6111111 3:22 4:36 #
0.00063557137623540700937380121260389 1:-1.9245919 2:0.56756759 3:24 4:28 #
0.00063557137623540700937380121260389 1:-2.194603 2:0.64864862 3:21 4:36 #
-0.00063557137623540700937380121260389 1:-0.46517771 2:0.60087717 3:1 4:15 #
-0.00063557137623540700937380121260389 1:-2.8482275 2:0.52063495 3:3 4:13 #
-0.00063557137623540700937380121260389 1:1.6921204 2:0.76344085 3:1 4:26 #
0.00063557137623540700937380121260389 1:-0.52794856 2:0.60000002 3:25 4:25 #
-0.00063557137623540700937380121260389 1:2.3403118 2:0.63235295 3:1 4:17 #
-0.00063557137623540700937380121260389 1:-3.507453 2:0.50314468 3:1 4:15 #
0.00063557137623540700937380121260389 1:0.80295664 2:0.58333331 3:23 4:32 #
-0.00063557137623540700937380121260389 1:-1.2973231 2:0.50375938 3:14 4:46 #
-0.00063557137623540700937380121260389 1:-2.8667505 2:0.52422905 3:1 4:15 #
-0.00063557137623540700937380121260389 1:-1.3504647 2:0.61714286 3:14 4:31 #
-0.00063557137623540700937380121260389 1:-3.4513311 2:0.90909094 3:2 4:26 #
-0.00063557137623540700937380121260389 1:-0.13776772 2:0.5958702 3:2 4:13 #
0.00063557137623540700937380121260389 1:0.42734969 2:0.67567569 3:20 4:37 #
-0.00063557137623540700937380121260389 1:0.7548784 2:0.52835822 3:1 4:15 #
0.00063557137623540700937380121260389 1:-0.95788068 2:0.65853661 3:24 4:30 #
0.00063557137623540700937380121260389 1:-1.2644176 2:0.56410259 3:22 4:30 #
-0.00063557137623540700937380121260389 1:0.83967614 2:0.51530612 3:1 4:15 #
0.00063557137623540700937380121260389 1:0.4390462 2:0.62222224 3:24 4:27 #
-0.00063557137623540700937380121260389 1:-0.33031455 2:0.5977273 3:2 4:13 #
-0.00063557137623540700937380121260389 1:-0.82140881 2:0.54867256 3:2 4:13 #
-0.00063557137623540700937380121260389 1:-0.59306878 2:0.74468082 3:2 4:15 #
0.00063557137623540700937380121260389 1:-0.64159119 2:0.55555558 3:22 4:31 #
-0.00063557137623540700937380121260389 1:-0.83719933 2:0.58116883 3:7 4:120 #
-0.00063557137623540700937380121260389 1:-3.3265014 2:0.53741497 3:5 4:11 #
-0.00063557137623540700937380121260389 1:2.2108192 2:0.53571427 3:1 4:16 #
-0.00063557137623540700937380121260389 1:1.0356143 2:0.46186441 3:1 4:15 #
0.00063557137623540700937380121260389 1:0.26258451 2:0.66666669 3:8 4:24 #
0.00063557137623540700937380121260389 1:0.18581489 2:0.41666666 3:12 4:0 #
-0.00063557137623540700937380121260389 1:-0.53459668 2:0.49856734 3:3 4:12 #
-0.00063557137623540700937380121260389 1:1.0998207 2:0.66153848 3:5 4:18 #
0.00063557137623540700937380121260389 1:-1.0430286 2:0.45454547 3:22 4:0 #
0.00063557137623540700937380121260389 1:0.23719396 2:0.72222221 3:2 4:25 #
-0.00063557137623540700937380121260389 1:0.71136564 2:0.50417829 3:1 4:15 #
0.00063557137623540700937380121260389 1:-0.40732002 2:0.75609756 3:12 4:61 #
0.00063557137623540700937380121260389 1:1.0347681 2:0.69999999 3:10 4:0 #
-0.00063557137623540700937380121260389 1:0.71534795 2:0.58208954 3:1 4:80 #
-0.00063557137623540700937380121260389 1:0.76429385 2:0.56321841 3:9 4:11 #
-0.00063557137623540700937380121260389 1:0.90639645 2:0.54807693 3:9 4:11 #
0.00063557137623540700937380121260389 1:1.0874165 2:0.66666669 3:24 4:0 #
-0.00063557137623540700937380121260389 1:2.0727925 2:0.7647059 3:1 4:28 #
0.00063557137623540700937380121260389 1:-2.847563 2:0.51612902 3:25 4:16 #
0.00063557137623540700937380121260389 1:-0.17161088 2:0.79166669 3:3 4:39 #
-0.00063557137623540700937380121260389 1:-0.68297893 2:0.47740114 3:16 4:28 #
0.00063557137623540700937380121260389 1:-1.5670402 2:0.5 3:22 4:0 #
-0.00063557137623540700937380121260389 1:1.9243501 2:0.5117057 3:10 4:11 #
0.00063557137623540700937380121260389 1:1.3628 2:0.71428573 3:9 4:25 #
-0.00063557137623540700937380121260389 1:-0.66562921 2:0.55581945 3:3 4:114 #
-0.00063557137623540700937380121260389 1:-0.66858006 2:0.45273632 3:15 4:22 #
0.00063557137623540700937380121260389 1:-2.0137453 2:0.60000002 3:15 4:0 #
-0.00063557137623540700937380121260389 1:3.368706 2:0.54482758 3:1 4:20 #
0.00063557137623540700937380121260389 1:-0.054935113 2:0.375 3:26 4:15 #
0.00063557137623540700937380121260389 1:-0.32779869 2:0.73076922 3:1 4:28 #
0.00063557137623540700937380121260389 1:0.18113782 2:0.46875 3:26 4:15 #
0.00063557137623540700937380121260389 1:-0.98887146 2:0.875 3:7 4:68 #
-0.00063557137623540700937380121260389 1:-0.96995115 2:0.52046782 3:2 4:13 #
0.00063557137623540700937380121260389 1:-1.7430034 2:0.75 3:8 4:66 #
-0.00063557137623540700937380121260389 1:-1.5148977 2:0.52016985 3:2 4:13 #
0.00063557137623540700937380121260389 1:0.15102775 2:0.90476191 3:3 4:45 #
-0.00063557137623540700937380121260389 1:0.25476336 2:0.55342466 3:10 4:120 #
0.00063557137623540700937380121260389 1:-0.45161965 2:0.79487181 3:6 4:69 #
-0.00063557137623540700937380121260389 1:-1.3922626 2:0.50306749 3:2 4:13 #
-0.00063557137623540700937380121260389 1:-2.5230305 2:0.58706468 3:10 4:21 #
-0.00063557137623540700937380121260389 1:1.0682127 2:0.92307693 3:1 4:66 #
-0.00063557137623540700937380121260389 1:0.14111954 2:0.52631581 3:1 4:15 #
-0.00063557137623540700937380121260389 1:3.5000045 2:0.56884873 3:1 4:32 #
-0.00063557137623540700937380121260389 1:-1.8087325 2:0.48942599 3:2 4:13 #
-0.00063557137623540700937380121260389 1:-1.4157699 2:0.53075171 3:3 4:12 #
-0.00063557137623540700937380121260389 1:2.6874347 2:0.62727273 3:1 4:19 #
-0.00063557137623540700937380121260389 1:1.011247 2:0.83333331 3:1 4:25 #
-0.00063557137623540700937380121260389 1:2.2997301 2:0.67241377 3:1 4:19 #
-0.00063557137623540700937380121260389 1:1.5836529 2:0.85000002 3:1 4:39 #
-0.00063557137623540700937380121260389 1:3.2094648 2:0.5 3:21 4:11 #
0.00063557137623540700937380121260389 1:-3.1890955 2:0.81818181 3:3 4:67 #
0.00063557137623540700937380121260389 1:0.57440859 2:0.69999999 3:6 4:26 #
0.00063557137623540700937380121260389 1:1.0714462 2:0.75999999 3:10 4:30 #
-0.00063557137623540700937380121260389 1:-3.7566264 2:0.54838711 3:1 4:16 #
0.00063557137623540700937380121260389 1:2.0138376 2:0.52380955 3:26 4:15 #
0.00063557137623540700937380121260389 1:-0.4187966 2:0.88571429 3:1 4:73 #
0.00063557137623540700937380121260389 1:0.38495848 2:0.56521738 3:23 4:0 #
0.00063557137623540700937380121260389 1:-1.5854475 2:0.5 3:20 4:0 #
0.00063557137623540700937380121260389 1:0.4214344 2:0.86956519 3:4 4:49 #
-0.00063557137623540700937380121260389 1:1.8809836 2:0.54545456 3:1 4:16 #
0.00063557137623540700937380121260389 1:-1.701975 2:0.65625 3:18 4:42 #
0.00063557137623540700937380121260389 1:1.5442854 2:0.69999999 3:10 4:0 #
-0.00063557137623540700937380121260389 1:-2.6150873 2:0.81818181 3:1 4:22 #
-0.00063557137623540700937380121260389 1:-0.53326619 2:0.94117647 3:1 4:35 #
0.00063557137623540700937380121260389 1:1.6438622 2:0.55263156 3:25 4:17 #
0.00063557137623540700937380121260389 1:0.22021589 2:0.48571429 3:24 4:20 #
0.00063557137623540700937380121260389 1:-1.2765442 2:0.7241379 3:1 4:13 #
-0.00063557137623540700937380121260389 1:2.9575422 2:0.55319148 3:1 4:18 #
0.00063557137623540700937380121260389 1:-3.134032 2:0.69696969 3:13 4:53 #
-0.00063557137623540700937380121260389 1:-4.5405412 2:0.60204083 3:1 4:19 #
-0.00063557137623540700937380121260389 1:-0.56068915 2:0.48995984 3:18 4:30 #
-0.00063557137623540700937380121260389 1:-0.62826192 2:0.62695926 3:10 4:113 #
0.00063557137623540700937380121260389 1:1.0884652 2:0.69999999 3:10 4:0 #
-0.00063557137623540700937380121260389 1:2.6540778 2:0.54545456 3:7 4:13 #
-0.00063557137623540700937380121260389 1:-2.1312802 2:0.49146757 3:9 4:21 #
0.00063557137623540700937380121260389 1:-0.95535392 2:0.5 3:22 4:0 #
0.00063557137623540700937380121260389 1:-2.2118785 2:0.5 3:23 4:18 #
0.00063557137623540700937380121260389 1:-0.72384751 2:0.52777779 3:24 4:20 #
-0.00063557137623540700937380121260389 1:-0.1169451 2:0.54658383 3:1 4:15 #
-0.00063557137623540700937380121260389 1:-4.0091391 2:0.65105385 3:1 4:84 #
-0.00063557137623540700937380121260389 1:-0.92403966 2:0.45161289 3:2 4:13 #
-0.00063557137623540700937380121260389 1:3.2190955 2:0.56478405 3:1 4:21 #
-0.00063557137623540700937380121260389 1:-3.2976174 2:0.56140351 3:2 4:29 #
-0.00063557137623540700937380121260389 1:-1.7710758 2:0.5714286 3:1 4:15 #
-0.00063557137623540700937380121260389 1:2.4524372 2:0.57605177 3:1 4:17 #
-0.00063557137623540700937380121260389 1:-1.9497558 2:0.54780364 3:15 4:20 #
-0.00063557137623540700937380121260389 1:1.1316125 2:0.89473683 3:1 4:40 #
-0.00063557137623540700937380121260389 1:-0.0054300381 2:0.67063493 3:1 4:16 #
-0.00063557137623540700937380121260389 1:-1.1416535 2:0.46778044 3:2 4:13 #
-0.00063557137623540700937380121260389 1:-1.5032904 2:0.75675678 3:11 4:12 #
-0.00063557137623540700937380121260389 1:1.559909 2:0.71428573 3:1 4:18 #
-0.00063557137623540700937380121260389 1:0.87141615 2:0.68965518 3:12 4:13 #
0.00063557137623540700937380121260389 1:1.0800769 2:0.78260869 3:7 4:39 #
0.00063557137623540700937380121260389 1:-2.052599 2:0.64516127 3:24 4:17 #
-0.00063557137623540700937380121260389 1:-1.7293876 2:0.44780219 3:14 4:18 #
0.00063557137623540700937380121260389 1:-0.0045183585 2:0.51351351 3:24 4:21 #
0.00063557137623540700937380121260389 1:1.7085856 2:0.76190478 3:16 4:50 #
0.00063557137623540700937380121260389 1:2.390049 2:0.56521738 3:23 4:0 #
0.00063557137623540700937380121260389 1:0.87635249 2:0.64999998 3:7 4:27 #
0.00063557137623540700937380121260389 1:0.38919425 2:0.56521738 3:23 4:0 #
0.00063557137623540700937380121260389 1:1.4493134 2:0.69230771 3:8 4:30 #
0.00063557137623540700937380121260389 1:-3.9788904 2:0.53488374 3:11 4:53 #
-0.00063557137623540700937380121260389 1:-1.349329 2:0.56159419 3:18 4:55 #
0.00063557137623540700937380121260389 1:-2.0149581 2:0.52941179 3:17 4:0 #
0.00063557137623540700937380121260389 1:0.91069293 2:0.75 3:13 4:57 #
0.00063557137623540700937380121260389 1:0.061430406 2:0.69999999 3:7 4:28 #
0.00063557137623540700937380121260389 1:-0.62348747 2:0.5 3:12 4:0 #
0.00063557137623540700937380121260389 1:-1.4799409 2:0.64102566 3:17 4:45 #
0.00063557137623540700937380121260389 1:0.84759825 2:0.80000001 3:10 4:0 #
0.00063557137623540700937380121260389 1:-0.97497028 2:0.52777779 3:24 4:19 #
0.00063557137623540700937380121260389 1:-1.2335124 2:0.5 3:14 4:0 #
0.00063557137623540700937380121260389 1:-0.091950923 2:0.8888889 3:1 4:36 #
0.00063557137623540700937380121260389 1:-0.47712237 2:0.42857143 3:21 4:0 #
0.00063557137623540700937380121260389 1:-1.3208535 2:0.55555558 3:24 4:15 #
0.00063557137623540700937380121260389 1:-1.703178 2:0.69444442 3:12 4:57 #
-0.00063557137623540700937380121260389 1:-1.0005411 2:0.71739131 3:23 4:112 #
0.00063557137623540700937380121260389 1:0.55865854 2:0.60869563 3:23 4:0 #
0.00063557137623540700937380121260389 1:-1.9553983 2:0.71794873 3:1 4:64 #
0.00063557137623540700937380121260389 1:-0.97497028 2:0.44999999 3:20 4:0 #
-0.00063557137623540700937380121260389 1:0.08051338 2:0.51881719 3:25 4:34 #
-0.00063557137623540700937380121260389 1:2.5391877 2:0.70588237 3:1 4:48 #
0.00063557137623540700937380121260389 1:-3.6532271 2:0.47999999 3:13 4:21 #
0.00063557137623540700937380121260389 1:0.12774652 2:0.84210527 3:4 4:41 #
0.00063557137623540700937380121260389 1:2.889303 2:0.60869563 3:23 4:0 #
0.00063557137623540700937380121260389 1:0.48054469 2:0.73076922 3:7 4:34 #
0.00063557137623540700937380121260389 1:-1.353653 2:0.68181819 3:22 4:0 #
-0.00063557137623540700937380121260389 1:0.67001665 2:0.69170982 3:2 4:82 #
0.00063557137623540700937380121260389 1:-2.001368 2:0.55172414 3:23 4:15 #
0.00063557137623540700937380121260389 1:1.4967537 2:0.81578946 3:10 4:62 #
0.00063557137623540700937380121260389 1:-0.080466405 2:0.81818181 3:1 4:41 #
-0.00063557137623540700937380121260389 1:2.8830829 2:0.56424582 3:1 4:32 #
0.00063557137623540700937380121260389 1:-2.052599 2:0.64516127 3:24 4:17 #
0.00063557137623540700937380121260389 1:0.47568437 2:0.5 3:22 4:0 #
-0.00063557137623540700937380121260389 1:-1.1787565 2:0.59569377 3:19 4:110 #
0.00063557137623540700937380121260389 1:1.2675788 2:0.60869563 3:23 4:0 #
-0.00063557137623540700937380121260389 1:1.7504789 2:0.80000001 3:1 4:39 #
-0.00063557137623540700937380121260389 1:-0.3850199 2:0.5271318 3:23 4:29 #
0.00063557137623540700937380121260389 1:0.020458389 2:0.875 3:2 4:71 #
0.00063557137623540700937380121260389 1:-2.4629462 2:0.55555558 3:20 4:33 #
0.00063557137623540700937380121260389 1:-2.0149493 2:0.4074074 3:18 4:20 #
-0.00063557137623540700937380121260389 1:-3.5530701 2:0.41904762 3:3 4:37 #
-0.00063557137623540700937380121260389 1:-1.1299212 2:0.39534885 3:2 4:13 #
-0.00063557137623540700937380121260389 1:1.2719154 2:0.77777779 3:1 4:21 #
-0.00063557137623540700937380121260389 1:2.1151965 2:0.67045456 3:18 4:14 #
-0.00063557137623540700937380121260389 1:-1.6744075 2:0.49618322 3:9 4:17 #
-0.00063557137623540700937380121260389 1:1.2719154 2:0.68224299 3:1 4:17 #
-0.00063557137623540700937380121260389 1:-1.5710161 2:0.55172414 3:1 4:15 #
-0.00063557137623540700937380121260389 1:1.8523852 2:0.48098433 3:1 4:16 #
-0.00063557137623540700937380121260389 1:-1.3310605 2:0.4903475 3:3 4:12 #
-0.00063557137623540700937380121260389 1:-1.3863909 2:0.58333331 3:7 4:11 #
-0.00063557137623540700937380121260389 1:0.9436065 2:0.45454547 3:3 4:13 #
-0.00063557137623540700937380121260389 1:0.31783 2:0.54474705 3:3 4:13 #
-0.00063557137623540700937380121260389 1:-0.38310221 2:0.4608295 3:21 4:17 #
-0.00063557137623540700937380121260389 1:1.6542517 2:0.61637932 3:18 4:109 #
-0.00063557137623540700937380121260389 1:-1.413473 2:0.53721684 3:12 4:13 #
0.00063557137623540700937380121260389 1:-0.31502149 2:0.5151515 3:20 4:33 #
-0.00063557137623540700937380121260389 1:2.355619 2:0.55868542 3:1 4:17 #
-0.00063557137623540700937380121260389 1:1.5874873 2:0.6510067 3:3 4:15 #
-0.00063557137623540700937380121260389 1:-1.3017715 2:0.53367877 3:18 4:20 #
-0.00063557137623540700937380121260389 1:-0.69667172 2:0.85714287 3:1 4:30 #
-0.00063557137623540700937380121260389 1:0.6372211 2:0.60526317 3:1 4:16 #
-0.00063557137623540700937380121260389 1:-3.4602396 2:0.6857143 3:3 4:14 #
-0.00063557137623540700937380121260389 1:-3.6601422 2:0.52941179 3:6 4:11 #
-0.00063557137623540700937380121260389 1:3.1854479 2:0.52219319 3:1 4:19 #
-0.00063557137623540700937380121260389 1:0.37574223 2:0.5 3:8 4:11 #
-0.00063557137623540700937380121260389 1:3.4879093 2:0.54366195 3:1 4:27 #
0.00063557137623540700937380121260389 1:-1.9623591 2:0.7352941 3:11 4:58 #
0.00063557137623540700937380121260389 1:0.11086439 2:0.5 3:12 4:0 #
0.00063557137623540700937380121260389 1:1.5354631 2:0.75 3:9 4:25 #
0.00063557137623540700937380121260389 1:0.9397167 2:0.6388889 3:19 4:40 #
0.00063557137623540700937380121260389 1:-0.20735623 2:0.63636363 3:11 4:0 #
0.00063557137623540700937380121260389 1:-0.31387782 2:0.66666669 3:20 4:36 #
0.00063557137623540700937380121260389 1:0.73393726 2:0.82352942 3:6 4:29 #
0.00063557137623540700937380121260389 1:0.9436065 2:0.56666666 3:23 4:18 #
0.00063557137623540700937380121260389 1:-0.59055907 2:0.47368422 3:19 4:0 #
0.00063557137623540700937380121260389 1:-0.21551171 2:0.69767439 3:12 4:57 #
0.00063557137623540700937380121260389 1:1.5127795 2:0.60869563 3:23 4:0 #
0.00063557137623540700937380121260389 1:0.43910119 2:0.83333331 3:6 4:67 #
0.00063557137623540700937380121260389 1:-1.403133 2:0.69999999 3:18 4:42 #
0.00063557137623540700937380121260389 1:2.2464454 2:0.4375 3:16 4:0 #
0.00063557137623540700937380121260389 1:0.80905598 2:0.69565219 3:23 4:0 #
0.00063557137623540700937380121260389 1:-3.3888006 2:0.83333331 3:1 4:57 #
0.00063557137623540700937380121260389 1:-0.72413027 2:0.82857144 3:4 4:68 #
-0.00063557137623540700937380121260389 1:-0.25387299 2:0.49850747 3:8 4:38 #
-0.00063557137623540700937380121260389 1:-1.1580467 2:0.55144036 3:17 4:17 #
0.00063557137623540700937380121260389 1:-0.92571437 2:0.65714288 3:22 4:27 #
0.00063557137623540700937380121260389 1:1.0460651 2:0.52777779 3:23 4:14 #
0.00063557137623540700937380121260389 1:0.81567085 2:0.79310346 3:8 4:47 #
-0.00063557137623540700937380121260389 1:0.46772876 2:0.60869563 3:1 4:16 #
0.00063557137623540700937380121260389 1:1.5749278 2:0.72727275 3:10 4:31 #
-0.00063557137623540700937380121260389 1:1.1209394 2:0.65662652 3:1 4:17 #
0.00063557137623540700937380121260389 1:0.54252654 2:0.73333335 3:5 4:24 #
-0.00063557137623540700937380121260389 1:-1.0734377 2:0.68208092 3:19 4:107 #
-0.00063557137623540700937380121260389 1:-2.8734376 2:0.58904111 3:10 4:33 #
-0.00063557137623540700937380121260389 1:1.7684855 2:0.75 3:1 4:25 #
0.00063557137623540700937380121260389 1:1.5580065 2:0.77272725 3:9 4:29 #
-0.00063557137623540700937380121260389 1:-0.87897366 2:0.54864866 3:1 4:15 #
0.00063557137623540700937380121260389 1:-0.076557815 2:0.67567569 3:20 4:36 #
0.00063557137623540700937380121260389 1:0.068964317 2:0.7027027 3:21 4:32 #
-0.00063557137623540700937380121260389 1:2.1500721 2:0.70786518 3:1 4:22 #
0.00063557137623540700937380121260389 1:-1.3039775 2:0.51612902 3:22 4:19 #
0.00063557137623540700937380121260389 1:-0.21161287 2:0.81818181 3:4 4:39 #
0.00063557137623540700937380121260389 1:2.3203576 2:0.65217394 3:23 4:0 #
-0.00063557137623540700937380121260389 1:-2.5401289 2:0.55799371 3:2 4:14 #
0.00063557137623540700937380121260389 1:0.063300245 2:0.88235295 3:2 4:36 #
0.00063557137623540700937380121260389 1:0.094691582 2:0.54545456 3:22 4:0 #
-0.00063557137623540700937380121260389 1:-3.0187624 2:0.52173913 3:8 4:17 #
-0.00063557137623540700937380121260389 1:-0.52772999 2:0.53043479 3:8 4:11 #
-0.00063557137623540700937380121260389 1:3.1112299 2:0.55580866 3:1 4:21 #
0.00063557137623540700937380121260389 1:-0.82370573 2:0.56666666 3:22 4:20 #
-0.00063557137623540700937380121260389 1:-1.678261 2:0.52421051 3:1 4:15 #
-0.00063557137623540700937380121260389 1:-2.5706 2:0.56097561 3:3 4:13 #
-0.00063557137623540700937380121260389 1:0.013338152 2:0.51256281 3:4 4:12 #
-0.00063557137623540700937380121260389 1:3.1229439 2:0.5746032 3:1 4:29 #
0.00063557137623540700937380121260389 1:-0.63453776 2:0.54545456 3:22 4:19 #
0.00063557137623540700937380121260389 1:0.26759657 2:0.75999999 3:6 4:38 #
-0.00063557137623540700937380121260389 1:0.37593132 2:0.4642857 3:3 4:13 #
0.00063557137623540700937380121260389 1:0.10813735 2:0.78947371 3:3 4:35 #
-0.00063557137623540700937380121260389 1:2.3459516 2:0.6767956 3:35 4:107 #
-0.00063557137623540700937380121260389 1:1.3005558 2:0.51364762 3:7 4:93 #
0.00063557137623540700937380121260389 1:1.315536 2:0.69565219 3:23 4:0 #
-0.00063557137623540700937380121260389 1:2.8830829 2:0.5988372 3:1 4:25 #
0.00063557137623540700937380121260389 1:-1.6490623 2:0.51724136 3:21 4:21 #
0.00063557137623540700937380121260389 1:1.63974 2:0.65217394 3:23 4:0 #
0.00063557137623540700937380121260389 1:0.15485957 2:0.54545456 3:22 4:0 #
-0.00063557137623540700937380121260389 1:-0.4427481 2:0.5151515 3:1 4:15 #
-0.00063557137623540700937380121260389 1:-0.18261656 2:0.52333331 3:22 4:38 #
-0.00063557137623540700937380121260389 1:1.4911593 2:0.7631579 3:1 4:26 #
0.00063557137623540700937380121260389 1:-1.7913792 2:0.45454547 3:19 4:21 #
-0.00063557137623540700937380121260389 1:-1.8963313 2:0.83333331 3:1 4:23 #
-0.00063557137623540700937380121260389 1:1.765624 2:0.66025639 3:1 4:18 #
0.00063557137623540700937380121260389 1:-1.2704816 2:0.5 3:18 4:0 #
-0.00063557137623540700937380121260389 1:1.1972532 2:0.54299754 3:1 4:16 #
0.00063557137623540700937380121260389 1:-2.2514188 2:0.7027027 3:17 4:44 #
-0.00063557137623540700937380121260389 1:-3.7566264 2:0.54385966 3:1 4:16 #
-0.00063557137623540700937380121260389 1:1.7174013 2:0.74747473 3:1 4:67 #
-0.00063557137623540700937380121260389 1:2.0078201 2:0.70212764 3:1 4:26 #
-0.00063557137623540700937380121260389 1:-2.422163 2:0.58904111 3:10 4:32 #
-0.00063557137623540700937380121260389 1:-0.044170681 2:0.52511418 3:2 4:14 #
-0.00063557137623540700937380121260389 1:-0.88338894 2:0.67469877 3:1 4:80 #
-0.00063557137623540700937380121260389 1:1.5144378 2:0.83333331 3:3 4:21 #
-0.00063557137623540700937380121260389 1:-1.9026797 2:0.52032518 3:15 4:23 #
-0.00063557137623540700937380121260389 1:-3.8559499 2:0.81818181 3:2 4:20 #
-0.00063557137623540700937380121260389 1:1.5612506 2:0.50751877 3:1 4:16 #
-0.00063557137623540700937380121260389 1:3.189714 2:0.51999998 3:1 4:22 #
-0.00063557137623540700937380121260389 1:2.2128172 2:0.5247525 3:1 4:17 #
-0.00063557137623540700937380121260389 1:-0.90092629 2:0.50976139 3:3 4:13 #
-0.00063557137623540700937380121260389 1:1.1550798 2:0.875 3:2 4:35 #
-0.00063557137623540700937380121260389 1:-0.72026509 2:0.51739132 3:1 4:15 #
-0.00063557137623540700937380121260389 1:0.7548784 2:0.86666667 3:1 4:62 #
-0.00063557137623540700937380121260389 1:0.93281531 2:0.59405941 3:6 4:12 #
-0.00063557137623540700937380121260389 1:-0.5047285 2:0.54213482 3:2 4:14 #
-0.00063557137623540700937380121260389 1:2.1055784 2:0.6883117 3:1 4:33 #
0.00063557137623540700937380121260389 1:-2.3682432 2:0.62222224 3:7 4:54 #
-0.00063557137623540700937380121260389 1:-1.3722137 2:0.48209366 3:1 4:15 #
0.00063557137623540700937380121260389 1:-1.1676706 2:0.71052629 3:9 4:60 #
0.00063557137623540700937380121260389 1:2.7716455 2:0.54545456 3:22 4:0 #
-0.00063557137623540700937380121260389 1:-0.98095608 2:0.48504984 3:1 4:15 #
0.00063557137623540700937380121260389 1:0.57019246 2:0.61764705 3:19 4:35 #
0.00063557137623540700937380121260389 1:0.30150673 2:0.63636363 3:11 4:0 #
-0.00063557137623540700937380121260389 1:0.0066072913 2:0.63043481 3:1 4:16 #
0.00063557137623540700937380121260389 1:-0.5247196 2:0.63157892 3:20 4:33 #
0.00063557137623540700937380121260389 1:0.35176542 2:0.63636363 3:11 4:0 #
-0.00063557137623540700937380121260389 1:-0.95479435 2:0.56060606 3:2 4:14 #
0.00063557137623540700937380121260389 1:-0.41119915 2:0.66666669 3:19 4:35 #
-0.00063557137623540700937380121260389 1:0.63643903 2:0.4173913 3:29 4:22 #
0.00063557137623540700937380121260389 1:0.20101894 2:0.61538464 3:19 4:18 #
0.00063557137623540700937380121260389 1:-1.7759029 2:0.57894737 3:20 4:32 #
0.00063557137623540700937380121260389 1:0.70682228 2:0.73076922 3:4 4:30 #
-0.00063557137623540700937380121260389 1:-1.4771811 2:0.47483587 3:13 4:17 #
0.00063557137623540700937380121260389 1:0.52431333 2:0.60465115 3:22 4:24 #
-0.00063557137623540700937380121260389 1:-2.5031419 2:0.55555558 3:1 4:16 #
0.00063557137623540700937380121260389 1:-1.819011 2:0.82352942 3:1 4:31 #
0.00063557137623540700937380121260389 1:1.1670634 2:0.54838711 3:22 4:22 #
0.00063557137623540700937380121260389 1:-1.8439814 2:0.67567569 3:18 4:40 #
0.00063557137623540700937380121260389 1:-0.55403501 2:0.73913044 3:1 4:13 #
0.00063557137623540700937380121260389 1:1.9335343 2:0.65217394 3:23 4:0 #
-0.00063557137623540700937380121260389 1:2.8947971 2:0.54797977 3:1 4:19 #
0.00063557137623540700937380121260389 1:-0.94833726 2:0.53333336 3:21 4:24 #
0.00063557137623540700937380121260389 1:-1.1055148 2:0.82857144 3:2 4:62 #
-0.00063557137623540700937380121260389 1:-2.8687787 2:0.625 3:7 4:18 #
-0.00063557137623540700937380121260389 1:-0.9056406 2:0.61802578 3:1 4:16 #
0.00063557137623540700937380121260389 1:-0.76939005 2:0.62162161 3:20 4:31 #
-0.00063557137623540700937380121260389 1:-0.50664914 2:0.59012347 3:1 4:16 #
0.00063557137623540700937380121260389 1:-0.49228996 2:0.62162161 3:21 4:28 #
-0.00063557137623540700937380121260389 1:0.47568437 2:0.55882353 3:1 4:16 #
0.00063557137623540700937380121260389 1:-0.55953699 2:0.52777779 3:20 4:30 #
-0.00063557137623540700937380121260389 1:-1.0851951 2:0.58673471 3:1 4:81 #
-0.00063557137623540700937380121260389 1:-0.063310087 2:0.45777777 3:18 4:20 #
0.00063557137623540700937380121260389 1:1.465932 2:0.46666667 3:15 4:0 #
-0.00063557137623540700937380121260389 1:1.0835893 2:0.7647059 3:1 4:21 #
-0.00063557137623540700937380121260389 1:0.80751723 2:0.76712328 3:1 4:20 #
0.00063557137623540700937380121260389 1:-2.0784833 2:0.51351351 3:18 4:31 #
0.00063557137623540700937380121260389 1:0.60895985 2:0.64864862 3:20 4:30 #
-0.00063557137623540700937380121260389 1:-1.1236032 2:0.56818181 3:1 4:16 #
0.00063557137623540700937380121260389 1:-1.4700533 2:0.64516127 3:20 4:30 #
0.00063557137623540700937380121260389 1:1.4994382 2:0.68000001 3:11 4:24 #
0.00063557137623540700937380121260389 1:1.8951185 2:0.5 3:22 4:0 #
0.00063557137623540700937380121260389 1:0.12113717 2:0.5 3:22 4:11 #
-0.00063557137623540700937380121260389 1:0.2481917 2:0.67213112 3:1 4:17 #
0.00063557137623540700937380121260389 1:-0.94833726 2:0.55882353 3:20 4:28 #
-0.00063557137623540700937380121260389 1:0.13201454 2:0.55757576 3:1 4:16 #
-0.00063557137623540700937380121260389 1:-3.6728911 2:0.61363637 3:1 4:17 #
0.00063557137623540700937380121260389 1:0.39810619 2:0.64516127 3:22 4:22 #
0.00063557137623540700937380121260389 1:0.21291767 2:0.59090906 3:22 4:0 #
-0.00063557137623540700937380121260389 1:1.2554439 2:0.47926268 3:1 4:16 #
0.00063557137623540700937380121260389 1:-1.6938627 2:0.6111111 3:19 4:32 #
0.00063557137623540700937380121260389 1:-0.25328696 2:0.58333331 3:21 4:24 #
0.00063557137623540700937380121260389 1:-1.1344461 2:0.63157892 3:18 4:34 #
0.00063557137623540700937380121260389 1:1.6818883 2:0.63636363 3:11 4:26 #
-0.00063557137623540700937380121260389 1:0.73398072 2:0.527897 3:1 4:16 #
0.00063557137623540700937380121260389 1:-1.6893811 2:0.62857145 3:19 4:31 #
-0.00063557137623540700937380121260389 1:-2.202296 2:0.51231527 3:2 4:14 #
-0.00063557137623540700937380121260389 1:2.3842711 2:0.63636363 3:1 4:22 #
-0.00063557137623540700937380121260389 1:0.69177979 2:0.63963962 3:1 4:17 #
-0.00063557137623540700937380121260389 1:-1.4336885 2:0.47257385 3:4 4:33 #
-0.00063557137623540700937380121260389 1:0.10523836 2:0.65546221 3:1 4:17 #
-0.00063557137623540700937380121260389 1:-0.13964108 2:0.76086956 3:4 4:15 #
-0.00063557137623540700937380121260389 1:0.80255485 2:0.60431653 3:2 4:15 #
-0.00063557137623540700937380121260389 1:-3.5242412 2:0.53065538 3:3 4:13 #
-0.00063557137623540700937380121260389 1:0.031355191 2:0.53125 3:1 4:16 #
0.00063557137623540700937380121260389 1:-2.1526029 2:0.86666667 3:4 4:63 #
0.00063557137623540700937380121260389 1:-2.2631431 2:0.64999998 3:20 4:0 #
-0.00063557137623540700937380121260389 1:-1.2618299 2:0.53571427 3:19 4:18 #
0.00063557137623540700937380121260389 1:-2.4241068 2:0.6111111 3:17 4:42 #
0.00063557137623540700937380121260389 1:-3.7415216 2:0.66666669 3:1 4:17 #
0.00063557137623540700937380121260389 1:-2.0795248 2:0.6111111 3:19 4:37 #
0.00063557137623540700937380121260389 1:-0.93220294 2:0.58620691 3:22 4:13 #
0.00063557137623540700937380121260389 1:-2.8230419 2:0.62790698 3:20 4:11 #
0.00063557137623540700937380121260389 1:1.599579 2:0.68421054 3:10 4:24 #
0.00063557137623540700937380121260389 1:-1.5028247 2:0.69047618 3:12 4:55 #
0.00063557137623540700937380121260389 1:0.69740504 2:0.54545456 3:22 4:0 #
0.00063557137623540700937380121260389 1:-0.67726898 2:0.65714288 3:16 4:33 #
0.00063557137623540700937380121260389 1:-0.13796176 2:0.67567569 3:15 4:49 #
0.00063557137623540700937380121260389 1:-1.2734026 2:0.71428573 3:10 4:58 #
-0.00063557137623540700937380121260389 1:2.122421 2:0.53311259 3:1 4:17 #
-0.00063557137623540700937380121260389 1:-2.9687502 2:0.60975611 3:10 4:42 #
-0.00063557137623540700937380121260389 1:2.6093822 2:0.71428573 3:3 4:20 #
0.00063557137623540700937380121260389 1:-4.1656818 2:0.6388889 3:11 4:41 #
0.00063557137623540700937380121260389 1:1.5458674 2:0.72727275 3:11 4:0 #
0.00063557137623540700937380121260389 1:0.27116144 2:0.77272725 3:5 4:38 #
-0.00063557137623540700937380121260389 1:-2.5414348 2:0.58450705 3:2 4:15 #
0.00063557137623540700937380121260389 1:0.19519232 2:0.68965518 3:3 4:43 #
-0.00063557137623540700937380121260389 1:-0.38213435 2:0.50697672 3:2 4:14 #
0.00063557137623540700937380121260389 1:-0.59766072 2:0.52380955 3:21 4:0 #
-0.00063557137623540700937380121260389 1:2.4524372 2:0.75 3:40 4:104 #
-0.00063557137623540700937380121260389 1:-0.94269276 2:0.50413221 3:3 4:13 #
-0.00063557137623540700937380121260389 1:-1.9493167 2:0.83333331 3:1 4:32 #
-0.00063557137623540700937380121260389 1:-2.9678357 2:0.68817204 3:10 4:13 #
0.00063557137623540700937380121260389 1:1.6682143 2:0.47619048 3:21 4:0 #
-0.00063557137623540700937380121260389 1:-1.3178712 2:0.54954952 3:10 4:11 #
0.00063557137623540700937380121260389 1:0.19171837 2:0.8888889 3:4 4:42 #
0.00063557137623540700937380121260389 1:-0.99775922 2:0.53846157 3:13 4:0 #
-0.00063557137623540700937380121260389 1:0.23800381 2:0.80952382 3:1 4:34 #
-0.00063557137623540700937380121260389 1:-0.086344317 2:0.64625853 3:19 4:11 #
0.00063557137623540700937380121260389 1:-1.1394758 2:0.80000001 3:2 4:66 #
-0.00063557137623540700937380121260389 1:0.047216523 2:0.61743343 3:18 4:101 #
-0.00063557137623540700937380121260389 1:-0.40836075 2:0.52063495 3:16 4:34 #
-0.00063557137623540700937380121260389 1:-0.21004774 2:0.53273135 3:1 4:16 #
-0.00063557137623540700937380121260389 1:-0.12657644 2:0.61363637 3:1 4:26 #
0.00063557137623540700937380121260389 1:0.46578786 2:0.45833334 3:21 4:13 #
0.00063557137623540700937380121260389 1:-1.7212114 2:0.53846157 3:4 4:11 #
0.00063557137623540700937380121260389 1:-0.20152076 2:0.8888889 3:4 4:67 #
0.00063557137623540700937380121260389 1:-0.7989502 2:0.72727275 3:11 4:0 #
-0.00063557137623540700937380121260389 1:-0.88626868 2:0.83333331 3:1 4:28 #
0.00063557137623540700937380121260389 1:0.21291767 2:0.59375 3:22 4:18 #
0.00063557137623540700937380121260389 1:0.26243535 2:0.81818181 3:3 4:41 #
0.00063557137623540700937380121260389 1:0.82116985 2:0.70588237 3:6 4:24 #
-0.00063557137623540700937380121260389 1:0.059232138 2:0.52542371 3:1 4:16 #
0.00063557137623540700937380121260389 1:0.48196876 2:0.5945946 3:19 4:38 #
-0.00063557137623540700937380121260389 1:1.9234743 2:0.68493152 3:1 4:27 #
-0.00063557137623540700937380121260389 1:0.95001227 2:0.68085104 3:2 4:16 #
0.00063557137623540700937380121260389 1:0.57663047 2:0.63636363 3:13 4:52 #
-0.00063557137623540700937380121260389 1:-1.4828879 2:0.74725276 3:1 4:77 #
-0.00063557137623540700937380121260389 1:1.0744457 2:0.75 3:1 4:21 #
0.00063557137623540700937380121260389 1:0.22021589 2:0.75 3:3 4:41 #
-0.00063557137623540700937380121260389 1:1.6148903 2:0.58675802 3:5 4:13 #
0.00063557137623540700937380121260389 1:2.1092415 2:0.54545456 3:22 4:0 #
-0.00063557137623540700937380121260389 1:-2.2788618 2:0.46567163 3:8 4:17 #
-0.00063557137623540700937380121260389 1:-2.3870199 2:0.48292682 3:6 4:12 #
-0.00063557137623540700937380121260389 1:2.4118452 2:0.627451 3:1 4:23 #
-0.00063557137623540700937380121260389 1:2.9575422 2:0.52436197 3:1 4:20 #
0.00063557137623540700937380121260389 1:-1.1266801 2:0.59375 3:21 4:21 #
0.00063557137623540700937380121260389 1:-0.85439241 2:0.55555558 3:21 4:16 #
-0.00063557137623540700937380121260389 1:-3.5605774 2:0.52808988 3:1 4:17 #
0.00063557137623540700937380121260389 1:0.063871659 2:0.74358976 3:2 4:22 #
0.00063557137623540700937380121260389 1:-0.55080789 2:0.46666667 3:15 4:0 #
-0.00063557137623540700937380121260389 1:2.8175175 2:0.53389829 3:1 4:20 #
0.00063557137623540700937380121260389 1:0.3452298 2:0.68181819 3:22 4:0 #
0.00063557137623540700937380121260389 1:-0.39036852 2:0.52499998 3:1 4:16 #
0.00063557137623540700937380121260389 1:-0.88765502 2:0.73170733 3:9 4:59 #
0.00063557137623540700937380121260389 1:0.68731707 2:0.47619048 3:21 4:0 #
0.00063557137623540700937380121260389 1:0.13490604 2:0.80000001 3:4 4:36 #
-0.00063557137623540700937380121260389 1:-0.33945474 2:0.65322578 3:1 4:78 #
0.00063557137623540700937380121260389 1:-1.4897792 2:0.66666669 3:21 4:0 #
-0.00063557137623540700937380121260389 1:-0.40732002 2:0.51987767 3:20 4:10 #
0.00063557137623540700937380121260389 1:-1.5118215 2:0.62162161 3:18 4:40 #
0.00063557137623540700937380121260389 1:0.2786043 2:0.74418604 3:11 4:56 #
-0.00063557137623540700937380121260389 1:-2.855124 2:0.78947371 3:1 4:27 #
0.00063557137623540700937380121260389 1:0.89773297 2:0.65789473 3:19 4:38 #
-0.00063557137623540700937380121260389 1:-1.4381623 2:0.57855362 3:3 4:85 #
0.00063557137623540700937380121260389 1:0.6163553 2:0.75 3:5 4:33 #
-0.00063557137623540700937380121260389 1:-0.76167351 2:0.75531918 3:14 4:98 #
-0.00063557137623540700937380121260389 1:1.2053872 2:0.85714287 3:2 4:43 #
0.00063557137623540700937380121260389 1:-2.1005781 2:0.45454547 3:17 4:23 #
0.00063557137623540700937380121260389 1:0.98468488 2:0.60000002 3:7 4:22 #
0.00063557137623540700937380121260389 1:0.52118266 2:0.66666669 3:18 4:41 #
-0.00063557137623540700937380121260389 1:-0.34054622 2:0.75 3:1 4:26 #
-0.00063557137623540700937380121260389 1:2.1371667 2:0.67816091 3:1 4:39 #
0.00063557137623540700937380121260389 1:0.61723781 2:0.68181819 3:22 4:0 #
-0.00063557137623540700937380121260389 1:1.5713516 2:0.51456308 3:1 4:26 #
-0.00063557137623540700937380121260389 1:2.2260821 2:0.67052025 3:1 4:47 #
0.00063557137623540700937380121260389 1:-1.7148045 2:0.78787881 3:4 4:64 #
0.00063557137623540700937380121260389 1:-3.5013833 2:0.47826087 3:9 4:19 #
0.00063557137623540700937380121260389 1:2.6377957 2:0.67567569 3:19 4:37 #
0.00063557137623540700937380121260389 1:1.7944628 2:0.59090906 3:22 4:0 #
0.00063557137623540700937380121260389 1:-0.33456829 2:0.58333331 3:21 4:22 #
0.00063557137623540700937380121260389 1:0.094691582 2:0.8125 3:2 4:31 #
0.00063557137623540700937380121260389 1:-1.038015 2:0.69230771 3:16 4:46 #
0.00063557137623540700937380121260389 1:-0.20623612 2:0.8888889 3:1 4:36 #
0.00063557137623540700937380121260389 1:-0.18732816 2:0.94999999 3:1 4:47 #
-0.00063557137623540700937380121260389 1:-1.0475851 2:0.60416669 3:8 4:71 #
0.00063557137623540700937380121260389 1:0.55406559 2:0.75 3:5 4:34 #
-0.00063557137623540700937380121260389 1:0.2572408 2:0.59745765 3:1 4:63 #
-0.00063557137623540700937380121260389 1:-2.1035485 2:0.49528301 3:11 4:16 #
-0.00063557137623540700937380121260389 1:2.283834 2:0.50865054 3:1 4:63 #
0.00063557137623540700937380121260389 1:-1.2928802 2:0.7368421 3:10 4:57 #
0.00063557137623540700937380121260389 1:0.73022223 2:0.7647059 3:6 4:21 #
-0.00063557137623540700937380121260389 1:-0.68080449 2:0.703125 3:1 4:64 #
-0.00063557137623540700937380121260389 1:-3.6728911 2:0.64393938 3:1 4:66 #
0.00063557137623540700937380121260389 1:1.4378331 2:0.7368421 3:9 4:30 #
-0.00063557137623540700937380121260389 1:-0.43710995 2:0.54692554 3:1 4:64 #
-0.00063557137623540700937380121260389 1:-1.7347429 2:0.53168046 3:1 4:65 #
0.00063557137623540700937380121260389 1:0.42646748 2:0.64285713 3:19 4:36 #
-0.00063557137623540700937380121260389 1:0.12240998 2:0.56097561 3:1 4:67 #
-0.00063557137623540700937380121260389 1:0.43022171 2:0.52038372 3:2 4:66 #
0.00063557137623540700937380121260389 1:0.0078914212 2:0.90322578 3:2 4:68 #
-0.00063557137623540700937380121260389 1:-0.32222474 2:0.56511056 3:1 4:70 #
-0.00063557137623540700937380121260389 1:0.46725577 2:0.57735848 3:2 4:74 #
-0.00063557137623540700937380121260389 1:-1.7375196 2:0.54352444 3:3 4:67 #
-0.00063557137623540700937380121260389 1:-0.77606529 2:0.59493673 3:3 4:69 #
-0.00063557137623540700937380121260389 1:-1.8713254 2:0.63396227 3:16 4:39 #
-0.00063557137623540700937380121260389 1:-1.7947253 2:0.57446808 3:15 4:19 #
-0.00063557137623540700937380121260389 1:1.949585 2:0.64077669 3:7 4:67 #
-0.00063557137623540700937380121260389 1:1.0229088 2:0.55892253 3:5 4:68 #
-0.00063557137623540700937380121260389 1:-4.1551337 2:0.53802818 3:1 4:69 #
-0.00063557137623540700937380121260389 1:-3.6793337 2:0.48630136 3:4 4:31 #
-0.00063557137623540700937380121260389 1:-1.2483594 2:0.55833334 3:3 4:69 #
-0.00063557137623540700937380121260389 1:1.4020655 2:0.56595743 3:6 4:82 #
-0.00063557137623540700937380121260389 1:1.0884264 2:0.63999999 3:8 4:72 #
-0.00063557137623540700937380121260389 1:-4.2004504 2:0.50989014 3:1 4:27 #
-0.00063557137623540700937380121260389 1:1.6818883 2:0.72549021 3:14 4:72 #
-0.00063557137623540700937380121260389 1:-4.041079 2:0.54805195 3:2 4:71 #
-0.00063557137623540700937380121260389 1:-2.9669588 2:0.54022986 3:6 4:69 #
-0.00063557137623540700937380121260389 1:1.5768167 2:0.52978724 3:5 4:13 #
-0.00063557137623540700937380121260389 1:-0.91072172 2:0.56447691 3:17 4:95 #
0.00063557137623540700937380121260389 1:-1.5697598 2:0.51999998 3:20 4:17 #
-0.00063557137623540700937380121260389 1:2.4786222 2:0.43108505 3:3 4:15 #
0.00063557137623540700937380121260389 1:-2.1499121 2:0.77142859 3:5 4:61 #
0.00063557137623540700937380121260389 1:-0.96186107 2:0.82857144 3:1 4:66 #
-0.00063557137623540700937380121260389 1:1.2962898 2:0.54545456 3:2 4:15 #
0.00063557137623540700937380121260389 1:-0.81199163 2:0.78378379 3:4 4:63 #
-0.00063557137623540700937380121260389 1:1.392419 2:0.69230771 3:1 4:19 #
0.00063557137623540700937380121260389 1:-1.9026797 2:0.58823532 3:18 4:36 #
0.00063557137623540700937380121260389 1:0.21843107 2:0.57446808 3:20 4:14 #
-0.00063557137623540700937380121260389 1:-0.66838813 2:0.47096774 3:3 4:13 #
0.00063557137623540700937380121260389 1:0.99470544 2:0.81818181 3:7 4:61 #
-0.00063557137623540700937380121260389 1:0.49135983 2:0.60176992 3:3 4:14 #
-0.00063557137623540700937380121260389 1:0.80255485 2:0.58190709 3:2 4:15 #
0.00063557137623540700937380121260389 1:-1.0158975 2:0.61290324 3:18 4:35 #
-0.00063557137623540700937380121260389 1:0.83617717 2:0.46979865 3:30 4:19 #
-0.00063557137623540700937380121260389 1:-0.56351763 2:0.50684929 3:1 4:16 #
0.00063557137623540700937380121260389 1:-0.44671521 2:0.57894737 3:18 4:35 #
-0.00063557137623540700937380121260389 1:-0.034328829 2:0.62962961 3:1 4:17 #
0.00063557137623540700937380121260389 1:-1.4016564 2:0.67741936 3:18 4:34 #
-0.00063557137623540700937380121260389 1:-1.1072792 2:0.62464184 3:1 4:17 #
-0.00063557137623540700937380121260389 1:-1.7023519 2:0.60215056 3:1 4:17 #
-0.00063557137623540700937380121260389 1:-0.39526242 2:0.625 3:1 4:17 #
-0.00063557137623540700937380121260389 1:1.1822612 2:0.58203125 3:1 4:17 #
-0.00063557137623540700937380121260389 1:2.4822972 2:0.54594594 3:1 4:18 #
0.00063557137623540700937380121260389 1:-2.3887236 2:0.55882353 3:18 4:19 #
0.00063557137623540700937380121260389 1:1.392224 2:0.77777779 3:9 4:26 #
0.00063557137623540700937380121260389 1:1.9175251 2:0.68181819 3:22 4:0 #
0.00063557137623540700937380121260389 1:0.51145941 2:0.7368421 3:3 4:30 #
0.00063557137623540700937380121260389 1:1.3998526 2:0.47619048 3:21 4:0 #
0.00063557137623540700937380121260389 1:0.21095799 2:0.82051283 3:4 4:64 #
0.00063557137623540700937380121260389 1:-0.25513655 2:0.58974361 3:20 4:28 #
0.00063557137623540700937380121260389 1:-0.73364562 2:0.5 3:16 4:0 #
0.00063557137623540700937380121260389 1:0.46791148 2:0.80952382 3:6 4:40 #
0.00063557137623540700937380121260389 1:-0.8450374 2:0.70731705 3:14 4:49 #
0.00063557137623540700937380121260389 1:-0.11163521 2:0.77142859 3:17 4:42 #
0.00063557137623540700937380121260389 1:-0.43187004 2:0.76923078 3:11 4:54 #
-0.00063557137623540700937380121260389 1:0.2385399 2:0.48031497 3:1 4:16 #
-0.00063557137623540700937380121260389 1:-4.387248 2:0.70422536 3:2 4:76 #
-0.00063557137623540700937380121260389 1:-1.7051667 2:0.57020056 3:9 4:71 #
-0.00063557137623540700937380121260389 1:-0.15824701 2:0.67605633 3:11 4:75 #
-0.00063557137623540700937380121260389 1:-2.0781929 2:0.57092196 3:6 4:86 #
-0.00063557137623540700937380121260389 1:0.3292186 2:0.65217394 3:9 4:79 #
-0.00063557137623540700937380121260389 1:1.3004977 2:0.53887397 3:14 4:78 #
-0.00063557137623540700937380121260389 1:-1.4056056 2:0.57731956 3:12 4:95 #
-0.00063557137623540700937380121260389 1:2.6024427 2:0.51162791 3:20 4:72 #
-0.00063557137623540700937380121260389 1:-0.017761042 2:0.70833331 3:17 4:76 #
-0.00063557137623540700937380121260389 1:-0.017729545 2:0.67716533 3:16 4:95 #
0.00063557137623540700937380121260389 1:-1.7580464 2:0.79411763 3:6 4:60 #
0.00063557137623540700937380121260389 1:0.34484738 2:0.73913044 3:3 4:34 #
0.00063557137623540700937380121260389 1:0.2191803 2:0.5625 3:21 4:20 #
0.00063557137623540700937380121260389 1:1.2753183 2:0.7368421 3:8 4:23 #
0.00063557137623540700937380121260389 1:-1.3326131 2:0.51724136 3:20 4:23 #
0.00063557137623540700937380121260389 1:-2.1487246 2:0.66666669 3:13 4:48 #
-0.00063557137623540700937380121260389 1:-0.55389702 2:0.54487181 3:22 4:15 #
-0.00063557137623540700937380121260389 1:-1.0237174 2:0.54223436 3:15 4:92 #
0.00063557137623540700937380121260389 1:-0.88067764 2:0.53125 3:20 4:24 #
-0.00063557137623540700937380121260389 1:-0.4870685 2:0.45505619 3:16 4:90 #
-0.00063557137623540700937380121260389 1:-0.96955681 2:0.6388889 3:20 4:21 #
0.00063557137623540700937380121260389 1:0.47330812 2:0.8125 3:4 4:32 #
0.00063557137623540700937380121260389 1:1.093346 2:0.71428573 3:6 4:21 #
0.00063557137623540700937380121260389 1:0.36276537 2:0.71428573 3:6 4:35 #
-0.00063557137623540700937380121260389 1:0.77743202 2:0.69565219 3:27 4:73 #
0.00063557137623540700937380121260389 1:0.28685427 2:0.75 3:2 4:30 #
0.00063557137623540700937380121260389 1:0.49250072 2:0.7368421 3:3 4:30 #
-0.00063557137623540700937380121260389 1:-1.0390389 2:0.71929824 3:20 4:79 #
0.00063557137623540700937380121260389 1:0.085869655 2:0.73333335 3:2 4:24 #
-0.00063557137623540700937380121260389 1:-1.527732 2:0.56613755 3:19 4:85 #
0.00063557137623540700937380121260389 1:0.63467586 2:0.7647059 3:5 4:27 #
-0.00063557137623540700937380121260389 1:-1.7227033 2:0.44017094 3:16 4:23 #
-0.00063557137623540700937380121260389 1:-0.45098126 2:0.54929578 3:19 4:15 #
-0.00063557137623540700937380121260389 1:-2.1710496 2:0.57959181 3:11 4:17 #
0.00063557137623540700937380121260389 1:0.64457822 2:0.69565219 3:6 4:28 #
0.00063557137623540700937380121260389 1:1.4573727 2:0.69999999 3:9 4:28 #
0.00063557137623540700937380121260389 1:1.44719 2:0.72222221 3:10 4:23 #
0.00063557137623540700937380121260389 1:0.44815075 2:0.77777779 3:4 4:29 #
0.00063557137623540700937380121260389 1:-0.055067923 2:0.77272725 3:1 4:27 #
-0.00063557137623540700937380121260389 1:-0.5419668 2:0.39673913 3:3 4:13 #
-0.00063557137623540700937380121260389 1:1.3907137 2:0.58608061 3:1 4:58 #
-0.00063557137623540700937380121260389 1:2.7284915 2:0.57647061 3:1 4:30 #
0.00063557137623540700937380121260389 1:-1.1779641 2:0.75757575 3:4 4:61 #
-0.00063557137623540700937380121260389 1:2.0742164 2:0.46819338 3:1 4:17 #
0.00063557137623540700937380121260389 1:-1.5231247 2:0.85185188 3:2 4:61 #
0.00063557137623540700937380121260389 1:0.31980756 2:0.86206895 3:5 4:60 #
0.00063557137623540700937380121260389 1:-0.84632367 2:0.7631579 3:3 4:62 #
-0.00063557137623540700937380121260389 1:1.9394546 2:0.58333331 3:1 4:18 #
-0.00063557137623540700937380121260389 1:1.2255284 2:0.57627118 3:7 4:31 #
-0.00063557137623540700937380121260389 1:2.8261836 2:0.50197631 3:1 4:22 #
0.00063557137623540700937380121260389 1:-0.87897366 2:0.92592591 3:3 4:60 #
-0.00063557137623540700937380121260389 1:-0.76139128 2:0.57101446 3:20 4:15 #
-0.00063557137623540700937380121260389 1:-0.15473609 2:0.57397962 3:1 4:63 #
-0.00063557137623540700937380121260389 1:0.60841459 2:0.73750001 3:1 4:59 #
0.00063557137623540700937380121260389 1:-0.30166933 2:0.78378379 3:3 4:62 #
0.00063557137623540700937380121260389 1:0.4957113 2:0.79310346 3:4 4:43 #
0.00063557137623540700937380121260389 1:1.2216784 2:0.65217394 3:7 4:30 #
-0.00063557137623540700937380121260389 1:-3.2033057 2:0.52329749 3:1 4:44 #
0.00063557137623540700937380121260389 1:-1.8041035 2:0.71428573 3:14 4:0 #
-0.00063557137623540700937380121260389 1:1.1468924 2:0.68686867 3:1 4:45 #
-0.00063557137623540700937380121260389 1:1.8784125 2:0.67142856 3:1 4:49 #
-0.00063557137623540700937380121260389 1:2.6837556 2:0.640625 3:6 4:43 #
-0.00063557137623540700937380121260389 1:2.2846022 2:0.77272725 3:6 4:61 #
0.00063557137623540700937380121260389 1:-3.732012 2:0.52941179 3:7 4:19 #
-0.00063557137623540700937380121260389 1:-2.9141018 2:0.56390977 3:1 4:44 #
-0.00063557137623540700937380121260389 1:-1.1543721 2:0.71111113 3:1 4:45 #
0.00063557137623540700937380121260389 1:3.0889013 2:0.61538464 3:17 4:41 #
0.00063557137623540700937380121260389 1:2.1506999 2:0.66666669 3:17 4:40 #
0.00063557137623540700937380121260389 1:-1.0090244 2:0.60000002 3:15 4:0 #
0.00063557137623540700937380121260389 1:-1.9443029 2:0.58333331 3:2 4:15 #
0.00063557137623540700937380121260389 1:0.26916811 2:0.8125 3:3 4:28 #
0.00063557137623540700937380121260389 1:-1.8293076 2:0.69999999 3:10 4:54 #
0.00063557137623540700937380121260389 1:-3.1291838 2:0.63636363 3:13 4:44 #
0.00063557137623540700937380121260389 1:-2.5152702 2:0.74285716 3:10 4:53 #
0.00063557137623540700937380121260389 1:0.62270319 2:0.4375 3:16 4:0 #
0.00063557137623540700937380121260389 1:0.95021033 2:0.66666669 3:7 4:29 #
-0.00063557137623540700937380121260389 1:-0.88626868 2:0.57205242 3:1 4:44 #
0.00063557137623540700937380121260389 1:0.61644852 2:0.71794873 3:9 4:57 #
0.00063557137623540700937380121260389 1:-0.50807881 2:0.5 3:16 4:0 #
-0.00063557137623540700937380121260389 1:-0.78637242 2:0.54679805 3:1 4:44 #
-0.00063557137623540700937380121260389 1:1.4314624 2:0.73333335 3:5 4:44 #
-0.00063557137623540700937380121260389 1:-0.17454162 2:0.55097616 3:1 4:45 #
-0.00063557137623540700937380121260389 1:0.58296782 2:0.75 3:1 4:47 #
0.00063557137623540700937380121260389 1:0.10995993 2:0.85714287 3:4 4:28 #
-0.00063557137623540700937380121260389 1:0.26518869 2:0.80769229 3:1 4:48 #
-0.00063557137623540700937380121260389 1:-2.0908747 2:0.86363637 3:2 4:47 #
-0.00063557137623540700937380121260389 1:-3.2290671 2:0.81481481 3:1 4:48 #
-0.00063557137623540700937380121260389 1:-1.7273946 2:0.51804125 3:2 4:15 #
0.00063557137623540700937380121260389 1:-0.48562318 2:0.8125 3:2 4:28 #
-0.00063557137623540700937380121260389 1:-0.22367373 2:0.88 3:2 4:58 #
0.00063557137623540700937380121260389 1:1.1670634 2:0.5 3:21 4:18 #
-0.00063557137623540700937380121260389 1:-2.9412014 2:0.59482759 3:4 4:13 #
0.00063557137623540700937380121260389 1:-1.0402141 2:0.60000002 3:20 4:0 #
-0.00063557137623540700937380121260389 1:0.36770901 2:0.47301587 3:3 4:14 #
0.00063557137623540700937380121260389 1:0.1301685 2:0.69047618 3:8 4:58 #
0.00063557137623540700937380121260389 1:0.75296926 2:0.44444445 3:18 4:0 #
0.00063557137623540700937380121260389 1:0.92618656 2:0.66666669 3:6 4:21 #
-0.00063557137623540700937380121260389 1:0.35956988 2:0.45974576 3:3 4:14 #
0.00063557137623540700937380121260389 1:-0.095874406 2:0.80000001 3:9 4:57 #
0.00063557137623540700937380121260389 1:0.83255309 2:0.52380955 3:21 4:0 #
-0.00063557137623540700937380121260389 1:-0.47173423 2:0.62376237 3:4 4:14 #
0.00063557137623540700937380121260389 1:0.088912852 2:0.5714286 3:21 4:0 #
-0.00063557137623540700937380121260389 1:0.54252654 2:0.56862748 3:5 4:13 #
0.00063557137623540700937380121260389 1:-0.71799594 2:0.62857145 3:20 4:28 #
0.00063557137623540700937380121260389 1:-0.013330248 2:0.72727275 3:11 4:0 #
0.00063557137623540700937380121260389 1:-0.69797015 2:0.56097561 3:1 4:27 #
-0.00063557137623540700937380121260389 1:-1.4914334 2:0.53303963 3:3 4:14 #
0.00063557137623540700937380121260389 1:0.99064982 2:0.63333333 3:19 4:28 #
-0.00063557137623540700937380121260389 1:0.84941101 2:0.52597404 3:4 4:14 #
0.00063557137623540700937380121260389 1:-0.19672053 2:0.63636363 3:20 4:26 #
0.00063557137623540700937380121260389 1:-0.076792344 2:0.86956519 3:1 4:49 #
0.00063557137623540700937380121260389 1:-3.0075071 2:0.68965518 3:17 4:28 #
0.00063557137623540700937380121260389 1:0.508165 2:0.53846157 3:13 4:0 #
0.00063557137623540700937380121260389 1:0.094959281 2:0.65625 3:21 4:24 #
0.00063557137623540700937380121260389 1:-0.91571814 2:0.66666669 3:21 4:0 #
-0.00063557137623540700937380121260389 1:-1.3883606 2:0.47474748 3:3 4:14 #
-0.00063557137623540700937380121260389 1:2.8510334 2:0.54151624 3:8 4:14 #
0.00063557137623540700937380121260389 1:-1.5951269 2:0.57575756 3:18 4:26 #
0.00063557137623540700937380121260389 1:0.99876207 2:0.72727275 3:11 4:0 #
-0.00063557137623540700937380121260389 1:-3.1863358 2:0.50578034 3:3 4:14 #
0.00063557137623540700937380121260389 1:1.140286 2:0.56097561 3:19 4:26 #
0.00063557137623540700937380121260389 1:1.4893037 2:0.64705884 3:21 4:24 #
0.00063557137623540700937380121260389 1:-3.2696249 2:0.77142859 3:1 4:17 #
-0.00063557137623540700937380121260389 1:-0.65787488 2:0.4326241 3:4 4:13 #
-0.00063557137623540700937380121260389 1:2.6579838 2:0.50865799 3:9 4:13 #
-0.00063557137623540700937380121260389 1:-0.50511986 2:0.53731346 3:4 4:14 #
-0.00063557137623540700937380121260389 1:2.6874347 2:0.5 3:13 4:12 #
-0.00063557137623540700937380121260389 1:-0.12454025 2:0.85185188 3:2 4:58 #
-0.00063557137623540700937380121260389 1:-1.729606 2:0.51111114 3:4 4:13 #
-0.00063557137623540700937380121260389 1:-2.2248485 2:0.66666669 3:4 4:14 #
-0.00063557137623540700937380121260389 1:-0.45603675 2:0.52866244 3:4 4:14 #
-0.00063557137623540700937380121260389 1:-0.81844133 2:0.58878505 3:8 4:12 #
-0.00063557137623540700937380121260389 1:1.1756291 2:0.58823532 3:22 4:11 #
-0.00063557137623540700937380121260389 1:-0.10543626 2:0.57943922 3:6 4:13 #
-0.00063557137623540700937380121260389 1:0.19374798 2:0.49160671 3:5 4:13 #
-0.00063557137623540700937380121260389 1:0.28984484 2:0.47337279 3:5 4:13 #
-0.00063557137623540700937380121260389 1:2.3836832 2:0.54457831 3:10 4:14 #
0.00063557137623540700937380121260389 1:-2.4247649 2:0.5714286 3:15 4:38 #
0.00063557137623540700937380121260389 1:1.7867475 2:0.58333331 3:12 4:0 #
0.00063557137623540700937380121260389 1:0.012994573 2:0.7368421 3:4 4:32 #
0.00063557137623540700937380121260389 1:2.0148852 2:0.68181819 3:22 4:0 #
-0.00063557137623540700937380121260389 1:-2.3529739 2:0.50526315 3:4 4:13 #
-0.00063557137623540700937380121260389 1:-0.14927824 2:0.76923078 3:1 4:49 #
0.00063557137623540700937380121260389 1:0.090693228 2:0.8125 3:2 4:30 #
0.00063557137623540700937380121260389 1:0.43910119 2:0.47058824 3:17 4:0 #
0.00063557137623540700937380121260389 1:-1.3702211 2:0.5625 3:16 4:0 #
-0.00063557137623540700937380121260389 1:-0.17429289 2:0.68292683 3:8 4:14 #
0.00063557137623540700937380121260389 1:0.084651053 2:0.5 3:20 4:0 #
-0.00063557137623540700937380121260389 1:1.4323443 2:0.60982656 3:11 4:13 #
0.00063557137623540700937380121260389 1:0.46830499 2:0.47368422 3:19 4:0 #
-0.00063557137623540700937380121260389 1:-2.2777519 2:0.57276994 3:5 4:13 #
0.00063557137623540700937380121260389 1:0.76476187 2:0.5714286 3:21 4:0 #
0.00063557137623540700937380121260389 1:-0.41219014 2:0.61904764 3:21 4:0 #
-0.00063557137623540700937380121260389 1:-3.2290671 2:0.5175097 3:1 4:34 #
-0.00063557137623540700937380121260389 1:3.0889013 2:0.68085104 3:10 4:49 #
0.00063557137623540700937380121260389 1:-1.4828879 2:0.57894737 3:19 4:0 #
-0.00063557137623540700937380121260389 1:-1.197737 2:0.76923078 3:1 4:48 #
-0.00063557137623540700937380121260389 1:-3.2614579 2:0.53246754 3:1 4:28 #
0.00063557137623540700937380121260389 1:2.2502179 2:0.44444445 3:18 4:0 #
-0.00063557137623540700937380121260389 1:-1.8284857 2:0.43554008 3:4 4:13 #
-0.00063557137623540700937380121260389 1:1.5265861 2:0.58490568 3:1 4:49 #
0.00063557137623540700937380121260389 1:-2.0137453 2:0.66666669 3:18 4:0 #
-0.00063557137623540700937380121260389 1:0.80992872 2:0.47663552 3:15 4:11 #
0.00063557137623540700937380121260389 1:1.5442854 2:0.5714286 3:21 4:0 #
0.00063557137623540700937380121260389 1:-0.1181243 2:0.61904764 3:21 4:0 #
0.00063557137623540700937380121260389 1:-1.3951029 2:0.58823532 3:17 4:0 #
0.00063557137623540700937380121260389 1:1.577278 2:0.5 3:20 4:0 #
-0.00063557137623540700937380121260389 1:1.828951 2:0.55900621 3:9 4:14 #
0.00063557137623540700937380121260389 1:-1.207779 2:0.6111111 3:18 4:0 #
0.00063557137623540700937380121260389 1:1.1034741 2:0.46666667 3:15 4:0 #
-0.00063557137623540700937380121260389 1:0.86348963 2:0.59022558 3:8 4:14 #
0.00063557137623540700937380121260389 1:-0.067902237 2:0.52631581 3:19 4:0 #
0.00063557137623540700937380121260389 1:0.20252268 2:0.61904764 3:21 4:0 #
0.00063557137623540700937380121260389 1:0.012994573 2:0.52631581 3:19 4:0 #
-0.00063557137623540700937380121260389 1:0.28466126 2:0.52790695 3:5 4:14 #
-0.00063557137623540700937380121260389 1:0.04971626 2:0.51890033 3:6 4:13 #
0.00063557137623540700937380121260389 1:-0.24648841 2:0.60000002 3:20 4:0 #
-0.00063557137623540700937380121260389 1:-1.6032045 2:0.39199999 3:4 4:13 #
0.00063557137623540700937380121260389 1:-0.33485752 2:0.64999998 3:20 4:0 #
-0.00063557137623540700937380121260389 1:0.92983437 2:0.47865853 3:7 4:13 #
-0.00063557137623540700937380121260389 1:2.7558141 2:0.46733668 3:24 4:13 #
0.00063557137623540700937380121260389 1:-0.7753855 2:0.5625 3:16 4:0 #
-0.00063557137623540700937380121260389 1:-1.7364496 2:0.51405621 3:5 4:13 #
0.00063557137623540700937380121260389 1:-0.64938653 2:0.5714286 3:14 4:0 #
-0.00063557137623540700937380121260389 1:-1.2597558 2:0.57988167 3:8 4:12 #
-0.00063557137623540700937380121260389 1:0.54252654 2:0.49636805 3:29 4:34 #
-0.00063557137623540700937380121260389 1:-1.4995025 2:0.52777779 3:4 4:14 #
0.00063557137623540700937380121260389 1:-0.33558166 2:0.5714286 3:14 4:0 #
0.00063557137623540700937380121260389 1:-0.37458232 2:0.57894737 3:19 4:0 #
0.00063557137623540700937380121260389 1:0.38453737 2:0.72727275 3:11 4:0 #
0.00063557137623540700937380121260389 1:0.69714969 2:0.66666669 3:21 4:0 #
0.00063557137623540700937380121260389 1:-1.0840743 2:0.64285713 3:14 4:0 #
0.00063557137623540700937380121260389 1:0.7022056 2:0.55000001 3:20 4:0 #
-0.00063557137623540700937380121260389 1:1.0304483 2:0.54811716 3:2 4:15 #
0.00063557137623540700937380121260389 1:-2.46296 2:0.8214286 3:2 4:56 #
